1394533 100
one 0.07104922 0.01671245 -0.15044343 0.029569963 0.072887294 -0.049877282 0.08573002 0.057346568 0.20369361 0.14652984 0.0006582255 -0.034651253 0.013186356 -0.09262268 0.08667966 -0.32868868 -0.14234051 -0.06676471 -0.14732467 0.005250639 0.010059949 0.02587207 -0.068409435 0.08980178 -0.08065733 -0.029643623 -0.030354347 0.11157019 -0.14622243 -0.09370018 0.0176665 0.063569374 0.14994682 0.08171442 0.019125512 0.0035439923 -0.16889071 0.041642994 -0.1933182 -0.25158644 -0.027684253 -0.08223345 -0.112884104 -0.13552566 -0.100080766 -0.026546547 -0.09004736 0.24925539 0.058266588 -0.12059565 0.009693362 -0.11451601 -0.045727253 0.117849685 -0.24896282 0.07408423 -0.08395669 0.15299748 -0.052277874 -0.0063311425 -0.007901749 0.059058644 0.055433016 -0.030237943 -0.021913763 0.040151782 0.041439686 0.08744965 0.09076131 -0.10026139 -0.13317473 0.026310952 0.16115755 -0.038199034 -0.034721557 0.07495901 -0.021412496 0.04481464 -0.031847194 -0.013384475 -0.022941463 -0.019547211 0.020785192 -0.056950804 0.21299942 -0.037725914 0.028963687 0.03331082 -0.108857416 0.0071136965 -0.060165957 0.01175684 -0.032343972 0.02115873 0.19052194 -0.123583786 0.006083418 0.042002037 0.031138645 0.051887237
time 0.06047079 0.023247767 -0.056259595 0.018670242 0.0074166437 0.03070082 0.0707238 0.13413917 0.05254015 0.10958216 -0.08226792 -0.1287063 -0.028646166 -0.07917494 0.030083187 -0.19744004 -0.23048228 -0.13435175 -0.17234336 -0.044465274 -0.023858245 0.095592186 0.009842506 0.09180738 0.01829297 -0.06438026 0.025848638 0.04221374 -0.12733796 -0.112927325 0.08526938 0.07892881 0.22217591 0.19262207 -0.112325974 -0.028367048 -0.16529828 -0.0144117335 -0.15491968 -0.20681234 -0.063874595 -0.01709591 -0.048015352 -0.14482659 -0.031033257 0.020727105 -0.15093209 0.23211592 0.03437708 -0.08719047 -0.052157387 -0.016818024 0.03942653 0.05813895 -0.23843627 0.043637387 -0.0912382 0.065591976 -0.04672226 -0.06912339 0.042402223 0.042785447 -0.042608883 -0.013318007 -0.04009738 0.079191335 -0.030383268 0.10055152 -0.013560727 0.015333869 -0.25804833 0.03928221 0.2502087 -0.08141362 -0.03492877 0.07267634 -0.07922144 0.0298463 -0.0805342 -0.0035006877 -0.03658457 -0.07877822 0.002843368 -0.082453504 0.09201153 -0.17262268 0.06744505 0.06891565 -0.048956934 0.022425467 -0.056319196 -0.07550376 -0.05730783 0.0031131878 0.12521164 -0.16872436 -0.035613697 0.06722822 0.084988624 0.03398217
people 0.09692961 -0.16817096 -0.23011035 0.13544673 -0.0068996954 -0.077766605 0.024420733 0.010691351 0.09020433 0.018375369 0.0023920375 0.019385127 -0.051354527 0.052992817 -0.012488518 -0.20504089 -0.07626346 -0.09563555 -0.09930938 -0.031322043 -0.025191616 0.049245257 0.09935991 0.056237407 -0.021802623 -0.12593065 -0.016877033 0.012448457 -0.23005688 -0.22230703 -0.13642018 0.019046871 0.027004102 0.069756724 0.027514908 0.043782715 -0.21093415 0.056474227 0.026239546 -0.037468474 -0.13036461 0.01109459 -0.11990722 -0.06264845 -0.06020078 -0.1274069 -0.016780665 0.1287583 -0.09494219 -0.13416871 0.15189062 -0.039774038 -0.016073769 0.23210347 -0.19261052 0.045922868 -0.09430058 0.12146877 0.18983707 -0.163793 0.03165593 0.019744415 -0.06936105 -0.04885283 0.059216887 0.08044683 0.034930192 -0.031553645 0.0032390875 0.04117262 -0.019430319 0.12632701 0.12751569 -0.05883245 0.09182421 -0.059764333 -0.025010584 -0.031213464 0.049801752 -0.026004856 -0.057311986 0.0008460774 -0.022346824 -0.35782057 0.025792807 -0.15066917 0.06285364 0.057061143 -0.021011192 -0.054636206 -0.04375516 -0.06499046 0.07113328 0.035361473 0.0964907 0.075539514 -0.03965361 -0.0070940387 -0.12570584 0.003119671
information 0.061318103 -0.11233762 -0.0013331593 0.103237614 -0.011418831 0.070576124 -0.14004944 0.041833114 -0.09998193 -0.09208682 -0.2425211 -0.06344565 -0.22538929 0.10321127 -0.08924319 0.14265764 0.052361194 0.03933498 0.16792057 0.04366578 -0.0680324 -0.021262312 0.09197351 -0.09951594 0.06111264 0.015973527 0.06900543 -0.08294436 -0.19193648 -0.01426233 0.086803384 0.13421597 -0.011588793 -0.013506343 0.024899503 -0.05113268 0.09894697 0.014972516 -0.031887736 0.073718004 -0.19315064 0.09171491 -0.1284879 0.083679825 -0.1901393 -0.09638616 -0.10788415 0.0011526869 -0.076682866 -0.108384416 -0.01145286 -0.0097592715 0.08340672 0.14340758 -0.02304649 0.06711705 -0.11719016 0.19889258 0.07887091 -0.032926563 -0.10527655 -0.09950245 -0.105378956 -0.016960608 -0.05641658 -0.015377356 -0.20182316 -0.07259062 0.082872614 0.12560867 -0.009988701 0.015800623 -0.013612525 -0.032300245 -0.054386914 0.03385318 -0.09783656 0.038142465 0.0134461345 0.019332556 -0.09895746 0.082581595 -0.0047691753 0.09607488 -0.18633102 0.09211234 -0.08839973 0.060960338 0.034714617 0.07243624 0.08469491 0.18516158 0.21664645 0.026975371 -0.18084596 0.1551286 0.05079713 -0.025168888 -0.085582055 0.12966023
work 0.15801024 -0.113554575 -0.14016396 -0.0033335055 0.104015425 0.14442343 -0.10222811 -0.05997496 0.089822225 -0.11342203 -0.050735053 0.01238462 -0.25892937 0.025709197 -0.05081533 -0.12297586 -0.0092772925 -0.13513634 -0.007653896 -0.12011674 -0.0442526 0.12886955 0.025114616 -0.0105755525 0.053902898 -0.025683785 0.08963803 0.078650676 -0.2686424 -0.22838125 -0.08072115 0.014058248 0.16088863 -0.08205244 -0.08031812 -0.083828 -0.089317314 0.046550594 -0.056574434 -0.005316359 -0.07872177 0.06749995 -0.102275185 -0.14241862 -0.14788356 -0.048902333 -0.081518225 0.22744204 -0.14786118 -0.08809795 -0.14742772 -0.035908274 0.022675125 0.20507692 -0.17549941 0.100400224 -0.0461046 0.18540506 -0.024880541 0.023955204 -0.1795314 -0.0059206206 -0.022354985 0.027805885 0.022841627 -0.07481992 -0.122722305 -0.017427947 0.014203385 -0.011378207 -0.108531214 0.05865902 0.0042698123 -0.056394517 0.08096072 -0.06584164 -0.043420114 0.13030489 -0.07527289 -0.01665793 -0.19778748 0.07132259 -0.06281944 -0.0970029 -0.0476867 -0.11073278 0.11345049 0.075705424 -0.046406418 -0.053044815 0.018448379 0.037102636 0.0036503426 -0.023368951 0.08124469 0.048909165 0.032016683 -0.09775054 0.003119964 -0.048194934
use 0.060593817 -0.15887067 -0.0461787 -0.01771265 -0.12108958 0.13258973 -0.002680471 -0.010877147 0.12027165 -0.003986906 -0.10980438 -0.056632362 -0.1918648 -0.0067551867 0.17516838 -0.030075988 -0.01815285 -0.080087386 -0.069130115 0.004342598 0.04910171 -0.03911341 0.018615948 0.012706746 -0.07790848 0.018034048 -0.053076018 0.15391466 -0.13059673 -0.2385236 0.15009499 0.12525564 -0.0030569886 0.010364999 0.05711398 -0.15198734 -0.058192965 -0.03558288 -0.18535535 -0.13517228 -0.19920455 -0.12299355 -0.066520385 0.00026659973 -0.08690181 -0.13682784 -0.21393651 0.11551037 0.023822166 -0.08689289 -0.09844332 -0.15073292 0.019338915 0.0141706625 -0.04831037 0.110519975 -0.039181933 0.19216971 -0.057491563 -0.047414944 -0.116409875 -0.1332466 0.044079237 0.042698815 -0.0649079 0.08425548 -0.20733237 0.07489355 0.042045403 0.017529616 -0.017984563 0.011072675 0.007021542 -0.12365954 -0.16938134 0.12684393 -0.17414635 0.13154887 0.029107109 0.04501196 -0.03968273 0.06878232 0.11486591 0.03508284 -0.04739194 0.07027397 -0.14746803 0.0541612 -0.045851167 0.002370853 0.020020446 0.11848102 0.009396822 -0.012328533 0.062757134 0.0011819369 0.006948642 -0.21120049 -0.08650067 0.124050364
year 0.005739913 -0.027786503 -0.075489655 0.0626165 0.18162821 -0.07716513 0.040292077 0.1659248 0.07891821 0.041181397 0.029464908 -0.089089066 -0.104065694 -0.1175784 0.093207024 -0.17765662 -0.23312286 -0.037704743 -0.10463644 0.012628496 0.03123887 0.16872905 -0.08618279 0.060038622 0.07692192 0.12362861 0.12589689 -0.0713505 -0.223676 -0.05489375 0.046318732 0.02067601 0.043575846 0.041636538 -1.5773498e-05 0.06689493 -0.1399455 0.10067755 0.051813584 -0.02938161 0.06339419 0.09663229 -0.06956416 -0.10166056 -0.051587652 -0.029797593 0.11651673 0.17914864 -0.10694124 -0.10213121 -0.09185505 -0.14522696 0.062219415 0.12223237 -0.1787483 -0.0040624817 -0.07937836 0.05304593 0.052440155 -0.092127234 -0.024582913 0.057145804 -0.101285696 0.03668608 0.08348638 -0.06356332 0.004546415 0.10510742 0.010101342 -0.038412973 -0.23028445 0.035140764 0.19336772 -0.08641418 0.06163329 -0.04816882 0.14813976 -0.04582977 -0.19695394 0.049661387 -0.113272116 0.0023527124 -0.06025006 0.01703618 0.092340864 -0.15633616 0.11782993 0.040681046 0.0012221193 0.059160274 -0.09509091 0.039943974 0.10403192 0.08398216 0.11774267 -0.007958115 0.0033087842 0.0064377277 0.21963996 -0.15460688
being 0.0424224 0.08507929 -0.15694807 0.0295675 -0.09215424 -0.16327356 -0.012457216 -0.05418203 0.051046114 -0.05705304 -0.010350611 0.060486272 0.10788233 -0.1065072 -0.09595989 -0.15716186 -0.040933833 0.022496331 -0.01645011 -0.106452234 -0.042820908 -0.014906187 -0.050602216 0.024452452 -0.22978698 -0.21405834 -0.15836915 0.092062496 -0.123019174 -0.12472434 0.070181005 0.11274031 0.031311877 0.051124122 -0.10847905 -0.15779017 -0.22715388 -0.092037596 -0.19778727 -0.12232614 0.05030019 0.012304854 -0.094022535 0.02003459 -0.2047286 0.051442724 -0.12556598 0.063149795 0.013447383 -0.19299047 -0.023424083 -0.10000904 -0.04961893 0.17397897 -0.06887344 -0.017505087 0.022318259 0.102013335 -0.07951567 0.049333826 0.048570305 -0.006226919 0.04287096 -0.13228591 -0.07251167 0.13108845 0.11102332 -0.042114496 -0.03533195 -0.082674704 0.0730098 0.14898422 0.10686462 0.0028334297 -0.11032554 0.12524721 0.017852223 -0.11842021 0.05872106 -0.12298733 0.0021358232 -0.1619725 0.04643394 -0.15324433 0.16176929 -0.053885035 -0.04884086 7.51512e-05 -0.11278782 -0.05086919 0.08220322 -0.068299286 -0.02030925 -0.16081847 0.06486814 -0.061558597 0.0033805387 0.017391847 0.10393166 0.05979951
back -0.03512823 -0.019979406 -0.042394865 0.0720407 0.1520039 0.032209113 0.07354899 0.09808724 0.02801785 0.2128662 -0.048490565 0.006576259 0.02369224 -0.020968052 -0.10668262 -0.20995824 -0.3223818 -0.057750806 -0.15082523 0.05928674 0.01271047 0.034864407 0.004695628 0.08495244 0.09496292 0.050050605 0.055585776 0.010248221 -0.007916928 -0.017008841 0.03428813 -0.08308175 0.16231787 0.059194893 0.009093021 0.079908855 -0.0968596 0.16061102 -0.0099981055 -0.09518896 -0.043076184 -0.13830821 -0.14255475 -0.13301218 0.10389223 0.043477524 -0.096382834 0.21145488 0.08409462 0.0028354942 0.06178212 0.021894746 -0.025196195 -0.08930595 -0.21352261 0.061308257 -0.0942138 -0.16428004 -0.09913395 -0.07523285 0.08953367 0.008422377 0.0060586887 -0.19676837 0.061211567 -0.11158555 0.1205112 0.036158346 0.050503608 0.098747775 -0.1537063 -0.083061315 0.057392962 -0.013737684 0.08631722 0.19640698 0.041683853 0.0670135 -0.09344294 0.02476418 0.12341056 -0.10364499 -0.018251235 -0.0019722611 0.095703304 -0.03518406 0.038714595 0.050931547 -0.036699504 -0.003382036 -0.038409956 -0.06450777 -0.097958796 0.18700187 -0.016108565 -0.15447047 0.09731505 -0.017939404 0.0019901728 0.2046214
way 0.018327804 -0.06907984 -0.15377352 0.006542854 -0.06601506 0.06123836 0.009864082 -0.13654786 0.10297063 0.046749663 0.004493983 0.055504862 -0.034455445 0.0092640985 -0.046596576 -0.22352655 -0.10779299 -0.09200074 -0.1019624 -0.07968263 -0.007819127 0.013611684 -0.0380509 0.028232096 -0.07279151 -0.11088876 0.0031718935 0.19448403 -0.16172513 -0.19002494 -0.020310814 0.08988425 0.13043009 0.026237803 -0.042628314 -0.09685565 -0.16472685 0.016215337 -0.21489531 -0.18483718 -0.14929682 -0.08253515 -0.11036564 -0.1419053 -0.096002735 0.00077556516 -0.22449675 0.20211321 0.07898495 -0.0889971 0.04616493 0.01942801 -0.026019756 0.13183835 -0.24909724 0.17085509 -0.060988452 0.1377688 0.015084511 -0.09921349 -0.012920239 0.045390733 -0.010326684 -0.111516364 -0.01315387 0.031843428 0.027032513 0.017458174 0.045198657 -0.06041374 -0.08599055 0.16180877 0.08630417 -0.092655644 -0.022358585 0.12539034 -0.089291096 0.13071738 0.12783107 -0.09898374 -0.024555832 0.040780455 -0.018370483 -0.20401363 0.07250037 -0.015660752 0.058847327 0.103079304 -0.039473116 -0.04955842 0.013129058 -0.039641738 -0.049145732 0.036264624 0.15035889 -0.03646834 -0.006356834 0.026632564 -0.104201086 0.060990743
day -0.016647419 0.076110125 -0.06947059 -0.0059556095 0.06704035 -0.014461322 -0.013761785 0.2060119 0.03317429 0.19335666 -0.09143012 -0.0643883 0.05262069 -0.0766708 0.056372233 -0.04907909 -0.1976751 -0.07587187 -0.20719473 0.015976792 0.0107676 0.049865454 0.0712663 0.12009361 0.058078557 -0.006053994 -0.003747083 -0.0340691 -0.17076515 0.029025689 -0.022739355 -0.07186744 0.1359726 0.19865687 -0.1287247 0.0896505 -0.1357955 0.038047843 0.024160957 -0.13465637 0.0064018206 -0.054560207 -0.037528057 -0.05934368 0.012720934 0.035933293 0.019398348 0.12509938 -0.012864129 -0.05112082 0.035224278 -0.077527545 0.042195834 0.10266851 -0.18011636 -0.039779883 -0.13185401 -0.07166165 -0.011994334 -0.118877105 0.09262949 0.040062673 -0.17873988 0.03273171 0.017552774 0.019912971 0.13323796 0.06915883 0.0350035 0.0503481 -0.2701609 -0.044602584 0.335037 -0.06470401 0.053738326 -0.016493171 -0.04830829 -0.11792021 -0.2130287 0.008497834 -0.022646474 -0.05621289 0.013965648 0.071647026 0.06491352 -0.1835235 -0.0146285705 0.1282681 0.056985036 0.08388395 -0.009435365 -0.14151639 -0.028813835 0.037173536 0.04657056 -0.15337187 -0.04037143 0.08219364 0.122535534 0.120903544
world -0.050255563 0.004752149 -0.19424225 0.008074246 0.020832868 0.00053221034 0.113141544 -0.13102746 0.14375411 -0.08849532 -0.019283565 -0.0075132633 0.03368434 0.0042316355 0.082047395 -0.11154016 -0.19241256 -0.047096085 0.0014028716 0.0060767834 -0.05653241 -0.006591785 -0.16068634 -0.06444779 0.021550227 -0.06703497 -0.1762898 -0.01006506 -0.11260895 0.032430075 -0.020100221 -0.003705581 0.0065326756 0.0875387 0.112959854 -0.049713936 -0.10227481 0.18960011 -0.3137382 -0.052991148 0.033086322 0.0032133858 -0.1286755 -0.045408122 -0.11302596 0.02154366 0.04001817 0.10168359 -0.09419095 0.04109291 0.07396889 -0.0563126 -0.095442586 0.14706038 -0.084940925 0.2129748 -0.046155218 -0.0017900186 0.19268104 -0.030816738 0.02444974 0.08591531 -0.02380185 -0.009500682 0.17139982 -0.013342323 0.06406311 -0.050183665 0.074282825 -0.18063106 0.117896765 0.057836898 0.14439884 -0.17688309 0.069280535 -0.04572957 0.07704671 0.045495298 -0.03198282 -0.1031811 -0.15174292 0.0071660043 -0.047593605 -0.11268955 0.2361648 -0.12174597 -0.0771004 -0.009702731 -0.10734479 -0.03236772 -0.18720578 0.05237479 0.1695035 -0.0016687542 0.10683153 0.03762017 -0.009715954 0.11300496 0.017240921 -0.018490747
research 0.08401823 -0.05998905 -0.06737106 -0.012546474 0.08000503 0.053720027 -0.058064096 -0.03316057 0.0032358074 -0.23263651 -0.06064001 0.0413895 -0.21430494 -0.01957321 -0.060032256 0.008842991 0.065847576 0.033179775 0.052355107 -0.1172618 -0.0617061 0.0596019 -0.01767587 -0.13468449 0.13977382 -0.052442074 0.073406085 -0.032371093 -0.11744605 -0.06881677 0.03216174 0.13265875 -0.04854211 -0.13648519 -0.0025523459 0.01091214 0.11771855 0.08347466 0.0088235745 0.22024095 -0.053557716 0.15973751 -0.050061185 0.08507908 -0.06830748 -0.048182126 -0.027461922 -0.011196377 -0.13332592 0.08036876 -0.18190525 -0.04664615 0.011165015 0.09814928 0.013304949 0.03207563 -0.052717403 0.23083146 0.1575285 -0.063752055 -0.14045833 -0.1308169 -0.033491127 -0.08920698 -0.019722158 -0.013498529 -0.20765182 -0.041719142 0.08836312 -0.09238597 0.09665708 0.05715877 -0.09434171 -0.06483899 0.021769743 -0.0750487 0.15034509 0.020576688 -0.045883477 -0.04605272 -0.1258854 0.12623937 -0.087587886 -0.0022972883 -0.21219417 0.10710572 0.01966601 0.11318495 0.08096198 -0.03798338 -0.015312581 0.18913972 0.27952212 0.02723678 0.059048254 0.1402844 0.0054821325 -0.06615992 0.12774362 -0.1145914
service 0.05302513 -0.19851407 0.05185732 0.006552028 0.07128913 0.015129134 -0.17120959 0.04857993 0.120016724 -0.02421356 -0.15252244 -0.033125557 -0.19825043 0.13915874 -0.1270824 0.0402246 -0.032657877 -0.023681806 0.08529561 -0.0033965912 -0.16700818 0.04685406 0.12763716 0.025316218 0.0048625967 0.042898804 0.077213384 -0.10310526 -0.1889372 -0.19284679 0.016018838 0.062214002 -0.033323366 0.077565946 0.04882905 -0.06824458 0.06774714 0.052242603 0.11096586 0.023961961 -0.09762713 0.098287076 -0.14070183 -0.06507965 -0.13848703 0.0062127076 -0.07219478 0.10151099 -0.1387474 -0.2983986 -0.04732735 -0.014805483 0.14486337 0.2286792 -0.061731458 -0.008657289 -0.054276094 0.15368085 0.19855888 -0.021718206 -0.039296564 -0.025390845 -0.10353173 0.12574284 0.036586646 -0.07705486 -0.18905756 -0.006981282 -0.03494818 -0.013296701 0.035424653 -0.01710366 0.105055116 -0.090141706 0.0034978474 0.10289613 -0.25127304 0.05817222 -0.041297417 0.08367661 -0.14936922 0.07022724 -0.01717445 0.029789643 -0.13827802 -0.0016739529 -0.05001283 0.10464001 0.03624397 0.0024971103 0.09710474 0.03304498 0.08099337 0.026307745 -0.13180844 0.07433456 -0.017793944 0.013772807 -0.030512633 0.0030977195
part 0.028926145 -0.109935515 -0.05412096 -0.06199991 0.023282679 0.009675559 -0.10937156 0.08153868 0.15448244 -0.006046432 -0.030768376 -0.022733679 -0.17613278 -0.020992942 0.044091735 -0.15998417 -0.11964821 -0.123752296 0.0060628233 -0.073043205 -0.0055294987 -0.012851113 -0.15548998 -0.02443696 0.042034965 -0.05675657 0.01710161 0.15840732 -0.3160101 -0.11872333 0.063713565 0.04848778 0.050247304 0.05895978 -0.060632665 -0.047405273 -0.15474935 0.040017907 -0.014458259 -0.14761217 0.017450226 -0.050090447 -0.19304074 -0.051511936 -0.22815645 -0.057276662 -0.09726152 0.098727785 -0.04778923 -0.25837064 -0.12651151 -0.13219662 0.015607733 0.1950309 -0.10043484 0.14948565 -0.072036885 0.16420913 -0.045775324 -0.0055080256 -0.106707156 -0.03207862 0.01386784 -0.044614095 0.05521816 -0.07902289 -0.07206173 -0.020309849 0.03371795 -0.07048732 -0.07350895 0.10978371 0.06946166 -0.10622467 0.02055063 0.12744309 -0.043309405 0.08456521 -0.18986073 -0.050302662 -0.199081 0.03876332 -0.020575613 -0.0042414893 0.041424397 -0.06132856 -0.014233447 -0.0052529443 -0.023223538 0.07931408 0.06526074 0.10579527 0.13986108 -0.047221623 0.20493157 -0.013824583 0.014803189 -0.10057367 0.066321105 0.0016010653
number 0.040448725 -0.14538272 -0.0064377575 0.065760545 0.06529681 -0.117396004 0.019786038 0.2670629 0.078216836 0.036220226 -0.09249291 -0.14627469 -0.084119685 0.0015805716 0.15766974 -0.20073178 -0.1282276 -0.024046177 0.07625407 0.09752964 -0.07242739 -0.027411643 0.013774699 0.08531643 -0.025124785 0.08303826 0.08093651 0.07138037 -0.19616842 -0.10572351 0.21200834 0.18003884 0.06602902 0.083136134 0.053102892 -0.06504019 -0.083565064 -0.010643269 -0.039068345 -0.14748967 -0.13349244 0.08942625 -0.035465047 0.014141847 -0.09035654 -0.23438457 -0.065848194 0.1319786 -0.016780315 -0.2191036 -0.039232265 -0.14691663 0.07001894 0.12948826 -0.11520027 -0.009973221 -0.17936145 0.12395445 0.008295027 -0.12788579 -0.07949683 -0.105639935 0.06171893 0.1007574 -0.0890261 0.06988891 -0.18999475 0.085921384 -0.041674778 0.006838033 -0.13105646 0.030855097 0.0920833 -0.101134785 0.0031667568 0.006108774 -0.069304496 0.06440405 0.060651 0.039802186 -0.04166936 0.034866344 0.0361506 0.08125154 -0.026138661 0.05434838 0.029395048 0.011333684 -0.084220245 0.13352668 -0.06907145 0.13188913 0.13287894 0.026178477 -0.07300516 -0.10553946 -0.030200645 -0.0292281 0.0870356 -0.053883217
support 0.09220394 -0.25395122 -0.07073052 0.035414938 0.09569269 -0.038671084 -0.14914958 0.04226881 0.090828076 -0.109256305 -0.051551066 -0.023674894 -0.2599937 0.062457226 -0.031169023 -0.023681492 -0.034891617 -0.11877312 0.044969138 -0.10782086 -0.042950716 0.07033304 0.018852515 0.022185374 0.113034986 -0.06310138 0.073152445 -0.10249984 -0.29833186 -0.23702516 0.039805625 0.13359973 -0.014808008 -0.083129965 0.06499019 -0.07493853 0.07756074 0.059253477 0.06064778 0.09015017 -0.07088852 -0.02543267 -0.1613296 -0.062052116 -0.11565872 -0.10455963 -0.091117285 0.08391158 -0.08527465 -0.16836725 -0.07221705 -0.039376765 0.063718304 0.17703608 -0.06229775 0.03033702 -0.08919895 0.20681782 0.15368944 -0.09598741 -0.09510285 -0.018859025 -0.106556825 -0.04221064 0.04107948 -0.08142607 -0.13569272 -0.05792644 0.007005321 -0.06933136 0.048729245 -0.0060573835 -0.013812719 -0.08706573 0.0679018 -0.040154878 -0.11101816 0.13233867 0.054565847 0.0752955 -0.22609037 0.103358075 -0.04244554 -0.11226493 -0.083968155 -0.106657214 0.02057607 0.12512054 0.009884171 0.04824795 0.032782447 0.013199444 0.06488552 0.084572986 -0.04774679 0.09984741 -0.042802744 -0.12225598 -0.09473932 -0.0034041759
help 0.15481435 -0.2348507 -0.17112415 0.050094575 -0.003804209 0.1093233 -0.105029725 -0.043566868 0.0071305744 -0.044154294 -0.09816619 -0.058463626 -0.24595647 0.105412014 -0.065784864 0.029987596 -0.097565204 -0.079953246 -0.14333323 -0.09726605 -0.017312277 0.10013279 0.12289911 0.060546685 0.013705831 -0.023341754 -0.019293861 -0.045517225 -0.26416454 -0.246165 -0.044401687 0.11325445 0.02361478 -0.026332546 0.007982212 -0.015552575 -0.008142068 0.16112402 -0.009546787 0.040666178 -0.22647224 0.010109699 -0.21522722 -0.1255527 -0.10161841 -0.07355998 -0.14546052 0.1962564 -0.08186965 -0.07313502 0.046166427 0.0434573 0.04062269 0.12896518 -0.14267002 0.095993064 -0.09461626 0.12258119 0.06975259 -0.14665097 0.0017231825 0.038843334 -0.059269063 -0.08711649 0.03048791 -0.023295796 0.014687266 -0.027811851 0.034705043 0.07980061 -0.08581703 -0.0044182306 0.113552675 -0.086696036 0.010140837 -0.012720234 -0.03147369 0.025909897 0.14609158 0.031678967 -0.10652742 0.07469668 -0.032726914 -0.17750378 -0.029969987 -0.04052438 0.069079526 0.12517403 -0.014719211 -0.1203727 -0.01129131 -0.057897903 0.017780734 0.10939559 -0.021665351 0.07478348 -0.0022517815 -0.12547572 -0.09653571 0.087396234
development -0.028079871 -0.19772176 -0.03665205 -0.061028164 0.101175584 0.04221223 -0.14015466 -0.09913786 0.03156257 -0.19629104 0.023044962 0.059538834 -0.24598238 0.08670357 -0.035566904 0.06365562 0.00720428 -0.027312646 0.076311894 -0.07601391 -0.095903434 0.10146021 -0.07069586 -0.10960318 0.0820718 -0.028879894 0.19596125 0.0038488016 -0.2425473 -0.09470559 0.058626223 0.055020463 -0.006101142 -0.09270464 -0.0076072286 -0.119093835 0.051493827 0.06611995 0.07797572 0.12297548 -0.009241561 0.05117236 -0.076829106 0.011329512 -0.15302478 -0.06725494 -0.105452724 -0.06536823 -0.12277689 -0.13564809 -0.14332569 -0.04870366 0.02462497 0.21013053 0.04084636 0.15910727 -0.051272273 0.15450972 0.12716255 -0.07390025 -0.1669184 -0.044830084 -0.056938443 -0.0555333 0.08160848 -0.10769957 -0.19161807 0.005041935 0.026660841 -0.12074794 0.0953311 0.079738185 -0.06162588 -0.13430402 0.08353941 -0.03021725 0.0026418006 0.13824666 0.052354928 0.0077494825 -0.17252465 0.099533655 -0.19318543 -0.0143504 -0.12281432 0.011185267 -0.009148261 0.10186592 0.08060408 -0.033093337 -0.01615423 0.085238665 0.14405917 -0.047925647 0.07827204 0.09259087 0.0048361635 -0.10257873 0.06689623 -0.06075163
group 0.08230346 -0.19362195 -0.055136036 -0.0011313536 0.12506713 -0.13160944 -0.04226341 0.092061855 0.086213104 -0.07509663 0.021451747 0.02875751 -0.120575294 0.0445039 0.01800055 -0.14141794 0.06373068 -0.029874275 0.012463403 -0.09322521 0.024171561 0.075634554 0.094299346 0.04009145 0.12875728 0.0010933185 0.07538655 0.086284876 -0.25354624 -0.15621457 0.026165059 0.07425447 0.08168435 -0.08875238 -0.011289726 0.06520856 0.082789995 0.123400874 0.040498648 0.0058499 0.026586156 0.009580571 -0.18157054 -0.0064181006 -0.1842693 -0.16708525 -0.008529542 -0.024543462 -0.018823447 -0.16334397 -0.047253076 -0.14006916 0.03245246 0.1723373 -0.032439526 0.027992487 -0.1122299 0.12317287 0.11502141 -0.18852094 -0.09896893 -0.045136232 -0.07582107 -0.05812859 0.03662143 -0.019750942 -0.21090291 -0.15523428 0.15643285 -0.09032724 0.04011873 -0.015643544 0.066517524 -0.09679376 0.16750567 -0.021627408 0.07744778 0.15519564 -0.05798815 0.013560848 -0.20331582 0.102828 -0.1305916 0.047819797 -0.11272491 -0.112407975 0.11334466 0.16925977 0.04023164 0.05269682 -0.003547803 0.18019126 0.15471412 -0.026598452 -0.0047359467 0.016902339 -0.014038561 -0.014242487 -0.028970025 -0.05615418
business -0.030798212 -0.1719526 0.03805171 -0.0016943566 0.108994775 0.051581584 -0.027731158 -0.17876975 0.009008781 -0.1590904 -0.010994413 0.009167782 -0.26422718 0.2228025 -0.06657011 0.031165347 -0.076706655 0.019225936 0.06479019 0.078468926 -0.0837187 0.07369503 0.035501786 -0.05049406 -0.04781494 0.19907632 0.036307365 -0.13952065 -0.19869037 -0.11033722 -1.0345445e-05 0.15133053 0.09450143 0.018627027 0.09505603 -0.010537622 0.0985853 0.10722768 -0.011833782 0.012915032 0.023727097 0.08443412 -0.028395865 -0.111423776 -0.12523356 -0.035195693 0.044932615 0.12526733 -0.13416445 -0.23793054 0.04652112 -0.010586427 0.11959599 0.1512306 0.016169868 0.04751094 -0.051043637 0.09408275 0.12046877 -0.15806957 -0.03780318 0.0804778 -0.06069052 0.020916611 0.03714618 -0.107287064 -0.19283126 -0.028862616 -0.0026041986 -0.05462623 0.009488247 0.036592025 0.018568043 -0.09424877 -0.04924528 0.050780486 -0.106748715 0.061828934 0.062556356 0.13242081 -0.18239217 0.08410729 -0.13309702 0.14717208 -0.12242311 -0.05672939 0.13879813 0.095249355 -0.008609712 -0.14857017 0.115278624 -0.06438851 0.10836195 -0.0020765376 0.024533862 0.16756925 0.006465261 0.09627348 0.05774627 -0.00014546842
home 0.09951584 -0.13005845 -0.10476616 0.08899867 0.1686488 -0.006749548 -0.03439015 0.092258185 -9.009592e-05 0.11212841 -0.024302347 0.05236041 -0.12809888 0.16351664 0.007546765 0.04108126 -0.16069219 -0.06584847 -0.13224132 0.12622178 -0.14149864 0.10408504 -0.019508123 0.06172261 -0.026544774 0.09597939 0.029526798 -0.05169004 -0.11325455 -0.18651447 0.067790754 -0.090101965 0.021266546 0.101821974 0.091095366 0.06477553 -0.04004458 0.13041468 0.20034 0.034371603 -0.02904819 -0.10824586 -0.14595842 -0.09720101 0.06644128 0.01598831 -0.0043921294 0.10043172 -0.14720432 -0.20001806 0.028053513 0.15627146 0.0015348238 0.1130162 -0.15027916 0.057248514 -0.10355948 0.08061638 0.076201 -0.11875446 0.07818848 0.048315674 -0.060165256 0.028163861 0.038111594 -0.049208753 0.06714517 -0.08423735 0.015279008 0.12786105 -0.09600431 -0.039840885 0.21915743 0.009445973 0.11262431 0.17999342 -0.110717066 -0.09380598 -0.17151885 0.08730854 0.026519453 0.0278358 0.023482656 -0.030227989 0.16968004 0.0023094076 -0.02196616 0.015882771 -0.04269322 -0.15775342 0.0018036754 0.043056957 0.12871629 0.19212717 -0.04431388 0.10514089 0.120090745 0.093635716 -0.033886127 0.14144024
set 0.03512369 -0.014978363 -0.03996112 -0.0585949 0.17098999 -0.080617554 -0.023686081 0.051372204 0.17349508 -0.0262085 -0.05249203 -0.009046818 -0.10382498 -0.0075741457 0.09034169 -0.13694502 -0.231233 -0.06591523 -0.039749347 0.037470855 -0.0016961623 -0.015725909 -0.066266306 0.032191828 -0.07733537 -0.020097012 0.027840842 0.19601512 -0.21919541 -0.1672701 0.19226584 0.012618317 0.120490976 -0.0033388832 0.03517139 -0.102455184 0.0045334967 0.021171663 -0.14441986 -0.15776066 -0.036817823 -0.10414004 -0.048147377 -0.08043088 -0.14471778 -0.11733578 -0.2062167 0.06613954 0.0069117886 -0.18779908 -0.18075587 -0.04718308 -0.009772173 0.06291563 -0.20035623 0.18328997 -0.127365 0.08301995 -0.02132078 -0.06573319 -0.05218638 0.0866368 0.050350014 0.04394754 0.081870705 -0.07267832 -0.06956689 0.103638306 -0.02693456 0.033338632 -0.10213363 0.059678223 0.010151839 -0.08924841 -0.010603178 0.138377 -0.14582074 0.15474801 -0.032771707 0.12278655 -0.089508876 0.085937455 -0.011684502 0.12603278 0.08452992 -0.093200244 -0.004184093 0.030186195 -0.03903647 0.1958398 0.021591537 0.1341782 -0.009354036 0.014885046 0.07863216 -0.14103837 -0.06865079 -0.07874468 -0.0810055 0.09925127
health 0.108200654 -0.11725839 -0.16265999 -0.02121976 0.15880325 0.019278716 -0.10572875 -0.020641614 0.11102891 -0.062155467 -0.11225019 0.11066586 -0.09721688 -0.018147616 -0.11435783 0.10032092 -0.0049338597 -0.008669636 -0.052055277 -0.06591834 -0.059157398 0.04958837 0.111252956 -0.039589036 0.0763667 -0.13614596 0.00055068644 -0.043921128 -0.08009737 -0.10419299 -0.00512356 0.040940568 -0.10571314 -0.05612103 -0.058157977 0.003998988 0.017702797 0.019704433 0.2345017 0.16926697 -0.077605054 0.19684103 -0.103617795 0.034443952 0.027015245 -0.17053875 -0.020297527 -0.06980849 -0.18316068 -0.17521453 -0.034298755 0.011411901 0.08183466 0.2599324 0.00035720388 0.10495409 -0.10049239 0.05151955 0.18975098 -0.09013465 -0.018533098 -0.048874136 -0.124487326 0.0021889152 0.06402315 -0.08470807 -0.15511444 0.030026194 0.017749341 0.16827056 0.14931239 -0.012687045 0.038131423 4.5646906e-05 0.00050764583 0.0034505855 0.012481597 -0.051051777 -0.015278115 -0.07606138 -0.07840639 0.023779461 -0.05299697 -0.14245863 -0.2976426 0.05812422 0.06334297 0.04973164 0.067222126 -0.11308205 0.07092403 0.12462533 0.20364416 -0.040390085 -0.082559414 0.065112635 0.007427672 -0.12809494 -0.015211931 -0.09891303
life 0.13727139 0.015800832 -0.15567553 0.041009244 -0.038262915 -0.03631086 -0.03325197 -0.08168514 0.095394075 -0.06052203 -0.01926835 0.0058698277 -0.06628486 -0.053425334 -0.043973997 -0.056489937 -0.0424854 0.0036255727 -0.1619405 -0.13542718 -0.008791827 0.10529978 -0.12142481 -0.008222883 -0.13415621 -0.16548482 -0.12812372 0.083250165 -0.14788695 -0.10145728 -0.118295714 0.003907267 0.011982036 0.09419877 -0.052406047 -0.0012723404 -0.21082193 0.06548196 -0.14691217 -0.058573976 -0.022919403 0.12048415 -0.14799629 -0.0696976 -0.10796866 -0.04799556 -0.021540033 0.1101995 -0.12560698 -0.050623063 -0.042017065 0.107360065 -0.06971207 0.20366605 -0.21799535 0.087014884 -0.042491324 0.049984656 0.031134883 -0.0064791185 0.12252611 0.034215983 -0.010242405 -0.08309006 0.10122978 0.030588835 0.19395141 -0.1048118 0.009414786 -0.03367215 -0.026553173 0.106962934 0.16292875 -0.059146106 -0.02161211 -0.09595774 0.025156518 -0.037271302 -0.0033637206 -0.19979163 -0.04202206 -0.003859276 -0.023028206 -0.39060074 0.16215283 -0.046664137 0.05204526 0.04094184 -0.020816095 -0.12889537 -0.04072689 -0.07122296 0.07042978 0.00034552626 0.14184831 0.09975026 0.06691591 0.06267952 0.062473837 -0.049899604
public 0.0033526924 -0.09905313 -0.12109883 0.07018283 0.033792175 -0.08720884 -0.013128492 -0.038072728 -0.01101894 0.02678854 -0.1482662 0.06164989 -0.093258746 0.15986888 -0.11358933 -0.087628916 -0.04672969 0.025634645 0.112912335 -0.013376499 -0.13759632 -0.07481261 -0.10329366 -0.0666101 -0.02007559 -0.13018504 0.1391259 0.0012918736 -0.134549 -0.19361869 -0.064957574 0.047203198 -0.06604153 0.041048832 0.026346432 -0.044692896 -0.044862956 -0.09799305 0.03934366 0.050157618 -0.08065115 0.07184274 -0.1040965 0.02675953 -0.03656423 -0.1453534 0.058437742 0.032140713 -0.062352836 -0.16817217 -0.04492493 0.13815144 0.070500515 0.29484916 -0.006457486 0.18625225 -0.034667548 0.19364183 0.19482648 -0.17399834 -0.11827708 0.07656197 -0.04938166 0.04300497 0.07282977 -0.068368636 -0.1959375 -0.016970994 -0.042182986 0.02931188 0.12825258 0.12569617 -0.014847237 -0.05051878 0.075918205 0.13075371 -0.11412671 0.09628921 -0.06289253 -0.042337697 -0.20458691 -0.008625095 0.020932646 0.019864272 -0.19441684 -0.05990308 0.104821 -0.00892037 0.052944064 0.05643537 0.11410281 0.06832059 0.20475857 -0.13662487 -0.02057261 0.10635838 -0.07771548 0.010249266 -0.056549538 -0.03592686
place -0.019155098 -0.049709737 -0.16894384 -0.009258544 0.07521809 -0.04536891 -0.07345701 0.18932116 0.120985106 0.16974954 -0.031168284 0.06377097 -0.09648059 -0.003002926 -0.013958022 -0.12810068 -0.16962682 -0.12787516 -0.10976851 -0.010746844 -0.0048231017 -0.010809728 -0.087334186 0.05853973 -0.025556995 -0.09642786 0.06042777 0.14467865 -0.13229942 -0.049192168 0.01472246 0.0059110024 0.15959227 0.14535633 -0.073610514 -0.057615757 -0.17321412 0.07888948 0.012333055 -0.14709096 -0.02218752 -0.0966576 -0.19056259 -0.099745095 -0.07873756 0.072038285 -0.10947094 0.10197734 -0.030623028 -0.105809614 0.060435675 -0.017630108 -0.016066091 0.23997566 -0.22020167 0.14918463 -0.15990607 0.09277029 -0.053573366 -0.14957426 -0.11331671 0.11393714 -0.030026807 -0.049148973 -0.017289016 -0.0008730784 0.0230595 0.021562679 0.03102813 -0.09037017 -0.18196538 0.17203204 0.08809543 -0.05007875 0.09323414 0.12280209 -0.08690931 0.055643003 -0.17904133 -0.027787397 -0.093917154 -0.10054755 0.03630691 0.103551425 0.0735879 -0.012522475 -0.041240335 0.07394495 -0.05142759 0.07722386 0.100246966 -0.02211976 0.027331611 -0.031338092 0.14686126 -0.09783345 -0.010864508 0.09973798 0.06117714 0.1591174
site 0.0004928747 -0.16332766 -0.062459882 0.1808598 -0.014309395 0.09829031 -0.081697576 -0.008480166 -0.15836851 0.024268586 0.033716634 0.1407899 -0.1462588 0.18851277 0.011584497 0.0869323 -0.05436335 0.004202174 0.14622164 0.010416119 -0.048150055 -0.07365864 0.054061472 -0.046966586 0.07704121 0.09481237 0.17265406 0.07577164 -0.14043735 0.027697211 0.104806714 0.037817057 0.02478015 0.1305276 0.07704732 0.008877815 -0.060559295 0.04678353 -0.0339931 -0.037047565 -0.23363264 -0.04804164 -0.20514953 -0.019210692 -0.11397587 0.0025847722 -0.027256563 0.07097665 -0.091539375 -0.19506298 0.041179094 -0.009803716 -0.008033915 0.0352416 -0.0067212027 0.036385357 -0.051369034 0.14897682 -0.026410194 -0.03608186 -0.086848326 0.0011258305 -0.0017075094 0.021460216 -0.028390009 -0.0014426291 -0.1620682 -0.008507501 0.090644136 0.09959677 -0.018912563 0.021247393 0.19570892 -0.079348944 0.0075238994 0.13717824 -0.032766316 0.13322425 -0.11286847 0.04686442 -0.06557658 -0.005778656 -0.05517936 0.18155773 0.028721174 0.14945756 -0.31684792 0.030166438 0.0025024756 0.073265836 -0.043154348 0.20535284 0.06483696 0.102698945 0.083520226 0.094205655 0.07555094 -0.12876752 0.03870392 0.20075239
best 0.103541195 -0.094405256 -0.20850159 0.02348029 0.12893353 0.044785563 -0.02156499 -0.10946473 0.077776015 0.008575087 0.047946036 0.009253855 -0.115342245 -0.01890293 -0.0051281382 -0.1562516 -0.110832095 -0.06738746 -0.13663177 -0.020495148 0.058913417 -0.012123454 0.049277462 0.016640743 -0.094084464 0.06266718 -0.05568123 -0.12863152 -0.117759824 -0.011754843 -0.066460416 0.09188248 0.21495473 0.00953616 0.08702368 0.07475079 0.0948469 0.24623556 -0.14729501 -0.144176 -0.07125545 -0.035367694 -0.050232455 -0.23381017 -0.10486711 0.04637409 -0.09171056 0.102082044 0.012175208 -0.12792698 -0.07389362 0.09046844 0.048085816 0.04928665 -0.2416556 0.19847873 -0.14187634 0.16068846 0.031567186 0.051936205 0.040069725 0.11944685 -0.1511272 0.024454549 0.09666156 -0.057883345 0.0021592746 0.07973135 0.12048058 0.04947008 -0.09312839 0.14072214 0.22844046 -0.11873288 -0.015338354 0.056974817 -0.024970753 0.05045704 0.043343987 0.08724016 -0.09401312 0.17138328 -0.04438364 0.074816845 0.05146861 -0.05128065 0.0038455117 -0.014990525 -0.06275097 -0.08844064 -0.10516875 0.09969915 -0.09629205 0.052430026 0.112932615 -0.0044026338 0.045026653 0.06126709 -0.031924397 0.07649346
school 0.037119035 -0.2336917 -0.13899119 -0.011784806 0.185096 -0.11869093 -0.14134043 -0.016810166 0.025203591 0.06024791 0.09980574 0.024062933 -0.31425455 -0.02764153 -0.024391524 0.035448637 0.04586231 -0.092118315 -0.090833314 -0.18715997 -0.019295752 0.16227855 -0.007755056 0.079619415 0.10574793 0.0020088237 0.10990033 0.024450492 -0.098552436 -0.06903751 -0.018495975 0.033589263 0.052756976 -0.038906064 0.0363001 0.036170334 -0.1401645 0.045579366 0.28057438 0.0028302458 -0.02292819 -0.04142456 -0.09360946 0.003865988 -0.028425641 0.037302677 0.019461649 -0.006191193 -0.1186035 0.06469631 -0.09263927 -0.049672678 -0.04488306 0.19027233 -0.040130258 -0.035895392 -0.10418944 0.12376091 0.18663873 -0.009308534 -0.083088726 0.014918688 -0.029278116 -0.01298687 -0.120914586 -0.12836911 0.02692467 -0.00026626987 0.107850574 -0.040261433 -0.22166009 0.08067798 0.018363023 0.029842695 0.09642035 -0.025205482 0.049246535 0.04742096 -0.18478332 -0.14481506 -0.14315903 0.05143416 -0.087771215 -0.0026161913 -0.04653581 -0.0852275 0.07089828 0.15404855 -0.027107092 0.06351585 0.015175499 0.076594986 0.2029669 -0.055504825 -0.10691458 0.176786 0.018492717 -0.017051004 -0.04259029 -0.10642356
course 0.17147185 -0.041405503 -0.08467389 -0.08780045 0.117552206 0.081702985 -0.11114877 0.055039294 0.08121792 -0.034800895 -0.1371476 0.0038127403 -0.16272466 -0.13319997 -0.005306751 0.027459724 0.0010103236 -0.095781825 -0.12211335 -0.10356441 -0.013421993 0.15363865 0.053403437 -0.036454905 0.12914197 0.08572708 0.08650874 -0.13647036 -0.21537335 -0.041335545 -0.026531696 0.18338048 0.19931707 -0.0073480825 0.003962146 0.0007692882 -0.03804617 -0.06593552 -0.042243995 -0.065487266 0.031341344 -0.033582978 0.049477983 0.0063334014 -0.07347598 -0.034917627 -0.15266787 0.112358116 -0.049697917 -0.023202883 -0.12752464 -0.21075556 -0.02140321 0.12346328 -0.038196586 0.015996119 -0.13363312 0.1403694 0.10254072 -0.027996618 -0.07474439 -0.095550306 -0.09276759 -0.06671331 -0.08272063 0.011147614 0.04743356 0.11033949 0.04920752 -0.075046934 -0.30824593 0.13763775 0.009531129 -0.071992084 0.049859453 -0.033686787 0.01824116 0.10488935 -0.1369798 -0.06418833 -0.23838206 0.11608223 -0.13277906 0.07455015 -0.07038691 -0.0005562489 -0.019654963 0.11675791 -0.06810446 0.10397859 0.04467536 -0.022535464 0.16441102 0.01852244 0.090911835 0.09552998 0.12129208 -0.050908554 0.0019437508 0.12488044
area 0.08376618 -0.21533906 -0.09706885 0.028768219 0.038408108 0.008091402 -0.18739295 0.13975434 0.04600441 0.0043623485 0.077065885 0.12747684 -0.13044927 0.11237662 0.05013127 -0.027579254 -0.058465533 0.004757719 -0.06675826 -0.014577347 -0.11988688 0.0007958803 -0.006434104 0.0143079255 0.04582213 -0.096814245 0.23651156 0.17986609 -0.09768115 -0.11042925 0.11561328 0.0068577263 0.029894685 0.04488262 0.004762436 -0.108158804 -0.15753014 0.16433692 0.12867753 -0.05772709 -0.11699458 -0.082124576 -0.10410646 -0.042057015 -0.05375787 -0.07230892 -0.09185559 -0.015151867 -0.081652395 -0.20274745 0.0046449387 -0.11384016 -0.042562485 0.253443 -0.008354673 0.15669306 -0.06342653 0.09628815 0.025512472 -0.17302068 -0.18488507 -0.061954334 0.037860263 0.06266858 -0.050348703 -0.0036822988 -0.06723513 0.0026469054 0.010294447 -0.061239757 0.011054514 0.122969404 0.040276688 -0.07146042 0.121861584 0.13566469 -0.14496817 0.08510168 -0.01661204 0.06778209 -0.14250998 0.08345812 -0.10992621 0.0853308 -0.05972638 0.079679504 -0.09741862 0.07118364 0.069084555 -0.06194766 0.0017779483 0.13815685 0.12914795 0.0076832734 0.23035716 0.010210043 0.009154962 -0.12200889 0.065967254 0.055732746
system -0.004405243 -0.17265087 0.079365164 -0.03965819 -0.097049296 0.13667227 -0.011871001 -0.11450201 0.15858856 -0.20954672 -0.08979552 -0.047974367 -0.12350373 0.0071895146 0.082088925 -0.001437939 -0.14655915 -0.010950114 -0.013619685 0.008470825 -0.06756674 -0.03034749 -0.06212506 0.016883852 0.027076978 -0.033214934 -0.038950246 0.044089697 -0.058028918 -0.22001866 0.23923282 0.13858655 -0.08361244 -0.019833995 0.013652204 -0.2090083 -0.00039459585 -0.039997227 -0.1076861 0.0051616314 -0.06633691 0.033973496 -0.019158863 -0.06312285 -0.04682008 -6.390791e-05 -0.26902318 0.022227159 0.09969203 -0.17370626 -0.06642249 -0.07237509 0.019315911 0.053243995 0.104050115 0.016930016 -0.016214553 0.23022023 0.047329273 -0.07438669 -0.17691186 -0.1260047 0.04361137 0.012471178 -0.084771186 0.05026164 -0.18557984 0.0878274 -0.09896348 -0.14271155 0.14747183 -0.022694059 -0.0036748454 -0.17863162 -0.03443053 0.09630973 -0.23305045 0.113412455 0.11083748 0.07095571 -0.13692167 0.078494765 0.021596108 -0.009105758 -0.095604286 -0.013882775 -0.055875864 0.020239605 -0.10782428 -0.03621107 0.027323559 0.10945746 0.019361611 -0.033715945 0.03731144 0.01373181 -0.0053707506 -0.16052303 -0.064854905 0.049329136
top 0.097138256 -0.15030968 0.017152814 0.043819487 0.24064228 -0.08811742 0.03433331 0.09351313 0.049243875 0.11575386 -0.0037933644 0.05177292 -0.1377213 0.06310538 -0.06824994 -0.035031587 -0.31684548 0.020840405 -0.01254694 0.1183884 0.028488968 -0.06779167 0.12434003 0.064483054 0.014250591 0.1527326 0.0567266 -0.07315432 -0.048069317 0.06794249 0.037063252 -0.0032724647 0.13300858 0.04374345 0.13632308 0.09729819 0.0234885 0.27269208 0.004318988 -0.08633972 -0.015961222 -0.10815629 -0.05304803 -0.13968228 0.041818503 -0.022005947 -0.0061675464 0.02642713 0.01937878 -0.065812215 -0.036482513 -0.12003806 -0.002504855 -0.038619157 -0.09309822 0.09627358 -0.15717827 -0.16360797 -0.111265264 -0.023099823 0.042536996 0.0051313005 -0.07827061 -0.09213131 0.06411767 -0.16093573 -0.0038651421 0.09748 0.06952988 0.13167648 -0.08496872 -0.1173834 0.011991651 -0.07368068 0.046728324 0.120568864 0.068047255 0.13130337 -0.11017765 0.13346133 0.11869714 0.048367836 -0.05997646 0.27548927 -0.020576227 0.11795788 -0.036546297 0.022272846 -0.059634358 0.053532455 -0.07561003 0.09914917 0.07716398 0.121459365 -0.06384884 -0.025873551 0.098214865 -0.12601505 0.012452869 0.17988235
company -0.04077589 -0.09172539 0.12608932 0.028381923 0.0663127 0.13541566 -0.018574553 -0.104930885 0.09139046 -0.11414048 -0.07443103 -0.028763238 -0.1565614 0.1795646 -0.0013721868 -0.027121875 -0.09939939 0.023541283 0.17343204 0.0045818407 -0.008832288 0.106400214 -0.020713083 0.04061813 -0.06299516 0.24053611 -0.008270687 -0.08180185 -0.2413199 -0.059709225 0.011033927 0.11993502 -0.005778949 -0.0031491942 0.103254996 -0.023162697 0.01796164 0.0285825 -0.022047032 -0.12086852 0.007655776 0.038381714 -0.1130322 -0.10479514 -0.10233718 -0.0052522123 0.16675943 0.19634497 -0.09235231 -0.3060408 -0.00052800146 -0.04382438 0.19268335 0.087300315 -0.004930173 0.049246468 0.000962064 0.09609589 0.059030373 -0.041382823 -0.08782798 0.101810165 -0.0006506032 0.055382032 0.0884213 -0.03963981 -0.19269064 -0.047602165 0.047898363 -0.064823724 0.051617607 -0.050934315 0.08751324 -0.11236808 -0.06264021 0.09799769 -0.0318017 0.058675162 -0.08429364 0.19280267 -0.21566571 -0.008199149 0.011007576 0.24640775 -0.08164278 -0.0659531 0.050013267 -0.01073006 -0.023928918 -0.1761679 0.09473307 -0.028065473 0.019425757 0.01756719 0.008490229 -0.010811416 -0.01863712 0.153693 0.03390006 -0.0835083
government -0.08454588 -0.06425475 -0.039198916 -0.010933327 0.07270623 -0.06750325 0.04796968 -0.075558096 0.038475048 -0.09385009 -0.15283579 -0.06549357 -0.03668328 0.087764665 -0.005512626 -0.20876858 -0.1854716 0.0014898578 0.072948694 -0.008159957 -0.05250297 -0.09138302 -0.16285916 -0.023910066 0.1102482 -0.059922997 0.08484469 -0.06338083 -0.16890398 -0.22038569 -0.00196618 0.12583376 -0.06692369 0.005358633 0.052910767 -0.045413822 -0.051404793 -0.07117924 0.119638264 0.16666672 -0.083366856 -0.0016034076 -0.100848064 0.0012553699 0.11074047 -0.06737777 0.08730182 0.05662052 -0.018499209 -0.21846585 0.043158934 0.057013325 0.14014612 0.21768454 0.0029752618 0.15532415 -0.05299642 0.020254536 0.21367176 -0.2026205 -0.05796852 0.07019415 -0.054498643 -0.06728575 0.12653093 -0.10323064 -0.088372305 -0.0029302037 -0.040365215 0.030443266 0.13667239 0.06884122 -0.13413489 -0.08724255 0.06015325 0.08988604 -0.060627904 -0.043741673 0.08014318 -0.024754144 -0.2082233 -0.011054694 0.0126749175 -0.101393916 -0.027090017 -0.15835886 0.11034431 0.028360492 0.018859211 0.036942396 0.09580925 0.055645704 0.14440691 -0.09465854 0.07546049 0.07089903 -0.054872137 0.011230599 -0.13505478 -0.21848477
project -0.0090847155 -0.1735943 -0.059058547 -0.010452741 0.10874477 0.10376134 -0.13416624 -0.08766921 -0.06841726 -0.14970818 0.033510752 0.05514633 -0.27046993 0.06739594 -0.069869705 0.026167 -0.005933295 -0.023803065 0.118422784 -0.06652013 -0.05263015 0.11218472 0.0036374847 -0.050308984 0.089135006 -0.014925322 0.14589481 0.07469196 -0.23672591 -0.115668885 0.059111804 -0.021299182 0.028933091 -0.16296363 0.016514033 -0.08870053 0.11784196 0.15058462 0.070993304 0.15021226 -0.037815303 0.08210758 -0.1281951 -0.029238656 -0.17346226 -0.056543514 -0.055513024 0.045916274 -0.07643506 -0.08651463 -0.21762434 -0.08990966 0.010812676 0.05907617 -0.051694706 0.019038104 -0.052397724 0.22473766 0.04308692 -0.0500752 -0.18643054 -0.032254886 0.005553871 -0.033549365 0.09289952 -0.11483156 -0.07528909 -0.04846962 0.028859613 -0.12446443 -0.02093672 0.072773285 -0.061805446 -0.09920277 0.11071077 -0.13593082 0.012331553 0.07474164 -0.019831605 0.10814936 -0.15290196 0.112925306 -0.16871029 0.039515473 -0.10397058 -0.083060935 -0.11129105 0.12807907 0.0791806 0.055676524 -0.089867495 0.090153016 0.15219411 -0.009827203 0.0663911 0.09156427 -0.0043206904 -0.15547718 0.090439014 -0.060426377
members 0.07111599 -0.078203134 0.022148144 0.07239395 0.047602687 -0.20286478 0.05896871 0.12901297 -0.08240799 -0.01909339 -0.104432195 0.008417482 -0.020975318 -0.028082829 -0.24575664 0.03488808 -0.0418116 0.14610307 0.12523049 -0.07023614 0.038827103 -0.059570506 0.07127135 0.09129868 0.11657591 0.14054006 0.137957 -0.08277395 -0.24915205 0.023759611 -0.10835537 0.015803924 0.11970984 0.06412085 0.07347921 0.16766013 0.1834424 0.071330555 0.19283332 0.07050112 0.0344492 -0.03624744 0.061486237 0.07763957 -0.029292848 -0.099567555 0.1103598 -0.21991694 -0.02046059 -0.17026092 -0.08973237 -0.025424412 0.052235503 0.11282359 0.13059102 -0.112170435 -0.10775732 -0.008045364 0.02840452 -0.04399645 0.028307928 0.0059329164 -0.1906409 -0.04545106 -0.028525984 -0.06215598 -0.14269207 -0.09220672 0.06967692 0.16551882 0.0087148845 -0.12903756 0.013726468 0.015462731 0.16790824 0.037795488 0.004830959 0.04194156 -0.09492819 -0.024308491 -0.16325 -0.04499503 -0.05463298 0.22524527 -0.13749324 0.009263735 0.1190502 -0.030956512 -0.06873864 -0.0016411052 0.03756273 0.05431352 -0.019062953 -0.040772308 -0.15418984 0.043799452 -0.03871342 -0.06643848 -0.07449209 0.02164961
think 0.047765866 0.049562458 -0.22778404 0.06707294 -0.035043616 0.051380463 0.1419724 -0.102123775 0.038071882 0.116033465 0.04723846 -0.04619454 0.09421996 -0.023279194 -0.072875865 -0.26044282 -0.07816772 -0.030903116 -0.15853475 -0.07879273 0.08670811 0.050246716 0.08170472 0.04482234 -0.044483617 -0.06219903 -0.03316254 -0.0377018 -0.08488986 -0.06466848 -0.12560742 0.022342673 0.19524948 0.0666699 -0.0062330742 0.048848815 -0.12820485 -0.033558168 -0.11338703 -0.114442326 -0.16427162 -0.11363226 -0.005341186 -0.07108893 0.030181793 0.058954448 -0.0875652 0.28609246 0.12143611 -0.018578682 0.08256529 0.056727447 -0.09142387 0.008933584 -0.18367451 0.013574176 -0.10150497 0.13337182 -0.083033934 0.02113033 0.07547358 0.08028689 -0.026163394 -0.18460916 -0.055964343 0.10636874 0.03399023 0.10971964 0.13309218 0.06373918 -0.10342002 0.10671437 0.1089771 -0.009761379 -0.054665677 0.084394276 0.030676272 0.04292409 0.08663141 -0.106923394 0.07752085 -0.035985384 -0.019621111 -0.2747925 0.10541496 -0.16436175 0.15867439 -0.0030059891 -0.094000325 -0.04162656 -0.073676914 -0.066038 -0.12808415 0.017198822 0.13329293 -0.041672867 0.029987434 0.070041455 -0.08700226 0.02111098
end -0.067638606 0.015315343 -0.026325263 -0.033377655 0.10579472 -0.0727882 0.030732112 0.17637105 0.11260974 0.16486984 -0.002908522 -0.047381606 0.009323025 -0.032865692 -0.020884968 -0.22662233 -0.2990624 -0.10697665 -0.04239435 0.034145195 0.004784137 0.019660637 -0.13730888 0.053136215 0.06089625 -0.036384635 0.10876185 0.12927158 -0.11075461 -0.021154577 0.1284399 -0.050328292 0.110438384 0.07039132 -0.07603388 0.016983548 -0.17549738 -0.040797357 -0.06038085 -0.11569388 0.074176796 -0.047446012 -0.111213304 -0.06512222 0.06612651 -0.019576373 -0.08061754 0.23044015 0.051802054 -0.13161549 -0.037576832 -0.07552155 -0.014539466 0.012370044 -0.22788146 0.11538094 -0.101056166 -0.043735325 -0.09295666 -0.13652264 -0.010176926 0.13762376 0.013610309 -0.08525404 0.098863915 -0.06575304 0.03578972 0.06980078 -0.042448528 -0.046663806 -0.23785278 0.016636623 0.0942802 -0.080829844 0.03646816 0.14761718 0.03941531 0.07697447 -0.124804944 0.034761436 0.093028516 -0.08583106 -0.013002703 0.0012026086 0.1741496 -0.09503864 0.09161986 0.05871521 -0.05854683 0.14769915 -0.029748378 -0.14961798 -0.041682705 0.05804735 0.13283016 -0.21975853 0.023554971 0.04288559 0.0652009 -0.031062406
high 0.15157989 -0.13956068 -0.02464072 0.0012296442 0.012362057 -0.09254236 -0.17433181 0.10573508 0.22700368 0.03063549 0.07243411 0.023736708 -0.1043034 -0.008256756 0.19765566 -0.0253458 -0.18923774 -0.08788901 -0.09367082 -0.07741635 -0.020263877 -0.07703309 -0.019081552 0.15100922 -0.11274689 -0.02355892 0.09133434 -0.0048893676 0.0010912243 -0.094761744 0.10463342 0.09979846 -0.031291906 0.12673642 0.030882694 -0.20995902 -0.15182607 0.16787352 -0.019833993 -0.134935 0.01361517 0.038499698 0.055281766 -0.16228527 -0.011989796 -0.019696098 -0.088717446 0.034642123 -0.035833683 -0.16298741 -0.018604042 -0.083007485 0.08165988 0.19254233 -0.06504842 0.19685782 0.041142512 0.06490874 0.0036833377 -0.13327637 -0.06634861 0.046920165 -0.03722378 0.06753049 -0.07354339 0.02032611 -0.047616016 0.13567546 -0.03358893 -0.21376777 0.023508484 0.015556693 0.1292986 -0.08022795 -0.051547065 0.07986614 -0.05059066 0.13410726 0.015633758 0.21810043 0.05902438 0.1817253 0.0073293727 0.06556376 -0.047128085 0.044859443 -0.05158204 -0.029815184 0.04114353 -0.20867962 -0.04895059 0.060024444 -0.0166248 0.0055169114 0.15811625 -0.05422652 -0.048273463 -0.12413261 0.05718609 -0.062895805
order -0.042327072 -0.01695121 -0.024583483 -0.004653849 -0.065664314 -0.019694155 -0.0031801588 0.18288118 0.11775979 0.031710226 -0.20918034 -0.18638442 -0.08350815 0.0083655305 0.11654246 -0.054446176 -0.15327445 -0.086099185 0.11424677 0.029293666 -0.04699927 -0.045001183 -0.089154474 0.031043967 -0.032176577 0.006336284 -0.032715846 0.0031832736 -0.2609181 -0.18299507 0.0531025 0.23972455 0.072265066 0.093346216 -0.029680213 -0.11766192 0.023783347 -0.21539393 -0.009111955 -0.123337135 -0.07255954 -0.096121356 -0.0968256 0.07609279 -0.15425493 0.017801793 -0.14630719 0.073977835 -0.057448853 -0.31492704 -0.0036498834 0.015078195 0.16086896 0.11531332 -0.009924422 0.07013176 -0.07024419 0.08521848 -0.02295044 -0.00057147554 -0.036362033 -0.08105814 0.013027425 0.023957128 -0.015319482 0.025002748 -0.059679564 -0.0859443 -0.1352509 0.09271221 -0.08434004 0.034205295 -0.05961836 -0.18532516 -0.15920562 0.10690693 -0.09458638 -0.057261705 -0.10267424 -0.07697651 -0.018154467 0.001767512 0.1615529 0.079435766 -0.0080862995 0.01798754 0.0070171896 0.06567778 -0.074513994 0.12018915 0.15652551 0.045652788 0.023046728 -0.08837562 -0.027125118 -0.13602227 -0.09044541 0.08919585 -0.018376812 0.043402653
contact 0.029794702 -0.13465175 -0.0065129166 0.106853336 0.07345494 0.09280645 -0.13297252 0.21727495 -0.22813329 0.0034641128 -0.14259516 -0.004470098 -0.14589384 0.087863676 -0.19769704 0.18947059 0.16915688 -0.006830236 0.097918674 0.008891827 0.011349057 0.10508059 0.14257257 0.021193499 0.06240753 0.13745031 0.147009 -0.17512761 -0.12464256 0.015627874 0.06893662 0.050523877 0.012851847 -0.084339194 0.036664277 0.044768482 0.13496836 0.04798015 0.12788169 0.10139746 -0.12213184 0.01686092 -0.06846347 0.018930428 -0.10088615 -0.03415042 -0.043373853 0.1005117 -0.047029015 -0.0574846 0.058053948 0.09879923 0.06467063 0.19773611 -0.015981546 -0.030140162 -0.06888026 0.04547475 -0.0063556125 0.116505705 -0.052517004 0.010691327 -0.076313585 -0.09127668 -0.059625268 0.01068237 -0.08331754 -0.18045375 0.11789083 0.09856554 -0.10387054 -0.08930859 -0.08620984 -0.00047682718 0.069136806 -0.025766002 0.04101474 0.009762144 0.018913304 0.08071544 -0.034804434 0.052397598 -0.06521183 0.119024634 -0.19607556 0.14088142 0.06206791 0.06341485 0.0025519629 0.033059668 0.0986671 -0.021743227 0.08845261 0.027770506 -0.30884883 0.040830478 0.116363265 0.048286855 -0.08962081 0.08607845
following 0.030369245 -0.07683667 0.029908545 -0.0010160865 0.010717123 -0.09893036 -0.034790643 0.1819953 0.028567513 -0.038456395 -0.11751827 -0.10085963 -0.20420486 -0.018548656 0.006294956 0.061059844 -0.0049355025 -0.045970265 0.0705169 0.035005134 -0.0053997054 0.0056412257 0.06027806 -0.10998864 0.0754976 -0.0032058936 0.035647724 -0.0071532377 -0.24938467 -0.053974863 0.12028441 0.11299489 0.049620807 0.10921423 -0.06267373 0.010624182 0.08670362 -0.24793766 0.019289963 -0.060369458 -0.0333292 -0.055192366 -0.081004515 0.16607082 -0.15404165 -0.1318193 -0.113802806 -0.025618723 -0.020987617 -0.28036678 -0.17273627 -0.06906333 0.12591955 0.07408908 0.021154173 0.13011071 -0.12718292 0.20597044 -0.049996823 -0.001209933 -0.1261519 -0.056708775 -0.07173058 0.054465603 -0.06043312 -0.07158707 -0.1983284 -0.02664648 0.015635388 0.18125498 -0.1612266 -0.029277593 -0.019604823 -0.06817273 -0.04163407 0.08139095 -0.07516721 0.010479055 -0.14657661 -0.018003104 -0.13204956 -0.029345784 0.06778537 0.15871082 -0.06820723 0.03575777 0.02353115 0.06973602 -0.07892996 0.21057321 0.024278786 0.121164575 0.13255616 -0.04307813 -0.047520798 0.04501919 0.033650342 -0.11507104 0.08451705 0.08400847
data -0.018265156 -0.09600218 0.15932693 0.04682258 -0.018709281 -0.034518376 -0.05677056 -0.0072940816 -0.09234922 -0.21941678 -0.10838553 -0.1023346 -0.11709984 -0.000989747 0.0644357 0.1435382 -0.115252174 0.06528131 0.19450653 0.07252079 -0.04437998 -0.02080521 0.10911138 -0.10369819 0.06568811 -0.062479254 -0.12922904 -0.08310686 -0.06078283 -0.028715225 0.18869026 -0.0016440678 0.020099679 0.0034216656 0.015169748 -0.089614496 0.17471777 -0.03885107 -0.066608496 0.13104163 -0.018626569 0.0913735 -0.06332721 0.034441903 -0.10475128 -0.032154765 -0.05518663 -0.12746336 0.070218496 -0.12529221 -0.12232434 -0.03808211 0.094949104 -0.0006239332 0.084053986 -5.6442623e-06 -0.028612321 0.117688924 -0.01224564 0.004970328 -0.049104802 -0.17392357 -0.03941212 0.02314726 -0.055586975 -0.06299446 -0.27634653 -0.053548433 -0.031104112 0.1060203 0.093656346 -0.021422094 -0.09970483 -0.00055254146 -0.15856361 0.047251567 -0.20375235 0.029008744 -0.10690828 0.108410746 -0.04653346 0.040926438 0.0150310565 0.08379235 -0.22751796 0.07688282 -0.10427017 0.02758197 -0.040799458 0.09505602 0.045507513 0.2667444 0.20810808 0.0846127 -0.16263327 0.021300463 0.0990894 -0.07727258 0.057260286 0.0383338
page 0.050578818 -0.042882666 0.06263308 0.14043872 0.07475967 -0.013207944 0.07408931 0.010053665 -0.13905403 0.0411872 -0.10497886 0.0040362715 -0.17688082 -0.020573799 -0.059483536 0.114888445 -0.056457464 0.018261535 0.15218972 0.16259158 -0.0749165 -0.12612745 0.051186547 -0.09547839 0.08307491 0.14650887 0.054794714 -0.015655505 -0.20622613 0.12944989 -0.007953937 -0.022681719 0.08507057 0.08506573 0.079180196 0.12336254 0.11379918 -0.0012932838 -0.063706055 -0.03406938 -0.16348067 -0.028502678 0.016105782 0.21567036 -0.060118172 -0.06466784 -0.0881869 0.026287638 -0.092821516 -0.100056574 -0.05663261 -0.06352285 0.004724741 -0.09559362 -0.041077025 -0.02729279 -0.10952306 -0.07367218 -0.10253181 -0.007710965 0.040877923 -0.10393627 -0.03668819 -0.021117756 -0.06514536 -0.13536239 -0.11312554 0.038192213 0.050622884 0.21709244 -0.07145741 -0.17613494 -0.004886796 -0.08416687 0.029215338 0.081257015 0.09515935 0.0443782 -0.06645081 -0.10021417 0.12225546 0.050245393 0.035398755 0.11624893 0.06547084 0.12992519 -0.12226077 0.00613657 -0.064130895 0.25242272 -0.10417015 0.16541827 0.14386189 0.17978919 -0.17220688 0.12152025 0.075967625 -0.06916106 0.0015934154 0.18076341
centre -0.0089223655 -0.2546026 -0.07106242 -0.02578404 0.18181121 -0.05235015 -0.19691247 0.045719683 0.07582606 -0.020225782 -0.026561536 0.17898346 -0.18387635 0.07616947 -0.0892938 0.16094585 0.046419688 -0.025412869 -0.015889376 -0.045983687 -0.07829793 0.035055596 -0.055671204 -0.017189795 0.11529927 0.03488048 0.19904862 0.042983126 -0.04702956 -0.0065278304 0.017872784 -0.09457951 -0.013841602 -0.02714339 0.020129357 -0.06861925 0.0123413 0.298227 0.15166858 0.06498047 0.048431825 -0.019959757 -0.08944672 0.01862217 -0.060712814 -0.029390551 -0.017565569 0.009080321 -0.11923579 0.010124597 0.01103088 -0.02249296 -0.11143779 0.23876558 -0.049990892 -0.014092202 -0.08246988 0.10210465 0.19136004 -0.09670306 -0.18293989 0.03071305 -0.010907232 0.024979392 0.040204745 -0.02392148 -0.035183255 -0.045864135 0.03397274 -0.20769814 0.0056383605 -0.020711185 0.015625246 0.010630955 0.15606602 -0.017354969 0.08594758 0.053302288 -0.19798781 0.011413489 -0.111884445 0.036258284 -0.16913477 0.16645813 -0.099620394 0.015537393 -0.1283225 0.17180096 0.078625575 -0.008376144 0.05132398 0.04602789 0.18313403 0.020413075 -0.055491507 0.047972146 0.057817828 -0.056380503 0.10045079 0.12246036
management 0.077635765 -0.17331296 0.017093092 -0.07837334 0.08412322 0.15378198 -0.117512874 -0.09461987 -5.965703e-05 -0.24029295 -0.05742083 0.050967462 -0.23484394 0.05299894 -0.019615438 0.14527997 -0.06494234 0.0337909 0.0584306 -0.028685784 -0.063375615 0.12966481 0.043799676 -0.0740511 0.069433905 0.0085296165 0.06775481 -0.092673734 -0.13302304 -0.09137783 0.050641563 0.06764656 0.018186407 -0.110628456 0.044160184 -0.0059070745 0.16597176 0.018886024 0.026275696 0.11127185 -0.034944925 0.11676675 -0.11398851 -0.063818775 -0.09141517 -0.035932835 -0.07908489 -0.042405896 -0.021089852 -0.3026109 -0.15756263 -0.036621366 0.13383256 0.19637719 0.119342856 0.10559882 -0.023994975 0.1383444 0.08840703 -0.12417358 -0.1116868 -0.10021202 -0.06658806 0.02647439 -0.004007311 -0.10140505 -0.17014271 -0.03173849 -0.017325966 -0.06980136 0.0646146 0.014943176 -0.038839813 -0.061526295 -0.030342795 0.06187244 -0.11677902 0.15932915 0.070766054 0.037325088 -0.17666997 0.112217695 -0.14380705 0.046229497 -0.26225153 0.017423362 0.04707759 0.046475 0.05195846 -0.032530602 0.061758943 0.056438107 0.08387067 0.028262049 0.059386782 0.07831958 -0.007951601 -0.078007884 0.12751982 0.00019058531
house 0.012971956 -0.045288354 -0.049207103 0.035952777 0.020241302 -0.16061342 -0.07468502 0.1136175 0.00068716775 0.2463653 -0.009220691 0.15197875 0.029456906 0.051048964 -0.012175246 -0.064888485 -0.062497474 0.09248803 -0.06495281 0.12194678 0.03594944 -0.011581729 -0.19872858 0.077620514 -0.13133624 0.09716826 0.19243743 0.13423984 -0.111278854 0.026320059 0.042720914 -0.21067037 0.040869765 0.07838512 0.02922323 -0.003735404 -0.14997329 -0.021565227 0.25402454 0.09551548 0.10787558 -0.14265604 -0.13733077 0.0001257038 -0.005414079 0.10404887 0.07276391 0.060347937 -0.102367006 -0.13523193 0.05640802 0.14516737 -0.072052054 0.21294272 -0.07346363 -0.008669833 0.015608657 0.053210583 -0.06395944 -0.045119405 -0.052209355 0.1462775 0.07363587 0.050181054 -0.051618285 -0.033204246 0.06667966 -0.004641944 -0.02697809 -0.11825833 -0.077560835 -0.02233015 0.035427827 0.20873162 0.028546132 0.112264596 0.054982208 -0.09744916 -0.20929576 0.073833704 -0.033650335 -0.08463588 -0.0038641451 0.12007797 0.18507026 0.024289029 -0.031600624 -0.037509847 0.024614492 -0.14020135 0.18131031 -0.027087042 0.046043128 0.08838834 0.07050212 0.013516229 0.012177324 0.13787071 -0.049129657 0.10924719
community -0.02579923 -0.23950179 -0.138573 0.07461955 -0.013238938 -0.094919875 -0.163215 -0.011894966 0.0055432348 -0.056656845 0.069178775 0.098721825 -0.20608489 0.07398948 -0.09052889 -0.0037432332 0.0570632 -0.062616445 -0.009165943 -0.11049108 -0.12348612 0.046471793 0.002268313 0.008023563 -0.0027531644 -0.106214784 0.09406392 0.038575336 -0.22869392 -0.17626159 -0.04967929 -0.0017316932 -0.020509956 -0.022921067 0.025526201 -0.020729396 0.017893659 0.10688033 0.18366718 0.09293819 -0.054887787 -0.012849289 -0.16957545 -0.054119922 -0.1348472 -0.117063984 0.015379552 -0.03624268 -0.15737501 -0.15284975 0.024074541 -0.02536449 -0.012192519 0.29463407 -0.08509031 0.073291 -0.112261 0.09505852 0.2199958 -0.13930795 -0.07480289 0.050274942 -0.044139024 -0.06296867 0.085686006 -0.046791546 -0.08183876 -0.15246502 -0.028175177 -0.034754418 0.083540864 0.119629726 -0.033465266 -0.0738972 0.21620731 -0.0342983 -0.045594573 0.04220287 0.0147265745 -0.05569141 -0.17750387 0.080676496 -0.105530895 -0.15478966 -0.08829372 -0.092880934 0.03604771 0.1499054 0.051230762 0.049257506 0.037409306 0.08961074 0.09237006 -0.053318273 0.041040577 0.12714186 -0.040083643 -0.010673721 -0.021608043 -0.049043294
access 0.10845263 -0.28184792 0.055707764 0.13871041 0.067658804 0.02679435 -0.11396767 -0.0036597743 0.061169732 -0.027437191 -0.06416394 0.076822765 -0.18967825 0.10029109 -0.10992773 0.036119703 -0.1122989 -0.042141035 0.049047854 0.09308438 -0.23191829 -0.05145987 0.042471327 -0.025998719 0.03862707 -0.04322546 0.16895328 0.013170389 -0.09243003 -0.13863465 0.07838204 0.1190259 -0.05822638 0.029254911 0.07592279 -0.10659098 -0.021518549 -0.04078411 -0.023266075 0.006593551 -0.15269074 -0.013391568 -0.11673547 0.012752617 -0.12598772 -0.039937638 -0.11903369 -0.037959617 -0.086015426 -0.13827068 -0.067090295 -0.053396337 0.008406402 0.09428165 0.0007688338 0.033958945 -0.03620531 0.17014977 0.14321141 -0.11618217 -0.14530644 -0.057303715 -0.080066696 0.08490154 -0.05873832 0.036069423 -0.17514138 0.02428833 -0.012810816 0.026076606 0.004767634 0.04326572 -0.041023586 -0.090069935 -0.04927045 0.07383835 -0.2908363 0.088005215 -0.051076334 0.07507479 -0.16294836 -0.010035657 0.0042862897 0.06693274 -0.13286375 0.11010648 -0.15662175 0.09773126 0.0061617065 0.019119091 0.003402554 0.08622631 0.15630199 0.10834645 -0.10512091 0.10916635 -0.013688172 -0.089111224 -0.10437343 0.22573899
education 0.068907715 -0.19371599 -0.06793121 0.022916717 0.16980962 -0.09083475 -0.095358334 -0.08811489 0.07814611 -0.12567094 0.009156972 0.045273416 -0.29012132 -0.009125297 -0.13267145 -0.02696635 0.028528295 -0.123783365 0.008322216 -0.09462667 -0.10774843 0.12298383 -0.027909972 -0.06366784 0.1110932 -0.027743867 0.077206574 -0.10037841 -0.17534848 -0.056338817 -0.09024515 0.15141854 -0.013809335 -0.031365596 0.06461831 -0.038741715 -0.031135857 -0.010313709 0.19481792 0.17667146 -0.0009262211 0.020371083 -0.05627381 0.06430346 -0.06712615 -0.05163253 0.012715236 -0.087067306 -0.12338143 0.031334024 -0.10198677 -0.080497816 0.049215358 0.17377822 -0.028845772 0.0351241 -0.09689857 0.0913273 0.27666467 -0.032267973 -0.048626196 -0.12190605 -0.0729544 -0.039755918 -0.00472534 -0.11092578 -0.021545587 0.015370387 0.079993226 0.019146148 0.006248783 0.10882258 -0.15474042 -0.018804636 0.055829294 -0.06752192 0.06114244 0.06928266 -0.07712739 -0.15537478 -0.14938487 0.07567603 -0.13591585 -0.071725704 -0.088640094 -0.04868918 0.062056914 0.046578977 0.07509461 0.0869335 0.030786533 0.054990046 0.2570277 -0.07796724 -0.0864579 0.2070478 0.06950121 -0.050649587 -0.012213236 -0.12973791
training 0.12986585 -0.17564858 -0.052539833 -0.05208204 0.1360383 0.012566402 -0.18780327 0.017198658 0.08965723 -0.10661225 -0.13806258 -0.03526836 -0.22361568 0.0032061695 -0.012537053 0.0490932 0.0068502175 -0.1846839 0.0031902955 -0.16823111 -0.07350406 0.20052895 0.19356741 0.015386804 0.15080842 0.046427958 0.020978294 -0.16563687 -0.18558952 -0.10093776 -0.073705584 0.08556741 0.13923341 -0.08771017 -0.09161164 -0.081620075 0.062513836 0.05535851 0.11597556 0.0341116 -0.011647019 0.08140339 -0.06488731 -0.06223564 -0.074483596 -0.086881936 -0.06469942 0.00765512 -0.15664934 -0.1300643 -0.12684792 -0.1030496 0.05800785 0.13167556 0.022154456 -0.0058893836 -0.02582052 0.104772896 0.20616084 -0.08853141 -0.12620673 -0.090054475 -0.090643674 -0.050108936 0.04681582 -0.06454175 -0.01794946 0.05937879 0.06451989 -0.018813742 -0.12973343 -0.00031721388 0.03308333 -0.07467073 0.07474588 0.018266581 -0.044235233 0.122907706 -0.010283646 0.039250094 -0.2368566 0.14421377 -0.11580138 0.03947787 -0.1763984 -0.025450408 0.0043821796 0.054931797 0.009553238 0.0066246656 0.061071306 0.0047141113 0.1365624 0.04137262 -0.044379566 0.06407032 0.026176179 -0.17022987 0.004073601 0.11298962
range 0.2088926 -0.13395356 -0.052921306 -0.031135485 0.09226491 0.05886961 -0.16153175 0.06100784 0.20895624 -0.08352221 0.0041583786 -0.008812824 -0.21171105 0.0658989 0.18733577 0.054774288 0.007942051 -0.05615318 -0.098667026 0.021812031 -0.020382319 -0.04816871 -0.004848413 -0.012981819 -0.0555661 0.035493117 0.079281315 0.033016633 -0.1634403 -0.08892839 0.02551149 0.115899295 0.049424373 -0.07080818 0.11737641 -0.12622379 -0.092174195 0.21437737 -0.11831066 -0.09259054 -0.030042378 -0.050137974 0.036579352 -0.050401207 -0.13386977 -0.14561293 -0.14229165 0.014541207 -0.1642077 -0.070943534 -0.07711632 -0.13283536 -0.038929414 0.17685524 -0.056520358 0.07956976 -0.023153655 0.12667704 0.041539628 -0.028515538 -0.03790859 -0.095531516 -0.0056869476 0.14144193 0.04021685 0.029570993 -0.09837463 0.05709453 0.014770697 -0.13990586 0.047947768 0.048918888 0.10753217 -0.114198886 0.009119619 0.025107017 -0.063224606 0.1313695 -0.022072641 0.1339214 -0.05072256 0.30491206 -0.08563163 0.19520557 -0.12215301 0.03744724 -0.14720072 0.077041976 0.086556666 -0.04782914 0.027994838 0.12900032 0.10042022 0.009423798 0.03149649 0.04718079 -0.001467147 -0.12954746 0.025629004 0.03908696
book 0.13676052 0.06905281 -0.21174493 0.107464455 0.06831267 0.1094709 0.0040495805 -0.11057175 -0.0032486701 0.1429074 -0.16202658 -0.14556552 -0.06065971 -0.051953558 -0.037465103 0.05661471 0.08848303 -0.02706449 0.0054612607 0.21701132 0.0023693498 0.038849015 -0.18922842 -0.066304475 0.0010580978 0.07092622 -0.046251778 -0.003959517 -0.1512974 0.14366443 -0.12713502 0.014312972 0.12533803 -0.0031619992 0.05492809 0.14471273 -0.004559102 0.052353512 -0.21719508 -0.047491673 -0.0436598 0.025408309 0.01344686 0.10162975 -0.23130041 -0.021193566 -0.08165758 0.04768867 -0.18071274 -0.017884422 -0.052454483 0.054785397 -0.023837332 -0.10495746 -0.16715151 -0.029458467 -0.010353447 0.040108204 0.03176149 0.101070486 0.094636805 -0.0845624 -0.014431537 0.13880356 -0.1186598 -0.06518198 0.116333865 -0.08898102 0.08686249 -0.01318163 -0.18093994 0.027706483 0.053144854 -0.034508456 -0.060596187 -0.119825795 0.16182272 -0.0069293403 -0.04848429 -0.24303217 0.06687744 0.04212512 0.012761615 0.06791912 0.19344382 -0.005680236 -0.054821506 0.046959706 -0.025492778 0.093086734 -0.075733036 0.11715115 0.015112201 0.045269396 -0.01439717 0.15348896 0.08864671 0.18486038 -0.082671694 0.06604237
team 0.0136336405 -0.19065665 -0.1218913 -0.15051728 0.2323686 0.06375617 -0.12099812 0.12725553 -0.062117226 -0.005233118 0.032472216 -0.046610445 -0.20053865 0.047207255 -0.032061312 0.045072988 -0.023750521 -0.12894166 0.04101413 -0.10105578 0.022132087 0.20542254 0.15186986 0.030752745 0.15117663 -0.00091904245 0.024004426 -0.15989009 -0.06319427 -0.06891875 -0.017047483 -0.008544944 0.12708552 -0.14392968 -0.029771877 -0.03494616 0.15244097 0.20658934 -0.0076482156 -0.08175304 -0.010866096 0.08827511 -0.17484616 -0.22753282 -0.05488169 0.04189394 -0.0064000287 0.06529456 -0.05766156 -0.15047717 -0.06116378 -0.00912055 0.025691448 0.11693888 -0.11400453 -0.0009765698 -0.109922335 0.11122628 0.09841271 -0.0062282197 -0.07872814 0.09756242 -0.11709197 -0.11843507 0.030866345 -0.07960485 -0.030004013 -0.0009128966 0.10309999 -0.06496667 -0.05365703 -0.011666681 0.06545656 -0.05503822 0.21216168 0.073520154 0.0122304205 0.09184604 0.047928736 0.03834067 -0.16692717 0.12435198 -0.16084103 0.10202625 -0.08235975 -0.1076119 0.10090236 0.016808106 -0.12950417 -0.05315503 -0.02375353 0.039575398 0.055744752 0.14179707 -0.04846356 -0.12749752 -0.079153724 -0.036026258 0.06969112 0.065564916
form 0.015071091 -0.08759931 0.09005159 -0.04514705 -0.07756794 -0.018007694 -0.089519545 0.1269722 0.16862574 -0.05186855 -0.18501145 -0.018804286 -0.19576602 -0.06424948 -0.020812098 -0.10981924 0.061040904 -0.06620337 0.095646374 -0.011081234 -0.020390784 -0.009599393 -0.09218091 -0.008589305 -0.029851647 -0.058327764 -0.047081713 0.14660054 -0.3371435 -0.085737064 0.14391136 0.19807333 -0.008219347 -0.011034638 -0.072828576 -0.06631721 -0.12175274 -0.11084594 -0.106273 -0.17384692 -0.08006912 -0.083311774 -0.18531965 0.017954405 -0.17899999 -0.19558373 -0.23247348 0.0764151 -0.036266632 -0.12279273 -0.013016469 -0.13853647 -0.025270041 0.11691912 -0.076926194 0.1024333 -0.11884544 0.089668706 -0.16236368 -0.013474417 -0.101432785 -0.0039275005 -0.006097215 -0.08234546 -0.1368809 -0.04084866 -0.0604532 -0.044688284 -0.06203927 -0.026449611 -0.06257544 0.16974553 -0.07212957 -0.105539255 -0.06299651 0.105741985 0.005142703 0.087194055 -0.07830082 -0.04392883 -0.055096384 0.025287986 0.034213092 0.118168905 0.026810406 0.10831554 -0.07553703 0.036545202 -0.08595186 0.13449505 0.027453657 0.10662445 0.07667112 -0.09169247 0.036147647 -0.027580397 0.030215813 0.027974349 0.038349915 0.02114028
learning 0.091325216 -0.21175678 0.020715395 -0.059262697 0.05238325 0.025745526 -0.11083754 -0.09183584 -0.008626287 -0.21572661 0.064818144 0.07862458 -0.2707162 -0.01689875 -0.06672444 -0.009495066 0.13062368 -0.10050911 0.035368573 -0.075235926 -0.11486163 0.1385149 0.039173152 -0.08061917 0.054427654 -0.051137246 0.021702597 -0.05199872 -0.18510096 -0.06752736 -0.056243744 0.15878567 0.09155201 -0.10116466 0.026487809 -0.113953 0.089123756 0.0043099755 0.09641362 0.07738469 -0.006898743 0.0072886525 -0.014634761 0.022168295 -0.19210945 -0.0014087901 -0.11997698 -0.09245609 -0.08769721 0.046692785 -0.23747015 -0.13391796 -0.032211907 0.08247521 -0.13450108 -0.04354819 -0.08435939 0.11734622 0.16976985 -0.103569545 -0.010432116 -0.132401 -0.04614664 -0.043472882 -0.044854015 -0.08005857 0.010356765 0.106720746 0.07299444 -0.023565972 -0.068968914 0.07706581 -0.07790613 -0.06250621 0.008831351 -0.07232771 -0.0046595484 0.10462133 0.018342622 -0.13565873 -0.07375472 0.08146265 -0.21115543 -0.038259428 -0.13365595 -0.07522934 0.035628535 0.094662726 0.15451084 0.06385452 0.022200866 0.016396727 0.16913468 0.007864638 -0.11324761 0.24307291 0.065715276 -0.088189416 -0.06647245 0.06085284
case 0.0953951 0.074356064 -0.07893393 0.03755391 0.04303625 0.09788279 0.03326486 0.19335759 0.17918225 0.019483984 -0.12496687 -0.18562102 0.025998196 0.056644436 0.021721745 -0.22373341 -0.03441254 -0.12556754 0.06253611 -0.03158154 0.06869361 0.012428537 -0.10314215 0.013903094 -0.018224256 -0.084194764 0.0073987553 0.010882845 -0.06915825 -0.1331095 0.10430833 0.21749301 -0.072248675 0.03510381 -0.08320225 -0.07750653 0.020569554 -0.25094742 0.022940993 -0.13973475 -0.08301378 -0.012173335 -0.014744111 0.0047397227 -0.09487595 -0.09091234 -0.021944448 0.1540891 0.08248565 -0.25729275 -0.02890795 -0.12369742 0.05789558 0.10067035 -0.03572958 0.106242426 -0.011100405 0.2551732 -0.109426655 -0.092738144 -0.056434948 -0.07817425 -0.022642875 -0.018582163 -0.096667394 0.07815876 -0.14112177 0.05554795 -0.05030183 0.09821984 0.01806303 -0.025652593 -0.036868677 -0.043208145 -0.14827347 0.12845367 -0.09506905 -0.084577456 -0.019069994 -0.011024636 0.0128865 0.0009221378 0.2239252 -0.12719402 -0.020164263 -0.009879358 0.124411575 0.011602031 -0.1149912 0.06911467 0.15973361 0.1387065 0.05056188 -0.0523086 0.13405114 -0.08659401 -0.045920637 0.009305241 -0.024013804 -0.11547591
details 0.09551352 -0.0640267 -0.006542932 -0.07642367 0.06473085 -0.13019146 -0.16112502 0.10924875 -0.060218938 -0.04283572 -0.07279952 0.077824876 -0.046301603 0.006022175 -0.045156654 0.21696006 0.0334964 0.1586664 0.10168416 0.16498205 -0.013309033 -0.0018333741 0.077019714 -0.13654117 -0.0029821119 0.15208569 0.109111734 -0.15028109 -0.06990545 0.22352272 0.09001432 -0.02666979 0.04531468 -0.013636321 0.14657822 0.007907337 0.09990569 0.044526562 0.15732309 0.045242354 0.031159341 -0.019114567 0.104411066 0.11792821 -0.043389887 0.03153221 -0.08429691 -0.017497197 -0.15043907 -0.19571473 -0.089083426 0.004336879 -0.10650502 -0.010684118 0.093841664 -0.05534157 -0.013035728 0.05573356 -0.005720906 0.04111217 0.10694706 -0.009550682 -0.13858142 0.075260065 -0.029784115 -0.11129048 -0.025299575 -0.15866423 0.025933426 0.098643675 -0.0699649 -0.09284733 0.015298414 -0.07019787 -0.02190085 -0.01739006 0.006542699 -0.026353432 -0.11768567 0.12431611 0.037582792 0.0896741 -0.090048574 0.24994472 0.041392107 0.12762327 -0.13999918 0.012495583 -0.04773667 -0.0018528642 -0.11575807 0.12179927 0.087282315 0.049386352 -0.1530858 0.03794464 0.19167243 -0.010365331 -0.0052752444 0.30355027
level 0.16344263 -0.16769728 -0.0013138375 -0.03797405 0.07236371 -0.0943859 -0.15212747 0.07617643 0.14646961 -0.13779615 0.013743105 -0.048308738 -0.15231626 -0.029722715 0.11884999 -0.030713689 -0.15390874 -0.049757347 -0.1682852 -0.039693538 -0.07375807 0.005810366 0.05033373 0.017268766 0.015732663 -0.12437973 0.121530496 -0.03354189 -0.12565339 -0.1746126 0.08425228 0.21457592 0.04964088 0.030912148 -0.007836816 -0.17458309 -0.12698019 -0.017983556 -0.05745775 -0.0779342 -0.04827958 0.09219603 0.0484975 -0.055020522 -0.05246824 -0.056175012 -0.16487752 0.0084904125 0.013466359 -0.16441302 -0.16295499 -0.2299139 0.07635376 0.16611668 0.014886858 0.17296554 -0.1165023 0.10971678 0.062029507 -0.159213 -0.06359511 -0.05271896 -0.013862801 0.054266848 -0.13259526 0.03435153 -0.12223102 0.16159944 -0.028547756 -0.06907383 -0.07992375 0.13133425 0.0019791352 -0.10964933 -0.02613342 0.048404362 0.023078231 0.16836041 0.042179655 0.03100208 -0.099461585 0.10922879 -0.10189763 -0.0017449302 -0.11224026 0.007785949 0.032072466 0.07201192 -0.047275424 -0.018943507 -0.07092023 0.05910498 0.092310905 -0.061785135 0.1343568 -0.06734976 0.018393144 -0.20983209 0.012567301 -0.040468838
social 0.12355375 -0.120589495 -0.045662228 -0.061345633 0.08896197 -0.06259388 -0.04489603 -0.0611062 0.047851156 -0.22046062 0.030463599 0.01663729 -0.1752656 0.057921555 -0.09799443 -0.04588776 0.11724908 -0.05906909 -0.0090003135 0.01980701 -0.1246502 0.060897246 0.0006337251 -0.066970445 -0.016057897 -0.17351073 0.08553636 0.0049331435 -0.16030891 -0.1339717 -0.084177084 0.12429877 -0.015089086 -0.033779237 -0.013199296 0.053444903 -0.004663773 -0.0068885544 0.07347856 0.122938454 0.08187858 0.07504557 -0.076909214 0.04747166 -0.07306762 -0.112606145 -0.09495423 -0.06586491 -0.1353141 -0.037547566 -0.037848547 0.025934171 -0.057119098 0.2532673 -0.008611309 0.08818685 -0.1716747 0.082906045 0.21055855 -0.09863524 -0.058465235 -0.06991263 -0.026410943 -0.05110529 0.057092022 0.013439937 -0.12961744 -0.10721329 -0.099465966 0.0044213706 0.15810959 0.16379024 -0.14271498 -0.06618714 0.095229976 -0.031108778 0.0144907115 0.056729075 -0.07517117 -0.20732181 -0.12942243 0.100224294 -0.071270384 -0.23274036 -0.11072672 -0.039100185 0.09100933 0.13152222 -0.019169321 -0.008199803 0.037370443 0.05647025 0.23861709 -0.10057613 0.0399333 0.1477927 0.060561847 0.045168053 -0.0075734635 -0.14344943
programme 0.05146171 -0.15560524 -0.026532428 -0.04500905 0.17948096 0.008890146 -0.19469756 -0.041067228 0.07071467 -0.15421963 -0.10461989 -0.020344706 -0.19901732 -0.018929543 -0.045079846 0.011406751 -0.05715922 -0.058613848 -0.03632769 -0.14694148 -0.071344234 0.041327592 0.01925869 -0.01484603 0.16537619 -0.028995195 0.08980001 -0.07227813 -0.23976666 -0.11876475 0.022268198 0.016296696 0.034147955 -0.13806137 0.065534644 0.0107508665 0.04358282 0.06926769 0.07312835 0.06634457 0.021080302 0.10806623 -0.06520836 0.027245289 -0.100501485 -0.09741506 -0.053867202 0.03230022 -0.11988336 -0.034693114 -0.22001399 -0.09783935 0.0097512845 0.160591 -0.036297165 0.07370342 -0.14655963 0.15296043 0.16280174 -0.024195988 -0.1265692 -0.051322885 -0.09219925 -0.034506172 0.113713056 -0.09172429 -0.11076289 0.0599914 0.043452103 -0.065364674 -0.14003196 0.103608795 0.0051200152 -0.20592126 0.12753607 -0.04411153 0.019024555 0.077693895 -0.08147689 0.07757435 -0.2133457 0.13965183 -0.16195434 0.044373482 -0.14165993 -0.08008791 -0.0084444275 0.11550865 0.09473137 0.08209845 0.009691256 0.05060154 0.22992676 -0.008717292 0.06941279 0.022638451 0.008626278 -0.105163425 0.0050614695 -0.05341496
old 0.0027393098 0.051087596 -0.071766436 0.0034041088 0.020980926 -0.07843725 -0.0063718036 0.02060888 0.105410054 0.3108325 0.1410018 0.035449717 0.033340618 -0.13364461 0.117449984 -0.16264069 -0.09023462 -0.012690171 -0.13479516 0.08342533 0.13562968 0.08275089 -0.06997551 0.092876546 -0.09925129 0.106230564 0.019526599 0.10088978 -0.076283745 -0.01878061 -0.07981991 -0.19760302 0.06883286 0.07130665 -0.067768715 0.11855817 -0.31387222 0.1191668 0.114424124 -0.09593506 0.035374 -0.049277477 -0.11055732 -0.10037797 -0.0055103167 0.032792874 0.014031312 0.14123212 -0.051408574 0.062305503 0.055509485 -0.018220758 -0.073159344 0.030072765 -0.20656845 -0.05239357 -0.049041335 -0.03407601 -0.023517294 0.043000482 0.029164882 0.0608478 0.15386854 0.0032327203 -0.0017172098 -0.02130725 0.14127365 0.08191817 -0.0016940524 -0.02404811 -0.14888205 0.043742437 0.10321061 0.10308575 0.030439528 0.114343435 0.053489942 0.053182885 -0.17068318 -0.031352855 0.05326428 -0.124097586 0.0515094 -0.12227769 0.3168585 -0.00010536572 0.008707872 0.06996299 -0.010238432 0.0013041281 -0.047572013 -0.01720335 -0.09165536 0.12443783 0.10686725 0.01924405 0.065873705 0.051181212 0.09383432 0.12989998
road -0.21949056 -0.107037194 0.0026326773 -0.0013549093 0.036041915 -0.07575362 -0.14407729 0.1231065 -0.05203757 0.21826772 0.06480988 0.19029322 0.08039206 0.08002618 -0.0007442434 -0.04518052 -0.05132831 0.053886693 0.04757551 0.013136192 -0.053269085 0.0036179235 -0.062420618 0.097474 0.0017607562 0.07043313 0.29623684 0.16046825 0.07809516 0.16917363 0.06257456 -0.13675603 -0.024024772 0.07153801 -0.06756566 -0.057180475 -0.19638637 0.08797229 0.28893158 -0.14679778 0.032395337 -0.032191742 -0.007060453 0.0039897948 0.060037404 0.09014693 -0.0026131775 0.07317098 0.037849914 -0.16973993 0.073296584 0.035325702 0.114242986 0.118826 -0.113136284 0.019614557 0.08359485 -0.04588345 0.073111765 -0.14291112 -0.15569086 0.09913343 -0.025658986 0.09269737 -0.03494323 -0.0013516737 0.10902637 -0.0790672 -0.05893692 -0.079467684 -0.061322045 0.013585488 0.037613 0.094520286 0.10824687 0.1927821 -0.04703886 0.06081747 -0.08111139 -0.017301185 0.06863771 -0.036790974 -0.07423477 -0.016886298 -0.03874985 0.1619603 -0.012280232 0.17209081 -0.03259757 -0.10762706 -0.0040246793 -0.051938355 0.047379732 0.090095475 -0.04309737 -0.06058922 0.0138271805 -0.19121 0.015881253 0.09729664
name -0.03932551 0.06274235 -0.00032483708 -0.023882562 -0.0020750777 -0.089228325 0.11910461 0.05423072 -0.022743462 0.09587756 0.047159083 -0.10656762 -0.010801777 -0.06657794 -0.03785669 -0.12114193 0.07080976 0.107834496 0.07243906 0.028622624 0.05928018 0.018427163 0.084569044 0.0035151087 -0.056746412 0.13286284 -0.1320826 0.0066138133 -0.14384922 0.050004214 0.08847106 -0.024110429 0.037441377 0.09437235 0.116239674 0.063532054 0.06823571 -0.13004957 -0.062191956 -0.2102516 -0.08079871 -0.13835573 -0.18861882 0.0004563757 -0.16312286 -0.09449699 0.08560273 0.13554911 -0.0028089767 -0.1433604 0.10947419 0.014212506 -0.07745437 0.009323291 -0.18658072 -0.010618069 -0.12813304 0.15780693 -0.073648 0.24427724 0.004276841 0.11848282 0.19457501 -0.013125687 -0.023429386 -0.04836049 -0.0012113098 -0.091726884 0.17102467 0.104824886 -0.15148476 -0.056214966 -0.08955205 0.15801448 -0.105434395 0.03354089 0.013072026 0.014830305 -0.04110134 0.030022632 -0.09042396 -0.14472798 0.11321642 0.049953166 0.20021895 0.15424007 0.010917856 0.04460639 -0.10057951 0.13446875 0.01833893 0.16819978 -0.05594043 0.020424642 -0.10264075 -0.039870203 0.056707643 0.1543213 0.10087219 0.15159358
open -0.017347047 -0.1814111 -0.023331687 0.07558467 0.09725221 -0.09823476 -0.070949875 0.080917895 0.15860574 0.15910506 -0.058856174 0.1574361 -0.113642745 0.046587933 -0.08121755 -0.029377336 -0.15270028 -0.046134014 -0.080463804 0.08125531 -0.092577025 0.032524586 -0.06928466 -0.054517675 0.018539974 -0.024855087 0.12015261 0.12625939 -0.09402978 -0.07825138 0.028538981 -0.14437479 0.06963023 0.04163705 0.020145562 -0.063669205 -0.13962883 0.03512752 -0.04186706 -0.06153211 0.07184642 -0.14280607 -0.14739119 0.0025802294 -0.018634476 -0.0009332901 -0.066363916 0.119667105 -0.023716351 0.073633604 0.008346896 0.0024985117 -0.10338809 0.17120738 -0.07723869 0.09040255 -0.16502948 0.0056994935 -0.02610241 -0.16674642 -0.107113615 0.17600922 -0.023142986 -0.017436115 0.0052834875 -0.066876926 -0.027067946 0.08127454 -0.0032806771 -0.11988149 -0.12001331 -0.033856295 0.060267113 -0.13754436 0.16945355 0.1670044 -0.09610187 0.022674317 -0.27327868 0.058259707 -0.094964184 -0.04227255 -0.051616076 0.27135745 0.06489578 -0.028858041 -0.046061683 0.10201525 0.006863459 0.11090096 -0.010929941 -0.030383717 -0.014202749 0.052668706 -0.012906748 -0.024737114 -0.03073287 0.044027776 -0.025249971 0.32815298
view 0.13526288 -0.020253947 -0.0068002855 0.17951691 0.010366118 -0.10682509 0.08148441 0.071747735 -0.02853531 -0.03501381 0.0014358262 0.15621395 0.003724401 0.062258046 -0.1334451 -0.12536031 -0.0744128 0.081761785 0.16202505 0.021877885 -0.044330347 -0.08398923 -0.010213687 -0.07624183 -0.0005355247 -0.074098915 0.24103086 0.07468875 -0.15969954 0.17511453 -0.0043764273 -0.03016645 0.0902243 0.09418046 0.119499855 -0.054289788 -0.042333428 -0.06949032 -0.059547696 -0.13532263 -0.03584286 -0.11476474 -0.011656849 0.1527122 -0.103552096 -0.06369623 -0.17985038 0.017637694 -0.08237003 -0.15990672 0.04136458 -0.019797789 -0.15991747 0.25043544 -0.014589538 0.14473994 -0.1850437 0.10569527 -0.059924193 -0.116710536 0.016910644 -0.023223676 -0.12910597 -0.16518313 -0.068144865 -0.01927522 -0.04643206 0.100559756 0.09588209 0.005900666 -0.019601423 -0.0025271508 0.02118321 -0.13153577 0.13773966 0.12469374 -0.073996246 0.089247085 0.074077785 -0.12748209 0.049010314 0.14900418 -0.07959985 0.07846787 0.09375732 -0.014834505 -0.16967179 -0.015239715 0.018945858 0.07049054 0.052956957 0.1288596 -0.017674878 0.01050507 0.022956666 0.14500976 -0.0011405778 -0.037037656 -0.13228223 0.1650831
issues 0.032778446 -0.078991726 -0.052390933 0.011950892 0.08934297 -0.0015046385 -0.03203682 -0.020197984 -0.05841429 -0.15125856 -0.03820366 0.015523196 -0.10860774 0.07877272 -0.1125491 0.13762349 -0.024529878 -0.029199583 0.08565111 0.0569931 -0.03105143 0.00088109204 -0.015801135 -0.20272572 0.07168784 -0.05788393 0.06772687 -0.07377019 -0.13821638 0.06726284 0.016539836 -0.027093112 -0.0017337549 0.06350117 0.028102541 0.084675185 0.18955852 0.014993052 0.06699818 0.28308046 0.09407514 0.05592282 0.013639734 0.15951693 -0.049626082 -0.0917044 -0.034751087 -0.18532847 0.018448722 -0.13752802 -0.14247362 -0.085449725 0.011388944 -0.034684565 0.20292267 0.11066208 -0.07878703 0.0065942295 0.086995505 -0.08426191 0.04485769 -0.0852366 -0.21006973 -0.061008424 0.048087686 -0.15675938 -0.19443996 -0.13184918 0.014001311 0.16031161 0.17941266 -0.029904762 -0.119524986 -0.051979944 0.055844963 -0.035796676 0.0037604515 0.10321345 -0.042252276 -0.10944728 -0.01441295 0.07343343 -0.10611601 -0.04416981 -0.17452268 0.05771017 0.06262115 0.14185281 0.0043867156 0.11783075 0.048733063 0.14372478 0.19901249 -0.028688263 -0.040789522 0.21222878 0.120975085 -0.054143433 -0.056174412 0.022203308
news -0.09451273 -0.14791954 -0.08572678 0.117949806 0.11957416 -0.044741347 -0.01880638 -0.046808716 -0.14631362 0.0746726 -0.15858786 -0.07705776 -0.03695137 0.15947479 -0.06901221 -0.0031833986 -0.19079903 -0.013878137 0.076176524 0.03515124 -0.081110604 -0.09411257 0.021673387 -0.06483565 0.22252373 0.027269024 0.0077916845 -0.15115595 -0.052389283 0.078787856 -0.0025359304 -0.0894337 -0.0012881684 0.13089429 0.14792222 0.15974942 0.13332693 0.0758338 -0.109024964 0.08410346 -0.07862567 0.113494694 -0.13433537 0.07432406 0.0873347 -0.120524 0.15184633 0.09686805 -0.062359653 0.029301435 0.03980581 0.057369206 -0.04126479 -0.08012868 -0.015771063 -0.009759286 -0.12478621 -0.04665092 0.08626073 -0.10526657 0.060201675 0.149563 -0.16024339 -0.081765674 0.12293468 -0.12821686 -0.034439113 -0.07984409 0.18298547 0.108576074 0.07673427 -0.17910257 0.2485004 -0.15575124 0.16431792 0.10942062 0.030878743 -0.020227786 -0.09005305 0.059226774 0.0018720286 0.039485995 -0.025244534 0.0033477095 0.06199134 -0.025693541 0.029527064 -0.007125642 0.015377915 0.10248811 -0.07459244 0.08913551 0.08015293 0.093192354 -0.041006893 0.18991779 0.13679911 0.023648659 -0.04533307 0.047021754
change 0.045810614 -0.08098849 0.021333387 -0.034711104 -0.032037474 0.039942686 0.075207636 0.0018718457 0.07566973 -0.2261408 -0.054144733 -0.11905592 -0.14877483 0.04212828 -0.11140889 -0.10422351 -0.12929678 -0.079984695 -0.115796104 -0.03524424 -0.02141753 0.042616244 0.013860591 -0.010257632 0.015379687 -0.15153079 0.038010173 0.10305487 -0.2199451 -0.16788533 0.22372381 0.15115274 0.0768771 0.14754821 -0.058810595 -0.06158658 -0.08892431 -0.11973566 -0.08162036 -0.09235286 -0.14100878 0.014974882 -0.041169096 0.018082526 -0.056744505 -0.1129465 -0.29641858 0.09970258 0.035490945 -0.15330268 -0.061060656 0.056909576 0.03320027 0.14181255 -0.048613906 0.16269761 -0.0713964 0.03747502 -0.010836491 -0.12201254 -0.050764542 -0.06163259 -0.073486716 -0.055057354 0.0048537315 -0.036833007 -0.19875644 0.17322212 -0.092248626 0.06410478 -0.006804907 0.08395179 0.0040192544 -0.2802089 -0.017766105 0.095894404 -0.09165338 0.18615659 0.08547477 -0.033275876 -0.076436676 -0.0012209393 -0.05296611 -0.14451917 -0.04481017 0.016516028 0.10384677 0.010740621 0.0078537 0.07196227 -0.017162941 0.08089248 -0.021378815 -0.04411004 0.08941966 -0.037634715 0.04451577 -0.017697679 0.021441486 -0.096628495
quality 0.1516721 -0.12290411 -0.1064874 -0.01982888 0.014529141 0.05142264 -0.16391318 -0.091284245 0.12367159 -0.14393492 0.009259848 0.046353403 -0.20233174 -0.013666956 0.07715255 0.034629256 -0.030277047 -0.064893015 -0.088328324 -0.13636306 -0.04502667 -0.08730373 0.017695397 -0.021433393 -0.15153436 -0.059012983 -0.000834985 -0.098115735 -0.1724904 -0.07585306 0.009747106 0.13285068 0.014359551 -0.021325171 0.07099053 -0.07882964 0.017721388 0.21333571 -0.027773136 -0.0747948 -0.05331739 0.076301314 0.040110968 -0.08753546 -0.078404404 0.032613095 -0.14954458 -0.019575939 -0.1235976 -0.11526409 -0.18899095 -0.00913068 0.070097335 0.26913598 -0.09906445 0.19588025 -0.051362164 0.18992443 0.05103232 0.0045997794 -0.023607709 -0.073475726 -0.0506657 0.13617632 -0.074244834 -0.10251787 -0.13005535 0.15251166 -0.0091868 -0.042028446 0.035359036 0.1500195 0.06124396 -0.12614003 -0.047202006 0.08684649 -0.12875585 0.1506645 0.04831906 0.16142586 0.0017340668 0.21138752 -0.034504164 0.05921766 -0.05561799 0.013420076 -0.11264785 -0.04932691 0.07873622 -0.14197049 0.047120996 0.07641375 -0.094422325 -0.0331909 0.026207607 0.06502515 -0.043795478 -0.15981275 0.014227021 -0.017827388
family 0.23841773 -0.018555757 -0.10909779 0.030075809 0.1082725 -0.1520482 -0.07343563 0.16688085 0.037627313 0.048730005 0.07530246 -0.041065842 -0.05841042 0.018668981 -0.0023028129 -0.0023510987 0.054046124 -0.049326986 -0.17709173 0.013880809 0.027217535 0.16161518 -0.05906488 0.07700281 -0.11383691 -0.027090227 0.06800813 0.06538827 -0.17604217 -0.060434554 -0.056731246 0.01305507 -0.04533105 0.08025947 -0.08174927 0.061790556 -0.072766036 0.12872395 0.21980654 -0.005000162 -0.04012436 0.026667839 -0.25622618 -0.034838233 -0.1365169 -0.05556939 0.04962092 0.08616149 -0.16066593 -0.063570246 0.12426749 0.17435491 -0.11483688 0.18899497 -0.1832634 -0.00731523 -0.09884987 0.11907458 0.087844945 -0.03259321 0.06606643 -0.041405402 -0.039865404 0.06553831 0.09566124 0.011332868 0.09051302 -0.17018372 0.035159525 -0.0065437113 -0.05620356 -0.0013650921 0.112344675 0.06506696 -0.03160099 -0.0847745 -0.03395521 -0.054674815 -0.096568204 -0.077199355 -0.10838804 0.018906169 0.090239845 -0.21156766 0.20446797 -0.030930184 0.065277725 0.14782333 -0.02661053 -0.12835631 0.060298014 0.031591263 0.09819735 0.09407468 0.059471417 0.117556654 0.0013836885 0.15352644 -0.07630397 -0.06298598
put -0.032256447 -0.005374243 -0.24736185 0.017396566 0.058266155 0.0939453 0.07172453 0.0073277834 0.09962238 0.19378157 -0.060545903 -0.06424118 -0.0329338 -0.004469762 0.021880409 -0.22931494 -0.20359966 -0.120336264 -0.15203865 -0.0103346445 0.067166425 -0.015496943 -0.034622073 0.11761091 -0.048690278 -0.060036015 -0.03726452 0.04907567 -0.120498404 -0.22770819 -0.079352304 0.09453963 0.11701798 -0.038985133 0.023427138 -0.017570699 -0.08620171 0.04855558 -0.13564855 -0.07514191 -0.10934789 -0.12660888 -0.13194625 -0.15882325 0.11770251 -0.0041918885 -0.15657741 0.29639164 0.09374361 -0.105557814 0.045776457 0.027661303 -0.018867549 0.045883022 -0.23715812 0.12788594 -0.05678394 0.051108453 -0.08306993 -0.077532336 0.0015604025 0.12875736 0.0137671735 -0.15550117 -0.012540728 -0.016799921 0.019438505 0.05723241 0.11264084 0.09740064 -0.094735846 0.010989887 0.01138325 -0.023906752 -0.021933416 0.16959262 -0.0486121 0.038941782 0.025957555 0.027031418 0.019924136 -0.09308737 0.05722535 -0.09004062 0.060596913 -0.11278145 0.15634061 0.0074241147 -0.036393516 0.013418542 0.057946112 -0.11422094 -0.13796778 0.07322817 0.11934207 -0.1208146 -0.05142878 -0.010632814 -0.08870166 0.047524665
policy 0.0125025455 -0.058896516 -0.03491365 -0.022849608 0.0979244 -0.015962744 -0.02937166 -0.042412557 0.023106882 -0.2082152 -0.07631367 -0.040645648 -0.12134071 0.15261482 -0.051265426 -0.047554124 -0.027104063 -0.014921335 0.09046206 -0.004028715 -0.05214689 -0.06297387 -0.07023216 -0.088769585 0.05177159 -0.10723269 0.0816442 -0.07197218 -0.17855026 -0.12310067 0.0694755 0.20365298 -0.07621413 -0.020823449 0.010967084 0.0331554 0.017541014 -0.08762862 0.07370353 0.15146255 -0.06967932 -0.00018529856 -0.04689049 0.06532302 0.07049885 -0.05652022 -0.07722679 -0.07962181 -0.062108353 -0.19996667 -0.03913629 0.09030524 0.15462454 0.20017615 0.078831345 0.24268429 -0.05100557 0.09924131 0.15168492 -0.13242015 -0.09810739 -0.02104548 -0.16066161 -0.06458538 0.08532079 -0.1106218 -0.23272538 -0.06552341 -0.039027456 0.054232568 0.09610667 0.11775448 -0.1859575 -0.13466467 0.046235774 0.095904626 -0.07738764 0.11115703 0.014880196 -0.07800942 -0.17178722 0.019839382 -0.04470891 -0.1069363 -0.16952504 -0.0142042255 0.09806227 0.10786372 0.043441437 0.0767397 0.07935556 0.11059947 0.16586217 -0.0462359 0.028276455 0.082266346 -0.0245086 0.0033317795 -0.15021832 -0.11874973
history 0.025955794 0.061320737 -0.073914856 -0.0070229596 -0.021635558 0.06719217 0.007864898 0.037625026 0.030826714 -0.0012865962 -0.024353174 -0.124840826 -0.088935696 -0.07112023 -0.06022861 0.03166238 0.10014312 -0.004963482 0.014880819 0.008854689 0.07709476 -0.05410839 -0.23416768 -0.21951827 0.10576393 -0.018397773 0.021378027 0.018547356 -0.04083068 0.14022987 -0.053490486 -0.008674374 0.062470164 0.10196954 0.05011413 0.06470665 -0.103240885 0.04316331 -0.16074388 -0.038557615 0.039727315 0.037542317 -0.11970283 0.03564669 -0.14478643 -0.04239357 -0.050661456 0.035772394 -0.20537445 -0.009259649 -0.042252302 0.004384274 -0.13066617 0.06791616 -0.060058903 0.07906896 -0.033116516 0.09848407 0.13652223 0.009038554 -0.024109518 -0.08171896 0.11274913 0.028606748 0.054229725 -0.10721824 0.02494813 -0.117167376 -0.053946227 -0.13688348 -0.0048584207 0.085925154 -0.040637314 0.014542278 0.11859542 -0.09058785 0.22681105 0.0947982 -0.19301094 -0.28489733 -0.08942833 0.05874131 -0.051373642 -0.09576626 0.18821074 0.024836693 -0.04857412 0.0284564 0.008012625 0.072449446 -0.09285093 0.2428321 0.24977961 -0.019253433 0.10756213 0.22771357 0.111101724 0.060207084 0.13682686 -0.031571195
process -0.018406527 -0.10224241 0.062461473 -0.12036351 -0.12234399 0.18661594 -0.02302748 -0.088027745 0.08350573 -0.23019788 -0.12803122 -0.022053372 -0.18773343 0.0061545367 0.0077875727 0.013142105 -0.05190939 -0.039448068 0.03070889 -0.124039836 -0.022981215 0.056927796 -0.07075942 -0.08595414 -0.010003929 -0.131563 -0.013577071 0.056937166 -0.19294453 -0.16869488 0.073907875 0.18344122 0.07591686 -0.036642283 -0.123383604 -0.18562225 0.0522756 -0.12401504 -0.1270004 0.048649732 -0.12724748 0.08262703 -0.083682284 -0.0560682 -0.117529586 -0.044308893 -0.2713073 0.0920001 0.045780007 -0.14366491 -0.12862532 -0.053425346 0.047974564 0.14220445 -0.00467649 0.10282729 -0.10903606 0.19028921 -0.04743081 -0.11922544 -0.15124202 -0.11216489 -0.01642461 -0.033398695 -0.054546937 -0.03559269 -0.18681534 0.0111428965 -0.08084064 -0.06194935 0.019952167 0.0861362 -0.07863916 -0.21200034 -0.042678643 0.014877238 -0.07431458 0.10516638 0.083034895 0.060903434 -0.08848923 0.08548914 0.032666806 -0.0104435375 -0.11424556 -0.0012344876 0.015623905 0.0789896 0.0011331599 0.04986377 0.07247072 0.07374757 0.0053867307 -0.15324862 0.10530969 -0.020347565 -0.055081505 -0.063014634 -0.034160465 -0.08314094
water 0.068052955 -0.04094015 -0.08189264 0.0505588 -0.20014061 0.15246968 -0.12516625 0.032179013 -0.014753549 0.042363048 0.04185294 0.118680954 -0.12228686 -0.037545945 0.10265081 0.063968904 -0.2505138 0.012571572 -0.29692283 0.060274947 -0.0012611857 -0.022967447 -0.026613649 0.083235145 -0.1191695 -0.061436523 0.053546295 0.1255441 -0.0047713746 -0.045052882 0.059287935 -0.050907508 -0.07716632 0.0044293036 -0.06414937 -0.14405721 -0.20032807 0.1119883 0.023010042 -0.028779183 -0.04853862 -0.0105710225 -0.06575082 -0.05898942 0.12614247 0.09181082 -0.071229085 -0.036121197 0.087412156 -0.117113106 0.033279825 -0.13377891 0.0742314 0.103003494 2.1796917e-05 0.21357365 0.031139769 -0.18781424 -0.017220642 -0.109730944 -0.02532902 0.08319 0.17549013 -0.03734263 0.0148913935 0.08026402 0.088782325 -0.0038653933 0.11941768 0.009756183 0.13516603 0.014018882 0.11705252 -0.056096185 -0.07013833 0.1292959 -0.06836499 -0.12820953 0.0067211636 0.053252287 -0.057420082 0.04100003 -0.0129332 0.16575167 -0.01558009 0.1566351 -0.1330861 -0.019516302 0.09938424 0.021821449 -0.07325099 -0.09618757 -0.08847693 -0.11740703 0.1702487 -0.15410636 -0.023408294 -0.17592955 0.05837423 -0.109894864
design 0.089687824 -0.070820235 -0.033007853 -0.09888688 0.055670567 0.16126072 0.027475914 -0.18904485 0.1361488 -0.11726878 0.030955555 0.03716321 -0.23698288 0.09425531 0.08825412 0.14101173 0.05432866 -0.08743064 0.06471831 -0.041764796 0.035650864 0.006374373 0.001641162 -0.009499653 -0.080143906 0.09963737 0.090236545 0.039330624 -0.15402816 -0.1748693 0.027562171 0.0124533875 0.066267796 -0.12433952 0.12915933 -0.18443277 0.047524318 0.10452642 -0.10963439 -0.047822166 -0.034817357 -0.021690385 0.030154875 -0.02655545 -0.18134584 0.023121584 -0.19638199 -0.07511486 -0.08023411 -0.03313637 -0.15722117 -0.039033234 -0.037451994 0.07626548 0.0028970658 0.036022205 0.035223268 0.19655707 -0.105268575 0.08214198 -0.19987696 -0.069408834 0.028558271 0.02794568 0.037339542 -0.12336754 -0.083566904 0.14024974 -0.014138237 -0.14934988 0.046495743 0.03224931 0.012189197 -0.12586437 0.09288083 -0.01780921 -0.05019572 0.22474019 -0.053244255 0.05155332 -0.009804381 0.21178888 -0.028022012 0.18357582 -0.06868233 0.081599005 -0.16321297 -0.023211077 -0.057484422 -0.09532083 0.08357032 0.07324448 0.04058734 -0.0058394354 0.04919279 0.13113391 0.0324827 -0.18969677 0.009444909 0.07081846
care 0.25952262 -0.1712324 -0.09601192 0.057983737 0.13889156 0.026894566 -0.17185254 0.061974674 0.16653313 -0.033910595 -0.057837468 0.07573033 -0.100900315 -0.04838459 -0.12616779 0.09115287 0.07333515 -0.013444701 -0.06961047 -0.13760567 -0.024509015 0.13809043 0.15503407 0.08993937 -0.04340458 -0.19781849 -0.027440298 -0.007594784 -0.18080734 -0.17884205 -0.0035644032 -0.0061229817 -0.08069391 -0.048962984 -0.062361345 0.04867116 0.010097519 -0.008912584 0.30911076 0.10830539 -0.07765031 0.09211959 -0.115274295 -0.0988793 -0.031644166 -0.038973123 -0.09870617 0.014735988 -0.12153873 -0.19452098 -0.058507483 0.025478302 0.1010089 0.2451023 -0.16916254 0.030207433 -0.11326988 0.12687247 0.111223586 -0.03030435 0.09109912 -0.09996553 -0.05883913 0.042983007 0.06563827 -0.09123493 -0.062195614 0.005168078 -0.018853035 0.12505998 0.033567954 0.04386391 0.07853394 -0.031863555 -0.053569835 0.047216367 -0.07983579 -0.078582354 0.04593994 -0.07548535 -0.025054596 0.03142661 0.021605153 -0.1927343 -0.19097933 0.024922447 0.028672274 0.07190631 -0.03630268 -0.07885361 0.090151094 -0.007951903 0.049549136 0.027005484 -0.025458101 0.08443051 -0.008471256 -0.02682423 0.013301673 -0.042194087
god -0.11567833 0.034581695 -0.2162221 0.0628896 -0.15524447 -0.22860928 0.051169015 -0.07544119 0.06416523 -0.03557253 -0.0062723467 -0.038596902 0.10342307 -0.09562432 -0.074973434 -0.021841481 -0.102404214 -0.038518853 -0.07789696 -0.14971803 -0.026905946 0.010470729 0.0009288684 0.015672017 -0.115194105 -0.22847131 -0.22162652 0.00050027523 -0.12415399 -0.013097624 -0.14605871 -0.029462269 -0.03113503 0.10137416 -0.065961264 0.013824683 -0.1400961 -0.10349384 -0.20777264 -0.03347031 0.08015255 -0.13048784 -0.011890205 0.057591572 -0.119747646 0.12121645 -0.02686503 0.124401666 -0.040710583 -0.06035698 0.044429556 -0.033527885 0.07329241 0.14945607 -0.15742777 -0.001457972 0.009836314 0.04596347 -0.07519894 0.12627317 0.20520768 -0.0063819317 0.06700009 -0.23524398 0.025680687 0.119467266 0.16430555 -0.0029401763 0.016393615 -0.04477342 -0.031029327 0.04420475 0.0007262149 0.06630738 -0.121236995 -0.040475544 -0.037203785 -0.09845353 0.12539004 -0.15337566 0.01509701 -0.13956983 -0.021855121 -0.2105632 0.1675487 -0.01325232 -0.007417102 0.031975947 -0.0566264 0.099846184 0.11847579 -0.09314755 -0.09301808 0.0010176059 0.021899948 0.07851592 -0.02138705 0.095812656 0.0067373193 0.033835255
office -0.0758501 -0.1331251 0.048473574 -0.018410696 0.14437696 -0.02654626 -0.042505007 0.09428253 -0.016649375 0.006258834 -0.25029323 -0.028114045 -0.12873763 0.15219918 -0.0914756 0.0790912 -0.04442088 0.03397289 0.14225842 0.09948744 -0.12117426 0.0011798753 -0.038500328 0.01743376 0.10411442 0.09004883 0.14975435 -0.1245103 -0.17644265 -0.08684408 0.08693963 -0.053936716 0.021595119 0.023483966 0.06241437 -0.037197802 0.018322764 0.023503032 0.18457194 0.110727735 -0.081634544 -0.023249757 -0.07864744 -0.0072013754 0.015739923 -0.01510456 0.13115367 0.069342606 -0.056499477 -0.19326383 0.019458316 0.08781096 0.13194516 0.2504037 0.07760352 -0.046183307 0.00039249533 0.09414239 0.09928382 -0.044776704 -0.15541176 0.12714247 -0.03370909 -0.00011576195 -0.12087973 -0.11614092 -0.124689944 -0.03858886 -0.0328645 0.006353087 -0.03575057 -0.10471058 -0.13653782 0.09602779 0.08199587 0.085157625 -0.17379399 -0.044965807 -0.12461561 0.1598515 -0.13184106 -0.006860844 -0.034649882 0.20328647 -0.041948777 -0.07322027 0.08616461 0.021724327 -0.028054269 0.0051250267 0.23467723 0.046426196 0.16598517 0.0028035506 -0.1625799 0.036669675 -0.009741214 0.12314498 0.011867303 0.04250254
music -0.028126828 -0.12533753 -0.10332249 0.094248824 -0.02515365 -0.040343106 -0.12511057 -0.07316541 0.12414411 -0.035350863 -0.060920052 -0.037284914 -0.045001667 -0.025328077 -0.027775314 -0.10013678 0.0021029639 -0.03266429 -0.09261618 -0.11688516 -0.121916495 -0.07671785 -0.065153934 -0.10912102 -0.06292099 0.13143146 -0.053672347 0.008178804 -0.062780455 -0.0013993895 -0.07644067 -0.15340023 0.18266876 -0.029107502 0.10782209 0.17765328 -0.007914259 0.08157858 -0.18403704 -0.19467542 0.10573213 -0.07347186 0.039634157 -0.09492212 -0.1751699 -0.055595946 -0.0045583067 -0.0030203955 -0.02897638 0.26981977 -0.027365992 0.093742624 -0.09083345 -0.10310739 -0.10913991 -0.059554778 0.013703641 -0.0014650346 -0.027458169 0.21042436 0.08031556 -0.020301724 0.025118778 0.09082477 -0.0135333575 -0.031559072 -0.009610515 -0.05389011 0.06389268 0.0039030393 -0.041102357 0.15201157 0.15803285 0.03750601 0.032765746 -0.13566485 0.081887715 0.1836305 -0.2721168 0.07337122 -0.10797526 0.13624045 -0.19715312 -0.07764519 0.055599324 -0.13191232 -0.039111994 -0.12131315 0.07416934 0.0019888377 -0.1050947 0.10687367 -0.009394546 -0.0924191 -0.05059604 0.03457652 0.020054456 0.13924547 -0.1100081 0.097496785
