1394608 100
one -0.034736056 -0.06836963 0.097696066 -0.038836986 -0.04895871 0.07131001 0.06060328 -0.13626531 -0.17578408 -0.11164763 -0.09636374 -0.07284275 -0.12509377 0.036113538 0.052886922 0.06424151 0.109488755 0.022529144 -0.12160906 -0.06162697 -0.05034849 0.0081257345 -0.032777905 -0.016197357 0.05376864 0.123577915 0.053912442 -0.0140098035 0.046874538 -0.023338618 0.10239476 0.08533395 0.052351274 0.14828023 -0.0005777932 -0.15884964 0.12987646 0.114536315 -0.08762701 0.022101933 -0.05838949 0.16338986 0.18587053 -0.031823017 -0.039773945 -0.24083531 0.02413229 -0.25677794 -0.06727128 -0.09026719 -0.115919776 -0.029914426 0.02952301 -0.13265617 -0.027524274 -0.021156235 -0.0014420899 -0.12784582 -0.21396801 0.12120028 0.048106376 0.13840415 0.07092614 0.0998252 -0.013352303 0.29229903 -0.0015477809 -0.06077023 -0.021645732 0.026645346 -0.01701457 0.109801434 -0.14775555 -0.12837067 0.07313836 -0.03067911 0.07465255 0.00024267916 -0.075440735 -0.28358626 0.052753933 -0.036814082 0.18479903 -0.03477195 0.05897764 -0.06852043 0.043699257 0.013340479 0.03663048 -0.017986251 0.014809885 0.06840947 -0.11899766 -0.025133813 0.081121 0.09418155 0.107154965 -0.036663573 -0.060203116 -0.11282296
time -0.036000315 0.008432887 0.05748071 -0.11382488 -0.008666977 0.10201503 0.0071890135 -0.101096496 -0.1468058 -0.086470775 -0.08033788 0.009971109 -0.09040935 0.13800135 0.12620331 0.0062838728 0.062740564 0.0652378 -0.17347774 -0.03645086 -0.108527735 -0.08203802 -0.047252327 -0.007189398 0.15867975 -0.022838168 0.020654095 -0.017201165 0.06213451 -0.12923095 0.09476501 0.0004202333 -0.05247842 0.11668279 -0.0031045594 -0.20026301 0.07927501 0.107694775 -0.1130094 0.118650295 0.10963298 0.220522 0.13957833 0.022735909 0.09685749 -0.22150172 -0.028506067 -0.15413697 -0.047845583 -0.012289241 -0.07001233 0.013223915 0.009234458 -0.10364437 0.09807699 -0.044450346 -0.07535921 -0.11160364 -0.07921703 0.12582941 -0.032104827 0.047270067 0.14392033 0.038303655 0.06320741 0.32506528 -0.011004039 -0.05372199 -0.05801783 0.033508234 0.023878084 0.12696508 -0.21919946 -0.11558631 0.10623588 -0.014735257 0.119565226 -0.035797946 -0.0048749764 -0.18743062 0.12307732 -0.0951519 0.21358676 0.011919693 0.112207696 -0.011251809 0.010236638 0.016780106 -0.048703544 -0.03499176 0.06616541 0.035222072 -0.122100465 0.085790195 0.014063326 0.027266543 0.13636325 -0.0104938615 -0.02573789 -0.11670254
people -0.04069992 -0.17228384 -0.06652683 -0.07279617 -0.13388768 0.11497153 0.06173339 0.06508941 0.024104029 -0.112390496 -0.23290965 -0.1036241 0.017342286 0.07909426 0.15590228 0.10875122 0.08849465 -0.020432962 -0.07311978 0.009704057 0.026181413 0.16622023 -0.17131916 -0.075212434 0.029177396 -0.009398523 0.08864467 -0.021364922 -0.12440501 -0.11408736 0.08811853 0.07957097 0.08150275 -0.06362955 0.010839634 -0.14855538 0.12786852 0.10131131 -0.13547921 0.002413955 0.018984742 0.12611483 0.12811327 -0.024817152 -0.11899789 -0.17573576 0.030851677 -0.148237 -0.06403057 -0.066961884 -0.03898702 0.21009597 0.012383641 -0.028622689 -0.012397982 -0.032737866 -0.032273278 -0.042198483 -0.095376454 0.06584607 0.021538263 0.01492785 0.17800327 0.18657227 0.18167822 0.1316028 -0.050488535 0.024198705 -0.012044426 0.12458033 0.017245408 0.17025448 -0.27729434 0.014614204 -0.00062963093 0.04534615 0.093603924 0.14173944 -0.06838282 -0.033083525 0.024754317 0.09942718 0.034677353 0.07973199 0.09781837 -0.06405703 -0.026400346 0.034330085 -0.08303091 0.10078686 0.051691733 -0.0051297755 -0.011731745 -0.10776085 0.023073284 0.022689262 -0.10586289 -0.22660373 0.026510403 0.09696546
information 0.08235661 -0.03160922 -0.07185279 -0.02314403 -0.054433126 0.01603768 -0.06868324 0.03676781 0.023508776 -0.041578356 -0.078730404 0.050291676 0.14645769 0.0032950356 0.010541983 -0.14897405 -0.101807214 -0.04702208 -0.0016996338 0.1468472 0.08161014 0.043723565 -0.017567 -0.028271383 -0.033305384 -0.17622076 0.08447732 0.0068930862 -0.11506337 0.112188466 -0.024839494 0.00010942926 0.06188037 -0.082396924 0.16944472 0.05864583 0.18125351 -0.002325938 -0.02568345 -0.049669992 0.0049686097 0.07837594 0.16730656 0.32297367 -0.012361048 0.054985475 -0.0498399 0.12963262 -0.10031456 -0.0031712942 0.006401963 0.055469934 -0.019177811 0.13150047 0.052896995 0.11886373 -0.105173245 -0.08385668 -0.023455944 -0.041157678 0.06382885 -0.121142045 -0.029974893 -0.01719756 0.24194667 -0.15345281 0.07776119 0.20517422 -0.09739463 -0.0046894983 -0.07345198 -0.11901914 -0.03717705 0.05606244 -0.059692577 0.003156357 0.14589277 -0.07282537 -0.15061446 -0.13944206 0.026535042 -0.039268225 -0.18090376 0.20013145 0.12638892 0.065439284 -0.085729495 -0.038345218 -0.079485774 0.038165126 -0.0051828795 -0.060848035 -0.06879716 0.22993019 -0.029308515 0.08672867 -0.034450136 0.096266165 -0.05843818 0.23135625
work -0.030478813 0.075227514 -0.042747278 -0.1512112 -0.023704397 -0.035661116 0.15727356 -0.044523634 -0.08448505 -0.035568744 -0.14698003 0.0048384448 0.08765859 0.056858078 0.067872725 -0.11119824 0.020247366 0.032346044 -0.0166471 0.00084697345 0.112904705 -0.054103043 -0.21240275 -0.03542753 0.013102725 -0.0384187 0.1371138 -0.04097022 -0.073204875 0.04267985 -0.023220815 -0.0880043 0.049517028 -0.051916342 0.06677838 -0.13336754 0.14239839 0.02738033 -0.20674218 -0.0687646 -0.04613929 -0.03054837 0.39214906 0.13963062 -0.14521034 -0.10558796 -0.005157861 0.007241398 -0.118988216 -0.07498602 -0.075072885 0.12872188 0.085988574 0.08074305 0.06881866 0.07465533 0.045188308 -0.11416337 -0.14801046 0.08916944 -0.07982254 0.07147325 -0.034367442 0.038798064 0.15623118 0.1269247 0.044300694 0.10680379 0.118281186 0.23171812 0.028098425 0.029352842 -0.30417806 0.023379399 0.09549534 0.05681712 0.15796383 -0.005921505 -0.12026891 -0.12386389 0.04312876 -0.0024731548 0.04079033 0.056688596 0.08977895 -0.018927377 0.004223481 0.08390363 -0.09576188 0.026812036 0.10599955 0.022090431 -0.11288759 0.00061860814 0.0660481 0.051318202 -0.019277694 0.01825675 -0.020599144 -0.053752523
use 0.025393382 0.07591434 -0.003318364 0.013920846 -0.09589146 0.068405315 0.027773086 -0.12242635 -0.115157805 -0.018563032 -0.119512446 0.1807655 0.032023463 -0.056082338 0.04063578 -0.010475152 -0.21649374 -0.05246899 -0.002013897 -0.012682338 -0.01320706 0.12271141 -0.07709174 -0.027159162 -0.013391845 0.030412236 0.015955828 0.0034099813 0.010890203 0.1442419 0.11773299 -0.053796824 0.028737279 0.03574166 0.05493123 -0.029663038 0.06307593 0.13677174 -0.11425888 -0.111246176 -0.16034536 0.2047814 0.14807516 0.25171322 -0.0787006 -0.113688685 -0.04246538 -0.07173093 -0.21372749 -0.086252786 -0.098742016 -0.078879654 -0.17063893 -0.016035585 -0.04977468 0.20498435 0.025401877 -0.16597758 -0.1328528 0.017225165 -0.0054624192 0.03668265 -0.0015954908 -0.00074590126 0.08349537 0.017365796 0.018463397 0.09375095 -0.04569653 -0.07277519 0.019706752 0.11059369 -0.113218576 -0.20301445 -0.08562978 0.104246624 0.1775417 -0.062354624 -0.08213669 -0.21120262 -0.056967013 -0.04376276 0.059929386 -0.06612387 0.12726502 -0.0007742913 -0.08497375 0.002423369 -0.13953058 -0.03476632 0.053551383 0.022852257 -0.10832853 0.15911426 -0.14704132 0.070754215 0.020668738 0.11613914 -0.16815937 0.031920765
year -0.21747762 -0.019210985 0.06423159 -0.098186575 -0.09234136 0.055505756 -0.0327781 0.07269305 -0.047668926 0.009226363 -0.03891132 -0.074739054 0.053496048 -0.06883634 -0.016184153 -0.20095848 0.0029995518 0.044688888 -0.07657064 -0.10594691 -0.10477883 -0.1891384 -0.09932992 -0.010372236 0.039200645 -0.027053524 0.18857606 0.12792662 0.047631048 -0.023806343 0.06518973 0.08638874 0.08024957 0.0474189 -0.059737675 -0.190944 0.14623706 -0.06110318 -0.04504716 0.11286947 0.16216001 0.003733352 0.10473205 -0.055765122 0.002242456 -0.09718272 0.059521686 -0.10550049 0.03345161 -0.10568193 0.024737965 0.090628065 0.13840327 -0.0022685558 0.030768923 -0.006543494 -0.06919723 -0.027064439 -0.10741707 0.034432683 0.04595541 0.1516778 0.06415113 0.07368731 0.12594242 0.3185399 -0.0771399 -0.027901324 -0.08652694 0.1979576 -0.08653254 0.0069779404 -0.25338316 0.061575055 0.22736561 0.0029320582 0.13216572 -0.017393606 0.02618078 -0.07909663 0.08918157 0.03404244 0.19895391 0.06777558 0.011609995 0.0500869 0.05043189 0.012765368 0.071665026 0.062245395 -0.026411153 0.069478415 -0.1653379 0.01982252 0.13473774 0.12382462 0.05602481 -0.037994873 0.02423782 -0.09385941
being 0.023669492 -0.04503074 -0.0004036181 0.06527192 0.02019319 0.053288553 -0.0638138 -0.22821194 -0.08147056 -0.11800942 -0.11603772 0.04329467 -0.02340335 0.01378895 0.0828758 0.1524436 0.3019993 -0.053425394 -0.09714523 0.028195724 0.0733022 0.15711199 -0.028157748 0.019040436 0.109677784 0.112785295 -0.16694508 -0.13408904 0.004069578 0.056237422 0.111393906 -0.023995675 -0.04416187 0.17075974 -0.104256906 -0.081212215 0.08774694 0.19654569 -0.12230084 -0.029382927 -0.022478085 0.14689048 0.16954096 -0.12926923 0.096096545 -0.20385586 0.15277626 -0.17419252 -0.04070083 -0.10627436 -0.06753221 0.08005888 -0.13207069 -0.111382075 0.014901101 -0.073424235 -0.0053906566 -0.0076563745 -0.08603944 0.11742382 -0.02444574 0.049953796 -0.12881272 0.15623075 0.047398936 0.04843082 -0.15379353 0.101589665 0.120711885 0.0012698324 0.05014628 0.043549035 -0.012085438 -0.049300548 0.054316975 0.035060436 -0.038290266 0.054086167 -0.04161621 -0.088377684 0.13325581 -0.14121297 0.055022243 0.12973166 0.046178047 -0.13922313 0.03057715 -0.12950587 -0.07872615 -0.0030625297 -0.00845095 -0.05617589 0.05415692 -0.041759685 -0.042275697 0.19140041 0.041821685 -0.044534158 -0.07119084 -0.02989508
back -0.024625864 -0.14321297 -0.027784446 0.0077976035 0.026545644 0.005476892 0.040419623 -0.03922685 -0.0119075775 -0.09805091 0.09778285 -0.04225819 -0.19092675 0.113631204 0.1074352 0.069572225 0.020973852 -0.008222199 -0.101369776 0.025782743 -0.06355407 -0.10129524 0.07993418 -0.048255175 0.014406055 -0.058285467 0.025303293 -0.040892337 0.006562916 -0.16984113 0.045254327 0.1665794 -0.009362741 -0.017394392 0.034217495 -0.20554194 -0.06677361 0.06104139 -0.066808276 0.09758451 0.026223304 0.15074143 -0.027243031 0.048110995 0.01212383 -0.1917559 0.07186855 -0.14624955 0.12267693 0.08467251 0.03705081 -0.22601886 0.18320633 -0.11149136 -0.053094976 -0.043726135 -0.14978302 -0.015130424 -0.061143987 0.11591027 0.19801413 -0.047981203 0.17922015 -0.0729496 -0.030542748 0.29154718 0.10930021 -0.11478362 -0.0038237954 0.067351736 0.022743149 -0.06272711 -0.11202221 -0.052085906 0.15126559 -0.05705286 0.020757204 -0.0218651 -0.03975187 -0.20009051 -0.12889302 -0.124539256 0.18202579 -0.101732515 0.027269583 0.18582498 0.06554368 0.114905454 0.020570341 -0.043937385 0.058152065 0.15059608 -0.108790554 0.001015701 -0.005853088 -0.011489914 0.04546281 -0.052373648 0.061499733 -0.08211227
way 0.04312845 0.0083892895 -0.07181192 -0.07793529 0.015570578 0.023206912 0.12470075 -0.07398167 -0.08622249 -0.20609131 -0.20708112 -0.03844615 -0.12700908 0.11237114 0.12560989 0.103516825 0.09793293 0.012366663 -0.057957802 0.06054041 0.018746005 0.10505544 -0.08377811 -0.06612835 0.08899619 0.036066514 -0.090470925 -0.054935787 0.03318535 -0.073433 0.05827266 -0.050411332 0.058506835 0.046773262 0.039523363 -0.1456568 0.04856263 0.20084369 -0.11695381 -0.08470068 -0.053929724 0.15068111 0.22973658 0.10433041 -0.03706971 -0.20672977 0.0062512504 -0.20503607 -0.08252841 -0.09630373 -0.17288424 -0.028905211 -0.021340586 -0.07269741 -0.01398552 -0.033885177 -0.01633592 -0.05982499 -0.11372753 0.10036961 -0.013288766 0.01720121 0.13145193 0.1897376 0.072294444 0.122745834 0.0911293 0.017800104 0.10783879 0.11311031 0.0461511 0.18226683 -0.14038871 -0.13682443 -0.006411213 0.05825542 0.1253704 0.0445298 -0.0712834 -0.2947331 -0.05555006 -0.10721693 0.08774449 -0.007418655 0.06596112 -0.104561 -0.06216124 0.006442925 -0.0755299 0.097922385 0.12649901 0.05262809 -0.047489896 -0.05007711 0.0061024902 0.021707037 0.04645505 -0.09364616 -0.09514795 -0.012661968
day 0.024105601 -0.07724437 0.08975805 -0.07479723 -0.051852185 0.18832083 0.0094898 -0.027619787 -0.08192128 0.0067167296 0.056093376 -0.0014676601 -0.049096555 0.071738355 0.124124646 0.0544588 0.074416146 0.037957087 -0.15028538 -0.07974958 -0.13344063 -0.11987367 0.07151707 0.028005892 0.08687083 -0.041620675 0.13830025 0.0013079003 0.043050703 -0.18926498 -0.060957626 0.073278196 -0.035706792 0.08320941 -0.06770642 -0.14749163 0.161072 0.029096834 -0.013011373 0.31727466 0.18019253 0.15694587 -0.043124806 -0.07636944 0.14985451 -0.15854594 0.06285251 -0.13434654 -0.07825888 0.08995613 0.019430308 -0.015368862 0.014912532 -0.043303743 0.12795724 -0.009160294 -0.08059335 -0.04230941 -0.050939206 0.08682981 0.098748125 -0.009096612 0.14169145 0.063460775 0.0061511965 0.36436617 -0.019427659 -0.07239056 -0.074148946 0.014772624 0.018677685 0.013961483 -0.20370246 -0.055831872 0.11630158 0.010906295 0.020295009 -0.07563153 0.036746405 -0.04349381 0.08134434 0.052339815 0.18980186 0.082024276 0.07500757 0.051380917 -4.73348e-05 -0.021099178 0.080676086 0.06625905 0.12165526 0.104398444 -0.16522922 0.07486377 0.05387878 0.046014957 0.07742508 0.0013427115 0.13411711 -0.04322283
world -0.046187922 -0.082507156 0.0044356287 0.036467034 0.009068895 0.048250604 0.08680885 0.2210531 -0.121062495 -0.17257304 -0.2541235 -0.18790594 -0.049217533 -0.16108225 0.021058837 0.07898476 -0.005548228 -0.13630311 -0.07257811 -0.019250358 0.046129305 0.027977856 -0.053499963 -0.031671505 -0.1328181 0.093499884 0.12244434 -0.005746048 0.17188565 0.05371939 -0.007881064 0.12974443 0.030316819 0.026555542 -0.09260419 -0.2029203 0.12203215 0.082122006 -0.076896206 -0.007787373 0.025475426 -0.034556028 0.1814594 -0.10776866 0.0604724 -0.15642327 0.035472006 -0.259221 -0.05886294 -0.18649065 0.04223744 0.07640257 0.12470084 -0.10181385 -0.049583495 -0.098347925 0.078124866 0.088939235 -0.009586269 -0.0972288 -0.042983912 0.037326388 -0.037737414 0.048005898 0.08226121 0.03625254 0.023133976 0.04898069 -0.035951525 -0.0064727147 0.07074442 0.05000708 -0.05209464 -0.06826176 -0.0059297234 -0.08198082 0.09299602 0.092628635 0.012659066 -0.124161646 0.09195659 -0.100043565 0.052230246 -0.018016875 0.058547765 -0.07995601 -0.0016436722 -0.055372834 0.023410253 0.039947484 0.12579502 0.1799658 0.057053924 -0.056486763 0.22636545 0.18528982 0.12305709 -0.16418155 0.012534387 0.08686643
research -0.18144535 0.15274645 -0.13151515 0.07901586 -0.07052755 -0.044209898 0.024165006 0.09943622 0.06513006 -0.036626942 -0.15135755 -0.017392896 0.11942106 -0.17962201 -0.08505876 -0.12019035 -0.009443603 -0.028794797 0.06757312 0.02780897 0.048694458 -0.08530058 -0.13215661 -0.121025495 -0.05719302 -0.12647004 0.09955008 0.039928645 -0.101627715 0.15549874 0.02500297 -0.1933864 0.0754466 -0.08129035 0.06416154 0.028485147 0.08992548 0.04087253 -0.05357922 -0.08149591 0.025569726 -0.11598649 0.18297285 0.20080613 -0.080491304 0.18169573 -0.011073781 0.10082555 -0.0385213 -0.073926315 0.031935617 0.25258383 0.11111274 0.13655786 0.01276147 -0.025895542 0.06646038 0.0684606 -0.018923707 -0.09325842 0.056991175 0.02733488 -0.098856285 -0.022606753 0.14706574 -0.08158904 0.0022881355 0.21771845 -0.0025074177 0.054982137 -0.15666416 -0.07304836 -0.0579596 0.1191373 -0.02245874 0.09438129 0.20911029 -0.027857386 -0.10523742 -0.044198465 -0.01069387 -0.050811924 -0.14161277 0.037983373 0.1392923 0.014342001 0.051326733 0.007077098 -0.12929213 0.06715952 -0.0585004 -0.05390905 -0.06266954 -0.042743593 0.12422472 0.17792302 -0.0404162 0.13737118 -0.04133118 0.045512628
service -0.07918734 -0.09599375 0.050517622 -0.18198186 -0.04108212 -0.02816369 0.06431569 -0.043960527 0.110133044 0.056106843 -0.09853605 0.057885382 0.21874548 0.04174026 0.09486189 -0.15590596 -0.05530368 -0.080422595 -0.019103987 0.10472278 0.035140384 -0.008844301 -0.12752952 0.009008946 -0.04653108 -0.14753245 0.15464559 -0.0701856 -0.019827763 -0.058666613 -0.027300157 -0.0041018194 0.06564386 -0.1428124 0.16662234 -0.12045388 0.25291595 0.048254203 -0.12374235 -0.032860648 0.06074477 0.068405025 0.13382244 0.24457838 -0.04822653 -0.02659251 0.05636806 0.009778465 -0.054298807 -0.10405743 0.045002885 0.07268652 -0.1374786 0.17126012 0.14406525 0.1293848 -0.05713363 -0.09912632 -0.07203099 0.021314174 -0.0245293 -0.063014835 0.076056324 0.04653286 0.13839146 -0.0340377 0.101181254 0.066815555 -0.0970078 0.070914626 -0.02169616 -0.04547845 -0.16558678 -0.010781605 0.009417031 -0.0749462 0.17132702 -0.05091288 -0.18828605 -0.009365438 -0.016683089 0.10793468 -0.034327034 0.20897852 -0.043589637 -0.04403097 0.0395754 -0.14275001 -0.11528341 0.09250153 0.00957433 -0.011828914 -0.01138299 0.19754875 0.01190929 0.051630467 -0.014233959 0.087870695 -0.10791492 0.18481202
part -0.13060279 0.069326214 0.03382036 -0.056403603 0.042739045 0.06388562 0.06701123 -0.08549365 -0.09880099 -0.09214305 -0.060963318 -0.011798904 0.12575497 -0.009766084 0.052490257 -0.101018056 0.021484662 -0.04118129 -0.10551003 -0.11824731 0.11649844 0.050834004 -0.16268376 0.049811542 0.025758866 -0.011477463 0.10932827 -0.014572054 0.053527348 0.0750858 0.12380229 -0.0688637 0.09002888 0.012352277 -0.0051947557 -0.21182035 0.22996788 0.087932974 -0.08777373 -0.028568551 -0.083390184 0.041163016 0.19075683 0.07968744 -0.017514626 -0.10587425 0.07680609 -0.090062484 -0.11981596 -0.112352505 -0.048507784 -0.036888134 0.014458488 -0.011615069 0.058440592 0.15749735 0.012280168 -0.11915055 -0.19006266 0.084185846 0.13496792 0.091658056 -0.11013286 0.15406811 0.19647586 0.15002546 0.024049096 0.11261587 0.05710213 0.12999466 -0.05938184 -0.00046309235 -0.25829548 -0.12093716 0.077289365 -0.004097515 0.17218868 -0.032976612 -0.048302244 -0.19621658 0.0730982 -0.122455075 0.067928076 0.07818883 -0.021898909 -0.079019465 -0.13447554 0.016937096 -0.057483513 -0.006428494 0.04257029 0.10164181 -0.11299697 0.07222712 0.12442559 0.20597915 0.008174146 0.027529933 -0.08566202 -0.0069925757
number -0.07447151 -0.10577602 0.15421145 -0.09425222 -0.13353615 0.087295644 -0.06291892 -0.15292394 -0.0071567595 0.0032874446 -0.0533419 0.12775107 0.02413573 0.06203962 0.055977486 -0.16642728 -0.08835783 -0.059439205 -0.11476844 -0.040105168 -0.13528432 -0.022844084 -0.07305332 0.003970183 -0.0055801854 0.024020685 0.2098013 0.10457711 -0.101755746 0.12364737 0.1511681 -0.009628232 0.056994557 0.012061211 0.046133157 -0.074515834 0.17730899 0.038472727 0.09057625 0.028154718 0.022813478 0.16071738 0.15140626 0.16228311 -0.043171804 -0.060468122 0.023751935 -0.011760775 -0.028331082 -0.09543889 -0.0212766 0.047863428 -0.06846499 -0.062263593 0.0071668886 0.15706176 -0.05417843 -0.06764009 -0.18679364 -0.04089507 0.0012515326 0.0212548 0.0013515765 0.12592065 0.15721102 0.14644933 -0.049440168 -0.05157219 -0.23179866 -0.031860624 -0.093926966 -0.021698361 -0.16386852 0.029214129 0.022953432 -0.07702745 0.22221884 -0.004538395 -0.008114585 -0.26611507 0.05812124 -0.06398423 0.15548031 0.0034513068 0.110815674 -0.043130904 -0.055731773 -0.008899052 -0.000238919 -0.027542299 -0.16933876 -0.088516 -0.06260772 0.16946064 -0.05554423 0.082429975 0.07652679 0.038615257 -0.19276208 0.06847841
support -0.09487802 -0.05304268 -0.05132917 -0.1881935 -0.07960816 0.00094929774 0.13466091 -0.02255357 0.11210939 -0.052004214 -0.17192885 0.007563684 0.14929484 0.03854154 0.058268584 -0.22232556 0.022688324 -0.11164041 -0.010725264 0.08075905 0.04638526 0.08358982 -0.13005419 -0.0032438168 -0.04324182 -0.082030155 0.1620483 0.007055091 -0.05280188 -0.050410155 0.03828411 -0.0710184 0.098789565 -0.17934802 0.15131389 -0.13097918 0.17223242 0.051024534 -0.12302936 -0.065813296 0.057682313 -0.043824606 0.15251756 0.19126002 -0.18845296 -0.067756966 -0.042942647 -0.044072237 -0.023703769 -0.17799062 0.07001331 0.14753842 -0.042222824 0.123063326 0.0031325596 0.0761337 -0.015317401 -0.11443228 -0.13703106 -0.05379549 -0.013577877 -0.06347891 -0.06888498 0.011211067 0.1842855 0.0037950117 0.057195827 0.18611579 0.047238722 0.058051173 -0.10088001 0.047926925 -0.2971513 -0.011128449 0.005143179 0.12145295 0.19767888 -0.0070891115 -0.13610984 -0.051347207 -0.0027979359 0.04402701 -0.07307624 0.07009095 0.07698311 0.004858582 0.009608768 0.020149052 -0.16174892 0.10316528 0.06685492 0.031522952 -0.045476478 0.06179542 0.00073571573 0.035458915 -0.03155782 0.06356355 -0.0013406448 0.12753254
help 0.016266935 -0.06359624 -0.0994692 -0.07460032 -0.086276606 0.058156393 0.16904314 0.12461458 0.053526215 -0.12095589 -0.2286307 0.06591468 0.02004153 0.05280393 0.18478562 -0.06759393 0.014300917 -0.045193143 -0.06189237 0.06107264 0.063778125 0.043931134 -0.091346614 -0.097188525 0.019951308 -0.13110851 0.031746034 -0.028972836 -0.058618866 -0.11277525 -0.037650786 0.02031351 0.026534406 -0.09167259 0.17420584 -0.1467791 0.09976879 0.08684161 -0.26707762 -0.034784496 -0.024566734 0.19326024 0.21484935 0.14462659 -0.1778065 -0.1428687 -0.071526006 -0.070476644 -0.09030335 -0.09009719 -0.058372933 0.13525102 0.053125057 0.0883052 -0.018918889 0.01394836 -0.07257601 -0.08005064 -0.093392774 -0.005092575 0.007879867 0.0079674395 0.11791783 -0.0023813138 0.1397792 0.09779324 0.001932952 0.067025274 0.038085077 0.09710632 0.036696963 0.025415601 -0.2561276 0.011391317 -0.018724585 0.16016689 0.15343897 -0.014902619 -0.09687931 -0.17927568 -0.050623186 0.039497502 0.007749823 0.121870935 0.094291374 0.093998924 0.0062321997 0.03212867 -0.12465337 0.1380146 0.10911479 0.07009381 -0.003482288 0.05223216 -0.09961015 -0.036235828 -0.119117476 -0.02254534 0.05356511 0.11051373
development -0.1695492 0.08173109 -0.16054764 -0.08777096 0.019802501 -0.120415315 0.104154184 0.062889464 0.08789537 -0.031273678 -0.1387165 -0.00016649441 0.18344562 -0.10054123 -0.026229529 -0.20600066 -0.09104751 -0.109279186 0.011877162 0.0606205 0.12602247 0.014187806 -0.19129466 0.00970958 -0.03469554 -0.102754064 0.1505318 0.02245306 0.011838785 0.14478068 0.03832109 -0.18050312 0.1269609 -0.13842644 0.032030456 -0.14865163 0.092945 -0.034157302 -0.07916101 -0.099579126 0.051751845 -0.11909263 0.124427006 0.15549912 -0.1004354 0.05653487 -0.009675741 0.04684921 -0.0575821 -0.16409813 -0.017202621 0.14759828 -0.050022624 0.15744261 0.06974726 0.053504113 0.04303459 -0.019903893 -0.004770114 -0.0043243743 -0.0033277343 -0.024383046 -0.118675604 0.12770823 0.119747296 -0.08594027 0.07663384 0.15293558 0.14123996 0.11366933 -0.055246457 -0.06791273 -0.17701286 0.05914949 -0.03395044 0.07176275 0.2210183 0.0011751766 -0.107032515 -0.07014895 -0.062707596 -0.12668191 -0.08141542 0.055783924 0.08295959 0.00953272 -0.07243041 0.0056001185 -0.10874841 0.18014108 0.0054749902 0.051214665 0.0026388075 0.033027727 0.12650885 0.09305968 -0.075552166 0.10962543 -0.0735304 0.08290513
group -0.14830968 -0.06344051 0.038493723 -0.0078012813 -0.09595387 -0.00037561514 0.054948956 -0.046784 0.03076166 -0.025347084 -0.20689283 0.0028745253 0.1483632 0.044216633 -0.10486527 -0.28900808 0.045291245 -0.1285647 -0.0511239 -0.12672646 0.09756147 0.06666147 -0.08497665 -0.03624812 0.04917204 -0.066216916 0.23663214 0.14028504 -0.1746666 -0.015315111 -0.10381165 -0.12867819 0.15863179 -0.11580848 0.010556147 -0.07384987 0.23135154 0.0154374475 0.070559636 -0.047547385 -0.0035738759 -0.0057773325 0.15087652 0.121642396 -0.11155254 0.02071699 0.067692496 -0.030978724 -0.05234548 -0.085324116 0.073394194 0.17030446 0.043619238 0.14880735 -0.014710174 0.06999361 -0.032305934 -0.09552236 -0.11883107 -0.053615313 0.0885281 -0.0013742916 -0.022458807 0.08756861 0.118169144 0.097554155 0.10444583 0.1359128 0.039075118 0.048694003 -0.07816607 0.039895095 -0.2610346 0.065647714 -0.012839422 0.008303342 0.19984704 0.07617516 -0.08914191 -0.084672846 0.03643899 -0.038724154 -0.028248858 -0.033317983 0.09573905 0.051867317 -0.015911937 -0.0034156311 -0.030248845 0.10970061 0.029340928 0.05984714 -0.040413797 -0.11487759 0.16503519 0.08158206 -0.08520461 0.1239619 -0.07565611 0.087128125
business -0.03434039 -0.12664552 -0.07949112 -0.15729396 0.059482962 -0.11511051 0.13099217 -0.0052012564 0.11597349 -0.045778435 -0.1834341 0.007275687 0.265588 -0.038824216 -0.009318447 -0.18967074 -0.1985571 -0.06206564 -0.024418443 0.08798704 0.10551712 -0.11625478 -0.15838031 -0.04121018 -0.015060193 -0.12606154 0.005038026 -0.0056299497 0.0754532 -0.07082088 -0.032838695 -0.014274107 0.03553621 -0.052377127 0.13628876 -0.083219245 0.21550882 -0.08719421 0.00092969486 -0.07670768 0.086191945 -0.04123214 0.20453332 0.117590755 -0.107836165 -0.010395103 0.056332834 0.057716332 -0.16022035 -0.22596323 0.0060821916 0.09247455 -0.0799066 0.19289987 0.020724945 -0.027208578 -0.09512956 -0.11860148 0.046882544 -0.035887472 0.013442806 0.054028884 0.026874313 -0.00059562345 0.010939116 0.025545727 -0.052961323 0.012170921 -0.048731722 0.19112904 0.061371636 -0.107643954 -0.07464526 0.08901936 -0.00919896 -0.019056803 0.24168916 0.04909387 -0.14122911 -0.10937489 -0.060265902 -0.029516783 -0.002224575 0.11998564 -0.011203826 0.023938665 0.045060262 -0.12701108 0.07933782 0.10073829 0.019051509 0.053056184 0.00370833 0.0834447 0.022281881 -0.053058792 0.094204195 -0.0012299371 -0.099273086 0.21245453
home -0.014283894 -0.17777747 0.02971236 -0.014839961 -0.15376283 0.050632194 0.0839018 0.08921768 0.09353747 -0.0015158129 0.015242032 -0.005747978 0.038621414 -0.09400569 0.06521247 -0.033483338 0.0277274 -0.038345087 -0.038976498 0.0059005134 0.090457186 -0.09240932 0.056593854 -0.084912434 0.013467299 -0.25486016 0.1582334 -0.10139915 0.17914881 -0.14986826 0.060963612 0.12036331 0.01711458 -0.11855736 0.16073683 -0.22696465 0.10407718 -0.062653616 -0.1666375 0.045416523 0.014777964 0.17016596 0.06309026 0.1357187 -0.0897643 -0.27569836 0.06869456 -0.08611857 0.012995675 -0.014955653 -0.044225466 -0.12872079 -0.043036945 -0.034672383 0.010314166 -0.039249487 -0.08183326 -0.026451312 0.006308121 0.13451679 0.19096294 -0.03255473 0.15894015 0.08368952 0.1085003 0.1297281 -0.023817819 -0.06063541 -0.16404492 0.053730153 0.0077897096 -0.077868424 -0.23632427 0.03463832 0.059113294 -0.11484655 0.02228434 -0.035479315 -0.13604462 0.032280833 -0.075730145 0.13018937 0.014041975 0.12814526 -0.034256563 0.0646137 0.07116613 -0.01123304 0.09394414 0.012030114 0.0318003 0.057922173 -0.071309716 0.07060611 0.07658385 -0.055424873 -0.17766006 -0.083267175 0.018897438 0.09575975
set -0.012736785 -0.021422923 0.040519986 -0.13703032 -0.04919203 0.008371538 0.10726363 -0.24835661 0.060352046 -0.0054735728 -0.038444936 0.083176084 -0.0089155575 -0.043497138 0.058364976 -0.11674832 -0.005393247 -0.046279185 -0.10106666 -0.05855704 -0.010013564 0.023517814 -0.029698933 0.00042021528 0.041284323 0.045900654 0.12308493 0.16406654 0.040087983 0.031765204 0.13813679 0.023259433 0.03427072 -0.019746574 0.01191992 -0.21997821 0.21915193 -0.08051341 -0.022184957 0.008034153 -0.051428623 0.050672874 0.21252418 0.21864253 -0.06943499 -0.2248244 -0.05392576 -0.16918395 -0.07916511 -0.004618068 -0.076529905 -0.13661523 -0.107985206 -0.12289381 -0.04391091 0.06430536 -0.010332864 -0.10588734 -0.123413764 0.07899269 0.059150964 -0.00048935367 -0.012291405 0.05579214 0.056447674 0.09317659 0.11086372 -0.004281747 0.08594286 0.019362202 -0.053387564 0.10114586 -0.10038221 -0.18570822 0.09822743 -0.0669386 0.16698107 -0.041509077 -0.008369671 -0.20996466 0.042875186 -0.20582522 0.15822075 -0.046801846 0.059936635 -0.030441163 -0.11255203 0.10128205 -0.035983626 0.053689357 0.08005098 0.13001904 -0.04804981 0.18885472 0.04142201 0.06311039 0.09383176 0.06966509 -0.17876638 -0.013426911
health -0.18500167 0.09301818 0.009907345 0.022673456 -0.14886059 0.04543255 0.023758916 0.13023317 0.17626502 0.053018797 0.007903086 0.0018381516 0.08576736 -0.057522904 0.14934392 0.015253049 0.039360013 -0.055559285 0.0281427 0.010645667 0.1280643 0.022905767 -0.20302874 -0.110981815 -0.087693356 -0.19231768 0.04629572 0.048849285 -0.24511595 0.10099589 0.025358975 -0.077280045 0.1149136 -0.21716127 0.036571294 -0.07399333 0.20928295 -0.05637069 -0.18199848 -0.05673486 0.06928733 0.090576045 0.10402367 0.10687474 -0.04880013 0.11097665 0.115100294 0.09535337 -0.06155537 -0.050056018 0.03879163 0.20647548 -0.03919822 0.13252117 0.040200304 -0.011335327 -0.056293976 0.04099903 0.028532157 -0.037934944 0.111026585 -0.11970009 0.051598337 0.060586806 0.14169973 -0.03604663 0.0526026 0.082084045 0.058841396 0.060662508 -0.026455345 -0.015624246 -0.10027787 0.114089854 -0.013382349 -0.044258982 0.13270009 0.015475722 -0.16054553 0.10791171 0.026894737 0.1018915 -0.20633003 0.16536431 0.035788834 0.044918664 0.075504944 0.015430622 -0.13761912 0.21334882 -0.034064945 0.018958932 0.018541394 0.013385922 -0.08651176 0.09844994 -0.11677814 0.031017208 -0.05445963 0.020240191
life -0.022725282 0.085716374 -0.03929609 0.029989619 -0.011409966 0.0809603 0.04080237 0.11735867 -0.11770111 -0.105365485 -0.23154014 -0.07702849 -0.014005312 -0.02939988 0.09866695 0.13761295 0.30259946 -0.037870422 -0.06800087 -0.009238586 0.056883305 0.053233862 -0.16042845 -0.09977736 0.06364571 0.05400365 -0.017486662 -0.118236676 -0.0048224954 -0.021045357 0.023113426 -0.03467112 -0.014438298 0.047826722 7.976284e-05 -0.19069672 0.10407873 0.12117118 -0.24497457 0.020556264 -0.03903549 0.110004485 0.2043514 -0.10753549 0.044704434 -0.1825115 0.048183285 -0.19126739 -0.007439297 -0.06681065 -0.14868595 0.16321611 0.051902667 -0.12016038 -0.04079113 -0.17636886 0.02902664 0.07410864 -0.043220423 0.036943845 -0.017277353 0.11172464 0.059856646 0.09470136 0.11020871 0.0827595 -0.06954534 0.030539593 -0.012441374 0.18372148 0.016749581 0.05255755 -0.12288514 0.038154628 0.0329972 0.04294541 0.046634793 0.08372093 0.014640761 -0.09966127 0.102461085 0.028874869 0.0075023174 0.1996671 -0.03976886 -0.12992531 0.01472562 -0.0010424001 -0.059852097 0.04243056 0.13899453 0.055015754 0.12141697 -0.033904735 0.06332477 0.06676452 -0.14140515 -0.16951768 0.111339554 -0.051783916
public -0.083486885 -0.0608457 -0.0644645 -0.21734819 -0.07149843 0.032589693 -0.037679236 -0.02006606 0.12004884 -0.018579574 -0.147068 -0.056844626 0.13190739 0.02273291 0.11633838 0.06639141 -0.0096854735 0.007841741 -0.06521068 0.038523853 0.2032895 0.08008042 -0.12472802 -0.036596075 -0.05677821 -0.06693635 0.03886332 0.083301604 -0.11500483 0.020753376 0.10336128 -0.15995716 0.10812002 -0.09998977 0.08231079 -0.12334861 0.22918148 -0.023861116 0.041260585 -0.15364315 0.10572807 0.009561659 0.16370364 0.2119525 -0.04836678 0.06179158 0.11938615 0.032445222 -0.058167122 -0.14165576 0.009553075 0.10354289 -0.13643467 -0.021849379 0.058438625 0.020068575 0.043186136 -0.0842122 0.051302366 -0.08810163 0.12462178 -0.031645708 0.059614874 0.11955802 0.26037952 -0.12756944 0.09419553 0.06220437 0.058841456 0.078543864 0.02967889 -0.020208448 -0.14732708 -0.0056912866 0.04130246 -0.13498563 0.18363248 -0.0052704248 -0.054843735 0.022046803 -0.021082329 -0.0013282961 -0.1533219 0.19916932 -0.09065842 0.014817493 -0.07558424 -0.015987784 -0.03545213 0.012435646 0.03136502 -0.070762105 -0.1252356 -0.010782352 0.08999617 0.10239689 0.051561404 -0.1313083 -0.21482524 0.088908225
place 0.019831805 -0.03540816 0.013539721 -0.09986431 -0.0050010113 0.14891359 0.08562795 -0.103794426 -0.09264992 -0.13099784 0.02803934 0.036101595 -0.06536201 -0.05084481 0.07391272 0.047514625 0.0766394 0.076278925 -0.20769073 -0.030129531 0.05429793 0.04434882 -0.010051829 0.041250765 0.09703434 -0.033363294 0.18193834 0.0035243712 0.012103415 -0.12552811 0.08719155 -0.04713404 0.13280363 0.049599517 0.034515876 -0.27320454 0.20726857 0.12323501 -0.03817953 0.08747294 0.044679005 0.09749409 0.11292152 0.040313073 -0.024440287 -0.12172354 0.15933418 -0.10950567 -0.056194652 0.001483102 -0.12644376 -0.1739479 -0.07582717 -0.027993906 0.11448108 0.0027890946 -0.014675336 -0.09844868 -0.0833426 0.18791972 0.10535701 0.035437398 0.06529932 0.1839218 0.15458308 0.28578654 0.032978617 -0.050205134 0.12601899 0.010977134 0.010189142 -0.00799065 -0.111391164 -0.12071007 0.08570244 -0.03951861 0.12254748 -0.10004969 -0.06671533 -0.20502494 -0.012529386 -0.071384616 0.095877275 0.05292928 0.044726316 -0.07203771 -0.039204445 0.004167178 0.0042585544 -0.0058629587 0.081722945 0.055366572 -0.14839111 -0.024929084 0.21093035 0.12001067 0.06795591 -0.067014284 0.019388149 0.024031568
site 0.06216241 -0.14746702 -0.07229979 -0.008324546 0.008029421 0.051158737 0.0011473949 0.12795897 -0.06586919 -0.1904103 0.016541174 0.13093497 0.124137975 -0.15514323 -0.024329657 -0.09965698 -0.20535359 -0.063104466 -0.10704499 4.318317e-05 0.0816798 0.05793674 0.029034374 0.112152964 -0.025153479 -0.13224822 0.13626222 -0.006072834 0.04188202 0.13218811 0.11267121 0.0669309 0.021317033 -0.034228727 0.08114662 0.09317914 0.012658258 -0.017339934 -0.020963166 -0.0058306297 -0.03659054 0.091087535 0.05533284 0.22138605 0.085345976 -0.10097051 0.10546771 -0.009911928 -0.08176508 -0.014153157 -0.12104008 -0.086850986 -0.02761557 0.1374938 0.116551004 0.12874189 -0.05383956 -0.06124852 -0.11533724 0.08876761 0.12446489 0.019193606 0.11276529 0.03941294 0.14720912 -0.17255245 0.10333579 0.04454739 -0.10194901 0.00040089193 -0.034188963 -0.2103325 -0.21589291 -0.08629868 -0.01631089 -0.061093066 0.01871215 -0.16116685 -0.2632036 -0.19518362 -0.07111446 -0.017274959 0.08326459 0.05100313 0.1345444 0.00011862335 -0.14041938 0.005650204 0.031660307 0.018257024 0.03568379 0.026656993 -0.10351463 0.031225763 0.1158575 0.030095126 -0.08590631 0.03711557 -0.16231045 0.11781713
best 0.055991642 -0.032164086 0.012841236 -0.09520592 -0.12852536 -0.07139666 0.18169919 0.0822369 -0.12685029 -0.1163494 -0.18100215 -0.04035805 -0.030469034 0.017901657 0.031220157 -0.03807035 -0.01541265 -0.015301749 -0.054278526 0.031745557 -0.00065949006 -0.09050248 -0.113845 -0.017298467 0.059293035 -0.12351721 -0.05217618 0.07956564 0.12684138 -0.10273154 -0.08622841 0.21527879 0.030909235 0.014227139 0.09562469 -0.08066123 0.21551865 -0.017153352 -0.1285724 -0.03372693 0.03311735 0.040697973 0.23261185 0.10425204 -0.06251088 -0.1543738 -0.011252304 -0.19307156 -0.14504835 -0.11228631 -0.16440316 -0.0016349433 0.08660168 -0.04455912 0.044243373 -0.059161536 -0.12666604 -0.08601431 -0.122290514 -0.021776779 0.07225479 0.11883086 0.07829164 0.017975714 -0.030789187 0.13589324 0.010278938 -0.06822796 0.03241042 0.030473052 -0.093709454 0.10332501 -0.03183561 -0.13660559 0.11147739 -0.11240961 0.07554556 -0.14126034 -0.11229789 -0.1993563 0.09095192 -0.022568349 0.061396234 0.0025016114 0.18467876 -0.042590115 0.10717006 0.049220257 0.06372042 0.16138604 0.1916977 0.18354295 0.027906105 -0.025942538 0.14395806 -0.06788045 -0.045980558 0.0613241 -0.07022317 0.011436199
school -0.12006862 0.017877871 -0.0020800324 -0.026601067 -0.043728188 -0.022340992 0.108987324 0.1634974 0.021468444 0.06633062 -0.025669985 -0.061787665 0.05143503 -0.057933044 0.02766219 -0.3338685 0.13113838 0.08262341 0.058532868 -0.037253834 0.019556543 -0.15348592 -0.040832072 0.042181827 0.08042241 -0.069767736 0.24345765 0.08962275 -0.08112599 -0.023172697 0.062362697 -0.15178622 0.180625 -0.010929243 0.115309924 -0.10947221 0.15699054 -0.088526316 -0.104229935 0.048713528 0.012840456 0.010714776 0.113932535 0.11549352 -0.087384425 0.02527093 0.12401277 -0.029275665 -0.078663714 -0.009005969 -0.025145823 0.04572492 -0.0119553795 0.06478601 0.08974431 0.103276536 -0.028205078 -0.045803487 0.014028274 0.0025977085 0.18522295 0.042635377 -0.069121584 0.18217954 0.26882014 0.08535367 0.09107639 0.10191576 0.082178034 0.120767675 -0.018881408 0.019082928 -0.11118929 0.036085874 0.0074696126 0.15770121 0.032141782 0.10368569 -0.11843335 0.046836074 -0.048193935 0.11181895 0.018299418 0.11164186 0.09908115 -0.059553433 0.092745066 0.014883921 -0.10856408 -0.006907065 0.045121666 -0.0771267 -0.14461254 -0.13661954 0.12792425 -0.026717596 -0.1072748 -0.0526003 0.23443528 -0.023356475
course -0.100422025 0.023470597 -0.105839886 0.059604347 -0.07357727 0.050708596 0.13375491 -0.0031633535 -0.16991515 -0.08621478 0.038074043 -0.09613173 0.17608175 0.010459381 0.013638187 -0.10879651 0.0084077995 0.040326905 0.0556166 0.089823775 -0.107565925 -0.11033898 -0.08235279 0.04808072 0.07676268 0.037960093 0.13449664 0.08562584 0.011773716 0.045254026 -0.12581632 -0.08242096 0.014066297 0.06329832 0.073152214 -0.04856138 0.17815988 -0.03259119 -0.21209359 0.07230418 0.14137115 0.031493124 0.1607114 0.20051323 0.00686 -0.02582699 -0.012260956 0.08280108 -0.10954364 -0.04212803 -0.09192529 0.0756868 -0.04903817 0.062720306 0.071690194 0.09039336 -0.12564456 -0.10054532 -0.08151106 0.007978001 0.107919835 0.074884586 -0.071129315 0.048319787 0.10883386 0.23100069 0.020235537 0.15588278 0.09898939 0.04979916 -0.124254115 -0.008256071 -0.170367 -0.077621095 -0.005440437 0.1702688 0.24171363 0.091316134 -0.10808905 -0.11160506 0.036170367 -0.1098122 0.018859876 0.017867828 0.16736567 -0.069288746 0.04258576 0.0925969 0.005464214 0.014018955 0.081634015 -0.06836982 -0.19386019 0.115076736 0.058174543 0.103448875 0.054792337 0.08319346 0.20863307 -0.031184517
area -0.08829244 -0.031238941 -0.09708912 -0.02027277 -0.015465988 0.066108026 0.14995359 -0.012553883 -0.012417379 -0.10673348 -0.10225409 0.1610269 0.066696085 -0.058203526 -0.012527751 -0.0050030937 -0.10089412 -0.11528197 -0.059472922 -0.13477881 0.032907095 0.06744904 -0.07423542 0.085365996 0.06401115 -0.08537176 0.19816776 0.0023855793 -0.04052699 0.06165694 0.17277434 -0.14439073 0.16606307 -0.12833007 0.07649436 -0.17478494 0.18382089 -0.011645756 -0.074444756 0.034319215 -0.03338488 0.044714015 0.0556616 0.22826223 -0.12093764 -0.003096367 0.14014682 -0.0003703725 -0.012043248 -0.08056725 -0.113275304 -0.053811338 -0.13956527 0.03380888 0.17034325 0.11770045 0.10755286 -0.031257633 -0.076262474 0.12456214 0.047211073 0.061966848 0.042110346 0.2578271 0.10261672 0.03622151 -0.009694212 -0.06473219 0.04809995 0.06182988 -0.053923953 -0.07543142 -0.25364193 -0.02642977 -0.14144902 -0.06554041 0.14301735 -0.06314477 -0.18116567 -0.10409409 -0.121182725 -0.095155805 0.006009014 0.01959663 0.0848999 -0.022624468 -0.11254874 0.02647484 -0.026338693 0.14191759 -0.10115268 0.064903915 -0.1189959 -0.004496719 0.10818216 0.08820691 -0.09186323 0.026470952 -0.08363745 0.03777926
system -0.13427688 0.037248086 -0.04588246 -0.057489917 -0.066147275 0.04097299 0.107083544 -0.112647295 0.033719923 -0.045996916 -0.066304095 0.1783444 0.10161006 -0.0037644356 0.003463724 -0.08838282 -0.14819375 -0.13779654 0.14036427 0.052654263 0.043252774 0.09638136 -0.08200375 -0.03349144 -0.0046709627 -0.038306974 0.013457047 -0.121263444 0.08175261 0.11804921 0.14753424 -0.07677733 0.06704264 -0.09780634 0.07071979 -0.116034314 0.029403301 0.2080023 -0.11062572 -0.11965116 -0.04136053 0.08084644 0.12110074 0.28344673 -0.015958788 -0.032304827 -0.098775834 -0.0427072 -0.1008529 -0.15407446 -0.04881561 -0.0093569 -0.19710961 0.049940877 0.0068292436 0.118472286 0.054896828 -0.12533179 -0.014552336 -0.10081609 -0.1542963 0.008937048 -0.0877311 -0.016127354 0.019290924 -0.09799884 -0.055595223 0.12234332 0.015047307 -0.06546364 0.0185668 0.06522172 -0.12827954 -0.06875618 -0.07407362 0.042116046 0.1644544 0.004125398 -0.084705636 -0.095162265 -0.008843765 -0.09037905 -0.0085302675 -0.0882314 0.07385767 -0.0673494 -0.04740092 -0.04064238 -0.19275108 0.060884174 -0.025272962 0.033211548 0.027057443 0.121789806 -0.1282572 0.09193816 0.2645923 0.08767855 -0.2616586 0.0075774626
top -0.05308857 -0.18547893 -0.0012726387 0.016691742 -0.10770671 -0.051841795 0.08043458 0.00084523443 0.04101813 -0.055596735 0.055998687 0.0553596 0.034209948 -0.057908166 -0.006600259 -0.07159617 -0.14045216 -0.07283054 -0.09314554 -0.039205108 -0.082752064 -0.14236583 0.050416004 0.031288236 0.011692218 -0.05200488 0.1005265 0.07117549 -0.02739639 -0.049284946 0.05961098 0.22447121 0.13492447 -0.06222565 0.105480686 -0.08169826 0.06216651 -0.14241852 -0.06460364 0.09524077 0.0075488864 -0.032162145 0.039031833 0.1251241 -0.03343791 -0.018317822 0.19938911 -0.07067772 -0.023686398 0.097574934 -0.008667207 -0.19353534 0.101371594 -0.06937211 -0.04899322 0.09729568 -0.24678901 -0.0124482615 -0.08003714 -0.07457298 0.24719511 -0.044711072 0.040516675 -0.107381396 -0.0283558 0.1638089 0.12956676 -0.16080166 -0.03139811 -0.043274973 -0.1166558 -0.19132583 -0.015102692 -0.028650234 0.109798 -0.06393196 0.091805995 -0.054332566 -0.10713913 -0.17267734 -0.12599076 -0.10776316 0.14244598 -0.10561146 0.10774097 0.22956847 0.066829875 0.07979069 0.03918546 0.034676295 0.0219363 0.2399742 -0.04909912 0.11060454 -0.03437114 -0.05930959 -0.008249577 0.07389781 0.021504205 0.03166927
company -0.046296265 -0.13939218 0.084992014 -0.14282684 0.14322299 -0.046318885 0.117814645 -0.02285283 0.06088937 0.0021828902 -0.20762157 0.03704859 0.20735365 -0.025937924 -0.044798505 -0.21939427 -0.18024011 -0.11135973 -0.021390676 0.079707325 0.12158421 -0.066897355 -0.044284 0.015180877 -0.100247964 -0.094086826 -0.0068043033 0.0073003126 0.11555203 -0.000326271 0.023375936 0.043016464 -0.025454381 0.04711298 0.07937073 -0.07087045 0.15176193 -0.06350354 0.059050266 -0.079122484 0.031635173 0.019787872 0.23349494 0.0134074725 -0.07736581 -0.011592821 0.06182066 0.053335425 -0.14365296 -0.16923925 0.10826378 0.06335347 -0.07938015 0.19937056 -0.0423254 0.11643855 -0.115266755 -0.19374518 -0.033108246 0.022470437 -0.01853727 0.09437744 0.021621725 -0.027958034 -0.00901477 0.119047455 -0.0012645811 -0.016142111 -0.09472992 0.17713057 0.122548096 -0.09524063 -0.07299694 -0.014087237 0.109200366 -0.10033456 0.16239265 -0.109162435 -0.035624463 -0.08821083 0.006603483 0.09686017 -0.0017577241 0.047628257 -0.12634003 -0.02935164 0.071499966 -0.13204385 0.09700971 0.057505775 0.0053663077 0.082095556 -0.097697936 0.083893254 0.05131675 0.082974195 0.12193011 0.03142234 -0.26163274 0.1409073
government -0.12749086 -0.09485507 -0.11816351 -0.20880362 -0.06889832 0.07592978 0.020027153 0.026933344 0.18875124 -0.10609057 -0.1352948 -0.12892705 0.020994607 0.039442465 0.14478722 -0.052067142 -0.037955005 -0.01744828 0.052387852 0.040370226 0.032140072 0.1331657 -0.1471255 -0.122872174 -0.15229298 -0.064953946 0.05074708 0.12861998 -0.011259676 -0.111967295 0.15916952 -0.061308894 0.09501508 -0.1569685 0.0108307535 -0.1544908 0.10587205 0.009001099 0.03673446 -0.14647521 0.16441354 -0.008176527 0.10030616 0.08718032 -0.033212088 0.02209862 0.024138233 -0.09849532 -0.018289547 -0.1792553 0.15681621 0.084949866 -0.011126731 -0.010580544 -0.012097092 0.009253794 0.04419339 -0.058689926 0.06587312 -0.09319529 0.065013394 -0.09349475 -0.06802063 0.12219486 0.15334396 0.00018694336 -0.009780676 0.1274794 0.01624699 0.1740743 0.084499426 0.05027563 -0.11515263 0.03148904 0.13330382 -0.17015623 0.22265542 0.1149429 0.002337755 0.069804534 -0.023462683 -0.028575597 -0.1447528 0.1466686 -0.16174842 -0.050776478 -0.14473082 0.012457957 -0.06350306 0.042865165 -0.09731008 0.070162505 -0.103841655 -0.083043166 -0.03821838 0.069979265 0.06778202 -0.07730418 -0.16343313 0.009432084
project -0.108472675 0.07841492 -0.18321565 -0.102108076 0.018649949 -0.069921896 0.09612869 0.072917946 0.05670138 -0.008834588 -0.14775309 0.015912153 0.2173801 -0.13359539 -0.07335569 -0.24176921 -0.037283193 -0.07286878 0.005467813 0.06481893 0.10580968 -0.082903944 -0.13237035 -0.046317633 -0.005951604 -0.06626454 0.17038512 0.038747407 0.0034301926 0.08729353 -0.020282166 -0.07728881 0.015769154 -0.11837106 0.017897237 -0.11027236 0.09677098 -0.020077584 -0.010402447 -0.088562705 -0.026859695 -0.17979975 0.14432825 0.22118586 -0.19462775 -0.00066735654 -0.052094445 0.06525453 -0.01549181 -0.0626659 -0.0032738019 0.13996585 0.026648128 0.18725169 0.113269836 0.11377246 0.13587612 0.012581848 -0.11895921 0.012938176 0.036229074 -0.016850486 -0.064834274 0.05604296 0.14586025 -0.08098772 0.0119790435 0.18648247 0.13206865 0.14959398 -0.08230743 -0.10992294 -0.20718916 0.063183546 0.022539793 0.14205827 0.09904333 -0.07829897 -0.11339857 -0.12240664 0.048864704 -0.038813148 0.08964128 -0.009115531 0.13349515 0.089251414 -0.09348728 0.05247564 -0.09259376 0.123806104 0.009153315 0.11153487 -0.012609827 0.0039468314 0.094270684 0.06171906 -0.066831015 0.097655214 -0.018552182 0.035640433
members -0.0080402875 -0.10889176 0.04371827 -0.0365839 -0.13079903 -0.13144958 0.07305534 -0.14718673 0.06966003 0.052809063 -0.025544055 0.10898484 0.15992577 0.077654146 -0.07926541 -0.13381554 0.059196442 -0.09245859 -0.08648876 0.061446372 0.026826566 0.037775736 0.07975232 0.033914726 0.023093617 -0.11265489 0.11513749 0.1206402 -0.11724767 -0.08010168 -0.115985736 -0.01184456 0.0857963 -0.22272208 0.044225574 0.04699535 0.12716626 -0.18397588 0.07094731 0.049594257 0.138051 0.0010933836 -0.108871706 0.01135277 0.07397542 0.14922997 0.10554982 0.15124373 -0.0065113613 0.11472946 0.10793954 0.08169977 0.10681387 0.049429733 0.010290389 0.13872163 -0.16722809 -0.10353715 -0.0078592105 -0.26075697 0.20397435 0.037136838 -0.05751513 -0.065889396 0.001667002 -0.021039676 0.12496982 0.020489724 -0.0050100554 0.006922624 -0.07698462 -0.13175437 -0.16409954 0.038394365 0.24373975 -0.13895404 0.006653893 0.07591695 -0.042043913 0.11859545 0.032063156 -0.006812255 -0.07657024 0.15777874 0.060281783 0.18193334 -0.024809642 -0.01657525 0.13359052 -0.010329767 0.017939871 -0.12541556 -0.03641837 -0.09264781 -0.015812129 0.02296583 -0.050413676 0.096464574 -0.016405774 0.10630523
think 0.07710639 -0.014802655 -0.0051915483 -0.056714937 -0.03952517 -0.027818585 0.029395463 -0.0026789494 -0.09191037 -0.16151837 -0.1359345 -0.16244109 -0.1786371 0.191894 0.08673301 0.14009836 0.1726326 0.08341167 -0.060426816 0.05258527 -0.0027327708 0.04718091 -0.06763743 -0.07008897 0.09962612 0.010726296 -0.17514026 -0.05161108 -0.03494942 -0.072529234 0.042881794 0.15994856 -0.03095133 0.11867961 -0.041875776 -0.017660204 -0.07094214 0.14405556 -0.122542255 -0.03725459 0.046399947 0.15455247 0.08800623 0.007934659 -0.012014001 -0.19895612 -0.055452384 -0.19366159 -0.12789586 -0.0714957 -0.064706184 0.040666796 0.13877104 -0.15213645 -0.033193212 -0.09511638 -0.09822669 -0.064350136 -0.044116758 0.10777782 0.02057936 0.13671874 0.21496092 0.032799527 -0.023124915 0.25560096 0.06925861 -0.022062533 0.049761664 0.02048725 0.043348905 0.16586353 -0.11629713 -0.08485075 0.07174731 0.040157888 -0.015785532 0.07673807 -0.07643185 -0.17482653 0.0116529325 -0.024700213 0.09033201 -0.005635369 0.1380453 -0.10069954 -0.017851386 0.08313569 0.007502851 -0.034784023 0.039127745 -0.028484136 -0.079441026 -0.23799619 -0.07509739 -0.109149545 0.04011492 -0.115815714 0.015734736 -0.12099347
end -0.083918214 -0.06313716 0.0588329 -0.13882196 0.08318548 0.04874162 0.021964569 -0.10766119 -0.03832477 -0.12596373 0.14915837 -0.058751352 -0.15391156 0.072860375 0.075299196 -0.023835683 0.093749315 0.046360932 -0.19999582 -0.057517167 -0.05816584 -0.057628877 0.000713296 -0.022171311 0.06614952 0.09229674 0.052618254 0.06335862 0.062857784 -0.06605428 0.13176562 1.0373216e-05 0.040684607 0.043870408 -0.09719084 -0.29000187 -0.012099861 0.0058770147 0.0749088 0.043193705 0.08854553 0.060047492 0.054946713 -0.016299644 -0.0072423904 -0.15488937 0.069075786 -0.13882345 0.047910873 -0.021568941 -0.017598141 -0.13414429 0.033018243 -0.1331067 0.00057871523 -0.018545277 -0.04582068 0.0067775105 -0.09707095 0.18513659 0.07277747 -0.012642591 0.12157581 0.039810166 0.024684712 0.36878538 0.091631286 -0.08533089 -0.016050711 0.07575262 -0.0025776085 0.057012275 -0.18809614 -0.059695072 0.17689262 -0.006077572 0.12091653 -0.048766013 0.027730426 -0.15968536 0.038662344 -0.14430636 0.2661325 -0.0702524 -0.09837959 -0.013446003 -0.071511775 0.048590768 -0.0002952272 -0.014101863 0.01262944 0.1146555 -0.12841046 0.08175874 0.035359453 0.10704644 0.12131993 -0.119720764 -0.013055045 -0.123336874
high -0.1063551 -0.028426202 0.08042176 -0.01632618 -0.07309033 0.0367658 0.113260865 0.00330277 -0.010713863 -0.038180906 -0.1787371 0.17572282 -0.020127041 -0.043306727 -0.0060764346 0.007861801 -0.117994815 -0.037005242 -0.043299437 -0.16783895 -0.08268291 0.017550325 -0.13264677 0.13260809 0.07504855 -0.028036632 0.0845096 -0.040987153 0.090815924 0.016206369 0.18445589 -0.11545269 0.17455526 0.027022583 0.06822943 -0.20007186 0.14050378 0.048925567 -0.18981035 0.039084926 0.077795535 -0.049704786 0.02381094 0.05570275 -0.120616965 0.049447965 0.12021199 -0.17056553 -0.06012481 -0.16332673 -0.21981736 -0.060354058 -0.20436808 0.008729275 -0.0238551 0.106683806 -0.027826814 -0.07016027 -0.13160372 0.0020185048 -0.14018178 0.07394886 -0.0066244053 0.11257831 -0.099210285 0.15153757 -0.045058366 -0.08132356 -0.04582348 -0.024174493 -0.048982874 0.07669965 -0.06992626 -0.15776308 0.013415477 -0.012884786 0.097420596 -0.15084398 -0.026656358 -0.053788863 -0.117997065 0.0052891537 0.080558494 -0.05835978 0.031939372 -0.0009604788 0.10453215 0.027029926 -0.09850768 0.21167116 -0.15302482 0.13277599 0.0056847297 0.18293148 0.01972315 0.02382032 -0.012298121 -0.055995245 -0.20034607 -0.050159846
order 0.0006849956 -0.0135263 0.0662937 -0.07116399 0.023343211 0.13116834 -0.06467559 -0.23298016 -0.019288737 0.02571623 0.017196754 0.09419676 0.006729376 0.048087176 0.19467889 -0.09688175 -0.059731763 0.039697003 -0.09220782 0.036043614 -0.00838355 0.10993874 0.006091408 0.009016995 -0.048876848 -0.052519552 0.03216993 0.005534441 0.026278658 -0.023339592 0.051219452 -0.020941187 0.11236091 0.00223317 0.059949346 -0.012221356 0.16386025 0.12174369 -0.025320223 -0.04970452 0.059162457 0.16097598 0.142565 0.030298144 0.06533539 -0.118186444 -0.018055158 -0.010263919 -0.15039009 -0.16118738 0.029597415 -0.09607404 -0.16831051 -0.008239605 0.05697548 0.08478595 -0.09894995 -0.16738917 -0.009309105 0.005741673 0.051275805 -0.14476502 -0.037049644 0.09714959 0.15462355 0.13713013 -0.07441888 0.0533749 -0.025574293 0.037593506 -0.0645769 -0.03767983 -0.05240748 -0.13292447 0.14049107 -0.048364464 0.16517623 0.01000145 0.11962622 -0.14953682 0.143087 -0.07194718 0.006333122 0.17019431 -0.100419894 -0.14101861 -0.121285394 -0.023385195 -0.0740597 -0.20679584 -0.0049940175 -0.001564426 -0.11953591 0.18143311 -0.13905664 0.1831435 0.024905572 0.1838665 -0.20282654 0.1646474
contact 0.1833418 -0.11001581 0.0058000167 -0.002586229 0.03436978 -0.11266731 -0.065731995 0.019890558 0.028362248 -0.03438681 -0.04960792 0.029145494 0.092923336 0.106305934 0.021471415 -0.19723338 0.039081812 0.042766966 -0.08034861 0.14417131 0.08273315 -0.08384329 0.08267055 -0.0035697855 -0.027520636 -0.24680506 0.09937758 0.030723467 -0.19620922 0.047467124 -0.21219899 0.030917943 0.0544092 -0.1659931 0.18478926 0.025962789 -0.011783961 -0.05129109 -0.041527428 -0.0111366175 0.11424217 0.056423966 0.001675002 0.17995399 -0.108547896 0.035681155 -0.0043655727 0.22248577 0.07797664 0.090524144 0.01067477 0.044069864 0.07752806 0.2132191 0.076125905 0.09910045 -0.1674498 -0.16564655 0.013115541 0.050876185 0.08321705 -0.13043632 -0.08191252 -0.11592991 0.1926589 0.043398928 0.048455413 0.08867213 -0.027665352 0.0015310241 -0.07475505 -0.17801768 -0.023747433 0.14893086 -0.081863336 0.034241144 0.036380712 -0.028467385 -0.080258064 -0.08513614 -0.05790027 0.09449263 -0.13856342 0.16685943 0.03403743 0.094139375 0.038578596 -0.011376989 0.045565087 0.020330224 -0.004939565 -0.13143809 -0.045612294 0.115362585 -0.015733069 -0.028953731 -0.13906759 0.11162687 0.045962237 0.13702343
following -0.012540046 0.055167366 0.0082537485 -0.055111896 -0.0891614 0.030667754 -0.1019495 -0.14088918 -0.010418937 0.101922385 0.15000737 0.08522349 0.16015363 -0.012214748 0.0736347 -0.19096768 0.008310713 0.0068938415 -0.18606752 -0.063616954 0.04083479 0.026937542 -0.075899184 0.022617275 0.099573016 -0.08319522 0.13098231 0.10997782 -0.022586267 0.12772389 0.084004834 -0.034967296 0.12780283 -0.043225084 0.017900208 0.007619712 0.17325516 -0.036974512 0.059666842 -0.08728103 0.01422712 0.09454685 0.10006753 0.15344933 0.08358981 -0.042774003 -0.065776445 0.16604023 -0.15094331 -0.033956565 0.0743775 0.00297786 -0.042918928 0.00820763 0.043935925 0.15368699 -0.1313633 -0.18635745 -0.08777304 0.0010706085 0.14802606 -0.046813544 -0.09361734 0.05793624 0.14121905 -0.013857417 0.021795785 0.17179272 -0.073518224 -0.04999526 -0.08692879 -0.10281122 -0.15614834 -0.1009641 0.0712004 0.0013177766 0.23895234 -0.07350952 -0.11013585 -0.057585288 0.12275525 -0.11875334 -0.02304778 0.12501156 0.016572187 -0.034042425 -0.1122674 0.043467477 -0.012110924 -0.08551811 0.060225043 -0.07559204 -0.14426115 0.21064754 -0.12189927 0.12742864 0.0047386014 0.20650159 -0.023661721 0.13872565
data -0.016707093 0.0300614 -0.010700302 0.0475458 -0.026527304 -0.06993771 -0.1303137 -0.0062000896 0.08138882 0.093088284 -0.009256759 0.14652683 0.1708951 -0.09820725 -0.15656772 -0.15767811 -0.15056552 -0.0693055 0.04127579 0.0394954 0.10024702 0.03199675 -0.079701014 -0.05045569 0.02808398 -0.16675112 0.072434254 -0.024089618 -0.1131229 0.051678624 0.15729575 0.03587763 -0.04117607 -0.10406828 0.030328637 0.09572159 0.20646109 0.10333081 0.060700368 -0.035101112 -0.053606678 -0.090705745 0.11572509 0.2646923 0.056273054 0.029952424 -0.06366934 0.109136336 -0.020364659 0.013429555 0.13096991 -0.0762768 -0.11645373 0.052918736 -0.0009226489 0.085584246 -0.11911133 -0.0071011893 0.044894975 -0.14263365 0.02518086 -0.13544406 -0.103929 -0.12847279 0.09739547 -0.22451417 0.009733145 0.1031495 -0.15307707 -0.09847899 -0.06132002 -0.16113612 -0.00080173876 -0.020298684 -0.0012919036 0.048060738 0.112394065 -0.09086435 -0.12441585 0.0029159493 0.14150387 -0.13931029 -0.073499404 0.012066127 0.040438335 0.038052205 -0.045306195 -0.017298691 -0.046136126 -0.007059237 -0.030944863 0.017126784 0.031353924 0.2545643 -0.17245026 0.12461202 0.043538265 0.16832995 -0.1434942 0.090991884
page 0.07193014 -0.08350829 -0.016041612 0.04803459 -0.053740583 -0.060440518 -0.092277035 -0.032087553 0.0038106877 -0.07298425 0.14875089 -0.060579 0.05570378 -0.08757458 0.06545183 -0.113627665 -0.14413686 -0.009439557 -0.08127444 0.022561507 -0.11080959 -0.024122292 0.033110008 -0.024805835 -0.045255166 -0.046756253 0.12930489 0.013257947 -0.03673858 0.17505528 -0.029449202 0.13126943 0.059234075 -0.031253673 0.0697035 0.16212782 -2.7909504e-05 -0.15237494 0.029310495 0.015305663 -0.041545104 0.040271223 0.017536584 0.16284291 0.1647539 -0.07966737 -0.0072796675 0.089423954 -0.12521546 0.12256886 0.025949849 -0.15541644 0.1075564 -0.06530734 -0.056607183 0.040973682 -0.16207922 0.102400124 -0.043968044 -0.06575869 0.2523504 -0.015525055 0.009348749 -0.014853945 0.076974116 -0.13223025 0.19166787 0.10132931 -0.22861543 -0.08054727 -0.072416574 -0.25642288 -0.102946214 0.03588812 0.12350254 -0.07985819 0.026205085 0.046091013 -0.08192486 -0.19816142 0.016159404 -0.06723766 0.07868232 0.06676073 0.15265575 0.20454276 -0.07056117 0.019446576 -0.008795983 -0.118463434 0.08862352 -0.052801143 -0.0034010357 0.17588522 -0.091644704 -0.002774359 -0.102064215 0.075176544 0.010653156 0.18025364
centre -0.0799388 -0.080344975 -0.02758489 0.044284098 0.013966668 0.00852623 0.16465269 0.10055277 0.0001670208 -0.015688391 -0.040909886 0.019891901 0.12620531 -0.16453487 -0.033527784 -0.14831284 -0.0030913993 -0.06663354 -0.059297923 -0.022898266 0.12399728 -0.15904874 0.021670924 0.020714507 -0.03212327 -0.021710007 0.27983612 -0.040099807 -0.106436424 0.018745173 -0.036532793 -0.1284557 0.1654184 -0.1369489 0.039891697 -0.22464578 0.13560267 -0.025797237 -0.07121159 0.11830718 0.0989444 -0.07080998 -0.022350473 0.20356622 -0.13476785 0.08975563 0.14915234 0.06888041 0.009686232 0.0058478727 0.019307813 -0.037836306 -0.0562757 0.1727461 0.0991826 0.066904835 0.08555825 0.07228051 -0.09319705 0.05522231 0.09496742 -0.023848472 -0.054487877 0.1023948 0.14333275 -0.046002112 0.06972905 0.100670144 0.17985076 0.02343139 -0.08473798 -0.13554364 -0.09748973 0.11028678 -0.09630751 0.048629988 0.053495746 -0.051603403 -0.16458583 -0.010729887 -0.17877345 0.03362657 -0.0031988728 0.04722363 0.06299159 0.0711194 0.14155513 -0.03962308 0.0011710705 0.08107393 0.041472305 0.04562171 -0.057410497 0.02600261 0.3312142 0.09333627 -0.061865024 0.0042274077 0.02536576 0.096600346
management -0.1400391 0.08392478 -0.14994812 -0.11834882 0.0030063363 -0.09700411 0.11967125 0.040285647 0.11389576 0.0045231814 -0.09872782 0.0787356 0.2545894 -0.0013030674 -0.0150411725 -0.17756891 -0.13292988 -0.15484558 0.060964845 0.047451396 0.112831734 0.010292089 -0.18243362 -0.0021678105 0.028409334 -0.21485044 0.041482788 0.030087449 -0.020864623 0.05336015 -0.003505315 -0.122532785 0.10649192 -0.08549119 0.12218688 -0.019632602 0.19299078 -0.010895844 -0.105898544 -0.05395912 0.043663535 -0.07712086 0.08422813 0.2347788 -0.06534068 0.071383044 0.0018474953 0.1274978 -0.026750186 -0.18709289 0.0084196115 0.09846498 -0.092476785 0.23407404 0.08340857 0.03941238 -0.015717003 -0.022650711 0.043437537 -0.06743729 0.018364385 0.020324629 -0.0661715 -0.043517 0.02592047 -0.08861865 0.027984736 0.061431963 0.07208825 0.11972132 0.029663924 -0.12863836 -0.14969483 0.040987723 -0.06337863 0.04591887 0.2423561 -0.026808746 -0.16059941 -0.045540676 0.09268097 -0.059511755 -0.092655525 0.00739615 0.018098405 -0.018628744 0.02151787 0.0030738763 -0.02979841 0.18014148 0.019933557 0.05176673 -0.003101593 0.12828062 -0.09469232 0.088612825 0.04065784 0.18468401 -0.11705653 0.054537326
house 0.052549504 -0.17376232 0.071768045 0.007501765 0.038841456 0.032276947 0.1424534 -0.085719876 0.066868454 0.050248127 0.08974851 -0.09000578 -0.045863904 -0.031523522 -0.06613765 0.035794932 0.048911173 0.099387005 -0.103830196 -0.028085172 0.16465303 0.019829584 0.17625473 0.014764431 0.11110267 -0.023917304 0.13841449 -0.095433444 0.027538879 -0.06449769 0.15033258 0.02916833 0.16473264 0.0065871775 0.003692265 -0.18597555 0.06269106 -0.13191667 -0.04061708 0.11994609 0.011542263 -0.001730737 -0.08797138 -0.055702694 -0.07606609 -0.06668102 0.11545344 -0.05819317 0.10152744 0.0004522166 -0.15210049 -0.1984646 -0.12483283 0.0027005067 0.05308505 -0.06229906 0.089596674 -0.029311432 -0.0802286 0.18847889 0.19257261 0.0778119 0.021868391 0.067647666 0.039783455 0.11546041 -0.0822769 0.020967782 0.019654678 0.049239397 0.08178018 -0.10765817 -0.068540186 0.04958614 0.1677811 -0.11467393 -0.105332546 -0.093913816 -0.08707457 0.047858056 -0.17347331 0.104842044 0.01572609 0.16721001 -0.2161768 -0.027616272 -0.024124928 -0.07119803 0.22407545 -0.05593774 -0.051255275 -0.081453934 -0.1758491 -0.007889654 0.21368454 0.033259127 -0.13344777 -0.09079885 -0.07367258 -0.024476597
community -0.049592197 -0.033512395 -0.086806685 -0.12828147 -0.04832869 -0.004117307 0.08918955 0.025657523 0.09160162 -0.07077077 -0.21356401 -0.032361094 0.20487387 -0.057953387 0.046277355 -0.14799142 0.10487357 -0.03194091 -0.029120943 -0.0063426266 0.16224079 0.11721803 -0.15209146 0.030521512 -0.050200574 -0.07895651 0.17872733 0.042334873 -0.13684563 -0.06370452 0.0062114634 -0.13644572 0.15626813 -0.23556139 0.056281112 -0.17853399 0.23847206 0.019432103 -0.045531992 -0.05158217 0.01774444 0.006761811 0.09460584 0.0871947 -0.13684735 0.010149657 0.09679743 -0.030606594 0.00895136 -0.13656925 0.006176829 0.14709428 -0.03366406 0.06648092 0.0930988 0.02613864 0.0019907944 0.017584542 -0.010380374 0.05636606 0.039406903 -0.07104325 0.014716297 0.19966932 0.19959688 -0.086395524 0.014455875 0.1044623 0.089959785 0.14488266 -0.016582804 0.02064371 -0.25343588 0.08268167 -0.046806943 0.045819953 0.112345494 0.046145998 -0.0946597 -0.015276862 -0.059321545 -0.011272532 -0.01802408 0.11144248 0.01919621 -0.009040643 -0.07992503 0.0088423155 -0.09279617 0.1239904 0.085009955 -0.011138763 0.044917934 -0.15724173 0.124681726 0.04784555 -0.15779427 -0.062535755 0.025077488 0.16224362
access -0.06104609 -0.11728082 -0.11897466 -0.049386688 -0.018228156 0.061948378 0.14032912 -0.055257358 0.021782642 -0.022038093 0.016634485 0.09537962 0.14765425 -0.07531327 0.0076169022 0.00845274 -0.14166063 -0.078561455 -0.023267783 0.14199822 0.008028719 0.0784962 0.025763564 -0.0101007605 0.007305882 -0.098401845 0.12506346 0.0010180322 -0.0136802895 0.067041874 0.13089456 -0.035863444 0.110692635 -0.1482937 0.15100957 -0.032834742 0.15969518 0.07023678 -0.010708137 0.0020329836 -0.07018322 0.02607026 0.12864137 0.31749967 -0.06212421 -0.04819159 -0.028925084 0.06685573 -0.027705617 -0.047294565 -0.02795393 0.013715738 -0.27372268 0.058177408 0.069499075 0.14904468 -0.076138236 -0.12361282 -0.022003768 -0.04602927 -0.0043573333 -0.061573923 0.070048615 0.07811864 0.21666087 -0.2109659 0.11228847 0.04075728 -0.07276045 0.010122657 -0.098707505 -0.07541209 -0.20412585 -0.0718772 -0.06190645 -0.02868507 0.20189102 -0.050550815 -0.19738524 -0.061625063 -0.0862709 0.0075754873 -0.036008853 0.09583255 0.13284878 0.046068117 0.0329054 -0.10915158 -0.17562988 0.03680035 0.033901546 -0.032423887 -0.09147029 0.21256103 0.012926523 0.048194658 0.01304801 -0.024889376 -0.067569934 0.13057113
education -0.23405913 0.03193272 -0.13596399 -0.052532498 -0.04445834 -0.02994438 0.05686885 0.104903795 0.017627623 0.033447903 -0.06274506 -0.14405388 0.14899103 -0.08751686 0.07450312 -0.17786935 0.04706222 0.049674444 0.10742352 0.09997231 0.037078287 -0.066857375 -0.18747018 0.026008029 -0.016156316 -0.08346581 0.14865114 0.09798595 -0.08330442 0.0687593 0.036072437 -0.13856216 0.14597104 -0.06986891 0.081767246 -0.03181344 0.21078426 -0.07332343 -0.07500392 -0.0096267555 0.06753707 -0.09289496 0.13923052 0.11840254 -0.08862176 0.08307149 0.05129061 0.046594765 -0.04132144 -0.07538831 0.09775723 0.17387392 0.018649554 0.020847538 -0.027140988 0.06356093 -0.048120096 0.020459851 0.031387717 -0.093385965 0.10880307 -0.06644973 -0.15528439 0.13782433 0.2607794 -0.03466733 0.083118424 0.18625498 0.05734345 0.14207944 -0.090979025 -0.052631386 -0.08685604 0.077050366 0.048332956 0.05702046 0.16031046 0.16818324 -0.12197568 0.07081703 -0.112049185 0.019549992 -0.12633258 0.10951261 0.07273361 -0.06339366 0.06676924 -0.012429556 -0.19052069 0.03497426 0.032414865 -0.026033968 -0.023115115 -0.06839643 0.070036285 0.031155003 -0.12068195 0.03166333 0.18121375 0.04198699
training -0.17139459 -0.041589342 -0.039447535 -0.038895242 -0.09901241 0.04867227 0.14244772 0.058606457 0.014931842 0.04042362 -0.010012011 0.051143367 0.29277018 0.07921823 0.09507892 -0.17408219 -0.1069247 -0.07227523 0.031443845 0.030593641 -0.041767076 -0.032449644 -0.10746885 0.032044735 -0.013615936 -0.16096003 0.18798639 0.010616372 -0.065741025 -0.0074824966 -0.080851294 -0.11984761 -0.0055208984 -0.078509085 0.17672786 -0.052032873 0.23631543 -0.0032945643 -0.15469229 0.00028834035 0.124314174 -0.016625885 0.18740416 0.16517232 -0.10417127 0.009454053 -0.007578754 0.06659917 -0.072892494 -0.059701715 0.036591813 0.17805979 -0.04572734 0.17991611 0.029072478 0.15809922 -0.13092846 -0.03868438 -0.09285589 0.024163505 0.035019092 -0.013334184 -0.09082915 -0.022969015 0.09925092 0.10641911 0.08393262 0.11573805 0.14633653 0.071563594 -0.023620754 -0.045775842 -0.18793915 -0.0393148 -0.042010527 0.15165666 0.15961568 0.05829492 -0.118554406 -0.00720103 0.039225947 -0.06559035 -0.048980504 0.073620416 0.10977836 0.048502125 0.11972177 0.1025912 -0.12379742 0.14799632 0.06139587 0.02578602 -0.056167103 0.119766384 0.07487505 0.042661265 -0.06416722 0.08150316 0.11682344 0.012961186
range -0.059631135 -0.0001679322 0.01494206 0.010287498 -0.08751236 -0.0013293701 0.11361421 -0.076160036 -0.10133591 -0.03846279 -0.18566561 0.17188957 0.11099659 -0.11052572 -0.045286443 -0.08951206 -0.18827528 -0.11124923 0.052483346 -0.06885026 -0.012184052 -0.0058657285 -0.11655923 0.035245623 -0.036218155 0.030303465 0.15811811 0.021852957 0.004288805 0.1652053 -0.05851911 0.00047974224 0.09079917 0.022977209 0.10176027 -0.07849143 0.24689692 -0.069231324 -0.24421327 0.069284 -0.03172808 -0.049537178 0.12719606 0.20090176 -0.18920961 -0.0029710527 0.05167277 0.0033742038 -0.23045425 -0.13998728 -0.12803511 0.0013422386 -0.17752786 0.012003432 0.052612484 0.13565469 0.076242134 0.0007137218 -0.13395703 -0.039145302 -0.035512943 0.06998018 -0.04160464 0.06726168 0.0595277 0.086881705 0.022604078 0.014861862 -0.04247315 0.012565452 -0.13956164 0.051681023 -0.11625948 -0.04833068 -0.15497063 0.013608221 0.11171383 -0.073304005 -0.025372693 -0.1276248 -0.13457783 -0.04292123 2.5780468e-05 -0.04018232 0.114518605 0.0028004788 0.051682334 0.025993364 -0.08126225 0.14222063 -0.022586782 0.11839886 4.3831915e-05 0.21527475 0.16543932 0.04630039 -0.07177175 0.09228656 -0.1033315 0.081419036
book 0.16592431 0.06324575 0.03933522 0.11483384 0.04224477 -0.009014259 -0.020066412 0.04391711 -0.100060984 -0.066094324 0.04042344 -0.21009701 -0.14458267 -0.054937173 -0.005986007 -0.06661194 -0.023589656 0.08815962 0.026688065 0.087912194 -0.05388173 -0.10167529 0.028112847 -0.1306554 0.016536457 0.11467414 0.04948922 -0.058421608 0.07921571 0.14839262 -0.22411264 0.14993383 0.1205315 0.21452908 0.098399796 0.08957048 0.13756698 -0.1287676 0.020345226 0.024728678 -0.03722252 0.065003596 0.16435531 0.009842367 0.08222666 -0.1829957 -0.07766653 0.004852405 -0.092617884 -0.01779574 -0.16665743 0.026265055 0.085980915 -0.048102777 0.10009141 -0.030594088 0.07894817 0.12734601 -0.10309755 -0.053604156 0.10852605 0.08566279 0.050977398 -0.038321756 0.12079585 0.0017019142 0.048509162 0.09562066 -0.17397888 0.10547774 -0.017256228 0.0055076354 0.029352104 -0.0008669815 0.10038302 -0.08148071 -0.07749489 0.124287546 0.069747366 -0.16904575 0.060653165 0.044966478 -0.028940685 0.15164106 0.14155275 0.04188427 0.05618539 0.06903487 0.07488811 -0.1858078 0.2296541 0.012030901 0.010143428 0.055283654 0.087288626 0.09929499 -0.11960873 0.07533231 0.1776678 0.13085568
team -0.07105965 -0.032754097 0.07658735 -0.14165868 -0.11437749 -0.080031954 0.12882705 0.08922222 0.12065434 -0.10356803 -0.11137668 0.017224215 0.113346234 0.0938096 -0.0062518553 -0.24392363 0.06181887 -0.107767634 -0.09881247 -0.022564929 -0.018267471 -0.12749472 -0.0068497853 0.06073225 -0.029052047 -0.20955054 0.16971721 0.0010326491 0.035770822 -0.11964305 -0.0905999 0.056251314 0.051547114 -0.13683802 0.195426 -0.11234678 0.13318388 -0.019713419 -0.10778034 -0.094347075 0.107812986 -0.015632544 0.14030588 0.109036654 -0.1484084 0.016402036 -0.04202918 0.0030755126 -0.021608733 -0.06309973 0.03793213 0.016667362 0.09734857 0.20038836 0.12383084 0.021688433 -0.15774155 0.0016697673 -0.09586107 0.08668786 0.026542576 -0.007231237 -0.041516863 -0.059455033 0.099762015 0.20866309 0.088839196 -0.033263784 0.20862888 0.083589375 0.028663501 -0.053354185 -0.13161074 -0.022671502 -0.10815816 0.068970986 0.05817576 -0.04035845 -0.108620994 -0.13482091 0.19596885 -0.013774129 -0.022244338 -0.09632921 0.09895522 0.10347716 0.16226391 0.08494002 -0.011830438 0.13211422 0.07226447 0.04761547 0.026348388 0.0050202105 0.1715825 0.013550338 0.04423891 0.111415215 0.04095274 -0.02780934
form 0.048659578 0.07137076 0.06375804 -0.024879118 0.016070561 0.09348912 -0.0025384922 -0.21558653 -0.12013928 -0.11955974 0.007132137 0.062478896 0.06557318 0.013730968 -0.0044543804 -0.104701035 0.054876573 0.06828838 -0.04578976 0.023130013 0.04288192 0.16474807 -0.07381332 0.028354283 -0.025566144 0.095533796 -0.005491497 0.09986482 -0.02581826 0.13885076 0.05048119 -0.06755008 0.15789683 0.095764466 0.1179657 -0.18036291 0.08169107 0.08848585 -0.0054796413 -0.0433703 -0.11310694 0.17774607 0.21759896 0.059932154 0.013093699 -0.06359579 0.09816667 -0.0042653973 -0.11457481 0.019254316 -0.098614775 -0.08050005 -0.09595349 0.002633728 -0.067181565 0.15139148 -0.005737953 -0.13181031 -0.17062414 0.053988174 0.043783642 0.012997405 -0.13778095 0.13759276 0.1873061 0.11796121 0.04926918 0.18470006 -0.014811471 0.060533248 -0.08748457 -0.09922181 -0.120372325 -0.08193182 -0.002653411 0.04084367 0.20472154 -0.08615986 0.003993473 -0.19037461 0.017606525 -0.21115424 -0.002873586 -0.010893251 0.06528712 -0.07530822 -0.14740245 -0.020672044 -0.080276944 -0.044734906 -0.051845852 -0.027461028 0.0025151805 0.15598477 -0.037699252 0.21411215 0.024260843 0.13493858 -0.0782736 0.17021349
learning -0.16106701 0.07530765 -0.19471863 -0.13183968 -0.04984636 -0.085470624 0.1019951 -0.027389493 -0.0381339 -0.03367114 -0.07749915 -0.08857239 0.1838686 -0.047826074 0.025611963 -0.18177736 0.011163838 -0.033757225 0.12020511 0.12907161 0.031576417 -0.08278933 -0.10100789 0.03987356 0.121840365 -0.0413694 0.067487605 0.02351752 -0.019893536 0.07562339 -0.07855317 -0.22832009 0.051589455 -0.019571364 0.07183585 0.055708483 0.16770604 -0.031383872 -0.10963758 0.013523354 -0.0399262 -0.11062126 0.15956949 0.183579 -0.05633318 0.006394469 -0.056747697 -0.029062038 -0.1305955 -0.0070043025 0.032216415 0.15202418 -0.1002238 0.09520708 -0.02472659 0.08023995 -0.063861616 0.06857711 -0.054819852 -0.021465955 0.05975917 -0.06768488 -0.03359161 0.084599234 0.24429387 -0.059463073 0.04887358 0.19160727 0.12015216 0.056794975 -0.1339656 -0.0693483 -0.040620774 0.090064034 -0.0123479925 0.16896176 0.12955037 0.15409298 -0.104379214 -0.028210174 -0.06348657 -0.028813608 -0.025080204 0.009869349 0.18879656 0.019274596 0.040133197 -0.030915637 -0.19617166 0.13661839 0.0762511 -0.07878508 0.079377405 0.006732259 0.034964167 -0.009640869 -0.11233007 0.13379765 0.23070605 0.025725259
case -0.047388505 0.0793906 0.116128735 -0.15486349 0.0143117225 0.16784249 -0.15010874 -0.20791739 0.034838133 -0.041162524 0.054034233 -0.01670513 -0.06387891 0.0777484 0.05712945 0.010022648 0.035320293 0.061688904 0.024930328 -0.078109354 -0.04728756 0.09223454 -0.06341825 -0.03561574 0.029350862 -0.077114135 -0.034165483 -0.029552268 -0.057271812 0.05409464 0.20231967 -0.06257222 0.04819159 0.05094713 -0.0012605503 -0.015517121 0.06299529 0.15669687 -0.025857281 -0.14281027 -0.0065276707 0.1823629 0.19624153 0.13305217 -0.05041059 0.012542193 -0.038069494 -0.07362565 -0.14976226 -0.1681734 -0.021439925 0.10082881 -0.041096088 -0.09902852 -0.019568091 0.05855954 -0.10399528 -0.208532 -0.10100397 0.10443788 -0.04862793 0.0017909651 0.0064384197 0.059653636 0.05846286 0.1312375 -0.061424803 -0.013013807 -0.06109611 -0.00042375375 -0.17236221 0.09227131 -0.10114529 -0.15463202 0.07153066 -0.07879888 0.13906594 -0.001783992 0.02245284 -0.09079284 0.14496867 0.06697811 -0.16235405 0.01052693 -0.08694818 -0.070155166 -0.118453264 -0.024969948 0.007805955 -0.11059349 -0.1361134 -0.04736446 -0.14951092 0.031445425 -0.2431404 0.2328399 0.069872364 0.070232674 -0.20401272 -0.017590698
details 0.11481149 -0.165439 0.05422612 0.15631449 -0.033717494 -0.12693702 0.095321946 0.06212115 -0.024739081 0.07991329 0.114614695 0.014064123 0.08714708 -0.09499251 -0.13916358 -0.1393695 -0.029407917 -0.10492978 -0.032613553 -0.0019185672 0.0019825674 -0.14191602 0.06745934 -0.03955574 0.11140715 -0.019159367 0.09261255 -0.007961263 0.039106134 0.11849834 -0.040516477 0.12779422 -0.011327371 -0.1656456 0.1218055 0.062243417 0.011139037 -0.18785733 0.028283587 0.1209623 0.08625018 -0.090733334 -0.07082013 0.13081115 0.024745205 -0.0112746125 0.057624184 0.0993023 -0.069327384 0.03210733 -0.07055469 -0.074860424 -0.10067822 0.014381066 0.13027757 0.07500632 -0.12997676 0.027213696 0.019342057 0.10717569 0.28493378 0.040618476 -0.07459733 -0.10479456 -0.0009514395 -0.09680769 0.04667131 0.055931557 -0.1527848 -0.04875692 -0.09853159 -0.22279024 0.005668971 0.041553337 0.03478271 -0.062831365 -0.035327155 -0.043814264 -0.09153695 0.056576155 0.0018439156 -0.027545538 -0.13545038 0.1433749 0.09341662 0.02769208 0.057538 0.051928375 0.08225942 -0.0025582574 -0.019438036 0.0723136 0.033231072 0.31266806 0.023417491 0.018024782 -0.09631736 0.20913273 0.038267467 0.2484324
level -0.19546865 0.05672954 -0.09997018 0.017370664 -0.10561324 0.0044248155 0.058939893 -0.069227174 -0.015040165 -0.068084635 -0.09279747 0.13139991 0.026150173 0.015278423 0.04952447 -0.053254835 -0.09333359 -0.052354548 -0.027132107 -0.076557525 -0.07354995 0.022440169 -0.2069193 0.11036469 0.11466839 0.07964713 0.08564952 0.10578493 0.029562026 0.066666715 0.17189062 -0.12886411 0.16481395 -0.022914227 0.00408438 -0.08860259 0.17773004 0.01262816 -0.1674039 0.011473322 0.086375326 0.046301797 0.18141618 0.19558752 -0.088787265 0.04101832 0.00906309 -0.06322092 -0.08467648 -0.13144697 -0.15706217 0.07491587 -0.15757336 -0.0077649443 0.046277497 0.1579725 -0.13373722 -0.059182342 -0.05021394 -0.072106406 -0.09014581 0.03793934 -0.054406747 0.14286025 0.06000453 0.16754812 -0.03419863 0.0791682 0.018088218 -0.028324684 -0.075253956 0.01730462 -0.2025579 -0.06699407 -0.04049033 0.06273243 0.3136924 -0.0014678708 -0.07738419 -0.038539954 0.011865326 -0.13810189 0.046527617 -0.021580333 0.15703975 -0.055710714 0.040586807 0.06633324 -0.123502046 0.15478346 -0.11482562 0.023117198 -0.011248798 0.14273223 -0.07896069 0.039482612 0.0471409 0.05533179 -0.10336267 -0.09375876
social -0.16589604 0.08202406 -0.096383184 -0.032537922 -0.06552803 -0.101684436 0.074900545 -0.004036616 0.06620059 -0.038678654 -0.08847 -0.09606986 0.14647837 -0.044667456 0.049853176 -0.028909538 0.15364167 -0.0020199835 0.048853595 0.033776008 0.17504707 0.034243364 -0.22348286 -0.090264075 -0.018271305 0.030285005 0.13049428 -0.0074406555 -0.11730451 0.040925857 0.00025167176 -0.14278507 0.1989505 -0.15280914 0.028983949 -0.06534961 0.19391342 0.054349743 -0.11972849 -0.08646353 0.0135324 -0.025971169 0.17465049 0.11624889 -0.033338264 0.051580135 0.0905855 0.095977664 -0.03304335 -0.12773754 0.008439777 0.24142823 -0.032598738 -0.0019331294 -0.034100812 -0.09316031 -0.016225442 0.041238863 0.08705193 -0.046313204 0.048938874 -0.07735652 -0.012652183 0.16510403 0.21230155 -0.02727037 -0.024758605 0.13926664 0.051089667 0.13039951 -0.09260176 0.004562028 -0.14393674 0.13478354 -0.09767922 0.011579456 0.25277424 0.14955743 -0.039486293 0.10446078 -0.0103948135 -0.092029825 -0.18946956 0.01454806 0.04898334 -0.11292994 -0.0768194 -0.029137634 -0.13268295 -0.059249 0.023928132 -0.0073848967 0.0690813 -0.080490954 0.09224463 0.036992937 -0.13787282 -0.04448303 0.0012737163 0.1087248
programme -0.1832434 0.06121591 -0.11571644 -0.039936867 -0.030485913 -0.037837297 0.14080213 0.10448186 0.036750898 -0.014390266 -0.05845507 -0.06265286 0.23348287 -0.03651225 0.00987249 -0.19749299 -0.007936582 -0.06235391 0.03162609 0.014540755 0.0014667591 -0.041573983 -0.17966375 -0.037370615 -0.049092326 -0.045159347 0.13817081 0.12151786 -0.03987961 0.06760763 -0.06576588 -0.08266121 0.042799007 -0.11098588 0.009773231 -0.1460281 0.22040465 -0.05522955 -0.08653745 -0.06008464 0.11271711 -0.061258562 0.15861829 0.26379877 -0.13190007 0.086355284 0.006853651 0.00488436 -0.08913595 0.0077555706 0.08669108 0.18031149 -0.033761535 0.138888 0.08086826 0.08370549 0.012218976 -0.03973219 -0.04514483 -0.06771652 0.07491427 -0.022518475 -0.112161696 0.014583281 0.18320277 0.059669193 0.045441445 0.12459545 0.10604432 0.08101384 -0.12708937 0.02620666 -0.22054794 0.052507482 0.0077067106 0.09206488 0.24869432 -0.040837713 -0.051458314 -0.036592953 0.041009482 -0.061490986 0.114714146 0.10092967 0.105395965 0.011088553 -0.016376672 0.0964953 -0.11181401 0.12570639 0.028589332 0.078236386 -0.08241969 0.08955349 0.17793073 0.09274125 -0.01978566 0.10456727 0.046507586 0.02487738
old -0.033430576 -0.06445828 0.124600746 0.0044399067 -0.04941165 0.005651226 0.09476006 0.008023196 -0.11477327 0.081746385 0.10648022 -0.086883396 -0.111045875 -0.019275075 0.00664003 0.07283995 0.0721566 0.10111867 -0.030991588 -0.09350705 0.039540745 -0.011644268 -0.03732454 -0.038224276 0.07915749 0.10831234 0.1397064 -0.08504657 -0.024692895 -0.048611496 0.12520888 0.09179407 0.032160792 0.1817085 -0.0571872 -0.10170136 0.018287698 0.0129971225 -0.046401788 0.115396045 -0.09164182 0.16799644 -0.04925212 -0.15507184 0.0455131 -0.20306103 0.06895978 -0.2500691 0.1670994 0.008355151 -0.11238827 -0.19329023 0.09265139 -0.06088922 -0.04606655 -0.031572472 -0.021786809 0.06464786 -0.12471665 0.16740465 0.12426101 0.23931108 0.16361499 0.101776436 0.0050978414 0.2168324 -0.031634126 -0.12248031 -0.015246458 0.13911156 0.07315801 0.059503663 -0.07267474 -0.03771706 0.10282752 0.07280137 -0.13322161 -0.011653924 -0.05292477 -0.08851748 -0.14923115 0.037400942 0.15320203 0.00591987 -0.0028640667 0.023522409 -0.007881865 0.062452 0.13661662 -0.11439414 0.026009014 0.029516296 -0.06189821 -0.035274733 0.18869132 -0.016997118 -0.055420827 -0.13171652 0.14594191 -0.10128217
road -0.09635328 -0.18786764 0.006148892 0.016384996 0.055289555 -0.005103168 0.03439684 0.060956948 0.037366543 0.055931106 0.101907186 0.064841606 -0.09792623 0.043318857 0.06738655 -0.0028078398 0.03276304 -0.016947992 -0.14740236 -0.026052142 0.04090425 -0.14283271 0.08261416 0.0974128 0.05959337 0.0018632086 0.116950154 -0.15682858 -0.075335234 -0.06276388 0.07990709 -0.10238904 0.1534386 -0.15079321 -0.016480342 -0.12949991 -0.029369768 0.034928385 0.113084495 0.020536698 0.10338019 -0.025068495 -0.1375227 -0.005763398 0.036271635 0.08251412 0.16261892 -0.0066837827 0.15481837 0.05617469 -0.13266449 -0.2349957 -0.076778084 0.078003384 0.1649306 0.21563253 0.004458624 0.108614 -0.039265342 0.23177819 0.15496577 -0.025951661 0.115954876 0.28623384 -0.022768054 -0.021304088 0.051737964 -0.12725821 0.038828123 0.18525364 0.036899615 -0.016803524 -0.06062499 -0.08741342 -0.07102829 -0.033013377 -0.056071002 -0.07916619 -0.0715754 -0.12189093 -0.18601754 0.053452995 0.012842734 -0.028791921 -0.13422614 -0.0012637617 0.05297205 -0.023930334 0.1015124 0.13530886 -0.04538132 -0.06811459 -0.13661654 0.056805465 0.03729443 0.012857002 -0.09551525 -0.15897648 -0.08426342 -0.03183414
name 0.2867928 -0.08077894 0.17495398 0.004941626 0.0007181097 -0.036028396 -0.045382433 -0.15383369 -0.15089732 0.11633573 -0.007872977 -0.14872012 -0.0068850624 -0.066596046 -0.016924668 -0.19565874 0.14306013 0.06396868 -0.20157993 -0.014787093 0.12186219 0.017398393 0.08653438 0.0071760905 -0.05096113 0.03352299 0.03763716 0.06933304 -0.040766265 0.07060708 0.09072324 0.19905955 0.0073145754 0.096744664 0.10763974 0.09059735 0.04963081 0.04328787 0.11582441 -0.079582356 -0.13879912 0.22416334 0.052455597 -0.13536029 0.041229896 -0.14350699 -0.07158387 -0.066678755 0.080267966 0.01573444 0.12251222 -0.074381664 0.049193267 -0.033926137 -0.0634189 -0.017829968 -0.10143618 -0.21111405 -0.17655334 0.09744017 0.116475776 0.044818405 0.016642915 0.019103378 0.03755108 0.00091300876 0.061248835 -0.030442791 -0.071308605 -0.010901227 0.024986256 -0.12782861 0.13960138 -0.08867272 0.07070359 -0.038598064 0.014069772 -0.04205503 -0.20125861 -0.26661327 0.057850152 0.010951838 0.05619096 0.0614197 -0.034047697 -0.09261151 -0.04858898 0.0749104 0.17535514 -0.1287861 -0.009237257 -0.10812255 -0.015556476 -0.006224451 0.0025039052 0.02207199 0.038599886 0.07204791 0.07407651 0.032276344
open -0.012083724 -0.14899288 -0.04104133 -0.10376103 -0.046546683 0.092869125 0.1740063 -0.10241506 -0.081416816 -0.051490508 0.12044934 0.048042558 -0.01717558 0.007873288 -0.0137409475 0.034366965 0.00910484 0.058105 -0.1207426 -0.057278674 0.08277453 -0.010327341 0.1758653 0.03218499 0.03602887 0.09496874 0.20584914 0.021258269 0.013610487 -0.04536889 0.05164678 -0.05544937 0.10952363 -0.04031891 0.028543254 -0.32113752 0.07506606 -0.02302924 -0.0025130783 0.08115373 0.0340391 -0.014755856 0.046130527 0.143568 -0.07751433 -0.09337315 0.10038044 -0.104831405 -0.034562375 0.08958267 -0.019752285 -0.2076089 -0.110536054 -0.105263844 0.032808784 0.0036237033 0.0038316243 -0.08059535 0.013539617 0.072763376 0.13537434 0.016896587 0.09922055 0.008632644 0.18665959 0.1337949 0.1397654 0.054547187 0.06380131 -0.04191229 0.029422553 -0.15761954 -0.17201196 -0.06794337 0.07440057 0.015485892 0.07732933 -0.100115396 -0.16458987 -0.062296763 -0.17941089 -0.08233694 0.16074526 0.03324928 0.062308487 0.07698279 0.073326424 -0.10211758 0.07065305 0.041817524 0.15092902 0.080508776 -0.16710128 0.083283275 0.24387519 0.10441587 0.11514672 -0.04077408 0.0436999 0.115173124
view 0.039982475 -0.12096405 -0.07608949 -0.039542425 -0.062006123 -0.07125954 0.032530047 -0.1147591 -0.07976288 -0.19532226 -0.05205509 -0.08944044 -0.060281135 0.14117227 -0.0391747 0.01000185 0.0678346 -0.18658006 -0.08522848 0.084053636 -0.076648824 0.21308321 0.025980517 0.091452405 0.07459575 0.022436667 0.115325704 -0.002490321 -0.041220143 0.1843483 0.06882647 -0.027174367 0.1708713 -0.04849791 0.106263325 0.027563553 0.09187996 -0.05968899 -0.07665844 0.018254526 0.08659446 -0.090105966 -0.025581993 0.17921919 0.07903338 -0.07587291 0.065772615 -0.015400016 -0.22648679 0.04764692 -0.10378269 -0.011861948 -0.12399215 -0.23290814 -0.015100095 -0.052758288 -0.07688251 0.027460188 -0.06339999 0.10237306 0.13173966 0.03211429 0.037711862 0.07808225 0.04662549 -0.069475524 0.17526293 0.10197089 0.010603792 -0.01546672 -0.1645337 -0.13814396 -0.12348688 -0.012020108 0.050295226 -0.14756067 -0.006500485 -0.010818586 -0.15956594 -0.16338843 -0.11128764 -0.15060018 -0.008509586 0.11055755 0.120360106 0.053561207 -0.26038405 -0.041425347 0.06117072 0.06962382 0.012855698 -0.008734018 -0.09155031 -0.013177191 0.035174374 0.05827156 0.0018565475 -0.10590527 -0.07202428 0.16734399
issues -0.061535325 0.10182874 -0.07415623 0.019445013 -0.006767413 -0.13413095 -0.17373694 0.024001267 0.14791664 -0.047228258 0.108153366 -0.07511783 0.17809494 -0.103322566 -0.087203234 -0.050688356 -0.11007541 -0.12135926 -0.001622793 0.045815703 0.16380261 0.029276399 -0.13297899 -0.09079685 0.11011199 -0.15417176 0.12044325 0.059671175 -0.09734482 0.053708933 -0.048769284 -0.05402002 0.084874354 -0.22247 -0.06251397 0.0064487886 0.1521057 -0.12053919 0.033317126 -0.04514671 0.084830336 -0.12258984 0.0059553483 0.21199243 0.059052303 0.10498814 -0.010117094 0.11903585 -0.051682066 -0.06923064 0.036734473 0.072380684 0.044560842 0.011326164 -0.015996868 0.015978204 -0.10008961 0.089657545 0.10474614 -0.18814097 0.20550162 -0.09066794 -0.077452846 -0.023588695 0.0051476043 -0.18344152 0.106327966 0.17997812 -0.036605 0.039411258 -0.12253223 -0.12948143 -0.102172166 0.11803747 -0.0014328803 -0.016056228 0.14999543 0.11808313 -0.0674966 0.05992331 -0.034104418 -0.08369458 -0.22280449 0.012966411 0.017221533 0.040010557 -0.091246575 0.027001465 -0.07971348 -0.028312739 0.11550639 0.06980168 0.027141737 -0.010655455 -0.11529576 0.07674411 -0.109570086 0.10235834 0.069860205 0.15638208
news -0.039678033 -0.23316294 -0.00019204663 -0.061874587 -0.15091722 -0.0020840112 -0.12870088 0.27538005 0.10854189 -0.24883513 0.049165044 -0.14655158 0.06531161 -0.020281708 0.0060437354 -0.08105025 -0.070979826 -0.10922534 -0.11313608 -0.045564953 0.03161428 -0.0964435 0.08234406 -0.010273244 -0.11186614 -0.1559885 0.08734935 -0.017701047 0.073284715 -0.022439383 -0.10143537 0.1737107 -0.05831878 -0.11365778 0.04860272 -0.072042435 0.040036283 -0.061110657 0.12484399 0.006786836 0.09087012 0.049569294 0.017326558 0.17351341 0.06873221 0.08758893 0.017481474 -0.11911448 -0.050040804 0.034417618 0.13768667 0.024859887 0.14101282 -0.04023458 -0.09921866 -0.09479278 -0.04161882 -0.019175733 0.032268155 -0.17643298 0.18887416 -0.07295337 0.14129245 -0.107426874 0.030865718 -0.021891888 0.16308686 0.113013126 -0.22264951 0.011367468 0.028669888 -0.1104165 -0.1449185 0.074334666 0.06751965 -0.094350964 -0.023904609 -0.017950432 -0.12681843 0.016842527 0.01859701 0.010791488 0.08388682 0.1425492 0.005814795 0.1335588 -0.020154651 0.084930524 0.015469503 0.01137173 0.15268412 0.14791942 0.053881913 -0.024346776 0.0447331 0.045347035 -0.009039774 -0.09510112 0.03572903 0.123304434
change -0.0340863 0.15359779 -0.04418612 -0.12253593 -0.012904346 -0.059309464 -0.0027956937 -0.08906076 0.0020978001 -0.17240562 -0.05331318 0.09212478 0.018046608 0.067502804 0.15504749 -0.11569021 -0.068609886 -0.03855165 -0.04366599 -0.017024077 -0.0071576564 0.08394996 -0.18403246 -0.043192122 0.10614691 -0.048776887 -0.018771641 0.0113619575 -0.05373256 0.14353585 0.1542196 -0.09725426 0.08097702 -0.025638659 0.021257298 -0.20983443 0.030587878 0.13829397 -0.13119017 -0.08197036 0.0835469 0.13225253 0.16167633 0.16880985 0.1055136 -0.12544015 -0.019680176 0.0071223592 -0.09072069 -0.0008856521 -0.027297454 0.113105446 -0.05244576 -0.088207565 -0.033698022 -0.08971661 -0.055296 -0.15300669 0.05536436 0.011717845 -0.058326762 0.02613349 0.07771268 0.11768877 0.14383267 0.097360425 0.07487923 0.04641699 -0.024856606 0.029921748 0.0030007241 0.060852177 -0.19610104 -0.0643189 0.052781716 -0.05775788 0.36505124 0.041272197 -0.014194918 -0.13158554 -0.0006276721 -0.16943221 0.012389284 -0.023792224 0.07696952 -0.08730331 -0.19024915 0.009495138 -0.21560693 0.07760167 0.04635966 0.058372222 0.05230482 0.07110896 -0.11523675 0.026114965 0.10178009 0.057479754 -0.16368939 0.009623148
quality -0.02288676 0.08738154 -0.09228244 -0.092448905 -0.11936618 -0.16497721 0.18709673 -0.010158543 -0.039403 -0.059004415 -0.18484546 0.18150064 0.060327627 -0.044198927 0.0613483 -0.034293782 -0.13370614 -0.06503326 0.08579924 0.049897075 0.03226037 -0.01636183 -0.25526375 0.11229018 0.006067277 -0.1113409 8.2671846e-05 0.01524377 0.030337412 0.089213446 0.07241788 -0.07411621 0.09629949 0.019074295 0.077824615 -0.05110727 0.2838131 0.024071114 -0.3029205 -0.054115936 0.02585357 -0.042043876 0.12496793 0.16374443 -0.130802 -0.0035259237 0.045636047 -0.13116853 -0.18586428 -0.12659661 -0.15562406 0.04825439 -0.13228439 0.0350455 0.044703577 0.06646878 0.015241077 -0.021427838 -0.10242473 -0.020137668 -0.035582513 0.08947188 -0.09269756 0.06916585 -0.01814926 0.002097143 0.03136111 -0.020253552 0.022447774 -0.02318159 -0.10917062 0.102745 -0.03042019 -0.10468527 -0.012195729 -0.051881827 0.07330941 -0.22926576 -0.071951024 -0.0032458417 -0.013237445 0.0014426808 0.0199064 0.10828391 0.13243791 -0.033895377 0.03821948 0.021594595 -0.12201859 0.2038975 0.032086197 0.038008966 0.07698723 0.14631578 0.03746784 -0.00954019 -0.044309523 0.0949659 -0.1368002 0.08269758
family 0.034031775 0.0070184185 0.09820078 0.040997505 0.008528283 0.08702199 0.11544714 0.0817908 0.003948735 0.086139135 -0.10068064 -0.035516344 -0.037145097 0.00095151976 0.006012853 -0.06459335 0.20524402 0.021303538 -0.06623175 -0.043889225 0.07683169 -0.02104078 -0.008975724 -0.07457448 0.1263895 -0.018088233 0.22389029 -0.08254758 -0.08056541 -0.10006551 0.005257802 0.07774797 0.09938921 -0.066817336 0.1773613 -0.09749222 0.16918305 0.06698479 -0.16193767 0.059796043 -0.0399471 0.16455305 0.12954542 -0.0955753 -0.053399764 -0.12334153 0.026849926 -0.10531236 0.09258862 -0.10823044 -0.08860024 0.17413065 -0.021419361 -0.060904793 -0.083098486 -0.17325243 0.006622652 0.014869372 -0.12677501 0.101423874 0.037376724 0.017011417 0.122981675 0.1655928 0.16398562 0.112697475 -0.095211 -0.03577613 -0.06845587 0.085287005 -0.09127897 0.034797847 -0.20017833 0.089261875 0.03474007 -0.009775381 -0.002497948 0.07148735 -0.0839272 -0.016088434 -0.004912317 0.2063858 -0.15010455 0.2141325 -0.13841996 -0.06663725 -0.082754724 -0.06456419 0.041599974 -0.020029478 0.011504126 0.054214265 -0.05229332 -0.02232452 0.17546028 -0.01170937 -0.25355074 -0.04333255 0.13469775 0.055767477
put 0.053186838 -0.041240085 -0.043868877 -0.18578428 -0.056550622 0.026035324 0.032428276 -0.078571975 0.020611906 -0.18075548 -0.07153548 -0.014251101 -0.2217447 0.08674426 0.14899787 0.11939973 0.050170325 0.072864346 -0.103419766 0.011588284 -0.011238477 0.055455554 -0.022887317 -0.09843673 -0.010090801 -0.039160818 -0.09320379 0.01202059 -0.011278382 -0.13419515 0.06070501 0.09429025 0.017449934 0.05332991 0.015386358 -0.16086654 0.04024612 0.08765601 -0.10422382 -0.07868043 -0.035159416 0.19962338 0.12551376 0.040947553 -0.17370372 -0.21219593 0.00811704 -0.19563566 -0.059195433 -0.121776715 -0.041155726 -0.15609461 0.06975827 -0.0737577 -0.053396706 -0.039924484 -0.031910997 -0.16782731 -0.13070889 0.110471286 0.08585742 0.0007040389 0.118030034 -0.029439619 0.0029098333 0.3382283 0.06477242 -0.05101364 0.09972585 0.092129715 0.102021545 0.1306541 -0.13674188 -0.14687495 0.10031552 0.031051114 0.06881582 -0.021341952 0.025802264 -0.1753741 -0.0016519615 -0.029295439 0.07718158 0.006425519 0.024172353 0.022309853 0.025896644 0.09545171 -0.07888306 -0.039744064 0.08905187 0.08684302 -0.15302525 -0.09783016 -0.10057128 -0.028073952 0.12493991 -0.061763123 -0.07368479 -0.10429968
policy -0.07510761 -0.012635072 -0.16751485 -0.11341066 -0.03815923 -0.09461032 -0.020941673 0.026390368 0.14581451 -0.07620439 -0.0352008 -0.018648352 0.05554474 0.02681343 0.11226263 -0.10480837 -0.026772695 -0.039486594 0.060675576 0.08823638 0.06509794 0.13267341 -0.17590904 -0.12449713 -0.05864138 -0.15538266 0.020671804 0.119446166 -0.11281119 0.00617463 0.11363233 -0.13573542 0.137907 -0.18529318 0.034215815 -0.07019475 0.17128089 -0.032023083 -0.0029167559 -0.1870149 0.10986607 -0.061566014 0.13954893 0.16559233 0.031056138 0.05309685 0.04658233 0.03866134 -0.049074948 -0.16555926 0.05953027 0.08611138 -0.044227887 0.06073847 -0.01478263 0.018930268 -0.008079871 -0.073487654 0.14101823 -0.07648787 0.07177394 -0.078114726 -0.043334212 0.059746686 0.17404406 -0.088205166 0.06294792 0.16097562 0.045789897 0.08802866 -0.067405544 0.036713295 -0.1431162 -0.015619194 -0.0060691326 -0.13914268 0.36160624 0.0712051 0.014989425 0.049662255 -0.013133011 -0.076502815 -0.2514324 0.09547882 -0.03212127 -0.10868061 -0.15333429 -0.008976864 -0.09710521 0.01416667 -0.009250851 0.044642814 -0.055650145 0.013945003 -0.026855873 0.03495754 -0.0018736095 0.05612488 -0.12013303 0.12540798
history -0.045738764 0.11019069 -0.0001695474 0.084360555 0.030038409 0.030994155 -0.016869087 0.112876475 -0.20427191 -0.09387208 -0.04962661 -0.24579355 -0.021888245 -0.13030134 -0.07129547 -0.09868624 0.011993595 -0.019077698 0.0021535854 -0.063697465 0.06115355 -0.083229646 -0.17081977 -0.04955163 -0.030410904 0.14894903 0.1904909 -0.04593762 0.03942616 0.20664038 -0.04280789 -0.08279869 0.1647189 0.03094713 0.031199351 -0.066297725 0.08047518 0.030449986 -0.08316196 0.06465054 -0.03768592 -0.0076687136 0.06855723 -0.009316487 0.17100637 0.0068720994 0.008502642 0.015938168 0.0103513105 -0.11022718 -0.032684367 2.366414e-06 0.19568653 -0.08741195 0.057633337 -0.07846269 0.13321315 0.12936698 -0.106292784 -0.03361412 0.121189594 0.094900966 -0.022457719 -0.025285233 0.2050674 -0.13549049 -0.040529378 0.14933752 -0.096545726 0.119758055 -0.081223816 -0.0674224 -0.009146735 -0.031732768 0.012317095 -0.06344797 0.08408547 0.037697453 -0.007957882 -0.14677855 0.061884258 -0.13684705 -0.14839455 0.054965023 -0.010890653 -0.079665534 -0.07728117 0.11083137 0.057952583 -0.16778421 0.09295119 -0.05863804 0.07036717 -0.054274295 0.2648978 0.1816644 -0.096974686 -0.09659919 0.16061339 0.048786376
process -0.056774467 0.18106394 -0.093011186 -0.098108895 -0.013698873 -0.0028495437 0.044729378 -0.12404947 -0.0043424754 -0.12119631 -0.14161982 0.11565971 0.10330727 0.002250153 0.006253402 -0.09634306 -0.09937167 -0.00824583 0.07795587 0.08175895 0.06560085 0.069659345 -0.19773477 -0.03072685 0.06661182 -0.054776683 -0.028356161 0.053140316 -0.025341408 0.058024723 0.03613832 -0.1971698 0.08880478 -0.0037175827 0.026851691 -0.10619067 0.0343677 0.18868586 -0.05411591 -0.10040563 -0.01667834 0.09731692 0.2375854 0.2022672 -0.048793215 -0.0056349887 -0.100644544 -0.0086732125 -0.16955161 -0.094294675 -0.068044476 0.10032865 -0.107921764 0.09117585 0.035399936 0.04234881 0.031097861 -0.07178961 0.021359758 0.027825223 -0.11517803 -0.03969388 -0.11609107 0.009097554 0.06140953 0.041997265 0.022935677 0.17644545 0.13120066 0.048420023 0.0060477233 -0.020130875 -0.1088586 -0.039173506 0.009967682 0.0886592 0.21090946 -0.029195959 -0.00669378 -0.14413224 0.08745182 -0.13997802 -0.04273661 -0.0027167334 0.015549957 -0.09000118 -0.22883366 0.026125293 -0.22103754 0.07621625 0.04079913 -0.0063572275 0.018405205 0.13306113 -0.119103186 0.11328829 0.1524279 0.1392619 -0.22012712 0.068154536
water -0.09847824 0.06847464 -0.16894375 0.003348025 0.1151111 0.08280206 0.0077105737 0.0072058155 -0.06696758 -0.10558641 -0.15479499 0.2679692 -0.0499016 -0.088851646 0.118441276 0.18019314 -0.019131273 -0.031464808 -0.07919833 -0.20506237 -0.022814972 0.15401474 -0.008268639 0.05515721 -0.14862362 -0.10423116 0.05432028 0.10015545 0.030884594 -0.025382848 0.07149206 -0.0018613727 0.025495645 0.007122824 -0.13736504 -0.17563386 0.03870864 -0.045490462 -0.14738227 0.09781448 -0.063093506 0.19097482 -0.044069845 -0.049990807 -0.040880058 0.022906177 0.06748564 0.018061448 0.06349438 -0.024170637 -0.23900424 -0.12799433 -0.12767377 -0.029276 0.12168713 0.098686464 -0.0032416857 0.021751493 0.042162046 0.02645152 0.04705301 0.060738236 -0.006021229 0.101467535 -0.0907662 0.12398346 -0.09913298 0.0055528553 0.0019904168 0.008353987 0.20675726 -0.0698929 -0.018814093 -0.0587674 -0.07355491 -0.025306376 -0.061107427 -0.20092623 -0.03969013 0.0014773365 -0.18567269 -0.013989488 0.08540202 -0.058380235 -0.038204998 0.015336254 -0.054134447 -0.0946083 -0.08283254 0.14750122 -0.023200711 0.2850327 -0.07523067 0.048945703 -0.110249616 0.014905575 0.068625465 0.021285327 -0.0662991 -0.16296479
design -0.040984344 0.12385641 0.009701241 -0.042051196 -0.0524007 -0.12771794 0.14493279 -0.06255959 -0.006784761 0.013247792 -0.07538403 0.19546232 0.16719551 -0.1290528 -0.054307695 -0.1161557 -0.21921223 -0.11274785 0.1295815 0.11180645 0.027219918 -0.057185825 -0.12352723 0.01798324 -0.043583144 -0.009078354 0.09968507 -0.1517538 0.105480544 0.18821311 -0.0512199 -0.024530383 0.09422312 0.047144234 0.041472573 -0.014052617 0.03164524 -0.02166325 -0.23932318 -0.11772297 -0.07652383 -0.18561468 0.18041922 0.20245998 -0.14790635 -0.009136429 0.024465302 0.015139646 -0.2508614 -0.04019711 -0.17032397 -0.093326956 -0.11609631 0.07099066 -0.038510635 0.07902331 0.122888505 -0.1391629 -0.120880656 -0.042706385 -0.031003844 0.09645362 -0.10794704 -0.011885275 0.050351195 -0.09831026 0.05212819 0.08819424 0.16910042 -0.006964425 -0.0407928 -0.06851263 -0.05448829 -0.087782204 -0.027290244 0.086135946 0.035226665 -0.06682634 -0.076626025 -0.14418983 -0.07181055 -0.054953933 0.045990366 -0.09586259 0.07932916 -0.017408594 -0.052612055 0.0798659 -0.046276573 0.07849332 0.111118235 0.03796079 -0.02707363 0.10138251 0.12947752 -0.026051551 -0.040117376 0.07067997 -0.088022575 0.069579795
care -0.11663821 0.12049366 0.03485606 -0.06346517 -0.08970295 0.012058644 0.07511645 -0.019447558 0.10197751 0.07711343 -0.036525663 0.038751718 0.06919828 -0.03044993 0.14775755 0.014123935 0.1990479 -0.081082575 0.04400959 0.074739724 0.011654129 0.035214614 -0.20644093 -0.09337729 -0.013892218 -0.14139317 0.0058972575 -0.04432167 -0.21005598 -0.027306974 0.026036127 -0.020699086 0.08512108 -0.0736588 0.14095919 -0.1156378 0.28662622 0.029877275 -0.2888702 -0.041609574 0.009599162 0.13089287 0.119746044 0.1054076 -0.10488624 -0.008205858 0.045951027 0.013473038 0.04813595 0.0041575045 -0.052320436 0.16114086 -0.026068633 0.1326713 0.13143525 -0.008004499 -0.14385244 -0.0041523688 -0.047513317 0.11214283 0.066478476 -0.044595845 0.08966954 0.093728624 0.13311647 0.0057218103 0.05024203 -0.007136896 0.046488866 -0.00078307616 -0.03907204 0.03512319 -0.23046401 0.06818228 0.048596114 0.107390165 0.060769353 0.0210674 -0.14047308 0.14406896 0.048429586 0.16100371 -0.11244543 0.1375876 -0.044600952 -0.037025083 0.0261212 -0.028823627 -0.1115748 0.18530391 -0.007872108 -0.0025042284 0.019679002 0.04916076 -0.14144136 0.037373077 -0.21896976 0.06279432 -0.0087513 0.077560216
god 0.09808869 -0.05736805 -0.100774854 0.022968277 0.010779523 0.020026335 -0.07987962 -0.034523614 -0.0631225 -0.05937824 -0.092931695 -0.06376537 -0.079501994 0.0064681987 0.07975131 0.15660624 0.33874065 0.09128408 -0.10714152 0.0654102 0.044237617 0.23868646 -0.070779085 -0.016184129 0.029769022 0.07614455 -0.09524298 -0.1674261 -0.0039327675 -0.063006245 0.16983509 0.03268161 -0.06623573 0.170904 -0.08923786 -0.035036944 0.06377632 0.15377259 -0.13329676 0.022959406 0.027425468 0.014910484 -0.032960445 -0.2618173 0.035733957 -0.20846315 -0.02375105 -0.13365817 -0.03865694 -0.0034479096 0.05337017 0.055977978 -0.039907884 -0.09088516 0.064239524 -0.14090453 -0.11529275 0.025335735 -0.11915321 0.024410006 -0.042537548 0.007446382 -0.073718384 0.04390105 0.0073555866 0.030489279 0.01603602 0.08519199 0.043586753 -0.018020155 0.016956601 0.057568945 0.07641341 -0.06848001 0.04003677 0.08349169 -0.07931491 0.16862328 0.103584394 -0.15870443 0.04331154 -0.10329013 0.12690945 0.24595569 -0.08492459 -0.15830444 0.029369352 -0.06751994 -0.017743696 -0.009778581 0.17380573 -0.0250887 0.022088192 -0.16044232 -0.119742766 0.092716545 0.037572727 -0.024314996 0.11648411 0.037415143
office 0.04199383 -0.16497347 0.008705507 -0.15497184 0.038305636 0.006565816 0.023907013 -0.11144209 0.20781007 0.05083529 5.6257613e-05 -0.05395773 0.18187006 0.0642389 0.040904906 -0.16309823 -0.094365604 0.09296086 -0.034221157 0.08196396 0.11480535 -0.06080946 0.09546024 -0.005367181 -0.07544887 -0.1733958 0.19036727 -0.045078717 -0.073343135 -0.10775045 0.10158543 -0.013906521 0.12778267 -0.14323965 0.15699548 -0.16572145 0.0659947 -0.1174361 0.0066817803 -0.012373203 0.13169764 -0.034589175 0.027608387 0.21325167 -0.080019295 0.03507329 0.06080688 0.064813584 -0.034322407 -0.006519443 0.19788781 -0.052071027 -0.058352888 0.13074714 0.091469176 0.0879067 0.011713395 -0.1751674 0.00023021337 0.005786205 0.08659834 -0.042794418 -0.11392292 0.0011054014 0.11313485 0.016526127 0.002963334 0.06452429 -0.033122268 0.09336458 0.096716255 -0.20186466 -0.07324662 0.09725411 0.023819126 -0.12846974 0.09624118 -0.06438621 -0.1322362 0.052887883 0.002507653 0.010094068 -0.13039719 0.24856839 -0.07802902 0.010706764 0.08543471 -0.051899374 0.09393859 -0.04859116 -0.105058126 -0.064966336 -0.14876862 0.119148634 0.06339807 0.03076473 0.09729994 0.016027175 -0.10248999 0.13787511
music 0.12414956 0.023162361 0.0012036948 0.07586906 0.035179906 -0.008437449 0.032770608 0.07518688 -0.21738665 0.015495911 -0.09771463 -0.16230097 0.04140491 0.09960116 -0.15905178 -0.09615555 -0.034307268 0.08981303 0.106570974 0.0059623257 0.20755523 -0.06556402 -0.012380551 0.17117953 0.05419019 0.11571605 0.019108733 0.027993657 0.06110248 0.05647143 -0.12760599 0.12249353 -0.15058753 0.055066273 -0.03826541 -0.13394147 0.072691 0.03431167 -0.03216125 0.17990936 -0.16386485 -0.043125667 0.1550714 -0.0341784 -0.022762643 -0.059151728 -0.010492241 -0.10109857 -0.051050235 0.09248948 -0.056561846 0.036984432 0.06688201 -0.07228739 0.012065029 -0.013730693 0.077766605 0.00023540457 -9.345865e-05 -0.1750318 0.092575826 0.054472927 -0.03070386 -0.09870465 0.09760355 0.0008593853 0.16711892 -0.028505761 -0.031348526 0.06492279 -0.16781545 0.14258753 -0.038168386 -0.086925685 0.00312697 -0.10018213 -0.045275904 0.012301557 -0.0026615532 0.043876134 -0.024335537 -0.089177504 0.26300308 0.017986184 0.13102554 -0.087355584 0.23397674 0.111424044 -0.016521031 -0.043577794 0.19140133 -0.035688415 0.064067215 -0.03627744 0.27140322 -0.125149 -0.11582125 -0.05038289 -0.00939065 0.11663536
