1394608 50
one 0.22952893 0.18118425 -0.056258082 0.18984766 -0.019689437 0.12895344 0.052893016 0.046560362 -0.08111911 0.2109893 0.17909746 0.107939616 -0.04081083 -0.068895236 -0.10490473 -0.0893225 -0.07715546 0.0029315695 0.21199922 0.35623989 0.16475867 0.1300712 -0.20838004 -0.020389196 -0.18129972 0.2426165 0.19889651 0.06582255 -0.016713565 -0.1744737 0.096932925 -0.0158529 -0.13928027 -0.02862916 -0.23836868 -0.10088129 0.122321 0.11256545 -0.08362547 -0.012801302 -0.14153045 -0.11780461 0.036149904 0.024652744 0.047012787 0.0512523 0.049219504 0.0072230804 -0.19993038 0.2937016
time 0.16362575 0.20384893 0.04363206 0.14877252 0.008576703 0.12375624 0.0924754 0.00019145777 -0.08904168 0.10936747 0.19111851 0.27396312 -0.008107885 -0.20125374 -0.09947153 -0.07603833 -0.050921455 -0.14584583 0.12664966 0.17173257 0.23861876 0.15340342 -0.18850185 -0.042326175 -0.06789237 0.22958666 0.3029 0.004458625 0.11842334 -0.15710022 0.16636781 -0.05317742 -0.19687182 -0.1336735 -0.19001102 -0.1074776 0.044859845 0.16325648 -0.102890216 -0.05676137 0.030165978 -0.1515915 0.05896787 -0.16324282 0.06696194 0.11930235 0.026047604 0.13124104 -0.19154769 0.12808299
people 0.062430676 -0.0033659742 0.053754155 0.08593871 0.15782785 0.060548004 0.023487749 -0.15323816 0.16703586 0.18504632 0.12769581 0.046604775 -0.0858252 -0.1676231 -0.32910174 0.022653388 -0.11016629 -0.25807434 0.06986107 0.20359726 0.22268657 -0.07401579 -0.17163664 -0.0880152 -0.20613079 0.17520674 0.15406644 -0.08784516 -0.011638117 -0.10782878 0.18611605 -0.20328857 -0.16861717 0.29334155 0.047118004 0.0032044875 0.12553155 -0.06868221 -0.0981115 0.03986705 -0.023302184 -0.17791457 -0.15509316 -0.11301101 0.043909412 0.0100452015 0.22995748 -0.08626791 0.045447934 0.12940861
information -0.015521071 0.05741446 0.031878635 -0.0036708494 0.2212933 -0.12029673 0.0037578428 -0.21114755 0.21074687 -0.15170157 -0.20350891 -0.12836978 -0.15825619 -0.12287739 -0.11781436 -0.16810235 0.047394898 -0.2950137 0.14876896 -0.026084047 0.08060189 0.029098354 0.2654735 -0.09979384 0.088337034 0.118071936 -0.19954647 -0.116214186 0.0033819878 0.04837608 0.14172357 0.09667915 0.29830062 0.087036304 -0.05238611 -0.104665786 -0.030954525 -0.18226808 -0.1750585 -0.08525108 0.27736285 0.09358125 0.01128081 0.07400184 0.048921704 -0.032856837 0.25495526 0.06935577 -0.02785901 -0.15925398
work 0.02959487 -0.048008144 -0.034405157 -0.018476533 0.19700943 -0.08256941 -0.030991519 -0.31538048 -0.0009319985 0.124140225 0.001957162 0.09363579 -0.0673744 -0.07270353 0.00060599105 -0.23083864 0.034243878 -0.20011841 0.32703552 0.13367414 0.06729366 -0.053023886 -0.006183843 -0.11317364 -0.2610638 0.052028347 -0.06789865 0.061422165 0.018001026 -0.14650494 0.23978083 -0.28043327 -0.0031018152 0.14284395 -0.22710387 -0.21604162 0.0120503865 -0.02341608 -0.16585214 0.06446186 0.10585175 -0.13779688 -0.021920562 -0.09433192 0.09257059 0.057854235 0.2715043 0.16270939 -0.11485695 0.15052328
use 0.21227473 0.043104656 -0.2359927 -0.08202953 0.047854844 0.1844608 0.018345643 -0.075697884 -0.044058044 0.1475066 -0.23661247 -0.046507306 -0.15871824 -0.10386615 0.0028801688 -0.16840582 -0.042506754 -0.28630328 0.21596241 0.3372323 0.022161892 0.12565733 0.21205747 0.026586976 0.08086128 0.20237759 0.08436114 0.14311704 -0.01855213 -0.02162833 0.27989843 0.10389529 0.09485346 -0.09151738 -0.11508552 -0.10656699 0.059683815 -0.059920948 -0.10921124 -0.032558795 0.15405384 0.012205553 -0.13467756 0.16406542 0.02132933 0.05104544 0.024692554 0.2603636 -0.14745507 0.08176905
year 0.12549797 0.07632499 0.13129582 0.35044175 0.20866825 0.12689278 0.011550259 -0.146777 0.04920179 -0.023460539 0.10096147 0.29551506 -0.10427146 -0.216188 -0.10022463 0.003418716 0.04176501 0.13643706 0.19624923 -0.0009900396 0.15020342 -0.1090158 -0.20124894 -0.009467981 -0.3080902 -0.0049455236 -0.050321866 -0.032512598 0.1460105 -0.14135672 0.08667876 -0.13841906 -0.038935956 -0.07545658 -0.29434553 -0.16703388 0.11595753 0.24375607 0.07485223 -0.043109935 0.091424145 -0.16406712 0.039951503 -0.13308305 -0.056245815 0.054813065 0.06563369 -0.053121094 0.009046322 0.13579802
being 0.21384363 0.087351374 -0.063040525 -0.02399098 -0.16553976 -0.009434908 -0.087613195 0.060678832 -0.16054523 0.10494398 0.17702943 -0.16590388 -0.1295207 -0.022081658 -0.11847314 -0.038798675 0.017907392 -0.015409698 0.22635853 0.14382805 0.24362703 0.2150298 -0.16474615 0.090534955 -0.11773024 0.25615638 0.1432646 -0.088772096 -0.10421723 0.0787014 0.14820257 -0.13444383 -0.14642502 0.108908415 -0.030231956 0.019174796 -0.026587985 -0.045887418 -0.018839782 0.042661596 -0.29170352 -0.101357795 -0.33984342 0.05104945 0.08521704 0.06679266 -0.0054878984 0.036284372 -0.35868803 -0.040429715
back 0.01695669 0.14345583 0.04677887 0.22705181 -0.1664841 -0.05840404 0.12493671 0.07729536 -0.08263416 -0.0620689 0.39996594 0.3280326 0.13570456 -0.13359931 -0.063691296 -0.06897178 -0.1404527 -0.14015113 -0.12659313 0.13717309 0.064768486 0.025861153 -0.09793728 -0.0019926962 -0.1691928 0.1306583 0.23944403 0.19830145 -0.09510181 -0.21683717 -0.099904604 0.067843005 -0.09106029 -0.15820499 -0.012954892 -0.041010782 0.23783982 0.1583472 -0.12708011 -0.12315114 0.03202467 -0.019764628 0.21240318 0.01910893 -0.082896836 0.09629397 0.1394261 -0.008457276 0.065011844 0.11298103
way 0.1808449 0.0941187 0.0022819121 -0.07844881 -0.019715255 0.058409087 -0.012734425 -0.09298532 -0.09223954 0.23623538 0.14330555 0.041671593 -0.008207297 -0.0145075135 -0.22683634 -0.09751708 -0.06683706 -0.28934386 0.09745426 0.26567134 0.15706994 0.13681926 -0.10929019 -0.034872517 -0.1044735 0.2180051 0.27562234 0.1403954 -0.06650773 -0.058154438 0.16018607 -0.15166648 -0.15387087 0.1452813 -0.1715865 -0.12383844 0.108318575 -0.0536031 -0.27711856 -0.060541242 -0.109097905 -0.06992783 -0.06271497 0.06598476 0.082130484 0.11414404 0.16012862 0.06880267 -0.1954959 0.24157898
day 0.23802581 0.1115979 0.09209496 0.20555884 0.03699271 0.08857036 0.15932761 0.13375072 -0.028992426 -0.07125084 0.31487328 0.31891918 -0.042980045 -0.27345702 -0.09482754 0.0113122435 -0.029820548 -0.09719196 0.026316738 0.0042631133 0.16892648 0.13235435 -0.14808814 -0.1404508 -0.09414984 0.07892322 0.1900762 -0.09081194 0.014420663 -0.17459968 0.09689827 -0.045367714 -0.16464697 -0.13306409 -0.13236217 0.058301523 0.05055329 0.3030872 0.08163728 -0.1550979 0.060065757 -0.18789312 0.20451793 -0.19549276 0.039530013 -0.120956354 0.04226873 -0.03845307 0.021643749 -0.07090344
world 0.11427825 -0.06436228 -0.017529165 0.16451208 0.055784218 0.17783077 0.07943112 -0.22762914 0.033684805 0.09018156 0.07427525 -0.17614254 -0.14241503 0.055406787 -0.38457334 0.12626265 -0.0016065809 0.003332816 -0.050296374 0.017205637 0.14778142 0.0630557 -0.13570999 -0.14773428 -0.12278422 0.061202995 0.014321589 0.09791533 -0.07496542 -0.22407672 -0.057335235 -0.15420115 -0.19883569 0.16793554 -0.1326546 -0.24867009 -0.07382043 0.1752539 0.0017322476 0.116030015 -0.11975202 -0.16888312 -0.006508609 0.30401704 -0.13802561 0.053097334 0.026345547 -0.1313275 -0.19346504 0.19946362
research -0.039486796 -0.22848748 -0.09660605 0.022779686 0.19610061 -0.0733591 -0.11038178 -0.2826829 0.08744791 -0.03130587 -0.31871012 -0.064172916 -0.03170931 0.101676635 -0.092551164 0.008874641 0.18688296 -0.014556623 0.22406262 -0.13469137 0.026061926 -0.2200789 0.16512616 -0.02124184 -0.11138186 0.0626743 -0.1857731 -0.13804023 0.17632371 0.03653038 0.07616045 -0.118606016 0.18573584 0.23990838 -0.24589756 -0.17844173 -0.10203282 0.012636237 -0.12491876 -0.06741199 0.22826338 0.007937365 -0.11693587 0.08920155 -0.12405867 0.10157648 0.21010391 -0.012770719 -0.022870123 -0.064945415
service 0.057471823 0.07700979 0.14794154 -0.12041777 0.26818943 -0.026769951 0.08715534 -0.17394237 0.30777198 -0.003189698 -0.10284378 0.07820975 -0.3223961 -0.32450047 0.031597815 -0.18841189 0.09716479 -0.24718466 0.04143269 0.03339727 0.10483969 -0.027809855 0.12477699 -0.024459757 -0.07911732 0.114524834 -0.15435536 -0.060151175 0.04235122 -0.034386955 0.19238526 -0.23413336 0.155595 0.0014067241 0.016377863 -0.16683583 -0.0036159407 -0.22403291 -0.09833215 -0.108134024 0.17237431 -0.035660814 0.093480386 -0.0051070205 -0.03102635 -0.04143848 0.26560435 0.038392037 -0.07349539 -0.0076643615
part 0.28536323 0.060949188 -0.08133683 0.14854312 0.076955415 0.1230043 -0.03238441 -0.1771677 0.020829065 0.1692238 0.042700425 0.15866755 -0.16696042 -0.09739745 -0.071993865 -0.23985551 0.008069826 -0.08521912 0.29780275 0.10004968 0.18390594 0.031626325 -0.12279368 -0.02382326 -0.17885774 0.04318932 -0.17231064 0.07598785 -0.041104857 -0.0545953 0.20554431 -0.24880001 0.039714336 -0.036036108 -0.20348097 -0.16821225 -0.009916346 0.06414568 -0.15276334 -0.06508935 0.09857414 -0.12518701 -0.13287832 0.18651152 0.10182753 -0.038230006 0.21879211 0.104646474 -0.28701505 0.08175067
number 0.21791339 0.2774205 0.08711019 0.10446323 0.06446419 0.25121668 -0.02930173 -0.11657124 0.21465246 0.12501006 -0.10473248 0.062180493 -0.2095615 -0.22580588 -0.016706297 -0.24683905 -0.018436462 -0.073599674 0.19328146 0.21043022 0.1921453 -0.06131132 -0.07836838 -0.010264473 -0.02343364 0.2305473 -0.07828036 -0.13333176 0.13880824 0.03156876 0.2591821 0.22529219 0.15414543 -0.1876423 -0.15133649 -0.112207316 0.12387803 0.088774465 -0.15412217 0.047178905 0.1776078 0.044215012 -0.056853153 0.03812493 -0.017562052 0.00422867 0.06092009 0.05019436 -0.017089834 0.062117968
support 0.11743084 -0.041940313 0.054253384 0.007417191 0.22674128 -0.033956204 0.0025724354 -0.29044017 0.19091251 0.17143762 -0.113808416 0.06637264 -0.1901695 -0.104241975 -0.08654661 -0.2098021 0.037338894 -0.3398892 0.2114334 -0.020946188 0.04518371 -0.11273721 0.12865014 -0.001140403 -0.13415872 0.004694689 -0.12438746 -0.0066593653 0.13065752 -0.1782053 0.2549461 -0.19062431 0.12944864 0.13404152 0.0062564733 -0.09857668 -0.01824736 -0.16767652 -0.18202856 -0.0385185 0.13169818 -0.1588518 -0.011621143 0.014625668 -0.11098184 0.1396808 0.3145555 0.028764935 -0.006866457 0.060033455
help 0.14714974 -0.040326994 0.025505213 -0.012671634 0.17627086 -0.10691464 0.18474098 -0.30967852 0.025172496 -0.0036422936 0.029473279 0.01665704 -0.02569688 -0.13973407 -0.22023389 -0.10015903 0.008109438 -0.45212922 0.10763432 0.14695002 0.037386056 -0.009440449 0.058622964 -0.10287186 -0.22070895 0.11544101 0.20292388 0.030074252 0.008226218 -0.1845378 0.23786142 -0.16763008 0.017635055 0.18600802 -0.037712213 -0.08265997 0.17160352 -0.17842086 -0.0932289 -0.063382365 0.1431073 -0.069506176 -0.03769039 -0.08968852 -0.055979792 0.092625804 0.26868704 0.06499198 0.03404013 0.07450132
development 0.10899606 -0.15477361 -0.052140467 -0.11724057 0.21058491 -0.0008604688 -0.17058523 -0.32209527 0.0654506 0.09649748 -0.17418411 -0.05380742 -0.16719916 -0.0003965496 -0.033095185 -0.16039161 0.12481611 -0.15991437 0.06280162 -0.19280764 0.0014373108 -0.15659837 0.09239437 0.0042929775 -0.13758077 -0.06766591 -0.25915045 0.04434465 0.095093444 -0.010179774 0.18360153 -0.25488514 0.075292945 0.08334782 -0.20789395 -0.23025535 -0.023792129 -0.10470447 -0.18274693 -0.08965054 0.189059 -0.07154882 -0.13859521 0.12547432 -0.08277309 0.10275461 0.30842713 -0.023494989 -0.04861178 0.003634574
group 0.18604696 -0.001150115 -0.053833473 -0.006681252 0.20010722 -0.010582726 -0.10109214 -0.28915796 0.2312735 0.1315402 -0.08408297 0.08050414 -0.036266074 -0.057242062 -0.013624099 -0.11899909 0.02946406 -0.17984784 0.26209158 -0.20666604 0.018363597 -0.24677815 0.034278046 -0.124986924 -0.2324752 0.13064398 -0.18481804 -0.017142797 0.19905777 0.048052855 0.20965357 -0.029100502 0.1488044 0.069981895 -0.0798387 -0.079601124 0.036606647 0.035768565 -0.14442362 -0.02215228 0.06000773 -0.21110691 0.012301916 0.10636021 -0.094714254 -0.05338438 0.36708307 -0.1413047 -0.023065293 0.14074159
business 0.095923126 0.022371437 0.24106565 -0.17824396 0.24687774 -0.011640706 -0.023987345 -0.28296214 0.25229555 -0.18430316 -0.06935622 -0.0031052406 -0.16672024 -0.18956394 -0.047021654 -0.06990577 0.10728936 -0.057342924 0.0695094 -0.093330964 -0.039493322 -0.14426708 0.083260395 -0.088298544 0.044044975 -0.0172583 -0.03782002 0.041088153 -0.064751886 -0.054526173 0.159282 -0.21780016 0.086842604 -0.039166834 -0.13851832 -0.41756582 0.09903738 -0.31189883 -0.0100772735 0.034713354 0.05538555 -0.087140284 0.06965659 0.022242505 -0.068153076 0.09536718 0.27128193 0.005488759 -0.0704289 0.12366959
home 0.007855 0.23565194 0.032479223 0.17500253 0.18925256 -0.04713714 0.08127858 -0.045962896 0.040218227 -0.0307075 0.09803115 0.24275897 -0.19655867 -0.33353713 -0.13747688 -0.04064376 -0.0015143772 -0.23996153 -0.1256765 0.16878147 0.021868749 -0.063061275 -0.11306575 -0.15671653 -0.1437521 0.02740818 0.038152236 0.12542436 -0.16653442 -0.18138476 -0.043743726 -0.15757245 -0.017783307 0.08861339 0.050104555 -0.11924824 0.1673934 -0.16005246 0.18106627 -0.11702986 0.23694675 0.06310278 0.1866746 -0.0802006 -0.019258816 -0.060091347 0.2686415 -0.2283303 0.007227425 0.005295276
set 0.2273305 0.15569183 0.05535403 0.017674254 0.10457611 0.17182562 -0.004018184 -0.06480329 0.018972073 0.23022644 0.014413974 0.087981425 -0.11726276 -0.07934053 0.06389533 -0.38758662 -0.16001712 -0.18373978 0.19228858 0.19556811 0.06803216 0.10514605 -0.035623502 0.03477768 -0.072815016 -0.044863623 0.0164635 0.15010794 -0.07474176 -0.116392 0.24488002 0.114029884 -0.08578754 -0.17238219 -0.11356627 -0.1884896 0.089568414 0.08342607 -0.13032097 -0.10852909 0.1266761 -0.09170051 0.020495879 0.18477972 -0.038512953 0.077430524 0.14235252 -0.0588308 -0.33676627 0.18031482
health -0.050193407 -0.1171937 -0.010634039 -0.11678126 0.22466084 -0.003875499 0.02694751 -0.21118662 0.18646516 -0.073661245 -0.25823477 0.00051102205 -0.012884885 -0.23034006 0.018380566 -0.002888733 0.05289447 -0.14016463 0.08297232 -0.010450087 0.1296012 -0.08490183 0.038464364 0.028111374 -0.20452502 -0.034350704 -0.045734674 -0.16118784 -0.0067085433 0.10783683 0.025144614 -0.24226741 0.103527375 0.29862392 0.035784572 0.039615456 0.017190501 -0.043581646 -0.061086297 -0.12238123 0.24824995 0.046257753 -0.25931236 -0.032810353 -0.19684675 -0.023550307 0.41923892 -0.0809609 0.11928869 -0.15605512
life 0.04743147 0.024754936 -0.084279716 0.13574812 -0.015191779 -0.04202138 0.090786524 -0.17326318 -0.027346287 0.13713206 0.1797247 -0.08433255 -0.060614243 -0.032537043 -0.3176735 0.049564093 0.09248137 -0.11984038 0.10792577 0.08550077 0.15278812 0.1676038 -0.23049581 -0.021605836 -0.33320686 0.018685509 0.26727638 -0.12054079 -0.04413309 -0.06476133 0.06336618 -0.3048266 -0.21788394 0.3565855 -0.12392198 -0.09166977 -0.005205561 -0.013323573 0.035208046 0.057663854 -0.0474472 -0.053511888 -0.18648629 -0.058126107 0.07770164 0.02340158 0.0614912 -0.05325718 -0.2183536 0.098216064
public 0.014778665 0.006081301 0.1836919 -0.12383639 0.17711182 0.0061346595 -0.20389597 -0.11929676 0.21130048 0.022053244 -0.18015262 -0.047252275 -0.16203953 -0.15465818 -0.18238506 -0.13292651 -0.013890303 -0.1266437 0.20725693 0.086263984 0.35741743 -0.21869855 -0.031010313 -0.03417895 0.08112344 -0.11876487 -0.08264383 0.029516764 -0.03625338 0.14047207 0.07279054 -0.2548108 0.06956241 0.1437437 0.07089642 -0.11020323 -0.09027538 -0.10971022 -0.27065313 -0.077745624 0.12072012 -0.044205066 -0.031531014 0.08283236 -0.020594394 -0.087507285 0.32782665 -0.11412366 -0.15197799 -0.017764045
place 0.30599344 0.12642007 0.042022437 0.11447519 -0.07218999 0.11640746 -0.034591254 0.108840935 -0.09032786 0.20025337 0.2729596 0.22475706 -0.038290456 -0.16212393 -0.1260052 -0.14389345 -0.0077709234 -0.1502901 0.19302084 0.20745362 0.25539154 -0.02530552 -0.12503299 -0.13403024 -0.112738185 0.10619184 0.029666848 0.080471255 -0.042164534 -0.12281374 0.09681158 -0.16435638 -0.12681156 -0.027185153 -0.21639939 -0.11726357 0.05978809 0.061413012 -0.083460346 -0.19314533 0.04977722 -0.07883343 0.13005142 0.096418574 0.072173774 -0.1613759 0.27601695 -0.035987988 -0.2152738 0.010383986
site 0.1302551 0.10063886 -0.014775 0.09877251 0.152524 -0.09728778 -0.19254336 -0.0905741 -0.030746402 -0.08479779 0.036667794 -0.077169895 -0.2731292 -0.10695075 -0.16805597 0.06593952 -0.05382008 -0.23136595 -0.1200646 0.1676189 0.024603605 0.04703962 0.04447534 -0.17891265 0.02065037 0.16377065 -0.20780389 0.21408229 0.012293007 -0.014447298 0.094354436 0.12238466 0.27447256 -0.089147486 -0.1515263 -0.16195776 0.119793296 -0.119906776 -0.030698894 -0.25774348 0.30370486 -0.05016207 0.0023037416 0.23527311 0.15931551 -0.122252166 0.19954883 0.059085008 -0.08320397 -0.07326785
best 0.16275166 0.0886522 0.09826181 0.08394991 0.30846462 0.03986398 0.08475757 -0.18286043 -0.00539255 -0.077353306 0.09517757 0.059506245 0.016159678 0.036245763 -0.0827708 -0.029563436 -0.0008179087 -0.086617716 0.057954542 0.18865554 -0.086213484 0.2541568 -0.040919747 -0.16087748 -0.20405312 0.05011382 0.11781565 0.087485485 -0.073416494 -0.15290311 0.11723664 0.069554046 -0.2066147 0.09469978 -0.2324638 -0.1433591 0.098779425 -0.081776865 0.035741482 -0.11886145 0.05641534 -0.13027622 0.20589185 -0.00670656 -0.11361823 0.110121556 0.27144232 -0.00077910017 -0.217328 0.3974478
school -0.037556745 0.10376853 -0.016789261 0.073755346 0.10788938 -0.05265393 0.013739531 -0.02279493 0.0027383438 0.24673653 -0.12558532 0.30561778 -0.044190448 -0.058673464 -0.12703091 0.107921265 0.119625784 -0.18287557 0.20517841 -0.101546064 -0.08001306 -0.22656488 0.07802497 -0.11044666 -0.29441607 -0.104142174 -0.28840795 -0.10828654 0.021777356 -0.12033513 0.21727496 -0.24028808 0.03739837 0.19486167 -0.26965085 0.015862912 0.10988492 0.025162501 -0.031544328 -0.06809358 0.07417019 -0.048497416 0.05129824 -0.11869247 0.09510209 -0.047391687 0.3164983 -0.077659726 0.03365886 -0.03676943
course 0.038996607 -0.018973872 -0.0672591 0.11031015 0.13144398 0.0806356 0.124522775 -0.04909187 -0.08147599 0.10107285 -0.023065064 0.22082323 -0.06662919 -0.011721067 -0.0982667 -0.13198398 0.07502639 -0.044965226 0.24020962 -0.015648574 -0.07028179 0.05204033 0.18560965 -0.2758184 -0.069026574 0.0023740823 -0.08062486 -0.23455945 -0.005246793 -0.09482777 0.2048585 -0.044230096 0.06601953 -0.050382793 -0.3943975 -0.15748712 -0.06820096 0.027661476 -0.12294512 -0.060450897 0.096671075 -0.21383606 -0.01634432 -0.11532536 0.11239413 0.19947653 0.40044072 0.17900126 -0.058965053 -0.10275884
area 0.25582096 0.0069847563 -0.08513192 -0.03464314 0.1574169 0.21376923 -0.22390482 -0.034901183 -0.02948408 0.22941987 -0.02958285 0.07188707 -0.16626538 -0.06854366 -0.029957693 -0.19409323 0.0020152847 -0.142586 0.0022671735 0.1762777 -0.049436122 -0.14380248 -0.13287114 -0.09425014 -0.08534866 0.15403739 -0.11246162 0.080369145 0.040246654 -0.0047689714 0.2372906 -0.23656876 0.05927545 0.025592037 -0.13995539 -0.18812016 0.09488457 -0.09351186 -0.10156961 -0.22557713 0.30270875 -0.03314184 -0.077452876 0.1610424 -0.006489916 -0.20250218 0.30137217 -0.0579307 -0.00049733144 -0.10332271
system 0.15816268 0.017390432 -0.17465596 -0.19355069 0.0628712 0.14387916 -0.070389405 -0.21426481 0.018658472 0.11855119 -0.30156362 -0.020899566 -0.24025849 -0.039174113 0.10541751 -0.24211721 0.07992355 -0.1723896 0.013387846 0.19142544 0.047926042 -0.003748502 0.1936621 0.06568787 0.15112698 0.17351139 0.04078849 0.078635186 0.14723384 -0.07572999 0.21484146 -0.073831156 0.07972003 -0.054209415 0.09629747 -0.27029592 -0.07765684 -0.06739751 -0.15740423 -0.07199506 0.06947697 -0.04570884 -0.21424523 0.17044011 -0.08266412 0.21449396 0.057217773 0.20592283 -0.159621 0.039083116
top 0.008683024 0.048785284 0.109025255 0.24015151 0.006121439 0.0857404 0.026768014 0.018076971 0.09680116 -0.21381827 0.22697587 0.25238684 0.024301345 -0.052165385 0.07996537 -0.079489715 -0.04452693 -0.11168576 -0.11831254 0.100581765 -0.19720764 -0.0020873314 0.104446985 0.005288368 -0.18400915 -0.028259479 0.0001975474 0.082208544 -0.152597 -0.1277358 0.024410103 0.3214074 0.073466316 -0.25880283 -0.11511685 -0.13273303 0.27410218 0.021180294 0.043737844 -0.124660686 0.22839715 -0.050253123 0.19831578 0.15833934 -0.20432703 -0.015222732 0.28433487 -0.11080933 0.05566121 0.07953891
company 0.19617604 0.06438137 0.20971636 -0.088982716 0.19379786 -0.010615805 0.009646658 -0.21014622 0.13121821 -0.29288787 -0.10605094 -0.003197152 -0.27177674 -0.26258034 0.023558235 -0.07239063 0.02303687 0.07584748 0.1554558 -0.014244637 0.051538683 -0.06536578 -0.037768155 -0.020832159 -0.014377032 0.092783876 -0.092221536 0.122526765 -0.044041183 -0.06688904 0.10377089 -0.24359716 0.2156208 -0.22875449 -0.011911615 -0.29986128 -0.01621988 -0.22867046 0.048061 0.11575281 -0.031084752 -0.10348453 0.1383989 0.066508144 -0.07667829 0.009603168 0.15115684 0.07557388 -0.13031574 0.26167917
government 0.0071737007 0.012451391 0.16398346 -0.10923601 0.18799673 0.19969809 -0.13358009 -0.16381721 0.2742292 -0.061803095 -0.140819 0.07894295 -0.05051397 -0.10327105 -0.29333833 -0.15396073 -0.1235458 -0.05157595 0.15960953 0.012579396 0.32108575 -0.17134441 -0.10140578 0.05777519 0.056351803 -0.1678295 -0.041174825 0.10578431 0.058891926 -0.10986894 0.041900862 -0.36843422 0.0997668 0.10352618 0.15900333 -0.054261975 0.0040734634 0.026030729 -0.212983 0.034060676 -0.036626417 -0.016357563 -0.14626081 0.07352584 -0.12399677 0.14293292 0.21757323 -0.12861715 -0.008554882 0.04286999
project 0.075722456 -0.1590475 0.0033572183 -0.07575479 0.24332993 -0.20793642 -0.11521475 -0.28282493 0.056531567 0.06835543 -0.055405516 -0.019683732 -0.20736209 0.073791325 -0.022261353 -0.18634507 0.06550354 -0.11631969 0.16415209 -0.12344446 -0.06969271 -0.20177363 0.14625326 -0.039424125 -0.19655755 -0.04540875 -0.27256748 0.06533453 0.13247626 -0.12219032 0.21854676 -0.1519445 0.0823136 0.09817218 -0.21686089 -0.25978583 0.062019505 0.033198625 -0.12902017 -0.08760957 0.32444865 -0.10167552 -0.05559908 0.09724122 -0.007465691 0.0686062 0.13307175 0.009408195 -0.094108045 0.040525086
members -0.12002074 0.1370477 0.064456016 0.084663816 0.1669066 0.013725196 -0.1658402 -0.12476559 0.18447013 -0.34026313 0.05323588 0.15746452 0.12083167 -0.14429118 0.048498195 -0.0776772 -0.022381341 -0.1139605 0.081014596 -0.2979522 -0.03734144 -0.15409331 0.051093042 0.041722387 -0.052425347 -0.13473955 -0.23840278 -0.025168104 0.03849888 0.052923128 0.073761865 0.22006504 0.15671855 -0.15632415 0.166606 0.027302146 -0.056983992 -0.088294 -0.007458554 -0.08765992 -0.0836809 -0.18512382 0.15960453 -0.06153332 0.004137918 -0.1079975 0.42256594 -0.07990554 0.040992822 -0.15219805
think -0.061080296 0.13463682 -0.06184252 -0.010018059 -0.0035831493 -0.052739847 -0.015849646 -0.010221707 -0.0733477 -0.00407494 0.21812692 0.09666701 0.20975278 0.023240376 -0.2129595 0.15430519 -0.116978034 -0.16960712 0.07813068 0.32238576 0.17515919 0.15352301 -0.16569862 -0.034945738 -0.123763755 0.2145556 0.30709687 0.049250428 -0.035986565 -0.16483173 0.024303127 0.021800172 -0.20172167 0.07819593 -0.12689987 0.083438955 0.11611313 0.015325875 -0.16887343 0.010663948 -0.19959977 -0.13739529 -0.027591089 -0.19306369 0.09125877 0.23321643 0.10388235 0.012990709 -0.11082669 0.27763903
end 0.13801616 0.15129407 0.1542135 0.16497555 -0.1994054 0.12414554 -0.012777511 0.016161898 -0.09834002 0.1489649 0.26862082 0.34519288 -0.02362687 -0.13939703 -0.02402151 -0.14196028 -0.11618603 0.0049070627 0.09099469 0.12527926 0.29915813 -0.0025664642 -0.30093738 0.029083563 -0.14994977 0.01693829 0.1783395 0.1294656 0.00060478214 -0.110329665 0.014889969 -0.066104226 -0.1247304 -0.25560516 -0.1595782 -0.08257843 0.11877931 0.23651107 -0.16778244 -0.06383798 0.066633955 -0.0701306 0.08738857 0.05664387 0.036101677 0.118271075 0.0058633587 -0.06823378 -0.096665636 0.12679757
high 0.27303278 -0.029509217 -0.006806116 0.07947065 0.10609852 0.44980574 -0.09577313 -0.027211485 -0.08381884 0.14319032 -0.059855673 0.12944902 -0.18546782 -0.059216876 0.1501068 -0.11239834 0.17110129 0.0066392054 0.025268039 0.2625651 -0.071909085 0.06656548 -0.05004298 0.08450178 -0.106925525 0.109303616 0.13330609 0.04490866 0.14790292 -0.034413803 0.27619013 -0.2088366 -0.13176072 -0.103392094 -0.09738553 -0.13127927 0.15596193 -0.18714178 -0.057906445 -0.10659603 0.13477795 -0.023290232 -0.03369978 0.13770136 -0.21159539 -0.13266905 0.10003079 0.02451909 -0.02049893 0.16876803
order 0.2921779 0.2124379 0.07207984 -0.034146685 -0.027654614 0.19463433 0.080830514 -0.12020395 0.13468176 0.005052804 0.037348714 0.1643462 -0.18900114 -0.28988242 -0.07775865 -0.21500462 -0.08679635 -0.14937937 0.37102354 0.08373871 0.34469306 0.12123753 0.026751567 0.019537993 0.15985517 0.04033209 -0.07065702 0.016567457 -0.05424006 0.03893459 0.1610166 -0.013983622 0.17652145 -0.15264918 -0.022354811 0.07188885 -0.13735315 -0.061809406 -0.034205157 0.062454257 -0.014010344 0.14544156 0.0017691639 0.04016522 0.057324264 0.055203676 0.03398102 0.13843459 -0.26465827 -0.07219291
contact -0.06569428 0.08288078 0.13379863 0.040286336 0.11637255 -0.37835267 0.021753537 -0.12593357 0.042562354 -0.21183337 -0.060750537 0.018694181 0.024256343 -0.16126515 -0.011208576 -0.16289124 0.14972463 -0.27305436 0.12036155 -0.067409426 -0.0447901 -0.0559618 0.18289304 -0.16594869 -0.059863143 0.06019061 -0.16880797 -0.12329683 0.05916841 0.029307386 0.014804137 0.0949692 0.20160155 0.025697993 -0.0019039551 0.0390175 -0.010651958 -0.28661764 -0.17223123 0.047308665 0.17345805 0.12707101 0.2558984 -0.09260635 -0.02206398 -0.10611869 0.2631699 0.01531275 0.18279922 -0.23173885
following 0.08957749 0.11533183 -0.001125502 0.07012718 0.06338529 0.042897392 0.028405443 -0.1304443 0.13536306 0.010409438 -0.22154485 0.17656475 -0.14918585 -0.1581476 0.050647616 -0.24691907 -0.02338864 -0.23817089 0.33249474 -0.05790521 0.22991924 0.108392715 0.020747283 0.027848152 0.13079327 -0.034595467 -0.25052834 -0.056180004 0.023716206 0.084346816 0.1320675 0.18444358 0.2672375 -0.20655043 -0.14692053 0.030441778 -0.015975378 0.04510927 -0.005446854 -0.06798402 0.22214422 -0.024350956 -0.06598894 0.015616845 0.1219493 0.01583186 0.22685578 0.082161054 -0.22218241 -0.19862716
data -0.034656238 0.008128057 -0.07083995 -0.048378736 0.14015068 -0.028212203 -0.06888651 -0.15668076 0.24630779 -0.112094 -0.25602442 -0.11351115 -0.1470066 -0.095825106 0.14192261 -0.109815694 -0.042420737 -0.08961842 0.091348015 -0.12955432 0.016164005 0.07896125 0.28352928 0.0855763 0.19070561 0.059185926 -0.28861696 -0.04116662 0.11467609 0.036776256 -0.006449345 0.16471344 0.27603316 -0.083291486 0.074837826 -0.13662553 0.017713556 -0.08197459 -0.009247555 0.02493367 0.4072921 0.10612245 -0.09106613 0.10553189 -0.10514166 0.09541689 0.0014623451 0.06675777 -0.23553838 -0.19863726
page -0.2259216 0.12458282 0.045708623 0.20463929 -0.05127097 -0.027169552 0.015030613 -0.13390611 0.16516688 -0.20499647 0.008099135 -0.034055028 -0.12728167 -0.1053643 -0.13492592 -0.03469986 -0.050337024 -0.22149996 -0.13218412 -0.034795932 -0.026646769 0.11692851 0.14757366 -0.0019072592 0.011236699 -0.045338966 -0.20284796 -0.02136046 -0.23785941 0.013886151 -0.039021146 0.48726124 0.30585754 -0.115374036 -0.22718965 0.020597138 0.09548938 0.10856033 -0.07495965 -0.10672241 0.20051906 0.021011934 0.072922915 0.13274418 0.12599896 0.021880358 0.083765335 0.029201565 0.0037008806 -0.1418652
centre 0.102009706 -0.10398667 -0.008592174 0.0998838 0.1011071 -0.096165836 -0.045278464 -0.016754022 -0.0338323 0.1160838 -0.002729129 0.06576272 -0.20579414 -0.07345516 0.061986048 -0.014047583 0.23294663 -0.13056019 -0.019807816 -0.0793775 -0.08463671 -0.33348045 0.1324121 -0.18061888 -0.2297716 -0.0360945 -0.25668913 -0.047019653 0.0062263436 -0.06957649 0.10174924 -0.2131723 0.043268777 0.07555134 -0.1662695 -0.17360711 0.0009242576 -0.04848879 -0.13204923 -0.13493247 0.22420901 -0.07757416 0.12629545 0.21543573 -0.094751135 -0.2518726 0.3237301 -0.1378563 0.07454194 -0.15163775
management 0.11086822 -0.054957498 -0.0069293166 -0.18970703 0.21077953 -0.03798301 -0.036283553 -0.38430685 0.14615965 -0.020501412 -0.21841212 -0.036486093 -0.16191772 -0.029995533 0.11089943 -0.18200737 0.114577845 -0.052960932 0.103674725 -0.15027139 -0.060568716 -0.011804479 0.123370945 -0.03806286 0.007243392 -0.039693534 -0.13446787 0.04266991 0.09416789 0.042134 0.13608499 -0.2529641 0.2111167 -0.01513598 -0.097315684 -0.24063909 0.011272352 -0.21236977 -0.10412446 -0.16364037 0.24019457 -0.07476412 -0.062248535 0.0010289551 -0.16661082 0.15364896 0.3073492 0.072783865 -0.063607074 -0.09290039
house 0.03130644 0.20828518 0.016968902 0.23789653 -0.034948036 0.03088635 -0.20075572 0.25891387 -0.16022186 0.016930724 0.16551271 0.08462146 -0.16131102 -0.2770367 0.064557314 -0.07256049 0.11306506 0.05384483 0.06632469 0.10150137 0.067066565 -0.20657562 -0.19860263 -0.11653058 -0.083658315 -0.14758374 -0.011762342 0.1057331 -0.17272831 -0.058270693 -0.10923135 -0.26596326 0.025056269 0.009019224 0.02143291 0.00035004137 0.16520132 -0.18925047 0.02002271 -0.18942769 -0.06433256 0.06242281 0.18116023 -0.030137705 0.15437916 -0.2615696 0.07159182 -0.2821395 -0.09005914 -0.050368603
community 0.13749327 -0.05924501 0.046944723 -0.07085405 0.19149026 -0.059420325 -0.13857341 -0.20940283 0.23593317 0.22282836 -0.014406408 0.016214348 -0.100205675 -0.12674896 -0.19293562 -0.10134832 0.010190149 -0.27302614 0.10934369 -0.09325302 0.08171168 -0.21950956 -0.03554042 -0.11093396 -0.25295553 -0.07143028 -0.1994103 0.014704592 0.08970954 -0.009033416 0.17158808 -0.26760787 -0.031125663 0.31288463 -0.016841434 -0.081352 0.08169986 -0.17057802 -0.13610521 -0.06144951 0.08455798 -0.11955444 -0.07623017 0.072395004 -0.014004409 -0.07614605 0.3001226 -0.089269385 -0.046512432 -0.056566566
access 0.020288253 -0.0078102704 0.049203232 -0.0042055584 0.13898955 0.019623348 -0.061569575 0.0069897254 0.11158722 0.13764967 -0.17011972 0.03152752 -0.40137324 -0.21626167 -0.04942951 -0.20102012 -0.07554696 -0.31531027 -0.0126654655 0.11495964 0.020969233 -0.08886494 0.20640029 -0.05262234 0.11839982 0.18607895 -0.10513691 -0.04533282 -0.0864591 0.026394896 0.18868013 -0.035599537 0.21687588 0.03297424 -0.047261503 -0.22142708 0.004108567 -0.19410044 -0.11051296 -0.21478577 0.24836963 -0.02330525 -0.017571127 0.16376759 -0.013325466 0.08582607 0.2681278 0.060256783 -0.037156295 -0.1151359
education -0.13963294 -0.11020407 -0.0053557833 0.031349353 0.15756124 0.011341487 -0.037696395 -0.11748557 0.22720166 0.0761951 -0.18609312 0.14822933 -0.08148921 0.017194895 -0.20714213 -0.009609123 0.06745571 -0.1555748 0.17103828 -0.21669048 -0.07434068 -0.17179522 0.10356384 -0.005931242 -0.186765 -0.11629763 -0.32565144 -0.22901958 -0.037855014 0.0006055505 0.16313072 -0.28274554 0.10935747 0.25550815 -0.18169567 -0.04170508 0.01437233 -0.030243399 -0.107729845 0.0071712974 0.04752569 -0.042638652 -0.114556275 0.007901184 -0.016956052 0.1524837 0.35834792 0.00044477262 0.04690246 -0.03681828
training 0.11160663 -0.13547988 -0.013012373 -0.0052530025 0.24840614 -0.01960618 0.19028726 -0.2550271 0.0464686 0.10735566 -0.026611993 0.13146448 -0.1140264 -0.11617139 0.014006094 -0.16235948 0.061332803 -0.115259975 0.14560518 -0.10651275 -0.089599 -0.037991825 0.2519808 -0.124580115 -0.15240191 0.03749952 -0.1833797 -0.105079986 0.032381844 -0.05014546 0.26243138 -0.17480896 0.14407037 -0.0015329923 -0.081804566 -0.09748452 0.045605917 -0.029467123 -0.09075429 -0.006204875 0.18424742 -0.21147993 -0.005532156 -0.1380017 -0.10031736 0.08537446 0.47476482 0.12855715 0.048948273 -0.05433056
range 0.2198343 -0.078995936 -0.10214349 0.024241699 0.22979932 0.29504284 -0.0039942153 -0.1511821 0.039910316 0.1329119 -0.10473423 -0.10805141 -0.1986091 -0.049574465 0.061281655 -0.16742735 0.1752314 -0.048482075 0.09744744 0.2103279 -0.26702636 -0.026023906 0.19438563 -0.122326754 -0.1518335 0.080159076 -0.07179289 -0.05786187 -0.05518149 0.013439879 0.3819089 -0.0477948 -0.027375128 -0.055663966 -0.21286935 -0.1737389 -0.026344568 -0.0873145 0.0021237843 -0.051480897 0.24087974 -0.046496592 0.021172564 0.22387002 -0.075569734 -0.09469759 0.16849446 0.046540115 -0.02413866 0.0912958
book -0.21444352 0.23635668 -0.013766974 0.20017001 0.02518143 -0.055171728 0.22180547 -0.16997206 0.043086693 -0.04484679 0.10744944 -0.12983914 -0.1515033 -0.036011927 -0.23691905 0.04734504 0.11033452 0.0007182161 0.19733877 -0.057851072 -0.13018322 0.18667163 0.101286665 -0.2108682 -0.10161427 -0.0059603383 0.0010480813 -0.021918247 -0.2907268 0.0019091549 -0.07505394 0.16507904 -0.038751747 0.20086396 -0.33153322 0.018051965 -0.09123524 0.17850564 0.034427773 -0.03724327 -0.021125693 0.12209163 0.1823921 0.07601762 0.32452932 0.071101755 -0.05863119 0.00045228723 -0.021660378 0.0920284
team 0.15406235 0.0649143 0.17121226 0.036662094 0.17785127 -0.17973153 0.18846738 -0.31870934 -0.023705492 0.105126634 0.06282959 0.19223967 0.012042761 0.05877486 0.025238983 -0.10766529 0.07105862 -0.0122001935 0.023818111 -0.05938126 -0.009342858 -0.08515673 0.095244445 -0.12989143 -0.25870076 0.089325905 -0.121539906 0.13243541 0.10386304 -0.19964448 0.103807546 -0.016771557 0.022033425 0.00018357782 -0.114569776 -0.11632274 0.032746803 -0.07604207 -0.13308808 -0.02799686 0.17310753 -0.1635264 0.19666667 -0.14361471 -0.30903736 -0.0029533699 0.4344147 0.037223633 -0.042069912 0.06809082
form 0.2861442 0.10409487 -0.039005786 0.04658116 -0.104419135 0.1652119 -0.06252542 -0.047615957 0.036872562 0.07712971 -0.06884295 0.03097055 -0.08890658 -0.000106417356 -0.07194176 -0.35836753 0.018297607 -0.22608535 0.36973462 0.091326356 0.18464749 0.051592812 -0.007359654 0.008361444 -0.1662963 0.13793865 -0.08436326 -0.050575953 -0.055566758 0.059195984 0.16904488 0.068574965 0.2048778 -0.08855377 -0.20036142 -0.09177076 -0.03853929 -0.062174488 -0.13505974 0.01369546 0.04111877 0.028088115 -0.13169259 0.27319744 0.249784 -0.006027804 0.107384026 0.21802615 -0.19226782 -0.004390225
learning -0.088196784 -0.08945059 0.008617275 -0.05218069 0.08259884 -0.07357056 -0.02835139 -0.10045111 0.16894005 0.18775398 -0.045459155 0.016044602 -0.10384549 0.1277116 -0.03545985 -0.054614633 0.06616883 -0.2500336 0.10563698 -0.30185866 -0.21271536 -0.08292968 0.28707343 -0.048420414 -0.14992161 0.016755994 -0.20316099 -0.2023793 -0.08450388 0.016885249 0.27936625 -0.11832637 0.081954546 0.19840847 -0.2738552 -0.11192035 0.012919758 -0.042364582 -0.16140512 -0.0726128 0.073476456 -0.04644646 -0.14142141 -0.12096366 -0.012712074 0.2064915 0.26829845 0.15584248 -0.045548398 -0.010093448
case 0.11673654 0.10443371 -0.021149663 0.012700561 0.048615426 0.15295143 -0.07152394 -0.14169501 0.06811118 0.04189191 -0.1432959 0.25755703 -0.08472712 -0.08563544 0.048359685 -0.1801765 -0.19842032 0.053731907 0.37926948 0.30074993 0.373987 0.15761869 -0.087574154 0.18124542 0.09720049 0.23525211 0.10706434 -0.0061144778 0.07267583 0.082763754 0.071200006 -0.06278377 0.20962842 0.012494711 -0.025773538 0.09768673 -0.1333917 -0.04971419 -0.1654352 0.05484902 0.0034884203 0.1616674 -0.1736685 -0.078607656 0.03410863 0.06742205 0.044147022 0.06281339 -0.12599239 0.0848327
details -0.07476662 0.17012563 0.016281413 0.05786364 0.098311976 -0.008655412 0.010476223 -0.027530003 0.048165113 -0.175 0.024850382 0.0019298379 -0.23126875 -0.101260185 0.17533344 -0.025352128 0.16110523 -0.06629246 -0.07934676 -0.110223845 -0.27551037 0.13471843 0.07151964 -0.13044892 -0.021381939 -0.12495386 -0.25705525 -0.10056382 -0.19135565 -0.01560977 -0.13793625 0.27519265 0.10912204 -0.115836754 -0.055295814 -0.0068914574 -0.028668905 -0.20161822 0.13191858 -0.10918036 0.43381527 0.022044573 0.18179925 0.09952451 0.06532994 -0.10034938 0.1730081 -0.12256242 0.006482261 -0.2085637
level 0.17138979 0.0022315395 -0.05870922 -0.025528671 0.12756635 0.393418 -0.04034872 -0.117410295 0.023254188 0.17875122 -0.20500535 0.1459336 -0.10313296 0.029643865 0.039630547 -0.16511166 0.01930017 -0.08926794 0.12511612 0.108863994 0.039725337 0.005394707 -0.010550778 0.0022348836 -0.078108594 0.1178242 0.03146694 -0.110742986 0.15517099 0.020245474 0.38406107 -0.08618437 -0.05862737 -0.1486118 -0.23183711 -0.114290774 0.08467829 -0.058044128 -0.09993506 -0.09869245 0.20060794 -0.12582752 -0.26656175 0.027593164 -0.14323361 0.15357347 0.27887765 0.13010028 -0.06540629 -0.009852422
social -0.107910626 -0.09056445 -0.05486852 -0.11802372 0.1245653 0.03788569 -0.1526531 -0.24070181 0.2365643 0.20134026 -0.10457833 0.023508431 -0.022754522 0.010949677 -0.17814744 -0.07126217 0.061134662 -0.20471205 0.14457542 -0.12106126 0.103627324 -0.28075132 -0.016762927 -0.096665 -0.13935453 -0.10600292 -0.115929164 -0.22911826 0.002989728 0.17035899 0.013864199 -0.25223607 0.0049833916 0.3255095 -0.090593606 -0.10804117 -0.13772392 -0.099268176 -0.07451413 0.076581046 0.09728895 -0.014565264 -0.23466809 0.043317348 -0.02691656 0.1132345 0.2968066 -0.046452206 -0.107443705 -0.04108577
programme 0.07375741 -0.1624089 0.004914804 0.029485343 0.2808631 -0.013520591 0.021163281 -0.19867586 0.10584744 0.065090224 -0.18806915 0.0819588 -0.10395593 -0.052710503 -0.08842403 -0.16447537 0.040523324 -0.07585003 0.17940925 -0.16181655 0.03707576 -0.14414544 0.15151371 -0.113503456 -0.26887736 -0.08776182 -0.21367358 -0.10594993 0.08100712 -0.08491099 0.28507218 -0.16471641 -0.002202623 0.012101182 -0.1885958 -0.18405089 -0.106142744 0.06317082 -0.17722441 -0.11234889 0.2816037 -0.16853262 -0.021054922 0.019385567 -0.07952697 0.15355778 0.30147615 -0.020445738 -0.029406462 -0.00552728
old 0.03796584 0.20378982 -0.15348394 0.25944468 -0.12413009 0.01823612 0.055984095 0.18016672 -0.13045788 0.21565257 0.3516548 0.19138514 -0.01752262 -0.14494222 -0.05762797 0.13430232 -0.010237437 0.023379127 0.042509623 0.23707072 -0.015562398 -0.018926239 -0.26212895 -0.03187126 -0.2522121 -0.006732773 0.03645437 0.101485536 -0.14837457 -0.10123426 -0.12483009 -0.0893952 -0.17366637 -0.00563734 -0.13349478 0.021656508 0.290624 0.105405316 0.11054942 -0.13923699 -0.13546911 -0.025352342 0.032947186 -0.06509191 0.16261232 -0.14474757 -0.054718517 -0.0007300107 0.01516363 0.1939767
road 0.14295115 0.09756644 0.20713311 0.00054207456 -0.06867123 -0.01374671 -0.15276325 0.17271441 -0.14220951 0.23226087 0.1869141 0.28113133 -0.21742812 -0.16598275 0.0879573 0.07147652 0.1395012 -0.04304536 -0.27247 0.12982255 0.0010183015 -0.07288166 -0.13429397 0.009539865 -0.05483007 0.03252899 -0.06009369 0.1560348 -0.0145559525 0.20575047 -0.0458101 -0.17850713 0.055596415 -0.03944712 -0.0227991 0.034889616 0.23827803 -0.027145617 -0.23843388 -0.083453305 0.06533743 0.107013986 0.051203314 0.029268647 0.0013382314 -0.343406 0.15828288 -0.10062423 0.15952739 -0.15301171
name 0.018314283 0.25910246 0.014353999 0.18503293 -0.062612444 -0.2872221 0.16499913 0.12463833 0.11064077 0.10583815 0.050452378 -0.07219517 0.03969945 -0.053118862 -0.09347459 -0.01841407 -0.09371397 -0.10782217 0.32101798 0.16921648 0.099365495 0.16917075 -0.19526865 0.03352181 -0.014213187 0.103059046 -0.18612053 0.039572623 -0.06899318 -0.0843845 -0.20290688 0.32410747 0.20206633 -0.13977458 -0.08281339 -0.051733803 0.18114093 -0.10642816 0.074777395 0.036570393 -0.18917584 0.08178746 0.11277312 0.034150496 0.14507131 -0.09281952 -0.023525432 -0.05011258 -0.2527331 0.12384275
open 0.1579315 0.062204897 0.062518604 0.14692561 -0.18389402 0.0057411883 -0.104931235 0.1749533 -0.11156027 0.07921507 0.100905046 0.19915162 -0.20924832 -0.19280325 0.021395737 -0.17373744 -0.03493183 -0.25911498 -0.03222483 0.091049954 0.09916275 -0.2198925 0.057938468 -0.17704482 -0.11274045 -0.041316237 -0.0008691266 0.08826939 -0.14987582 -0.1876013 0.061128203 -0.071168914 -0.08700158 -0.12282773 -0.15057132 -0.18128864 0.078660816 0.09991774 -0.094041236 -0.24334891 0.10595864 -0.17824584 0.3254777 0.17562832 0.04910515 -0.101699956 0.22223718 -0.11367601 -0.08884461 -0.07515234
view -0.08296757 0.11952578 -0.023228392 0.1149222 0.043144558 0.1353461 -0.3913454 -0.068558946 0.0030012536 -0.028173989 0.21295097 -0.12939952 -0.15269111 0.048114836 -0.18316536 -0.20486425 0.0009917156 -0.22714928 -0.092081495 0.13632283 0.06211423 0.1119309 -0.043714963 0.03696714 0.032676607 0.048110515 -0.11257142 -0.042976614 -0.14245968 -0.020202499 0.09712263 0.22398715 0.033668283 0.01930724 -0.19333643 -0.085456915 -0.06740757 -0.097115226 -0.30576354 -0.2345028 -0.004735188 -0.07859969 -0.004719877 0.08111303 0.18482395 -0.015338863 0.34446785 -0.20680603 -0.015375341 -0.09470369
issues -0.18563735 -0.06080674 -0.10161675 -0.078721024 0.08147189 -0.00808081 -0.15223713 -0.33308733 0.27407452 -0.13956061 -0.14710236 0.1359248 -0.014073158 0.003170345 -0.02832635 -0.03730076 -0.0057104616 -0.16018358 0.040981364 -0.34603864 -0.0012763835 0.016617037 0.243154 0.017433215 0.050416626 -0.18736999 -0.20589964 -0.050087515 -0.056935165 0.18353164 -0.08007017 0.054299664 0.11848658 0.13226163 0.008997309 -0.04506542 -0.06783609 -0.0099811675 -0.05813354 -0.056036495 0.26154462 -0.04649651 -0.10863097 0.18902166 -0.019239439 0.12124915 0.27027065 -0.17780085 -0.037675425 -0.21820123
news -0.11945563 0.0548653 0.19472456 0.25158203 0.11237221 -0.15850428 0.025641447 -0.19914456 0.2609276 -0.28291333 -0.062431492 0.0845175 0.009088179 -0.054478504 -0.29516953 0.19627729 -0.0008402953 -0.11067351 -0.19105132 -0.11474344 0.16514096 0.041352827 0.101227716 -0.16968773 -0.07094162 -0.042615205 -0.027688451 0.16366215 -0.08549833 -0.14891848 -0.10951227 0.11663815 0.0806857 -0.01190619 0.13761167 -0.14894089 0.055492952 0.17472108 -0.09219702 -0.06961462 0.2213394 -0.18998587 0.16330884 0.12354064 -0.028412066 0.040651556 0.12018851 -0.21532597 0.10546608 0.0041408637
change 0.062478572 0.053272612 -0.041102417 -0.08690141 -0.013330983 0.18715884 -0.11759869 -0.25555295 0.10435771 0.07482216 -0.14054829 0.14298642 0.014285473 -0.09868842 -0.12741323 -0.23862176 -0.008378767 -0.404843 0.073439926 0.08802788 0.20522346 0.12286003 -0.10040131 0.08754341 -0.098152 0.10729687 0.14381209 -0.0065332735 0.14189576 0.040933516 0.19999425 -0.06604669 -0.009875182 -0.13979423 -0.10155387 -0.19219477 -0.07204486 0.01215256 -0.19587176 -0.07941467 0.1413155 -0.019963939 -0.2224394 0.051648535 0.027655458 0.25302666 0.18966651 0.08116941 -0.22750896 0.14571938
quality 0.13604625 -0.11857887 -0.039254416 -0.06498249 0.3038931 0.26614326 -0.06872248 -0.16774571 0.068316296 0.030808887 -0.13660839 -0.113590896 -0.10482442 -0.0069752648 0.07654314 -0.1331349 0.16749386 -0.12054235 0.08138498 0.20715994 -0.14414239 0.19444677 0.054524288 0.012815311 -0.13008404 -0.018159997 -0.11085283 0.036946993 -0.005498092 -0.00088614295 0.38249865 -0.14026433 -0.15924068 0.049794298 -0.16626285 -0.09754912 -0.022476228 -0.2524415 -0.017834354 -0.20741764 0.15222774 0.05201645 0.009604079 0.037429687 -0.085997075 0.03459905 0.2390791 0.17993577 -0.14222947 0.15735346
family 0.04092937 0.15792266 -0.08974776 0.13157059 0.18095045 -0.07236375 0.09150433 -0.0631524 -0.0011628775 0.21511084 0.17491429 0.09101348 -0.05895135 -0.28841722 -0.2267298 -0.043364253 0.05424638 -0.1903833 0.20882587 0.016998673 0.043985255 -0.069543615 -0.2360613 -0.097606204 -0.2850866 -0.012109175 0.067634895 -0.20144418 0.021769905 -0.06419201 -0.05735609 -0.19739486 0.005791679 0.3336483 -0.0137034645 -0.014519737 -0.0031766142 -0.14049214 0.17589499 -0.029826675 0.045381207 0.11368433 0.0049579423 -0.20331669 0.047452938 -0.20279522 0.09915978 -0.2244821 -0.05557913 0.13296366
put 0.11962368 0.13031389 0.0678789 0.009133755 -0.06369546 0.00086802687 0.060902767 -0.010120702 -0.07535511 0.024236737 0.14773753 0.20165436 0.16148956 -0.09978813 -0.1485879 -0.1154719 -0.11041397 -0.16408597 0.22791535 0.36827853 0.21757416 0.066215985 -0.09915063 0.031859297 -0.05892791 0.101306885 0.3339018 0.30832645 -0.099167295 -0.21162058 0.09364247 -0.09448808 -0.17057754 0.015924262 -0.027931856 0.040697813 0.17941962 0.056746606 -0.13558745 -0.03366582 -0.048219763 -0.05880634 0.114267215 -0.005303437 -0.07603976 0.18328702 0.15041688 0.07609543 -0.08198644 0.23233663
policy -0.009613694 -0.04158875 0.077449106 -0.15850231 0.12968472 0.14974709 -0.18644702 -0.269474 0.27044556 -0.020083612 -0.25550774 0.06782368 -0.09966013 -0.041144107 -0.21391131 -0.1833959 -0.027386367 -0.21910717 0.16522789 -0.07326452 0.17147319 -0.08086604 0.028880116 0.021499697 0.118024476 -0.1458725 -0.1038571 0.022046393 0.055790227 0.107875206 0.045847576 -0.22763702 0.12143252 0.09863046 0.032848846 -0.01402441 -0.14063154 -0.089214675 -0.16275145 -0.013772533 0.13608281 0.055297587 -0.12285494 0.09371641 -0.08032164 0.19835696 0.40244576 -0.12008639 -0.065521695 -0.0092034815
history -0.1710744 0.059457477 -0.19166414 0.316259 -0.026687399 0.08161542 0.056315444 -0.24461547 0.034049295 0.20470466 0.030640475 -0.08119367 -0.055705365 0.08687512 -0.30146953 0.08971327 0.17854846 0.0721943 0.11413009 -0.044344593 0.039619733 -0.010809786 -0.070427105 -0.21578968 -0.1565704 -0.14352335 -0.22681406 -0.06537609 -0.013044406 0.0015826075 -0.14281562 -0.070744105 0.08606957 0.21717514 -0.26053953 -0.15503255 -0.1542988 0.17203352 -0.10736447 -0.0008834473 0.045993324 0.09330124 -0.064914934 0.22298649 0.21471307 -0.06778368 0.03593076 -0.0048927786 -0.1998492 -0.0074022533
process 0.16604257 -0.09265089 -0.109655224 -0.2935448 0.06588282 0.1250297 -0.0878622 -0.29741886 0.046587452 0.053893633 -0.19997972 0.02878627 -0.022964299 0.009050394 0.02080228 -0.28848675 0.054279376 -0.19934236 0.2659203 0.014339082 0.18710575 0.05841544 0.11403764 0.032286257 -0.004981527 0.1045298 0.044304032 0.09978066 0.1397298 -0.053882293 0.26987922 -0.07928575 0.060213085 0.010214528 -0.112623885 -0.20548175 -0.10641636 -0.08580468 -0.21188435 -0.039809898 0.11699364 -0.012686556 -0.20018308 0.06695216 0.060345337 0.19251712 0.079664886 0.20783474 -0.2358979 0.027356934
water 0.25058186 -0.14358947 -0.09375223 -0.13470271 -0.08486352 0.12714319 -0.02615842 0.12526643 -0.21710803 -0.16689555 -0.092843294 -0.031028232 -0.017973887 -0.06777635 -0.051404107 -0.13562705 -0.078261934 -0.018996673 -0.06389683 0.2597482 -0.05826093 0.04461768 -0.24158147 0.009343962 -0.0011322235 -0.009920604 0.16609019 0.12447012 0.07238192 -0.0102082975 0.13265564 -0.3201853 -0.2277234 -0.12955154 -0.08371169 -0.016376602 0.24279869 0.07101905 0.0984752 -0.19387229 0.18631093 0.009464507 -0.0643463 0.21864845 -0.18525942 -0.17415912 -0.028934224 0.1945334 0.02178247 -0.22610801
design 0.021532249 -0.09314237 -0.14632443 -0.12152484 0.12991685 0.059524983 -0.11831161 -0.15852612 -0.15059006 0.09529465 -0.068865135 -0.15505752 -0.1821718 0.08473047 0.13841751 -0.17025785 0.21569993 -0.09576464 0.028777141 0.16421159 -0.17260334 -0.0007339979 0.42328274 0.004768964 -0.09700215 -0.09837163 -0.17109023 0.12008779 -0.08833488 -0.08501548 0.26224616 -0.013925548 0.03189124 -0.052675102 -0.1907677 -0.28189328 -0.07535336 -0.10952619 -0.020255055 -0.0062083546 0.12533954 0.02124997 -0.021625996 0.13242383 0.027080245 -0.032275826 0.21984595 0.1522667 -0.14725758 0.19977622
care 0.001494482 0.0026800877 -0.022009233 -0.12421164 0.19653988 -0.04910796 0.11091741 -0.20630148 0.1006366 0.06451411 -0.08756466 0.044682655 -0.07805684 -0.23661548 0.04534458 -0.1112818 0.027015842 -0.23620605 0.13570884 0.10693364 0.04713987 -0.0244809 -0.035883326 0.1516765 -0.34879327 0.028696332 0.012858842 -0.2427736 0.008985801 0.04535428 0.06131688 -0.30260217 0.075320505 0.27525023 0.030809827 0.1549908 0.049225215 -0.20010738 0.02117838 -0.20192477 0.20265846 -0.0026726704 -0.11472525 -0.20756806 -0.037874334 0.040134627 0.31172982 0.00013296971 -0.0049221963 -0.08658711
god 0.07593438 -0.03644459 0.021483678 0.10104527 -0.19099844 -0.13160326 0.037587404 0.05655657 0.057224095 0.07441072 0.23549567 -0.09643973 0.03039035 -0.04154599 -0.29488808 0.033740677 0.03640862 -0.052720264 0.08952262 0.031231124 0.21156241 0.27608764 -0.11726619 0.172726 -0.008718713 0.08540612 0.098575376 -0.027073238 -0.052042082 -0.08864343 0.08206533 -0.0913178 -0.29454494 0.15691957 -0.08559014 0.22749987 0.06344249 -0.082849436 0.07715253 0.0487789 -0.38435885 -0.042951223 -0.16952783 -0.026255595 0.14831024 0.17791685 -0.021074487 -0.07279656 -0.31482252 -0.10576513
office -0.025339799 0.12788242 0.16054 0.02320707 0.15372948 -0.055549886 -0.0496911 0.011117754 0.23591907 -0.16396537 -0.1323638 0.12448305 -0.17432174 -0.24476804 0.06499791 -0.22243145 0.050611638 -0.09087847 0.13539805 -0.0010538663 0.17985216 -0.2263929 0.09079076 -0.051453076 0.07154536 -0.10594383 -0.23065849 0.044546284 -0.0334883 -0.18149723 0.06837419 -0.20916162 0.28768548 -0.08736843 0.07107043 -0.12819558 0.031061351 -0.1762044 -0.15313794 0.007161591 0.07907945 0.039618723 0.2870021 -0.02507869 0.0055934843 -0.11761781 0.26390147 -0.11947399 0.009353777 -0.18458217
music -0.04323377 0.002506154 -0.06835293 0.30089006 0.107900016 -0.10390689 0.019518103 -0.0063879783 0.10762662 0.077328265 -0.056515235 -0.04818204 0.121990554 0.049206898 0.027325008 0.020142019 -0.07439239 -0.04279768 -0.1585732 -0.07938214 -0.12558414 0.092626415 0.10047145 -0.41595405 -0.32486773 -0.05005801 -0.071903974 -0.057379838 -0.10608293 -0.03047867 0.122454934 -0.004008616 -0.29733104 0.030663736 -0.056618575 -0.08157741 -0.04123183 0.01837129 0.07326328 0.10693699 -0.10205362 -0.14248589 0.24647509 0.12753855 0.30558926 0.03978484 -0.11121018 0.10156341 -0.21810001 0.2398894
point 0.07584819 0.2000162 0.091729805 0.021721443 -0.1168945 0.25558335 -0.090784565 -0.072965786 -0.08480053 0.24831794 0.13045864 0.19285823 0.038229983 0.084798865 -0.02887937 -0.16882385 -0.07691579 -0.057072815 0.12937894 0.26979002 0.19218098 0.10893172 -0.13870391 0.1291979 0.022178441 0.26170653 0.1790349 0.072088495 0.10916394 0.002321101 0.1542081 0.11344754 -0.10165266 -0.11450146 -0.2777363 -0.044666946 0.09408229 0.1291777 -0.31296742 -0.012680312 -0.062792525 -0.016548 -0.013363976 0.06614481 -0.075465955 0.1897135 0.18249427 0.014294543 -0.18727852 0.0908278
needs -0.15185164 -0.016276877 -0.041240804 -0.05048469 0.24045324 -0.10424561 0.030984716 -0.1854437 0.19780153 -0.025255851 -0.060683176 0.17912507 -0.0983894 -0.0007593118 0.046312146 0.029805195 -0.057414565 -0.29076168 0.005201205 -0.32526338 -0.18485248 0.021568231 0.14792678 0.049823593 -0.15464932 -0.09442558 -0.32550994 -0.131366 -0.1088954 0.095820636 0.154871 -0.058813892 0.08383374 0.20495446 0.12464401 0.14647843 0.025181537 -0.050673626 0.0619746 -0.05452055 0.24128002 0.08936815 -0.11181251 -0.015922591 0.016585609 0.073822126 0.3270677 -0.13469033 0.027595155 -0.12787762
section 0.04156707 0.1172944 -0.05524592 0.09850254 0.015588315 0.11092302 -0.11794468 -0.08958782 0.13914941 -0.030407587 -0.06555657 0.19352213 -0.15003315 -0.17572406 0.048492007 -0.26445413 -0.24565275 -0.06210928 0.11707938 -0.005832465 0.16438128 0.08780126 0.03355459 0.07186524 0.05566159 -0.022395842 -0.24506025 -0.040971514 -0.17137448 0.2654607 0.17820866 0.1762972 0.32314193 -0.17364419 -0.12921484 0.10815543 -0.0019359372 0.06795446 -0.10617688 -0.0058451905 0.15711892 0.0017551077 -0.16850299 0.15755987 0.12723696 -0.035842888 0.21013755 0.09597502 -0.17297396 -0.21218076
study -0.030139958 -0.13612524 -0.2897979 0.1338058 0.15483044 0.12344034 -0.027462412 -0.17582166 0.042928167 0.1395598 -0.28286394 0.027857725 -0.053728975 0.107757054 -0.06759427 -0.029241404 0.16548663 0.04910923 0.22528923 -0.11904034 0.07690284 -0.08535717 0.10034506 -0.07094445 -0.18955831 0.123757094 -0.1480374 -0.24514423 0.22697163 0.07483147 0.11327981 -0.09820073 0.079756394 0.1551928 -0.40278578 -0.12935908 -0.11351464 0.10221129 -0.08903917 -0.038471673 0.16225977 0.055808112 -0.20074208 0.018158283 0.06812229 0.059827123 0.16089638 0.03748005 -0.016314294 -0.04342511
show 0.18000403 0.12454935 -0.010846785 0.30543816 0.025365653 0.17426512 -0.09706929 -0.07850089 -0.08633752 0.14096421 0.015298152 0.05600372 0.0663118 0.036489375 -0.024891451 -0.020820342 -0.017601956 -0.03807425 0.11769638 0.16705155 0.1948272 0.10799278 -0.09218215 -0.005123719 -0.28852236 0.16002934 0.16400547 0.07592944 0.02009958 -0.012037628 0.23995467 0.21186148 -0.20972645 -0.0888473 -0.12268189 -0.13112 0.050837435 0.2327164 -0.1341553 0.012932777 0.16441078 -0.08843703 0.05333985 0.006759723 0.059222355 -0.11892094 -0.019253187 -0.014280033 -0.14732824 0.43784562
key 0.057067968 0.022439543 0.00909001 -0.10030883 0.08675002 0.12512027 0.04021903 -0.34080556 0.19126661 0.14532265 -0.14724731 -0.048222933 -0.10016994 0.04662513 0.018445907 -0.24861492 -0.06939307 -0.26236755 0.11872825 -0.019814603 0.005982951 -0.016401129 0.20596424 -0.0008399635 -0.11618897 -0.015053697 -0.12138101 0.017214995 -0.06218243 -0.08665281 0.36067474 0.013733099 0.020850766 -0.005766944 -0.15361032 -0.20316012 0.07991184 0.0062500094 -0.24889144 -0.08325217 0.20464812 0.07245057 -0.14071442 0.10336756 -0.15477678 0.21557611 0.22902986 -0.068156 -0.19613673 0.059606392
date -0.05419091 0.110178605 0.09645185 0.14613241 0.034816466 -0.016141769 -0.07638137 -0.061599385 0.16358879 -0.32353303 0.20240551 0.26010802 -0.07738806 -0.13994925 -0.056766555 -0.033217456 0.018703274 -0.083780624 0.16050112 -0.09845092 0.23656888 0.010745964 -0.001751644 -0.007376097 -0.0031542203 -0.059707068 -0.2921347 -0.088624515 0.12588535 -0.053807594 -0.11615295 0.32024336 0.17238434 -0.29570064 -0.08611199 -0.08380423 -0.023897553 0.0854546 0.049818415 -0.1576182 0.20202518 0.08805372 0.05546909 -0.17152019 0.2478094 0.018792953 0.024581956 -0.041927077 -0.12779571 -0.11987987
skills -0.07936439 -0.071488924 0.10878255 -0.0105562415 0.13860811 -0.05229257 0.055915132 -0.17747417 0.23140909 -0.042380955 -0.04165008 0.06000624 -0.030605007 0.073989965 -0.0057235546 -0.10621412 0.049365655 -0.12736344 0.13348608 -0.25171193 -0.2112274 -0.10713871 0.2816121 -0.06593793 -0.09503486 -0.15878712 -0.29873896 -0.17946061 -0.1734703 -0.07532884 0.21251139 -0.12640195 0.08687395 0.012847914 -0.112149715 -0.10231628 0.16255821 -0.056144614 -0.17882651 0.013343396 0.21204172 -0.08705453 -0.18995483 -0.11322872 -0.06490641 0.13950278 0.3447863 0.031400416 0.05706348 -0.0935536
city 0.16488326 0.009755871 0.09687847 0.14384873 0.087214194 -0.0022944347 -0.0036851638 0.10263383 0.148313 0.14778094 0.1722615 0.12244174 -0.19281822 0.04102409 -0.06258847 0.034849226 0.13929361 0.10185917 -0.24117084 -0.057750534 0.16814716 -0.22272104 -0.21584164 -0.17467563 -0.13215284 -0.013041174 -0.16455087 0.14772084 -0.038403828 -0.2619955 -0.025491131 -0.27685222 -0.1498616 0.13200155 -0.1210732 -0.22018903 0.090255834 0.006366136 -0.071904674 -0.0092289895 0.010662804 0.0052679116 0.081653975 0.20306367 0.055612963 -0.26831365 0.20137045 -0.21538588 -0.061585527 0.03816287
act 0.073698044 0.120303154 0.007062726 0.03577087 0.0416689 0.0077892663 -0.1316986 -0.06460068 0.14987373 -0.055143807 -0.10537556 0.15994966 -0.08767205 -0.20671058 -0.064014025 -0.19626532 -0.2559613 0.09864944 0.22717553 -0.055559617 0.4280264 0.107611746 -0.08462506 0.025675222 -0.03181555 -0.070643306 -0.17595614 -0.0019968646 -0.12670918 0.22732106 0.01994327 -0.21440686 0.1401001 0.057394303 0.2015671 0.08218247 -0.12993324 -0.10234541 -0.13896908 0.1837751 -0.08543278 0.025501933 -0.18383686 -0.039716356 0.022438515 -0.050007906 0.1935513 0.053734355 -0.28129482 -0.0077104783
man 0.07591264 0.08857642 -0.024581715 0.19625261 -0.16074929 0.0059399735 0.17073682 0.1485205 -0.035784245 0.21966545 0.29712248 0.059447933 0.07771981 -0.0061374023 -0.18358313 0.101115145 -0.013526669 0.22027867 0.18434218 0.14580978 0.22607248 0.13578123 -0.26781994 0.1329058 -0.13883568 0.11273463 0.22136697 0.017189357 -0.074361466 -0.07427527 -0.14416979 -0.1679325 -0.20986077 0.20169894 0.05236006 0.06404378 0.18808506 0.044456128 0.039436128 0.14828947 -0.22420517 -0.05031492 -0.037685785 -0.15604892 -0.041242253 -0.11197431 0.01335933 0.026234439 -0.06953509 0.15380284
country 0.19353949 -0.028417012 0.0074707265 0.024293084 0.22228575 0.39896673 -0.0011270383 -0.16617751 0.10373546 0.092755936 -0.002389438 0.023477195 -0.12767118 -0.1880095 -0.4467357 -0.073572904 -0.10894087 -0.052651446 0.03260375 0.06291798 0.18223234 -0.10279637 -0.33550403 -0.09527605 0.01518151 0.05726213 -0.10140683 0.014870109 0.028826833 -0.15668683 -0.048563696 -0.28881347 -0.042092845 0.06857741 -0.038494352 -0.16664465 0.007477237 0.0030277406 -0.03800308 -0.00880031 -0.05603579 -0.07750594 0.008152051 0.14406113 -0.07566142 -0.06941778 0.13296969 -0.1526485 0.011876454 0.13834381
south 0.09464672 -0.06934213 0.015638012 0.099269085 0.057042003 0.09891202 -0.056999214 -0.049796406 0.06534852 0.124112405 0.1433756 0.062102582 -0.11603112 -0.089453176 -0.110804126 -0.07867191 0.04792605 0.07431255 -0.11133932 -0.08607905 -0.061667938 -0.15398422 -0.32636523 -0.0046534613 -0.17644525 -0.003083433 -0.26686785 0.07070971 0.097934484 -0.10621569 -0.14162003 -0.24488193 0.03310424 -0.04163742 -0.11103887 -0.19873612 0.24969347 0.075060435 -0.12256309 -0.08846579 0.11602356 -0.10358727 0.13483566 0.21283461 -0.11170634 -0.32497153 0.21352619 -0.28604227 0.15382475 -0.0331872
action 0.24313249 0.0126905395 0.1483672 -0.10781081 0.012438776 0.010087314 -0.085769296 -0.30936363 0.08168473 0.12225961 -0.08264601 0.16248566 -0.02709392 0.039590698 -0.118537836 -0.16169214 -0.17958692 -0.1956918 0.17535192 -0.07974966 0.3906785 0.1322382 -0.04351806 -0.031799633 -0.030020718 -0.014564855 0.013724167 0.15105736 0.029312858 0.032665215 0.17561309 -0.16474599 0.050232835 0.13385822 0.16794741 0.09019423 -0.07358093 0.022265624 -0.33128083 0.01611934 0.13581997 -0.083790146 -0.16904557 0.02771977 -0.13795538 0.08740652 0.27151328 -0.0034665072 -0.11738809 0.004769757
review -0.21294223 0.058998838 0.04760167 0.013725149 0.3065781 -0.0059179007 -0.07463126 -0.31941175 0.24984781 -0.2559077 -0.17984378 0.059281897 -0.092318304 0.07399703 0.073758125 -0.00024264248 -0.061606415 0.017386556 0.06469033 -0.17081712 0.071835965 0.22795655 0.14687166 -0.02920135 -0.12608348 -0.14783882 -0.12841927 -0.017687561 -0.035808977 0.0817587 0.03979472 0.085849844 0.042996474 0.18981393 -0.09312399 0.066760294 -0.119812205 0.10529841 -0.15159003 -0.19569978 0.2536573 0.023561541 0.046444934 0.00023124577 0.048886683 0.30110186 0.2064143 -0.06608001 -0.14894012 0.09172521
list 0.012814961 0.17724122 0.025082588 0.12715045 0.13121729 -0.0183016 0.047654748 -0.12522332 0.21382327 -0.07031598 -0.15416577 -0.005543977 -0.09320535 -0.11501583 -0.08944354 -0.15677448 -0.05377986 -0.22912432 0.18673511 0.124011286 0.09198755 0.07919768 0.0075443373 -0.15541075 0.08737813 0.03452666 -0.22545661 0.0292925 -0.13736142 0.027178932 0.03666474 0.3873337 0.38980684 -0.19990246 -0.18467383 0.015738757 0.06910049 0.06262179 0.036822423 -0.1650409 0.19077078 0.006886505 0.080200076 0.116485134 0.17749451 0.049458195 0.156645 -0.035391197 -0.17534158 -0.02462665
control 0.2402539 0.009922973 -0.21924473 -0.14845945 -0.010501828 0.2429306 0.0052873907 -0.19929332 -0.03543735 0.15915185 -0.30872238 0.0347075 -0.0914246 -0.11784687 0.07656828 -0.23303235 -0.021500962 -0.09508852 -0.003624719 0.17158729 0.17459899 0.0506337 0.08536772 0.07624439 0.12255997 0.14807808 0.12307047 0.12379868 0.03553023 0.022679547 0.21093152 -0.094652444 0.06456305 -0.09233051 0.27944273 -0.13513888 -0.08192557 -0.119496666 -0.16313492 -0.05172742 0.11489922 -0.02543597 -0.21225221 0.10518974 -0.23674324 0.11002688 0.12121028 0.14869191 -0.1593467 -0.017190978
state 0.095202126 0.1012281 -0.11345862 -0.028235802 0.06571718 0.26293364 -0.1557482 -0.10493316 0.10381454 0.005115538 -0.21723288 0.10919959 -0.06406968 -0.0812334 -0.183681 -0.17148383 -0.0815727 -0.06865828 0.21931967 -0.056144867 0.39704198 -0.02171859 -0.2664654 0.12862083 0.11366154 0.057171166 -0.021272682 0.05452006 0.10360172 -0.010734409 -0.04988905 -0.27082717 0.19361798 0.09457293 0.07067476 -0.039058343 -0.16073415 0.025916295 -0.09492896 0.1687883 -0.2177203 0.05415393 -0.16828725 0.07848406 -0.008546354 0.12275413 0.17248897 -0.06687439 -0.21827845 -0.034106284
problems -0.12301895 0.009243588 -0.20158471 -0.05594485 -0.061232097 0.0060851383 0.025872707 -0.38047847 0.057796296 -0.13837928 -0.18302165 0.19700125 -0.036602717 0.015609715 0.15181673 0.12915546 0.044659622 -0.2675196 -0.11397116 -0.2738503 -0.06289463 0.07458963 0.20901033 -0.02633386 0.06180874 -0.014776874 0.010802633 -0.108443104 -0.05912089 0.1453992 -0.204725 0.16732019 0.12940508 0.13801634 0.07261248 -0.021811273 0.009617635 -0.004112995 0.04852467 -0.0022124937 0.2591621 0.0324091 -0.29758656 0.1376223 0.016666682 0.14253376 0.07178241 -0.04084918 0.036754493 -0.28511992
building 0.035329666 -0.019473268 -0.008937736 0.035647582 -0.027006276 0.0675175 -0.2778604 -0.0032628786 -0.2020272 0.11316807 0.060956124 0.023410343 -0.325768 -0.0837952 0.16277464 -0.15942456 0.16320787 -0.022941057 0.018553624 0.17033856 0.07119231 -0.2733051 -0.04533543 -0.120839015 0.0027818894 -0.15560544 -0.16226603 0.21482189 -0.0002277937 -0.03389905 0.22619438 -0.30355948 0.09907889 -0.093683146 -0.06749349 -0.1302553 0.043591306 -0.13395652 0.017317858 -0.19064228 0.069000654 0.11189712 -0.091529235 0.16571826 0.18740241 -0.17596984 0.2133192 -0.07495992 -0.14924967 -0.09086994
north 0.09432344 0.051291436 0.0070249094 0.116001435 0.03693245 0.080107585 -0.11737988 -0.04975568 0.053200703 0.1006582 0.19050309 0.10355484 -0.08239806 -0.082214266 -0.044159923 -0.025741054 0.09092058 0.078881234 -0.14594434 -0.070412375 -0.11796851 -0.1197284 -0.32669562 0.011896737 -0.16349593 0.03563437 -0.26834646 0.051253423 0.12977438 -0.14482744 -0.091972664 -0.25884354 0.07894888 -0.034343317 -0.051683675 -0.21142507 0.21609901 0.059755296 -0.15829614 -0.1236877 0.12661514 -0.11376552 0.087167405 0.2456445 -0.09550009 -0.32977855 0.21820293 -0.24629705 0.10400347 -0.06100615
meeting 0.043301485 0.05748947 0.1821714 0.033248335 0.07164315 -0.0690259 -0.13531446 -0.09502187 0.07680123 -0.08675815 -0.051079694 0.24336672 0.13680208 -0.13417485 0.026596269 -0.15180464 0.023586456 -0.19311564 0.23299876 -0.3272033 0.2547703 -0.21679229 0.005743804 -0.054639824 0.037012402 -0.03857918 -0.12955602 0.060700264 0.12998165 -0.05734023 0.08228579 -0.069613256 0.10341924 0.018355826 -0.054089613 0.06346078 -0.06155146 0.22415636 -0.14907207 -0.21919644 -0.006352095 -0.20832704 0.2630327 -0.04904637 0.04574766 -0.08390947 0.34218937 -0.09450829 -0.1077217 -0.1192552
money 0.15146957 0.13869798 0.27180108 -0.036336236 0.25166288 0.005582904 0.15077792 -0.049108747 0.09636911 -0.21270154 0.123975545 0.14268842 -0.15552157 -0.24894978 -0.25776944 0.04070527 -0.1254873 -0.09004125 0.17548552 0.19867277 0.14504439 -0.2152657 -0.17504804 -0.013311798 0.03620171 -0.041407496 0.2978924 0.08512847 -0.034671787 -0.10793285 0.12305925 -0.14260234 -0.041946907 0.033865087 -0.023240536 -0.008331429 0.14056288 -0.18892506 0.0551734 0.084859505 0.059479266 0.046596892 0.10455436 -0.03696223 -0.002975356 0.24151501 0.05133503 0.042656895 -0.122613445 0.21185721
member 0.043538947 0.10309867 0.14634626 0.14924261 0.18837802 -0.050631206 -0.09653483 -0.15055178 0.18740244 -0.15131518 0.010192692 0.17101032 0.08017228 -0.19438666 -0.101754926 -0.17969811 -0.013434774 -0.14035161 0.36265984 -0.12811224 0.18787074 -0.18924552 -0.07042802 -0.048616152 -0.06689625 0.03593331 -0.21918023 0.0008834976 0.13027842 -0.017366305 0.080469236 -0.020258846 0.20724395 -0.014155361 0.076308414 0.03236428 -0.05440513 -0.043864492 -0.07454379 0.013322498 -0.15095285 -0.20227028 0.15089405 -0.05924164 -0.05831953 -0.042107336 0.4651997 -0.018521022 -0.05213793 -0.006954572
line 0.110054664 0.20065649 0.10879861 -0.050678946 -0.22673135 0.2156432 -0.033258807 0.067932144 -0.04070853 0.21921082 0.14753222 0.1114921 -0.09657128 -0.12207963 0.16545364 -0.30188653 -0.06734896 -0.11226103 -0.096327476 0.2490647 0.055710174 0.09834662 -0.12998691 0.109958194 -0.046477333 0.18095013 0.06259823 0.120799184 -0.0015564462 -0.021346407 0.10458161 0.12901855 -0.014213733 -0.36069277 -0.080900006 -0.10786796 0.22935058 0.088598914 -0.27866504 0.046654273 0.004811292 0.030801557 0.09874536 0.24863459 -0.002227131 -0.053380385 -0.050559927 0.058094114 -0.040317815 0.13984664
power 0.19200633 0.09909886 -0.03381962 -0.0017836567 -0.016280204 0.2067899 -0.0907973 -0.09187439 -0.0062241657 0.0889163 -0.053944696 0.07206486 -0.17642476 -0.13603032 -0.071408555 -0.19604248 -0.019743565 0.025292033 0.052430313 0.21139745 0.1773785 0.056391206 -0.012797665 0.189144 0.04687541 -0.044907436 0.1487286 0.15571761 0.07852698 -0.045200285 0.12002164 -0.25761527 -0.1911256 -0.04006842 0.19437101 -0.078674614 -0.11131642 -0.036613442 -0.14482829 0.19377974 -0.26966244 -0.15667371 -0.24216986 0.20396799 -0.20229432 0.12364303 -0.016417032 0.07587467 -0.33236384 -0.007293698
department -0.09681276 -0.035549305 -0.04241289 0.0031479173 0.22850122 -0.12989508 -0.048145816 -0.12077707 0.17639105 -0.14705908 -0.35099888 0.07566204 -0.051818192 -0.040085975 0.045684516 -0.05795233 0.11057394 -0.021404989 0.17989144 -0.10774823 0.13042988 -0.21875751 0.077759184 0.0024020462 0.032362152 -0.060690224 -0.28438506 -0.06654138 0.0626413 -0.09050351 0.09606792 -0.26474676 0.30302957 0.09026798 -0.10147381 -0.10200049 -0.06992061 -0.03800971 -0.17324072 -0.012847928 0.2127239 0.05908688 -0.009269208 0.026970442 -0.10737721 0.020805437 0.35877147 -0.04972431 -0.010176133 -0.2260971
play 0.1409564 0.2830193 -0.046311527 0.20408896 -0.0037842458 -0.06577124 0.10557329 -0.02920838 -0.12355266 0.24109223 0.05432378 0.15504228 0.18165442 0.107579954 -0.0088345 -0.032556374 -0.17543188 0.004716285 -0.10684963 0.013920997 -0.017278401 -0.0029592407 -0.0742701 -0.24903166 -0.36954653 0.012721519 0.11246833 0.12241602 -0.12127726 -0.17412108 0.03188139 0.06193419 -0.3129682 0.111262344 -0.071394056 -0.032543387 0.01588776 0.03421894 -0.062129352 0.024982404 -0.0096163135 -0.10237253 0.1881054 -0.033171706 -0.03493291 0.103950486 0.11064267 0.09910049 -0.2289791 0.33667126
law -0.019519197 -0.020944046 -0.031780805 0.04901398 0.07344562 0.10827503 -0.10508135 -0.12575883 0.16622408 -0.0680234 -0.13438383 0.23295489 -0.022457346 -0.10931682 -0.24487975 -0.14647102 -0.06504484 0.113414735 0.22624551 -0.0051218704 0.34421122 0.10717525 0.080183685 -0.0017349087 0.21049973 -0.032847974 -0.12599617 -0.031043489 -0.10643283 0.1331161 -0.16771264 -0.20984322 0.17160007 0.16890462 -0.004438832 -0.04491592 -0.14094311 -0.1907209 -0.075637534 0.19491935 -0.17647661 0.028281838 -0.18812147 0.0683459 0.025023969 0.08030251 0.28817356 -0.033745993 -0.23433551 -0.083948106
food 0.16898732 -0.15106313 -0.20234193 -0.15161419 0.18355046 0.11429279 0.025323233 -0.09217323 0.09654272 -0.15766653 -0.18523274 -0.11845003 0.17112456 -0.31307927 -0.14676297 0.19201832 0.06578991 -0.035727542 0.12374301 0.0771323 0.041871857 0.03155801 -0.12449235 -0.25643882 0.16548097 -0.064922236 0.13134369 0.09970363 -0.14524819 -0.03948753 0.26627702 -0.16951708 -0.10719584 0.053771015 -0.057731893 0.04710678 0.0025169528 -0.018790385 0.14485998 -0.263359 0.12694046 0.0269257 -0.10989772 0.068799555 -0.1558776 -0.15778126 0.15283248 -0.091968305 0.20795973 0.008161449
west 0.08581781 0.010456407 0.09489623 0.15115467 0.024564384 0.009406094 -0.07393351 -0.039789133 0.09125496 0.09527623 0.16355394 0.080316216 -0.0947696 -0.071207725 -0.0050797747 -0.035851516 0.12934227 0.10997704 -0.11917409 -0.08957195 -0.0750648 -0.17077537 -0.33699256 -0.05220927 -0.25885677 -0.054795243 -0.27958083 0.07410513 0.061299197 -0.10785661 -0.10427941 -0.20625232 -0.019829217 -0.04982242 -0.038712274 -0.21995495 0.2594578 -0.025535535 -0.1912092 -0.07929895 0.11534599 -0.12175713 0.10448176 0.17425923 -0.04793285 -0.30224675 0.23289968 -0.2508151 0.12280546 -0.05903073
interest 0.11323012 0.10290944 0.035513576 0.10416141 0.20068784 0.06034316 -0.13118283 -0.24960005 0.04110415 -0.020555725 -0.092856355 -0.011394955 -0.06014271 -0.034486707 -0.3120031 -0.11256613 0.04096234 -0.15048541 0.37452504 -0.022375382 0.16858186 -0.11834992 -0.12647168 -0.14230445 -0.03313019 0.10585782 -0.030194122 -0.058165666 0.053225327 0.118128695 0.12638937 -0.21320838 0.12460854 0.09474602 -0.21578489 -0.17087357 -0.1621004 -0.19461547 -0.15012603 0.0040329257 0.004416547 -0.043197792 -0.040671784 0.07447514 0.08730249 0.080236934 0.2990824 0.05314459 -0.24433665 0.12119718
groups 0.116208285 0.01485206 -0.01614911 -0.017628826 0.113192976 -0.06475479 -0.026243858 -0.24488606 0.25648168 0.018871551 -0.10108809 0.07788467 -0.021357547 -0.058334783 0.018410208 -0.101512335 -0.009332067 -0.32999626 0.11401011 -0.312675 -0.106185764 -0.16279794 0.14985216 -0.13124593 -0.0791981 -0.08957015 -0.26842 -0.1235777 0.012884306 0.09123053 0.10918022 0.12200255 0.17783312 0.10854367 0.0877487 0.07749061 0.09047912 0.059625328 -0.011735155 -0.08662223 0.224523 -0.19872265 -0.027642386 0.16644582 -0.018647036 -0.06291017 0.35288346 -0.15546378 -0.10315094 -0.13597926
value 0.16686335 0.04111398 0.1409516 -0.109774746 0.17723647 0.28274938 -0.080702804 -0.1728139 0.1665304 0.14196213 -0.05514995 -0.14973527 -0.17202711 -0.07874889 -0.037900455 -0.13332948 0.06325149 -0.164949 0.22325946 0.1729411 0.06624251 0.0052116024 -0.20273805 0.115388386 0.10921942 -0.04075442 0.056916192 -0.06518194 0.08451823 0.1548998 0.29724297 0.14915928 -0.032561015 -0.18971938 -0.2595146 -0.035708677 -0.00036525042 -0.18706875 -0.0011430706 0.11151396 0.079681195 0.062298972 -0.1533163 0.036440242 -0.06009071 0.19697115 0.025585368 0.005209473 -0.29998866 0.09267024
church 0.020549973 0.10444065 -0.04524925 0.14995255 -0.21812873 -0.048865393 -0.069226 -0.07464616 0.04734496 0.21460187 0.20176712 0.09882494 -0.017572988 -0.20928943 -0.1985975 -0.033175383 0.17136137 -0.09450247 0.091492705 -0.0036691634 0.15058449 -0.0609031 -0.102831826 0.052427847 -0.1070639 -0.12784262 -0.09450195 0.036114633 0.14237128 -0.07758222 0.0024729762 -0.22803812 -0.07425767 0.118252665 -0.16004376 0.18038826 0.09835851 -0.097364835 0.012993432 -0.13496412 -0.2746428 -0.068347655 0.11679574 0.13872199 0.36599553 -0.25468644 0.06556505 -0.1849652 -0.20261368 -0.105348326
market 0.25494915 -0.00737224 0.077345066 -0.13039061 0.20123136 0.28565663 -0.121403515 -0.28601435 0.1784609 -0.06265853 -0.074761935 -0.025498806 -0.110742845 -0.2560947 -0.051383168 0.05397557 0.15074325 0.0062649124 -0.03842182 0.032012478 -0.0016851458 -0.19583185 -0.016601043 -0.07187598 0.13282236 0.012158499 0.035221107 0.10796202 0.009288759 0.0065404805 0.10146586 -0.25616983 -0.078671016 -0.1924923 -0.17133701 -0.31559408 0.056961317 -0.18690486 -0.019704526 -0.032380637 0.055347078 0.013011931 0.010442005 0.16572592 -0.06323797 0.08949543 0.06305272 -0.08421714 0.0033261462 0.35554245
run 0.20503186 0.107603095 0.12610678 0.14130296 0.04713701 -0.08038199 0.11857645 -0.0062318044 -0.18109293 0.224773 0.11062731 0.29573345 -0.13665414 -0.23362176 0.0779369 -0.11110159 -0.08329216 -0.15158027 -0.08731782 0.12618928 -0.07854408 -0.082951814 -0.03836599 -0.054788604 -0.09095253 0.093908645 0.14896683 0.16906546 0.027045652 -0.22975247 0.08792602 0.06826096 -0.07206536 -0.16634713 -0.11862278 -0.22096275 0.26407325 0.13174622 -0.16238813 -0.07158428 0.10795243 -0.3135493 0.15062599 -0.007462593 -0.14909074 0.0039474014 0.11654949 0.0686016 0.045953233 0.13632126
web -0.13732801 -0.030015131 -0.037409943 -0.027194837 0.032647897 -0.16656238 -0.031895157 -0.17729829 0.17814828 -0.06407867 -0.14882962 -0.18704252 -0.23767689 0.01599735 -0.15487364 -0.003438618 -0.012742931 -0.21862535 -0.19805883 -0.03277163 -0.11150206 0.062061675 0.37852678 -0.11299988 0.125203 0.09226206 -0.11984733 -0.030789172 -0.10279792 -0.11970209 0.008354394 0.27632567 0.2028037 0.05287737 -0.19051689 -0.26636308 0.09311583 -0.21859582 0.00014331956 -0.09122161 0.14793366 -0.17606197 0.09705507 0.16008067 0.03351809 0.0466588 0.072393686 0.14601296 -0.031074619 0.08365748
problem 0.031182658 0.012818643 -0.11342685 -0.18118934 -0.02065545 0.070683606 -0.033417463 -0.3672661 -0.026255239 0.11221603 -0.1459572 0.1921184 -0.03308771 -0.013280023 -0.0358809 -0.009138161 -0.06637314 -0.3428416 0.06004363 0.24736002 0.15999466 0.041356094 0.0020145907 -0.01395236 0.051160537 0.2977112 0.30869287 0.010340816 0.14954603 -0.007420673 0.0897194 -0.06553321 -0.021746663 0.16738562 -0.05823373 -0.09409783 0.0017196598 -0.07761964 -0.23078294 -0.05952497 0.12164259 0.0060152565 -0.3206279 -0.046572994 0.018241096 0.20077772 0.13028719 0.13861595 -0.011293287 0.040217467
role 0.05944835 0.008907617 -0.099871114 -0.09036929 0.13366283 -0.062255457 0.0024794564 -0.35710806 0.11565652 0.18156095 -0.18603574 -0.062724665 0.04052285 0.0926462 0.0032995865 -0.20366493 0.06965209 -0.035250373 0.29418656 -0.14077082 0.1056297 -0.043051444 -0.01409266 -0.023406701 -0.25601023 0.030688299 -0.08427751 0.007856767 0.093714245 -0.09966983 0.13453941 -0.27085394 0.005674984 0.16839124 -0.053279836 -0.14605312 -0.13926278 -0.12546012 -0.26417652 0.046355017 0.047498137 -0.09474944 -0.096927285 -0.049493577 -0.080212265 0.09431564 0.3323084 -0.048220348 -0.18881321 0.18944408
war -0.08499006 0.07733803 0.020545004 0.12968892 -0.1411126 0.2713156 0.09083173 -0.19329442 0.026279688 0.2510414 0.14548239 -0.06565392 -0.054423977 0.023438364 -0.28077808 0.14099342 0.00186259 0.103180766 0.07156925 -0.025957162 0.27936605 0.045904204 -0.26404896 -0.15767463 -0.02131649 -0.13242151 -0.02545187 0.15020634 0.018200198 -0.20695947 -0.19277628 -0.29000103 0.100094266 0.10006384 0.25668 0.007565913 -0.14811584 0.2766902 -0.05662439 0.14035518 -0.020175245 0.035207197 -0.008494476 0.032880172 -0.013883652 0.050493326 -0.05956754 -0.0981329 -0.12089334 -0.038504623
side 0.15215111 0.11013611 0.023667544 0.097702146 -0.3340101 0.199431 -0.04463899 0.15883507 -0.21395099 0.2817345 0.25984028 0.18293117 0.07241777 0.04613008 0.045247238 -0.16181694 -0.06856093 0.019790031 -0.062485747 0.2801007 0.008248324 -0.010513538 -0.20139709 0.09966294 -0.09699875 0.17931537 0.16376622 0.2382791 -0.06549043 -0.109198324 0.0013323623 -0.07646447 -0.11621696 -0.15179949 -0.11613934 -0.00090327417 0.16825366 0.022985267 -0.13546364 -0.100618795 -0.06415667 0.05850311 0.15349652 0.20043115 -0.0683487 -0.075588055 0.14993387 -0.0066968915 -0.04915717 0.12258525
period 0.14347693 0.06220728 -0.016888278 0.22035915 0.051761612 0.33765113 -0.056333486 -0.10922798 0.04344267 0.096614696 0.05455027 0.26558703 -0.14834578 -0.2104092 -0.030704398 -0.20091355 0.0031585442 0.054201204 0.25532043 -0.010457828 0.2876504 -0.03376247 -0.20175742 0.027376223 -0.111798175 0.048134975 0.023434818 -0.08699728 0.18367079 0.074343204 0.11484686 -0.18218946 0.02245866 -0.21514063 -0.18803288 -0.15909265 -0.18210231 0.15509783 0.066184625 -0.09451538 0.17045014 0.049472082 -0.13255075 -0.057042025 0.1849924 0.07023435 -0.012923823 0.11212562 -0.13288464 -0.023716513
women -0.069616824 -0.21370706 0.041493367 0.102391265 0.059054386 -0.06428763 0.10249925 -0.08469036 0.18852665 0.1298668 0.03558898 0.106955364 0.09034819 -0.11144424 -0.18519832 0.038183443 0.12889515 -0.08399023 0.080059424 -0.28924683 0.0015713801 -0.09718414 0.10521267 0.0046416842 -0.30022997 -0.24311832 -0.21691504 -0.14737707 -0.122712 0.009691562 -0.27287757 -0.0420539 -0.0016969622 0.31210226 0.07351538 -0.050832503 -0.0011102414 0.09701105 0.15801357 0.1929305 0.13249816 -0.12683022 0.11045381 0.1457724 -0.08764999 -0.015865877 0.23372401 -0.13538143 0.13270025 -0.06522452
room -0.103206255 0.094830744 -0.13732849 0.07939136 -0.06545438 0.1344881 -0.040340427 0.47052488 -0.15202983 0.049358997 0.059603043 0.02886885 -0.18135051 -0.19257711 0.27034795 -0.16564003 0.045999877 -0.024899231 -0.016742853 0.08639069 -0.1408159 -0.22300072 0.049197845 -0.16010325 -0.072540574 0.039046187 0.16306138 -0.03376929 -0.22689833 -0.1237662 0.14189097 0.0058540963 -0.15377933 -0.08870033 -0.027409554 0.05925644 -0.1056709 -0.01408207 0.11198441 -0.22224598 0.008758947 -0.015576513 0.2946729 -0.082112506 0.09251135 -0.11050634 0.14249738 -0.096796736 -0.057156384 -0.15201522
human 0.13466948 -0.16563687 -0.24304424 -0.015660992 -0.051731627 0.022081422 -0.13309179 -0.2587527 -0.04861895 0.09643464 -0.20593065 -0.18275024 0.026489545 0.06647167 -0.28145722 0.008692969 -0.0007345483 0.03476856 0.20204195 -0.045718946 0.34680712 0.11313979 -0.03835339 0.09695078 -0.04667851 0.12532581 0.034431364 -0.0854451 -0.054938626 0.05240737 0.064668566 -0.101059996 0.015611854 0.33172327 0.027863003 -0.057478532 -0.23904729 -0.059391193 -0.101631515 0.063784994 -0.04025836 -0.020780196 -0.37390664 0.15063487 -0.09447203 0.09148815 0.078602165 -0.08946128 -0.113286704 -0.05008872
party 0.07444009 0.21609376 0.30456698 0.01158225 0.052158877 0.17361428 -0.17190544 0.0050468035 0.122170374 0.03121027 0.020904353 0.17433938 0.056696188 -0.17354411 -0.15420933 -0.16250433 -0.08726288 -0.15694922 0.28800547 -0.042051308 0.361772 -0.051341057 -0.0609232 -0.16499987 0.0051306994 -0.056827497 0.09161443 0.14378615 -0.0008601436 -0.058260713 -0.09887133 -0.14434357 0.053926636 -0.0013148817 0.14700899 0.13936616 -0.19963522 0.00783657 -0.027983231 0.12628102 -0.15948181 -0.18500769 0.14242676 0.07571855 0.0004752344 -0.0018475866 0.23799102 -0.06925663 -0.13490647 0.22027735
performance 0.088934496 -0.06318365 0.107727356 0.08221827 0.22490878 0.08483457 -0.0058342214 -0.26986134 0.01798113 0.12258229 -0.16675305 0.08549097 -0.03782155 0.19983873 0.26050898 -0.23476632 0.05304405 0.018753272 -0.022163471 -0.079511195 -0.0059309425 0.079839334 0.12385426 -0.02812481 -0.17321196 -0.101565614 -0.0057019233 -0.0013265981 0.10926796 0.015379034 0.30910984 -0.00014079524 -0.30345353 -0.045765527 -0.08948462 -0.20012212 -0.09716985 -0.027206663 -0.11350696 -0.014350611 0.16182688 -0.07169028 0.015899261 -0.13300109 -0.09978902 0.1051892 0.16152851 0.20525217 -0.24147324 0.28523314
cost 0.18734547 0.05856951 0.23162135 -0.11888802 0.27479616 0.2338725 -0.048586093 -0.126287 0.13826512 -0.16910055 -0.04410455 0.20353511 -0.42641997 -0.28965434 0.007878176 -0.15865567 0.06866383 -0.041650575 0.110257804 0.13351338 0.004991597 -0.1272166 -0.04123968 0.092506416 0.15798758 0.026903072 0.13146283 -0.00805652 0.10006838 0.06007362 0.28387612 -0.1269801 0.05977214 -0.13405743 -0.08067137 -0.012577404 -0.036645997 -0.07435149 0.01951766 0.01157732 0.21695851 0.051198184 -0.027978864 -0.054439057 -0.044992555 0.15975073 -0.010473244 0.1604895 0.052000217 0.04130505
event 0.24588732 -0.011460548 0.26291662 0.20136528 0.13823938 -0.13102074 0.03392883 -0.19486967 0.024222393 0.0505785 0.090280175 0.093567766 -0.0261186 -0.036641896 -0.14284106 -0.054072727 0.08781126 -0.22176637 0.046344604 -0.119480826 0.22945857 -0.024924899 0.07997482 -0.32517514 -0.13114208 -0.004019705 -0.0755815 -0.040621404 0.047057424 -0.024584383 0.18044987 0.10120627 -0.080875516 -0.0137460055 -0.04872128 -0.19108035 -0.16711791 0.2152859 -0.11064631 -0.05393508 0.19657338 -0.22202432 0.17548484 0.03388657 0.05085572 -0.16319071 0.26257 -0.048650533 -0.20587969 0.046598386
real 0.10929241 0.12131928 0.023016466 -0.07416145 0.1086544 0.1150429 0.008168185 -0.16319193 0.02903289 0.16496913 0.097886056 -0.07125854 -0.02797914 0.1116931 -0.15264305 0.04654602 -0.054453596 -0.1515715 0.08213962 0.22105652 0.094366655 0.12756005 -0.12929921 -0.11697403 -0.109229326 0.11923895 0.34306875 0.10960421 -0.08120516 -0.14199048 0.14731714 0.0060072453 -0.3293931 0.18213835 -0.123443864 -0.16063218 -0.0050010327 -0.013935814 -0.21643437 0.114199296 -0.013313962 -0.12367349 -0.09301345 0.03451014 -0.0031047792 0.18357104 0.03717877 0.03220216 -0.23156846 0.36709455
street 0.02808203 0.07337559 0.14281997 0.07279015 -0.16818538 -0.05067708 -0.09504092 0.27692312 0.026398975 0.170474 0.16389777 0.08163575 -0.13071066 -0.17070942 0.15097854 0.15963419 0.1229592 0.070508234 -0.15860142 0.045110617 0.11914464 -0.233635 -0.06919427 -0.18068153 -0.11104253 -0.12882948 -0.020479975 0.0900586 -0.1777222 0.079716615 -0.044718273 -0.1875242 0.002544174 0.02948158 0.013035611 0.025621215 0.21710074 -0.0991931 -0.13701954 0.015388807 0.018942416 0.11244357 0.25887045 0.12381697 0.118117906 -0.43244016 0.06603147 -0.21089388 0.060575645 0.03489001
car 0.19929162 0.06448996 0.121012814 -0.081839174 0.21156555 -0.056367945 0.09355516 0.07319191 -0.03409623 -0.0554352 0.17108478 0.26711503 -0.22340529 -0.17642778 -0.04434425 0.053280383 0.07051794 0.031580124 -0.3426828 0.42153466 -0.12580469 0.00095524057 -0.04095344 0.11183457 0.11792963 0.1344842 0.21663657 0.2370025 -0.06736788 0.08103057 0.08356213 0.016351977 -0.08196729 -0.21470281 0.097320005 -0.065864034 0.014760855 0.11477082 0.0742899 0.15055351 -0.0011600486 0.099210024 0.033523772 -0.12515636 0.02550343 -0.14013793 0.13755907 -0.025889358 0.053393673 0.1411294
club 0.20058593 0.20313619 0.21594842 0.23695062 0.15403111 -0.09234915 0.14890787 0.05247614 -0.11687273 0.024667 0.14116202 0.27512708 -0.0008712822 -0.11984559 -0.12664184 0.05979314 0.024581255 -0.018545479 -0.081809334 -0.055611335 -0.01963285 -0.21411897 -0.11076144 -0.27086025 -0.2271048 -0.029919 -0.082685664 0.15126885 -0.05528969 0.03550793 -0.02768037 0.024709929 -0.05055259 -0.11818913 -0.08245133 0.059797697 0.023938298 -0.012064939 0.09090747 -0.020934265 -0.0008135894 -0.16933946 0.28059876 0.030913003 -0.110738106 -0.17254484 0.41394538 0.049797077 -0.06662129 0.13855918
industry 0.08389918 -0.12685604 0.07888599 -0.10441103 0.27254945 0.12515488 -0.09759825 -0.29213375 0.13714616 -0.19949381 -0.2195573 -0.0795874 -0.053254552 -0.13163233 -0.076282926 0.014015093 0.12591535 0.07988957 0.12829316 0.060710702 0.022810811 -0.076813936 0.046500195 -0.13258138 0.0563273 -0.030963218 -0.08375058 0.18560687 -0.00034149952 -0.094526015 0.15380608 -0.31625202 0.007492398 -0.009840015 -0.022765893 -0.39694506 0.022932032 -0.089978166 -0.10211447 0.07084648 0.07613561 -0.10448678 -0.10500887 0.19688557 -0.16359466 0.0219267 0.22628905 0.10319564 0.01948683 0.22487581
technology 0.0013886009 -0.18291801 -0.08919263 -0.11889814 0.1471551 0.06459021 -0.15487197 -0.21845584 0.028359283 -0.0391973 -0.2851877 -0.105870835 -0.20661451 0.04738324 -0.03706266 0.037932873 0.20624088 -0.08004444 -0.04828249 -0.041646678 -0.07471152 -0.07146325 0.37486482 0.04655634 0.02867914 0.11153867 -0.15389705 0.0606035 0.030128872 -0.18337537 0.19566497 -0.13615274 0.011005777 0.09726226 -0.07035175 -0.38660678 -0.0753663 -0.11377929 -0.13609613 -0.0040122606 0.04392576 -0.13204195 -0.09293521 0.1553093 -0.20150453 0.16946168 0.03892651 0.130538 -0.106350444 0.11597172
price 0.10155548 0.17359802 0.18301931 0.024869554 0.1986743 0.34097862 0.056207627 -0.05661509 0.13702837 -0.27398047 0.09862604 0.04422631 -0.33588666 -0.3013308 0.016657693 0.050503228 0.035106298 0.0048453035 -0.018684886 0.05468413 -0.30370152 0.03963069 -0.027185073 -0.016527962 0.11305885 -0.07582908 0.11315661 0.008771406 -0.10544219 0.06926439 0.031145329 0.090490036 -0.16224073 -0.27967438 -0.129559 0.087415285 -0.10905136 -0.07309631 0.16959922 0.03944572 0.115684 0.1576706 0.16336152 0.04309369 -0.02719851 0.11395183 -0.061318535 -0.043900385 0.09635753 0.15314619
head 0.10196644 0.032299116 0.039878115 0.17253862 -0.1914775 -0.17178237 0.13489851 0.12751941 -0.18994658 0.04988267 0.107529774 0.22339389 0.24059659 0.085514046 0.14713413 -0.105811425 -0.01993777 0.12589447 0.16157025 0.124727495 -0.03709956 -0.040353037 -0.08288706 0.18343976 -0.15522619 0.10277391 0.16765177 0.15578829 -0.08398812 -0.15136771 -0.07439097 -0.26352262 -0.002141515 -0.09784759 0.00073693186 -0.09414689 0.24562037 0.056849405 -0.22343163 -0.04534103 -0.029549047 -0.024282191 0.2573573 0.12458981 -0.18395571 -0.09067355 0.28200516 -0.12276781 0.10449747 0.017203873
resources -0.088631265 -0.057428356 -0.091463596 0.042153556 0.14201695 -0.15420859 0.0033453135 -0.2699314 0.27906868 -0.14806776 -0.18610965 -0.046421684 -0.10279698 -0.007022481 -0.09583503 -0.0008790008 0.05822693 -0.18217711 0.07164981 -0.27466992 -0.16122009 -0.007805402 0.18799305 -0.07111691 0.023754636 -0.097082436 -0.2767741 -0.005314805 -0.12063995 -0.045171227 0.07042211 0.016517064 0.32120886 0.1156936 -0.11432428 -0.072066225 0.029858205 -0.054142702 0.023186289 -0.044855934 0.30093685 -0.05498799 0.014807918 0.2240883 -0.026498368 0.08467528 0.22486249 -0.10504722 -0.0030578321 -0.24234414
issue -0.08398684 -0.0015633389 0.08551654 -0.113700904 0.1513183 0.116103396 -0.16880187 -0.35239956 0.29202953 -0.07240304 -0.12622274 0.10395739 -0.049043737 -0.091268346 -0.22378035 -0.17243358 -0.06928067 -0.20724767 0.28666916 -0.12209822 0.30662048 0.03265388 0.12214082 -0.023036705 0.016684558 0.037218265 -0.087904744 0.033801865 0.02260506 0.1240344 0.08178386 -0.071991794 0.14737317 0.15329733 -0.03974334 -0.06777895 -0.1304509 0.04141791 -0.26158082 -0.07837349 0.09704538 -0.0359166 -0.08897652 0.06347192 0.047024257 0.17042437 0.2848008 -0.023831077 -0.042846385 -0.00708883
love 0.0013836395 0.03913926 -0.012837215 0.08612143 -0.050927427 -0.17959899 0.120831825 0.102614984 -0.03144485 0.014653523 0.28591025 -0.0867258 0.17478207 0.007064592 -0.16929936 0.15878244 -0.053833593 -0.13856117 0.019766364 0.03311089 0.0009970687 0.33573514 -0.183297 -0.02463603 -0.31338075 -0.0026054678 0.22262813 -0.06231259 -0.13915241 -0.097582735 -0.12161619 -0.0005854169 -0.37076232 0.17277704 -0.006078209 0.0910807 0.06593628 -0.03923901 0.19682074 0.08429971 -0.19316134 -0.08013802 0.08076233 -0.13751051 0.11956727 0.08163707 -0.07234245 -0.038304616 -0.18999593 0.17265849
return 0.13957715 0.20969555 0.16209115 0.12651835 -0.06761266 -0.076960586 0.25875753 0.015387107 0.05429606 0.052241456 0.19239521 0.19181354 -0.14444135 -0.23086897 -0.11136696 -0.23276773 -0.060989197 -0.14122449 0.24296936 0.023127297 0.28053188 0.06834334 -0.36662468 0.027766077 0.06484652 0.064443596 0.084297895 0.015063705 0.015396202 -0.079941824 -0.047082324 0.086806886 0.053597037 -0.31429067 -0.12880959 -0.06641363 -0.023564687 0.14025655 -0.06421965 0.0044210386 0.19726528 0.097341605 0.14804582 -0.073981285 -0.018744664 0.04616831 0.007211393 -0.013617011 -0.19148035 0.017287161
software 0.07768467 0.019967806 -0.050904077 -0.036402956 0.14811467 -0.06525698 -0.026275303 -0.20702499 0.06311243 -0.053118315 -0.269527 -0.15333483 -0.25253215 -0.057233196 0.11796968 0.023270385 -0.0050119655 -0.15732785 -0.042639315 -0.014228841 -0.15828367 0.071207374 0.41169557 0.034484476 0.2439148 0.10334448 -0.09727865 0.083291985 -0.034497086 -0.2195341 0.08657335 0.14060523 0.16681658 -0.048613776 -0.03148166 -0.30133402 0.009977099 -0.15371981 -0.05907375 -0.018105911 0.09989925 -0.10686939 -0.02289085 0.010608727 0.117499575 0.27657554 -0.036365293 0.23944089 -0.13490583 0.07670604
pay 0.14443116 0.17274475 0.32728863 0.03787221 0.22937948 0.10946004 0.027624471 0.033269536 0.18575902 -0.18507268 0.11540429 0.3387369 -0.1651491 -0.343449 -0.102477424 -0.06871648 -0.067875236 -0.053042185 0.26673937 0.110736564 0.1290482 -0.05659512 -0.2582543 0.019447606 0.094973855 0.018652625 0.17020565 -0.06224108 -0.026591567 -0.024274174 0.13678746 -0.115324475 0.08727501 -0.0872882 -0.03235056 0.008908085 0.024760908 -0.11264561 0.060926657 0.14778827 0.05042063 0.003437992 0.06141865 -0.15619932 0.055699617 0.2128269 0.091975294 0.09153946 0.0032559347 0.11195968
call 0.21102646 0.32601508 0.007998222 0.037602615 -0.08850872 -0.22507837 0.12316277 -0.005458407 0.13016787 0.059344757 0.0893607 0.015846297 -0.029749371 -0.26335403 -0.0893203 -0.20130664 0.038915455 -0.22344601 0.11029396 0.109797545 0.32328758 0.14628592 -0.09051899 -0.112483636 0.05438243 0.15232155 0.1862753 -0.03856205 -0.0087279435 -0.14615968 -0.059399825 0.05231892 -0.0766147 -0.00057399785 0.23357761 0.010344258 0.14610897 -0.056427587 -0.3289166 0.1295905 -0.19840193 -0.0968324 0.1389201 0.07295829 0.008321736 0.021041585 -0.060883842 -0.15319714 0.053837173 0.009903806
game 0.24755365 0.38420126 0.048447143 0.08940905 -0.03653254 0.07993397 0.11712669 -0.019470008 -0.12210381 0.16611706 0.107545026 0.1212168 0.043951694 0.06604477 -0.13375333 0.18461092 -0.18119515 0.06836352 -0.22404957 0.023220522 -0.015484686 0.03825945 0.052082866 -0.17898054 -0.105344675 0.069057554 0.09919727 0.18143277 -0.1782515 -0.27639818 0.044816174 0.28491828 -0.18819135 0.014309422 -0.14782497 -0.04921744 -0.02925731 0.04995466 -0.046780173 -0.035865426 0.10577295 -0.08020916 0.080049664 0.01122479 -0.13524006 0.23314403 0.13875426 0.14173914 -0.12722127 0.19542412
property 0.13349573 0.119420215 0.040362403 0.0060284617 0.2057767 0.13640572 -0.20573607 -0.05809739 -0.10067844 -0.04633327 -0.047331914 0.0040007913 -0.27463537 -0.19586508 0.07404089 -0.20098384 0.0895219 -0.030840313 0.059985228 0.1488907 0.070818245 -0.14061886 -0.17351693 -0.037967432 0.13315487 0.11974934 -0.0111907115 0.12500235 -0.052434668 0.100998506 -0.020421626 -0.062243324 0.1362267 -0.19822355 -0.13194704 -0.102593064 0.010918056 -0.49915698 0.14641084 0.0034134178 0.14629696 0.14019148 -0.1555217 0.026154077 0.14142162 -0.08935993 0.098986186 -0.09871523 -0.24349983 -0.002145219
network 0.08885915 -0.087269284 0.08179059 -0.1336482 0.16470507 -0.06648058 -0.11963782 -0.16997376 0.27068493 0.09128844 -0.15766805 0.0001686974 -0.28336403 -0.1374039 0.04573701 -0.120976314 0.0119389845 -0.26221025 -0.09364707 -0.07254434 -0.04263914 -0.09268091 0.21072075 -0.111111686 0.040756952 0.24818026 -0.20518254 -0.019575352 0.10390776 -0.13803582 0.12059012 -0.05572247 0.100615956 0.09240944 0.062057544 -0.33133072 0.03743085 -0.09801256 -0.20553112 -0.06816104 0.12939112 -0.1891913 -0.038691025 0.25842655 -0.17939098 0.065611005 0.10143957 -0.016404992 -0.037461936 0.0065053455
known 0.2640842 0.19841525 -0.22162491 0.21346015 -0.011599259 0.03855334 0.06909372 -0.15119179 -0.07138092 0.033703763 -0.04234212 -0.097688735 -0.21937427 0.02399943 -0.026047751 0.06554463 -0.048976164 0.034394678 0.21177857 0.1420156 0.07179568 0.24147299 -0.18813564 -0.06846195 -0.0378286 0.27290386 -0.04792522 -0.022135288 0.17961366 -0.0020975897 -0.1853207 0.15893865 0.22402823 0.007848059 0.07749327 -0.08052944 0.08083099 0.03786436 -0.0074237664 -0.053592287 0.06889983 0.09037939 -0.24144366 0.15181403 0.12503137 -0.25295067 -0.19387761 -0.02949785 -0.23813173 0.101611614
night 0.101042666 0.08353251 0.042450592 0.15244502 -0.016717637 -0.020597551 0.13159877 0.3387334 -0.07669142 -0.03400457 0.3020085 0.25300682 0.049126796 -0.08604822 0.036747456 0.05031305 -0.07638965 0.045666303 -0.15487912 -0.016987719 0.023969086 0.081190616 -0.19248275 -0.26768643 -0.13972074 0.07308058 0.24990597 -0.043083485 -0.09758874 -0.11431424 -0.010661765 -0.049332812 -0.35026643 -0.08557868 0.12225842 0.07530757 0.046459626 0.24307309 0.06673125 -0.13033018 0.02914319 -0.15831508 0.22706062 -0.14375293 0.017262977 -0.18370199 -0.019873444 -0.1344426 -0.043146133 0.029146366
products 0.22743222 -0.056166414 -0.09668668 -0.06773002 0.15164214 0.03964974 0.06668273 -0.19324699 0.06439139 -0.3013639 -0.18333375 -0.056909613 -0.08187879 -0.24688846 0.17810827 0.123233885 0.1701752 -0.14382559 0.029819032 0.012956114 -0.18246321 0.110955946 0.30797714 -0.0017074234 0.034432203 -0.056045607 -0.19349487 0.20635827 -0.17139137 0.031963937 0.006398309 0.027453173 0.1205696 -0.17949651 0.09807892 -0.023248957 -0.034154378 -0.16910233 0.26169613 -0.05066545 0.19053279 0.118057564 0.016414873 0.26395714 -0.12853137 -0.09325364 0.084684655 0.026864512 -0.010480333 -0.024662465
plan 0.21991949 0.11254828 0.11126295 -0.13143854 0.2691712 0.026336549 -0.13486938 -0.18487738 0.06546174 0.0069294847 0.0067959013 0.1386032 -0.19915771 -0.12082302 -0.08120071 -0.21812636 -0.018924879 -0.16990748 0.05067724 -0.025850516 0.17560148 -0.07778191 -0.023521487 0.053742196 -0.10335106 -0.10061108 -0.08181977 0.21992256 0.084780835 -0.13958128 0.19938213 -0.23591608 0.09538033 0.005209846 -0.040268667 -0.15263738 0.04893456 0.12675776 -0.16659409 -0.24171448 0.25478002 -0.040820014 -0.061415926 0.026989922 0.00935417 0.12441585 0.34040767 -0.15492955 -0.12027201 0.036855433
note -0.066513024 0.24329779 0.00043974747 0.1587168 -0.014256041 0.037230894 -0.06299496 -0.08796098 0.14973201 -0.14049017 -0.20500168 0.078940846 -0.05748872 -0.059070256 0.012487191 -0.32187203 -0.06529907 -0.238644 0.32776412 0.02685638 0.16233571 0.19243237 0.027296767 0.10009218 0.1199314 -0.018186662 -0.063759044 -0.020352881 0.007331835 0.12402428 0.12884724 0.26505002 0.2016526 -0.18936127 -0.217972 0.056942705 -0.00079451076 0.18324606 -0.19691084 -0.11390749 0.031133352 0.12344853 0.119083494 0.05084316 0.21224242 0.119350456 0.04247334 0.1066021 -0.081712216 -0.08496942
search 0.008233699 0.057013977 0.01627381 0.058107074 0.088774934 -0.041208018 0.15366873 -0.14467804 0.12565893 0.035640344 -0.06011853 -0.14515866 -0.16957285 0.018499942 -0.2074697 -0.0013027517 -0.036357526 -0.17045584 -0.111557044 0.18655474 0.09823558 0.15347724 0.14541143 -0.15622373 0.10462697 0.26031008 -0.054932754 -0.03871659 -0.16772069 -0.04248874 -0.025678383 0.29600322 0.41967982 -0.058292117 -0.18117721 -0.19580804 0.22298545 -0.060046457 0.050786603 -0.052615814 0.2920672 0.062300794 -0.0061197923 0.13957463 0.119928844 0.046906117 0.009215887 -0.05161879 -0.17240892 -0.008818617
age 0.02836194 0.13091406 -0.09633784 0.30167872 0.07762937 0.22090355 0.02999604 -0.049625546 0.044681683 0.14946653 0.22900066 0.18772675 -0.013571807 -0.21832228 -0.12571213 0.086341225 0.024383698 0.020531138 0.18212645 -0.04924811 0.062911145 -0.05437207 -0.1268511 0.081473015 -0.3967622 0.06064797 -0.06004549 -0.33399716 0.016409101 0.11142155 0.06122892 -0.036125083 -0.09280194 0.12173303 -0.20294072 0.03520325 0.12931888 0.11288429 0.17217241 0.054695234 0.07046547 0.016870419 -0.23212597 -0.24412672 0.024455072 -0.098073825 0.09608461 0.0058936845 0.035090245 0.113137774
college -0.066024475 -0.042841163 -0.019200576 0.28964853 0.015970774 -0.16947725 0.04688598 0.03618841 -0.0029252577 0.10118163 -0.18918271 0.20680408 -0.046116427 -0.062134903 -0.010537399 0.095004946 0.24559595 -0.029661626 0.20261617 -0.12631299 -0.053967763 -0.22409935 0.08093161 -0.094926775 -0.2090495 -0.115424775 -0.31046143 -0.15658161 0.045879148 -0.10219338 -0.010424991 -0.22529872 0.18325871 0.08039592 -0.2966692 -0.08300166 0.029519282 -0.040075924 -0.07837867 -0.069378674 0.0045143696 -0.115838125 0.16528901 -0.032246035 0.09606952 -0.06396263 0.36135727 -0.04069423 -0.064900324 -0.0702233
big 0.12079449 0.07531214 0.08360314 0.07127125 0.038650382 -0.074861825 0.009324132 0.045390446 -0.08554733 -0.039872486 0.22148778 0.11384743 0.13175352 -0.026892254 -0.105817474 0.15418996 -0.13351132 -0.0022955842 -0.11784727 0.20667732 -0.09810709 0.00140918 -0.14263512 -0.12402486 -0.21321101 0.04404199 0.2972444 0.21011281 -0.11794218 -0.21162845 0.040636543 0.03726981 -0.25760585 -0.022864237 0.025635453 -0.09301859 0.2105847 0.12216286 -0.016560229 0.040051408 0.011273899 -0.2035113 0.2072087 0.094138265 -0.13563357 0.10488128 0.046051107 -0.107475206 -0.0130938515 0.44619972
body 0.2743948 -0.17014465 -0.1455608 0.066817336 -0.04342273 0.093480624 0.07225383 -0.015346618 -0.009095629 -0.016737936 -0.093608916 -0.07737812 0.16567174 -0.028081167 -0.040199276 -0.22144729 -0.045544777 -0.06337065 0.31074026 0.17524199 0.23247927 0.022137875 -0.015502484 0.21205495 -0.20248748 0.1312395 0.14547023 0.0006504633 -0.09306369 0.018917609 0.20626739 -0.25385895 0.016457485 -0.010786562 0.060576897 0.08823966 -0.019338544 -0.08878522 -0.10087208 -0.016318524 -0.06853409 -0.11872601 -0.29268312 0.23807018 -0.057722 -0.03778576 0.31792864 0.1353286 -0.12448763 -0.014068271
paper -0.18155515 -0.03712288 -0.04520877 -0.17164174 -0.0022797012 0.22944012 -0.20834243 -0.11421114 0.18122414 -0.1333522 -0.1988024 0.0742918 0.14491487 0.07882751 -0.083262704 -0.2022432 0.070915766 -0.13406274 0.347396 -0.06482674 0.04859502 -0.06863842 0.28119484 0.18369469 -0.015480057 -0.11076182 -0.08276913 0.16976596 -0.124814704 -0.030030238 0.117558956 0.07512896 0.15179008 0.112261124 -0.20772444 -0.0634913 -0.018279888 0.26467055 -0.09796256 -0.024186723 0.15207022 0.18655798 0.006187108 0.20024998 0.045919687 0.12244019 -0.02956908 0.1206962 0.091878615 0.00016806724
safety 0.071153685 -0.051687147 0.10348712 -0.2282791 0.14304389 0.032393176 0.021769706 -0.18619569 -0.017940672 -0.1300758 -0.14332344 0.11883468 -0.131276 -0.14810695 0.08819147 -0.0990052 0.017632056 -0.07096588 0.064846165 0.13926946 0.1101395 0.10258534 0.20981446 -0.0049073445 0.07630279 -0.019942489 -0.072961874 0.1258678 -0.03153008 0.088247016 0.1888601 -0.19999544 0.031181877 0.053392842 0.27161932 0.045633882 0.02123338 0.03253303 -0.07939533 -0.07110339 0.22722118 0.03251835 -0.22374302 -0.03954374 -0.2191245 -0.16914988 0.49161866 0.044723388 0.108891636 -0.16618735
thought -0.12045029 0.03928985 -0.053839426 -0.022068087 -0.18947197 -0.032282963 -0.010135605 -0.08571664 -0.07338561 0.10870129 0.18677665 -0.08328552 0.16569097 0.17944555 -0.23511705 0.1080002 0.069945395 -0.2057284 0.09289177 0.093795866 0.21126625 0.19375306 -0.054429945 -0.056395117 -0.14066459 0.15714991 0.34523338 -0.04776732 -0.12085873 0.04356484 0.011564419 -0.107536875 -0.24618715 0.20100735 -0.16103034 -0.0045728493 -0.07320435 0.0640461 -0.13825883 0.009192731 -0.27583346 -0.08019103 -0.08918026 -0.09485496 0.19599101 0.22374529 -0.013431917 0.07787538 -0.23146293 -0.007185402
child 0.052480604 0.13354315 -0.05814891 0.027506964 0.11423896 -0.012343016 0.113222174 -0.047476973 -0.0046977913 0.22733171 0.023533754 0.13440186 -0.03427366 -0.19397761 -0.23419562 0.029417465 -0.14377943 -0.2639573 0.24896826 -0.015296532 0.098699816 -0.031638462 0.035814893 0.059236888 -0.30825257 0.07174352 0.07515738 -0.27243558 -0.117017664 -0.010113423 0.209163 -0.2008208 -0.121229574 0.32385075 -0.017253755 0.17597064 0.048457485 0.015800921 0.1665839 0.017288508 0.14836808 0.050835874 -0.1516999 -0.23901425 0.07788094 -0.063872315 0.11654679 -0.114396885 0.08681938 0.07467876
science -0.12587322 -0.13060679 -0.1369139 0.053354114 0.05379349 -0.019218488 -0.12145083 -0.1458963 -0.055032566 -0.056923192 -0.2952951 -0.115986705 -0.042975314 0.19519204 -0.19911075 0.17125219 0.2919123 0.057855815 0.14107256 -0.114976056 -0.010930945 -0.16538805 0.18741354 -0.102842644 -0.040798478 0.024103757 -0.19971311 -0.15297545 -0.022161243 -0.052524477 0.08236427 -0.05399413 0.104965724 0.25900105 -0.29189223 -0.15660845 -0.10095621 0.10558691 -0.108334616 -0.0050040004 0.023470944 -0.12595223 -0.22589819 0.14775556 -0.120261356 0.14972983 0.172618 -0.011495211 -0.13547994 -0.14717218
post -0.20280369 0.13345453 -0.059949145 0.08306554 -0.0294117 -0.12325349 -0.1489569 -0.017915439 0.21831965 -0.3993833 0.3078765 0.21314992 0.12272338 -0.043385018 -0.10320312 0.19972198 -0.06791002 -0.10020061 -0.13598222 -0.026988443 0.099045664 0.0018469286 0.03227726 0.008840603 -0.015558711 0.035413407 -0.1287906 -0.010939949 0.0514217 -0.17502323 -0.08920922 0.37960964 0.036226813 -0.1957559 0.055208918 0.03370447 0.11614726 -0.07182176 -0.04840852 -0.036374725 0.0007562983 -0.11932414 0.10765604 -0.2682378 0.050092794 0.095764354 0.18679218 -0.053479053 0.11179348 -0.054211743
application 0.18939821 0.031789787 0.006025564 -0.117282495 0.1356108 0.0026490588 -0.20959857 -0.09134089 -0.012586756 -0.047928043 -0.30769604 0.13535073 -0.1947059 -0.08770162 0.08022344 -0.26062977 0.042644262 -0.16213986 0.20287006 0.04658662 0.16020307 0.0098917615 0.27914274 0.109519735 0.17709689 0.04294715 -0.20386441 -0.01172722 0.06264567 -0.11659611 0.20006233 0.062384143 0.2435066 -0.1119754 -0.14829853 -0.1821362 -0.08998575 -0.20200096 -0.094331555 -0.040361058 0.14754406 -0.029699301 -0.061009318 -0.050433103 0.08914295 0.1430668 0.13286166 0.12663333 -0.16376142 -0.12455976
