1394533 100
one 0.026609704 0.023980003 0.0014395269 0.12819383 -0.076339364 -0.15821305 0.068293355 0.014716288 -0.019505436 -0.004367344 0.08706043 0.032372307 0.030265573 0.00204873 0.051486854 0.18000734 0.1500734 -0.14787872 0.15717278 -0.2011372 0.15362182 0.059957836 -0.010383179 -0.17098734 -0.15767737 -0.21730807 0.0013095418 -0.10240213 -0.04123539 0.17908303 0.029219748 -0.029698731 -0.07651915 0.045061953 -0.04675406 0.16062595 0.044823103 -0.04716974 -0.086458825 0.061199777 -0.093118064 0.0130248 -0.07726127 -0.20315632 0.11572151 -0.00847978 -0.26251724 -0.12833151 0.06586445 0.018620526 0.026858699 0.05902677 0.16912037 -0.115809 -0.12973668 -0.0013599255 0.020200627 -0.05036687 -0.011484357 -0.02639696 -0.10555091 -0.27835444 -0.075082324 -0.009560657 0.108340755 -0.0473787 0.20527472 0.03045612 -0.17479584 -0.0892101 0.062453054 0.1094833 -0.042394713 0.0045739613 0.12240213 -0.11447437 0.084113166 0.09639885 0.027603788 0.13641632 -0.073149025 0.046163347 0.06363498 -0.05267757 -0.038710322 0.008984266 -0.10057214 0.020381615 -0.010015602 0.06815403 0.116232656 -0.06227535 0.0008096472 0.053858675 0.08250615 0.068051666 -0.061257184 -0.038203213 0.0029511394 0.0072999527
time 0.053150475 0.06438044 -0.06411424 0.08020777 -0.03744269 -0.13403513 -0.010979564 0.011610131 -0.028745236 -0.043991175 0.0012476841 0.082434155 0.083307594 0.094463654 -0.06267588 0.16961257 0.16105476 -0.16385844 0.06591625 -0.16365068 0.10335144 0.15785345 -0.06994076 -0.20555307 -0.14903359 -0.1560571 -0.016602855 -0.11929972 -0.008083813 0.12784332 -0.041237883 -0.045026075 -0.10503951 -0.015336938 -0.04213126 0.14918962 0.09812193 -0.057113145 -0.1094177 0.08020907 -0.07697422 0.077282086 -0.06881666 -0.1283343 0.15448786 -0.013992253 -0.16475792 -0.17783788 0.054879375 -0.014759453 0.059295975 0.033337906 0.19475889 -0.113591164 -0.018956628 0.025404336 0.07593188 -0.028006874 -0.13620456 -0.028605402 0.023052396 -0.33004493 -0.08102657 0.0058768652 0.12919113 0.0046487777 0.18813246 0.03715176 -0.19731775 -0.050684188 0.0561802 -0.03448594 -0.022670237 -0.0223488 0.09354656 -0.13751967 0.08124975 0.051978312 0.019929953 0.055086434 -0.07228308 0.07649219 -0.019614546 -0.0076883645 -0.07427886 0.08599919 -0.11178158 -0.08918318 0.009386594 0.09587428 0.14529796 -0.06918816 -0.11507076 0.04495589 0.066831835 0.05508027 -0.034095466 -0.14231217 0.03218299 0.08153221
people 0.051509444 0.16502002 -0.006511402 -0.03292462 -0.105430484 -0.17339116 0.097279325 0.028744288 -0.18996452 0.025366697 0.041433018 0.07672135 0.062005702 0.01670651 0.014873869 0.13394828 0.06203991 -0.121049635 0.044842023 -0.24065769 0.11083624 0.08928494 -0.05208976 -0.25229087 0.06634316 -0.21631987 -0.0058909906 0.013894868 0.11506753 0.08501568 0.19695622 -0.08377259 0.026357513 -0.005214017 0.04377129 0.22584337 0.045309104 -0.002598482 -0.044408746 0.08792149 -0.13115962 -0.02268657 -0.030766696 -0.19357862 0.1039825 -0.08242744 -0.23918389 -0.08953772 0.041278236 0.081489354 -0.06381854 0.13482797 0.05603595 -0.052056104 -0.061261952 -0.056545008 0.08449118 0.0077503277 -0.015409449 -0.07649571 -0.12818772 -0.24907029 0.008126676 0.006718034 0.015970277 0.016331958 0.21644281 0.017072784 -0.14825484 -0.013338538 -0.017900096 -0.06343987 -0.026165785 -0.018672667 0.030261835 -0.025393018 0.09058199 0.08296478 0.13851866 -0.026527086 0.020720024 0.03471002 0.035183337 -0.012014806 -0.11764623 0.014577747 0.08838406 0.062296133 -0.049491998 0.10009096 0.0013375767 -0.10833303 -0.053853907 0.0889341 0.07079277 -0.05301334 -0.103949174 -0.15647693 -0.09811515 -0.016071958
information 0.025286198 0.14391862 -0.041676655 0.027009504 -0.15521935 -0.20228367 0.07833872 -0.13272795 -0.06062179 -0.024528936 0.041725133 0.12542318 -0.041701768 -0.08542785 -0.05975377 0.06601288 0.14191043 -0.14856735 0.12027964 -0.094244115 -0.11063785 0.087878644 0.027756112 -0.20478287 -0.0008503257 -0.1518614 -0.05792229 0.08360875 0.055454973 0.092045836 0.19300996 0.0017477531 0.0321841 -0.14539379 0.0009437886 0.01995524 0.12899925 -0.009536089 0.027802855 0.15909667 -0.05203918 -0.10283179 0.034644846 -0.14276175 0.10495969 0.023997067 -0.1349547 -0.101060286 0.019834626 -0.11237631 0.021209838 -0.04429056 0.21040782 -0.07931429 0.13676849 -0.08535686 0.15171145 0.11047884 0.012899425 0.022935493 -0.04980634 -0.25200966 0.009549892 0.11111534 0.06554576 -0.040477768 0.10570375 -0.026277322 -0.05553172 -0.019694157 -0.11001348 -0.01336712 0.023094114 0.028146075 0.1630561 -0.09069793 0.019391142 0.07761856 -0.013734467 0.07882856 -0.0076233195 -0.06352839 0.027281025 -0.17009887 -0.22139962 0.14220294 0.0014982574 -0.15085348 0.18934695 0.01982916 0.09015873 -0.012230748 -0.0819998 -0.07398975 0.080970235 -0.08073476 0.037774943 0.008884959 0.034430604 -0.10443953
work -0.023343641 0.10525195 -0.0236768 -0.015085158 -0.06967979 -0.20009258 0.052031036 -0.035455316 -0.03665312 -0.053388238 0.007107854 0.18718275 -0.08206433 -0.029857205 -0.030507332 0.12636551 0.24648681 -0.16946347 0.13719621 -0.13232115 0.08604467 0.11270615 -0.09668254 -0.22180647 -0.01829916 -0.1983544 0.032493874 -0.037770562 0.14608464 0.097451724 0.12011307 -0.1463214 -0.020232316 -0.052260276 0.0061757592 0.14260219 0.06204552 -0.029649425 -0.03979599 0.11801471 -0.1196525 0.12085628 0.028844535 -0.124701254 0.12636545 0.05055217 -0.24016614 -0.0056861066 0.088703506 0.063762106 0.07194387 0.11528085 0.18673797 -0.06148074 -0.0858824 -0.04486401 0.090250134 -0.0665259 -0.043125283 -0.027830666 -0.0633806 -0.16219908 -0.038234323 -0.0030665311 0.1415464 0.0126475515 0.121810764 -0.031520218 -0.1414282 -0.07816045 0.05189238 0.0700126 -0.054952253 0.07932728 0.0946142 -0.11717094 0.088095576 0.079379484 0.034946747 0.035978317 -0.08160675 0.06713004 -0.023301033 -0.109074354 -0.22913891 0.1441729 -0.01944324 -0.032688495 -0.013121422 0.050197788 -0.058588848 -0.13346612 -0.05580384 0.04026346 0.0036149533 -0.047704197 -0.11444645 0.0063280696 -0.05531878 0.08419561
use 0.01327618 0.07438704 -0.069227085 0.1430759 -0.17549326 -0.13218097 -0.09595736 -0.0106593305 -0.019957965 0.029301878 0.09576469 0.103608005 0.0113658 0.004506302 0.045970682 0.041479066 0.104377605 -0.2548702 0.17142121 -0.23282707 0.011514635 -0.017238915 0.047982972 -0.11745693 -0.046705905 -0.15049863 0.022509368 -0.07378832 0.05002181 0.08949606 0.08247762 -0.040069453 -0.08933729 -0.12384908 0.07196537 0.029340176 0.13842356 -0.016678127 -0.10613056 0.07005895 -0.084598646 0.04333078 -0.025162766 -0.20795129 0.08563639 0.0064637815 -0.10655951 -0.024739815 0.07243266 0.08540984 0.030908521 0.014396201 0.23244502 -0.011176539 -0.10676682 0.082418144 0.11283739 0.01971467 0.04306727 -0.047522742 -0.023259528 -0.3009389 -0.028271412 -0.011101404 0.060502283 -0.03036499 0.06771357 -0.038770977 -0.090903535 -0.1421364 -0.009712272 0.10500473 0.020226287 0.15438274 0.0478682 -0.12963031 0.07969135 0.11484989 -0.058847874 0.16947292 -0.039174978 0.014356926 0.016829384 -0.18018489 -0.05925078 0.07636493 -0.044502493 -0.11376096 0.15075739 0.10190616 0.14221442 0.009842193 -0.11564263 -0.0038178635 0.0888546 0.064488225 -0.16450456 0.07494601 0.06698686 -0.08919806
year 0.020425336 0.10951862 0.060314424 -0.010498367 0.070019454 -0.17308158 0.076782815 0.024437677 0.048088938 -0.06286116 0.026100805 0.063767985 -0.002895475 -0.021950439 -0.14350091 0.24023215 0.18027279 -0.0965417 0.09604676 -0.13458863 0.08155183 0.10142903 -0.018411156 -0.1016516 -0.12884317 -0.15183437 -0.011757097 -0.013819385 0.045837443 0.11988429 0.14214161 0.012929885 0.046059895 0.03584553 -0.06789285 0.21275483 0.07221368 -0.10820719 -0.05919273 0.044799086 -0.18022768 0.11132536 0.026819216 -0.13499226 0.048783407 0.08267168 -0.12551855 -0.13345191 0.04717332 -0.04557963 0.09150144 0.0029240004 0.15495765 -0.15078115 -0.06523755 -0.073042355 -0.009423233 -0.08369326 -0.055996407 0.1417079 -0.12551022 -0.16520058 -0.044535816 0.04400797 0.11659957 0.0724167 0.27749467 0.027848445 -0.14028221 -0.16657302 0.0014977265 -0.086493544 0.012301068 0.05646429 -0.046415202 -0.14357604 0.15397398 0.05755005 -0.03120804 -0.014378981 0.029325742 0.105835564 -0.062038098 0.015144749 -0.011010474 0.007120126 -0.07217316 -0.015775628 -0.0691228 0.1146606 0.12541562 -0.16744417 -0.05778325 0.10405243 0.084806465 -0.029405888 -0.013436607 -0.10168475 -0.05938865 0.15783307
being -0.01291156 -0.011267895 0.00907333 -0.009912922 -0.017939067 -0.21133691 0.067951635 0.0551016 -0.08870132 -0.008334081 0.06789226 -0.007141458 -0.16429402 0.012521303 0.05887992 0.09290681 0.14522709 -0.12521327 0.15619645 -0.14338347 0.045364916 0.043890387 -0.020569062 -0.27718717 -0.1305433 -0.1395071 -0.06500357 -0.054403484 -0.03258738 -0.0062767724 -0.060830906 -0.10163933 -0.07355529 0.053671952 -0.099730395 0.21456577 0.085665755 -0.0615789 -0.075607605 -0.03632994 0.031952605 -0.12398455 -0.15328544 -0.08554765 0.14057216 -0.17756282 -0.24630518 -0.14972195 0.1614049 0.015235837 -0.08308339 0.11661551 0.05516996 -0.09322993 -0.09245365 0.08505684 -0.06275636 0.0892166 -0.049508084 0.13817395 0.01340811 -0.25165197 -0.03589207 0.007858074 -0.028462507 -0.09181398 0.15387714 -0.061143063 -0.15431893 -0.0539868 0.016914146 0.03218735 0.041035186 0.021883234 0.13891675 -0.064785756 0.0016483621 0.0565726 0.10223975 0.10375984 -0.01522599 0.0370898 0.09404813 -0.0012755111 -0.047431972 -0.08350989 -0.08012339 0.09923549 0.00069358293 -0.029679373 0.105275884 0.053039942 -0.07011592 0.13413045 -0.09858326 0.026277734 -0.18658182 -0.026960634 -0.047422614 0.0036619944
back -0.01567713 0.16368115 0.00046372606 0.23738223 -0.06593793 -0.110123694 -0.102724515 0.044997096 0.0485321 -0.034505185 0.007240265 0.012983525 0.0065467227 0.014103892 -0.027415095 0.19998115 0.18129444 -0.22373731 0.0323959 -0.103203915 0.10224357 0.10693608 -0.19180095 -0.15511377 -0.1630545 -0.12607242 -0.022596728 -0.18884595 0.037607506 0.15245393 0.05405413 0.006555411 0.0030742746 -0.006406283 0.07358611 -0.008762474 0.18616179 -0.05341858 -0.021450503 0.030452017 -0.053112734 -0.019394144 -0.0061816187 -0.14281428 0.09828218 0.04061272 -0.16702682 -0.15119953 0.05651589 0.0027995415 0.106403016 -0.021894472 0.17542294 -0.06563174 -0.022911051 -0.027986594 0.071594015 -0.04323911 -0.035688635 -0.023163956 -0.04161357 -0.24764569 -0.03700701 0.10976976 0.06350738 -0.0042766407 0.24544129 0.14957422 -0.11386766 -0.014921719 0.008033112 -0.018053645 -0.040784482 -0.11509578 0.15219389 -0.057060692 -0.112626076 0.08343133 0.09414317 0.13864246 -0.06832464 0.16498545 0.031711217 -0.03343679 -0.06903981 0.05358182 0.021830201 0.01733717 0.04195862 0.0070015397 0.10124343 -0.124055736 -0.01026904 0.059312616 0.14071749 -0.018329151 -0.025698738 -0.0844257 0.019286057 -0.035383742
way 0.07060756 0.052102625 -0.030852217 0.09378515 -0.11448804 -0.18780759 -0.0032703066 -0.018269248 -0.10553996 -0.0059529333 0.08070908 0.08673275 0.0020890522 -0.002550496 0.0064519313 0.07898734 0.15396559 -0.19041224 0.097061776 -0.18290769 0.10784589 0.1159622 -0.06397372 -0.21986465 -0.05747982 -0.21781969 -0.01686941 -0.08734333 0.08046886 0.1985594 0.02689623 -0.059444796 -0.06337919 -0.07444819 0.0506994 0.09579776 0.13922101 -0.024514593 -0.061245043 0.04125982 -0.034928434 -0.00093038694 -0.06377779 -0.14158621 0.16413307 -0.049404863 -0.23477453 -0.1135976 0.12780507 0.06315012 -0.03908598 0.06358773 0.09713118 -0.092365064 -0.1356625 -0.009283157 0.09169494 -0.0013196938 -0.04334452 -0.14441827 -0.031686533 -0.2552251 -0.0020427296 0.07275147 0.03850975 0.024823466 0.17089401 0.007278573 -0.23793411 -0.05850375 0.042263307 0.18286881 -0.033017654 -0.06448548 0.09324884 -0.0647533 -0.028404402 0.04223159 0.043838903 0.12727879 -0.06577822 0.049229603 0.0396363 -0.028608155 -0.116754375 0.14429252 -0.03744562 0.046873707 0.042810403 0.10107579 0.03373348 -0.108512826 -0.079801865 0.08263557 0.08434985 0.017658148 -0.07938364 -0.075727746 0.042448793 -0.08157415
day 0.0655878 0.04311571 0.022656705 0.07219532 -0.03496949 -0.0869223 0.003787008 0.06830142 -0.027070936 -0.028850166 0.018806495 -0.039537597 0.09282572 0.059116993 -0.11098653 0.24407788 0.09242518 -0.13300876 0.009514775 -0.17982905 0.08630446 0.16957495 -0.06528113 -0.1830217 -0.052081957 -0.060442872 -0.068525985 -0.07796956 -0.023321226 0.19847731 -0.03374577 0.034704626 -0.056100205 0.04430658 -0.008011507 0.20113519 -0.010240661 -0.04610649 -0.074611455 0.12300279 -0.07807976 -0.0070528416 -0.13450779 -0.14703152 0.057224512 0.0214909 -0.12678184 -0.2838669 -0.009804743 -0.11156534 0.07010214 0.06695556 0.15428412 -0.05856479 -0.02150452 -0.04049844 0.03431909 -0.031847857 -0.1501784 0.0018084935 -0.05768179 -0.2572433 -0.16088907 -0.012626047 0.10640104 0.093954206 0.19186632 0.05071988 -0.08612114 -0.046263736 0.059755314 -0.10229757 -0.020678556 -0.06570739 0.09112628 -0.16865951 0.12217932 0.04163915 0.0597185 0.085168324 -0.06831032 0.12600958 -0.051412553 -0.030022018 -0.11881673 0.09827894 -0.021378197 -0.076870546 -0.025650084 0.091061085 0.2042228 -0.112716034 -0.11482206 0.087946735 -0.013599903 -0.014491813 0.05468291 -0.07023177 0.007995336 0.09874799
world -0.012261787 0.1277963 0.08540941 0.03249272 -0.0061494918 -0.15141748 0.16375762 -0.004263136 -0.07181352 -0.045376554 -0.050126888 -0.07393133 0.055506725 -0.15682486 0.043312706 0.17314358 0.0489982 -0.112583965 0.039448872 -0.15860501 0.09538521 -0.004233611 -0.0561295 -0.19205415 -0.08853824 -0.116303295 0.085419044 0.08824971 0.016339565 0.16880262 0.13954349 -0.04456749 -0.066349134 0.060308404 -0.057687365 0.2389994 0.14986806 -0.04362857 -0.08993853 -0.0047338363 -0.10061165 0.009706258 -0.11218962 -0.1819766 0.17827113 0.0028479153 -0.14288446 -0.23428173 0.14656541 0.0025502841 -0.022605224 -0.0028625964 0.14492276 -0.02339108 -0.007761225 -0.0070307013 0.014110985 -0.080589384 -0.0137942545 -0.03615924 -0.16934614 -0.14824452 0.049635995 0.12722014 0.06900243 -0.073201135 0.15123075 -0.06051071 -0.2304727 -0.058884855 0.14105602 0.08907108 0.10001693 0.058771968 0.09953396 -0.19765508 -0.039580017 -0.0677997 -0.002804167 0.0056993924 0.11764553 -0.011458405 -0.042806115 0.03078721 -0.065022886 0.033241376 -0.014643225 0.049046915 0.12145522 -0.043995637 0.030309746 -0.045690674 -0.13489082 -0.021192241 0.08912122 0.020957917 -0.11743081 -0.05358414 -0.082804 0.05702678
research 0.01188794 0.09534572 -0.037048735 -0.025124764 -0.009077241 -0.12950617 0.11911141 -0.0525714 0.03755807 0.033310685 0.06246084 0.14605916 -0.15187381 -0.13940981 -0.15068166 0.027331643 0.11459336 -0.25535497 0.07658459 -0.026203431 0.04240706 0.010964698 -0.0415949 -0.14845978 -0.027778503 -0.1585334 -0.11339481 0.11434784 0.13362436 0.049037267 0.284728 -0.029346958 0.080191866 -0.07448807 -0.07044847 0.18426001 0.13071275 0.02654438 0.07933247 0.064914525 -0.063710876 6.826247e-05 0.10432643 -0.16836637 0.004907044 0.049164865 -0.18610086 -0.015903153 0.18815066 -0.0022426557 0.055065103 -0.09587823 0.18982595 -0.10162991 -0.03676611 -0.07985979 0.07664032 0.04698996 -3.9759652e-05 0.16379856 -0.10055717 -0.12938716 0.14822416 0.054576475 0.10491286 -0.026744647 0.1161348 -0.10702063 -0.06272511 0.037133288 -0.093931854 0.11477048 -0.03715478 0.048179377 0.12169834 -0.203356 0.03396456 -0.018590393 0.017812338 -0.07287555 0.013782038 0.058352683 -0.094878644 -0.14402734 -0.09746045 0.026571052 -0.03262845 -0.09865206 0.12991877 0.09964637 -0.018859448 -0.038179796 -0.053191997 0.033043593 0.08321851 -0.050014727 -0.09966079 0.060254257 -0.0860997 -0.012001995
service -0.054268032 0.18086916 -0.0518342 -0.07384821 -0.1990341 -0.22425954 0.093513526 -0.007321397 -0.08001618 -0.045879055 0.04772435 0.0570035 -0.03938528 -0.042431135 -0.0009758921 0.018018784 0.17654203 -0.07263804 0.22324939 -0.20661564 0.03792479 0.18749373 0.017441485 -0.17509009 -0.0052948487 -0.13264287 -0.053843923 0.093704395 -0.031558745 0.08694629 0.20659466 0.0122429235 -0.059886385 -0.14164506 0.02451806 0.15399991 0.13528773 0.014128906 -0.09621348 0.21088538 -0.022770055 0.047396637 -0.048989482 0.00032503487 0.09628817 0.046554584 -0.11356256 -0.051351864 0.022419032 -0.085095376 0.07100466 0.01809899 0.22126554 -0.09609928 -0.017003527 -0.029541655 0.053588416 0.05098706 -0.1614574 -0.039852984 -0.00025641534 -0.15751317 0.073743135 0.058108274 0.046294812 0.005360726 0.09482485 -0.012042428 -0.037170645 -0.013333782 -0.03541356 -0.06053321 -0.0047870283 -0.007910538 -0.0006346123 -0.09538155 0.17276837 0.04742685 -0.0154829575 0.016473696 -0.015640857 0.10259105 -0.003019612 -0.14052558 -0.25664988 0.11857798 -0.031458277 0.02383853 0.13462098 -0.026291542 0.15522839 -0.037016224 -0.039652865 -0.040192433 0.017995162 -0.1434979 -0.017889854 -0.087892644 -0.040614102 -0.14608012
part 0.036664333 0.10320237 0.068457134 0.057855546 -0.084282756 -0.16703112 0.057142314 -0.04295424 -0.025400301 -0.033046126 0.095612995 0.02594909 -0.07507246 -0.060522433 0.014377464 0.21364221 0.21018517 -0.18950738 0.13132076 -0.18740459 0.0473366 0.115381524 -0.09039112 -0.17994103 -0.04671592 -0.15560037 -0.015734103 -0.030109974 0.015412788 0.10275404 0.11708392 -0.11906757 -0.09101096 -0.11031988 -0.0036940037 0.19237997 0.12514153 -0.096331194 -0.10294171 0.071429096 -0.12753512 0.068648554 -0.022166153 -0.093698375 0.09474249 0.04722116 -0.17514281 -0.13106942 0.14760245 0.08491892 0.049238823 0.01231372 0.22140025 -0.19851625 -0.050327852 -0.08536544 0.06557332 0.034598127 0.051872373 0.030303134 -0.06391174 -0.18812712 -0.11148629 0.04438989 0.103647046 0.041854337 0.15811394 -0.049654216 -0.17441347 -0.15792091 -0.003366058 0.11742092 -0.041678187 0.01231635 0.039349128 -0.13399863 0.065841034 0.08035738 -0.0026629712 0.11406499 -0.10005925 0.0945082 0.08751902 -0.076416805 -0.12631808 0.0052980985 -0.009996548 -0.044291496 0.049643256 0.07858203 0.050544284 -0.051346824 -0.073288664 0.05369137 -0.0006877135 -0.05544075 -0.037434753 0.07999383 -0.013732231 0.013498774
number 0.06559441 0.032626048 -0.037674136 0.09183 -0.08681411 -0.12253115 0.043276712 0.0690193 0.0067074653 -0.02285636 0.13367346 0.056985468 0.08480932 0.122271076 0.01794348 0.057925086 0.17775805 -0.04225197 0.16147679 -0.16655129 0.06995982 0.012330215 0.07028987 -0.09854818 -0.14115947 -0.1664857 0.053711228 0.016548872 -0.007509704 0.01222163 0.19720142 0.07394583 0.111424215 -0.029929599 -0.05521954 0.09912906 0.079852566 0.041377403 -0.13769266 0.033953648 -0.13590823 0.0388962 0.02100389 -0.17768092 0.13261646 0.08609248 -0.21704324 -0.19551325 0.014458449 -0.07430874 0.024447396 0.018682789 0.16817316 -0.23471738 -0.010928012 -0.02722196 0.07128088 -0.018477852 0.031793598 0.07797999 0.0060628145 -0.3005064 -0.012657517 0.05132371 0.15899481 -0.15534842 0.20464517 0.01007742 -0.03428037 0.0018788208 0.024388252 0.048616864 -0.038105734 0.13395518 0.10845328 0.0084363185 0.13514662 0.11938509 -0.072390325 0.14047159 -0.13147636 -0.050348893 0.09917655 -0.13932315 -0.07800848 0.015400225 -0.013059783 -0.111771405 0.05897315 0.025196383 0.163415 -0.07366313 -0.0147710135 0.014362205 0.034077898 0.014096156 -0.011932459 -0.03581641 0.024040809 0.014747795
support 0.08090798 0.11503907 -0.0024724784 -0.010107168 -0.08262669 -0.11654686 0.021356665 0.013158991 -0.054796576 0.030086396 0.018316228 0.14221628 -0.015475586 -0.056901295 0.04214295 0.03709896 0.18406662 -0.17245112 0.16622338 -0.19588955 0.13155825 0.0910723 -0.03890227 -0.20707996 0.014836358 -0.16972674 0.032490555 0.15891717 0.10639792 0.09025726 0.20673569 -0.03534969 0.021704085 -0.15860912 0.06667615 0.09391728 0.1415505 -0.11237146 -0.024567699 0.06262777 -0.15841255 -0.019937063 0.03259742 -0.04612627 0.11873417 0.08852257 -0.14712174 -0.0053898795 0.033344146 0.09361034 0.017520115 0.105419464 0.16914 -0.022266474 -0.0678307 -0.094770454 0.10573761 0.036583252 -0.05198168 0.069327325 -0.17767839 -0.25771016 0.007609807 -0.084326096 0.045416895 0.0049433555 0.09718443 -0.0033744634 -0.11888615 -0.011736341 -0.057730228 0.032867625 0.037617788 0.022127025 -0.04861675 -0.14926839 0.09888843 0.09088791 0.017319897 0.031062238 -0.07933765 0.102023885 0.026097523 -0.17132832 -0.24853024 0.105853036 0.00074166805 -0.010144084 0.04155417 0.012249286 0.06387719 -0.05725241 0.025697513 -0.0486171 0.079147086 -0.121986575 -0.16301045 -0.01271097 -0.089375205 -0.089461744
help 0.028003346 0.15882675 -0.07429556 -0.0103031425 -0.06794834 -0.19848703 0.035470385 -0.00020328436 -0.08667794 0.06525783 0.055567767 0.1681399 0.050506122 -0.0013195474 0.017462721 0.08274263 0.15096985 -0.15228732 0.08070062 -0.22088613 0.04922801 0.12874119 0.0067572757 -0.15984483 0.04474194 -0.17535369 -0.062141187 -0.045724418 0.12594742 0.105576515 0.14871745 -0.053943925 -0.0032749006 -0.1359546 0.013984876 0.0143338675 0.115236595 -0.05136012 -0.007916173 -0.018772265 -0.11812496 0.031979796 -0.036347188 -0.15368214 0.07196421 -0.021655396 -0.22305924 -0.075917214 0.073308036 0.11265041 0.010905111 0.13462934 0.14346719 0.0061454503 -0.021060633 -0.008879763 0.124620095 0.00641988 -0.05076089 -0.088926025 -0.16889803 -0.29321584 0.07785311 0.008610763 0.011766493 0.081998184 0.12557037 0.044156294 -0.13326654 -0.032528725 -0.0047165565 -0.0141430255 0.020330694 -0.013609035 0.06533576 -0.13411829 -0.04423455 0.12795459 0.09465313 0.11376422 -0.011526328 0.066040836 -0.0554212 -0.14226945 -0.23814629 0.07253202 -0.016566772 -0.05971079 0.07946856 -0.005336971 -0.01192902 -0.16258036 -0.101883076 0.059163053 0.13452886 -0.09320173 -0.022700408 -0.08121965 -0.089833036 -0.06396824
development 0.061490055 0.12842412 0.027763812 0.086348474 0.012247373 -0.13223468 0.07264575 -0.008415452 -0.0680852 -0.016596949 -0.017616006 0.17082556 -0.16089696 -0.06069161 -0.0033288996 -0.006013097 0.12459525 -0.15341811 0.115394585 -0.13687204 0.026484003 0.09495007 -0.038259163 -0.21138681 0.033077665 -0.18008004 -0.0055438946 0.17185071 0.14334504 0.18932778 0.179355 -0.06329109 -0.04873103 -0.062032722 -0.06653941 0.13868494 0.15029584 -0.09348071 0.047819268 0.07298003 -0.05899073 -0.0018119396 0.103172615 -0.025252994 0.09239044 0.06837788 -0.14892434 -0.023449292 0.07094047 0.06560316 0.04655139 -0.044880982 0.15680437 -0.10385781 -0.050973188 -0.1272139 0.082607634 -0.028268596 0.063538894 0.06632039 -0.07537834 -0.06060344 0.112127654 0.083368815 0.12968622 -0.0065029855 0.1490002 -0.03388134 -0.13940863 -0.10903428 -0.17501996 0.13915399 0.060365587 -0.004449219 -0.050010942 -0.1710836 0.1012162 -0.026864475 -0.005634255 0.07834111 -0.09523093 0.114931956 -0.056196902 -0.17849366 -0.23594907 0.055967785 0.011259261 0.026989557 0.16168746 0.06129502 -0.032187324 -0.051784493 -0.10827773 0.041463666 -0.017863864 -0.05691301 -0.11822935 0.013907224 -0.11636644 -0.018410517
group 0.066830024 0.08648706 -0.14726418 0.029718725 -0.08621764 -0.07803198 0.03923454 0.024437327 -0.06849732 -0.04421767 0.13619795 0.05011786 0.033978425 -0.15480621 -0.024343178 -0.05145582 0.11584382 -0.13246651 0.17222351 -0.18904285 0.030601459 0.10796682 -0.041215874 -0.14525202 -0.023994977 -0.06618215 0.036275435 0.1715081 0.005220294 0.0489363 0.2431813 0.0054323375 0.0065157027 -0.041306797 0.019704957 0.08317549 -0.029657122 -0.05661911 -0.083877794 0.18120073 -0.094338834 0.060788926 0.06946689 -0.10151651 0.050537102 0.17396598 -0.30546883 -0.11452911 0.1070334 0.027293218 0.005640001 -0.0030690234 0.08683426 -0.07840186 -0.06384048 -0.14710768 0.06831243 -0.09406146 0.11434285 0.12969296 -0.18131062 -0.18829401 -0.049480733 0.020649364 0.07917779 -0.005215997 0.17220457 -0.020756664 -0.12043391 -0.046070177 0.0073205326 0.13672602 -0.037716106 0.05734859 0.090820335 -0.09234927 0.052786604 0.117089316 0.040159214 0.04549497 -0.19820164 0.11962236 0.0066157724 -0.14617367 -0.112469845 -0.069904655 -0.012311962 -0.09246183 -0.03128171 0.050210126 0.11419498 0.005836863 -0.075245574 0.053668056 0.034332782 -0.06251656 -0.13636684 -0.10881451 -0.04804892 -0.02955474
business -0.066094846 0.11738452 -0.01584367 -0.004760335 0.045449723 -0.21257804 0.11877139 -0.022644406 -0.06735621 -0.13216446 0.15539488 0.17147507 0.058837168 -0.13681577 0.06914981 0.017734854 0.16734695 0.06793035 0.24687426 -0.05751019 -0.018531429 0.18854292 0.014892714 -0.21314003 -0.0063167177 -0.16023773 -0.081083894 -0.061586473 -0.0032378898 0.08379504 0.16769686 0.045468103 0.034897998 -0.0017129304 -0.07791153 0.22950453 0.098993234 -0.053070236 -0.020676447 0.1323427 -0.0030777622 0.057847995 0.05932576 -0.12962915 0.100822374 0.07642216 -0.063303895 -0.11093203 -0.015949529 -0.045693774 -0.0064901337 0.01617951 0.18020087 -0.11256697 -0.041207757 -0.1073339 0.13564815 -0.07159799 0.009411576 0.044527464 -0.05290858 -0.13474293 0.12032928 0.13369025 0.07099955 0.07580379 0.1318139 0.0068705133 -0.053828463 -0.074391626 -0.058077842 0.08700675 0.014079829 -0.035144776 -0.031964365 0.013408793 0.014335714 0.07149622 0.10990436 0.03425786 -0.02512026 0.11655826 -0.111132614 -0.010095738 -0.21257383 0.14863992 -0.1059285 0.056481875 0.21531017 -0.0065013627 0.054889854 -0.026411349 -0.17419502 0.019936861 0.041056905 -0.054989323 -0.0020617265 -0.03365577 -0.10696075 -0.058543194
home -0.029553667 0.26172194 0.020751577 0.044263665 -0.13914736 -0.21711595 -0.00038200998 -0.0014896826 0.0014509076 0.029586265 -0.007301371 0.079859 0.08254386 -0.029697366 -0.043098077 0.22950757 0.07996941 -0.08409677 0.13880983 -0.26467153 0.14122587 0.24729727 -0.10143471 -0.1425033 -0.12404843 -0.12763174 -0.14616361 -0.030103337 0.07450811 0.11508401 0.12713045 0.058652457 0.007152211 0.034174003 -0.017813839 0.039648946 0.070327476 -0.061255503 -0.09507363 -0.050278112 -0.049218416 0.0006684819 -0.039986864 -0.13763712 0.10192356 0.026551783 -0.14621682 -0.06696757 -0.004347067 -0.036041632 0.03451948 -0.02805663 0.27734938 -0.06726418 0.05936511 -0.08750873 0.033212774 -0.00445374 -0.07148187 0.008516148 -0.11961309 -0.15747023 0.1429601 0.055274002 0.0069650635 0.10663777 0.10218712 0.055301376 -0.110853955 -0.077169776 0.05088064 -0.057423744 -0.052014034 0.006703037 0.06871866 0.033171214 0.086258374 0.0059208544 0.13529404 0.027906245 -0.055604488 0.12012834 0.15508007 -0.09214438 -0.045332592 0.089543775 0.03189291 -0.028060047 0.15729408 -0.07513331 0.056955807 -0.045804624 -0.08931912 0.05713696 0.15423867 -0.07577239 -0.016399201 -0.08960682 -0.029890105 -0.07368202
set 0.021750253 0.042325575 0.06695948 0.13443506 -0.05932686 -0.17256236 0.00017335889 -0.005222197 0.015451155 -0.0737106 0.0024056344 -0.0095069455 0.0078804605 0.029888514 0.052712303 0.106514454 0.25657406 -0.19394562 0.21254626 -0.15628494 0.13054153 0.077570535 -0.043239202 -0.14702025 -0.13171467 -0.15258566 0.03540331 0.010196541 0.010215663 0.10720717 -0.03688744 0.070416115 -0.07386179 -0.004982934 0.00888192 0.055240683 0.117244735 -0.02991697 -0.11594554 -0.016507445 -0.07076387 0.051645614 -0.006013777 -0.12858075 0.17003028 -0.052180853 -0.18386036 -0.13876884 -0.047645666 0.0900924 0.07174976 -0.0023664976 0.27057517 -0.14426686 -0.102622196 -0.06726565 0.06051392 -0.103459 -0.013890404 -0.016090749 -0.11246442 -0.25611004 -0.026850209 0.06109754 0.08199061 -0.029430816 0.09344296 -0.026506515 -0.20303261 -0.057393968 0.002274111 0.13909587 0.014261976 0.015684688 0.04709483 -0.027105346 0.06901586 0.10801966 -0.1600237 0.10416447 -0.18127418 0.027366132 0.073757246 -0.08517893 -0.09039817 0.08933349 0.052288413 -0.079875745 0.11805178 0.08789813 0.14905353 0.055071387 0.029420627 0.05204239 0.03222397 0.030008644 -0.0952297 -0.050089296 0.00869192 0.025316233
health -0.10972595 0.21364333 0.08327264 -0.02407992 -0.10752866 -0.26926398 -0.007142767 -0.042596553 -0.19897927 0.039301675 0.011402778 0.063795954 -0.076268904 -0.092582926 0.005499547 0.005226757 0.0041187136 -0.14202152 0.0009840648 -0.14498486 0.06944158 0.15238833 -0.10087405 -0.20730898 0.09659976 -0.12349126 -0.18245442 0.042084925 0.09518323 0.093622 0.14817257 -0.017468266 0.096117266 -0.008561441 0.02306538 0.14809291 0.028826727 -0.05094758 -0.017358476 0.07150367 -0.03733195 -0.0111361155 0.024909746 -0.05134252 0.022134403 -0.052857127 -0.24397421 -0.083260044 0.1123154 0.008303823 0.08615174 -0.00763578 0.15674002 -0.07668162 0.005888483 -0.1411172 0.1216811 -0.0027391661 -0.0060784835 0.13832627 0.011761968 -0.06121937 0.1434 0.025231762 -0.029295119 -0.07290738 0.23096459 -0.096131295 0.118120395 0.021208422 0.049052346 -0.0405543 -0.06548448 0.054373525 0.0975641 -0.12889507 0.09494967 0.09387985 -0.03337318 -0.01711144 -0.046874452 0.022122733 -0.09865572 -0.1863701 -0.117482156 0.05549418 0.0825458 -0.04047959 0.18390615 0.115175925 -0.020501621 -0.0001480199 -0.02285166 0.097287446 0.06959356 -0.13623935 -0.043917116 -0.13472903 -0.09244963 -0.018826766
life 0.05763183 0.18921596 0.011244777 -0.06681607 -0.062184673 -0.1949759 0.13917017 -0.0031080071 -0.08638763 -0.025093777 -0.076111294 0.02335794 -0.06796379 -0.033971358 0.01107503 0.14707096 0.11473105 -0.13068584 0.015545853 -0.15519658 0.060788922 0.16372089 -0.07960152 -0.2651018 0.03842022 -0.111368835 -0.101595774 -0.059982114 0.1286671 0.10872548 0.06917307 -0.040592227 0.023415102 0.050616708 -0.12066056 0.21434359 0.08207482 -0.016292246 -0.05047901 -0.021524716 -0.06983796 0.054354805 -0.09413824 -0.11783309 0.08093793 -0.123107634 -0.2792599 -0.17011671 0.22199982 0.014670329 0.0060901395 0.14442702 0.15070191 -0.015744297 -0.020528853 0.056028206 0.016762068 0.041607834 -0.031213528 -0.014461134 -0.12691957 -0.19067657 0.049265914 0.0036451581 0.028577674 0.0025622468 0.16681907 -0.016508965 -0.2162444 -0.036240764 0.13227677 0.01894939 0.06313764 -0.002711507 0.079003096 -0.09389034 0.03973679 0.09156474 0.09850938 0.02561231 -0.016039426 0.05323507 0.0692352 0.032568216 -0.07471153 0.044124153 -0.097159356 0.104781285 0.07700349 0.11058495 -0.027684486 -0.06186016 -0.10785773 0.12391454 0.07383991 -0.005056516 -0.0085085705 -0.10622184 0.015670372 0.054592736
public -0.073376164 0.09717193 0.006832232 0.021059033 -0.18390258 -0.21713851 0.023854274 -0.06402499 -0.12366314 -0.08759363 -0.03788789 0.10831516 0.016146244 0.005146604 0.11858897 -0.038544755 0.052007396 -0.047115747 0.124133 -0.09811726 0.12697029 0.03482877 -0.09556549 -0.22873959 0.0026508449 -0.17801957 -0.031316075 0.02870001 0.09143801 0.012081197 0.08529537 0.104091905 -0.09570911 -0.009512926 -0.039239902 0.16248716 0.24690972 -0.03555078 -0.03846014 0.16036561 -0.07166908 -0.049640562 0.057732057 -0.10342261 0.17493065 0.052647296 -0.32975852 -0.16616471 0.14139418 -0.01842536 -0.0064741946 -0.07476503 0.2696978 -0.11004422 -0.026135676 -0.04827488 0.10796183 -0.08643024 0.034983 0.00638655 0.07423194 -0.11471353 0.009260455 0.13899699 0.033929877 0.041168634 0.10937106 -0.06701586 0.011038947 0.11704844 -0.059298005 0.097958796 0.06813114 0.045757018 0.0917981 -0.0006384871 0.13370396 0.05863488 -0.067543834 -0.06435838 -0.074528016 -0.07891213 0.0076714945 -0.053620864 -0.04004668 0.05330011 0.073733024 -0.11812244 0.114314 0.0150654325 0.08863518 0.09354821 -4.2248496e-07 0.10543244 -0.048833013 -0.10748055 0.042370614 -0.02905029 -0.013318566 -0.0144974
place 0.061908513 0.118087776 0.009309268 0.09805547 -0.052765004 -0.16926037 -0.019526938 -0.002952695 -0.08857277 -0.026756246 0.088807054 -0.03435735 0.0075297793 0.015869789 -0.017595576 0.18773898 0.12624943 -0.21310093 0.09223154 -0.24226348 0.08927774 0.12918851 -0.0904732 -0.19721137 -0.13427894 -0.1133975 -0.014219107 -0.1201947 0.03877177 0.20956928 0.05281008 0.041489173 -0.10283448 -0.011148479 -0.03561926 0.19134872 0.0957435 0.010368925 -0.071206264 0.08409374 -0.059719473 -0.07413875 -0.025856096 -0.13570513 0.20813939 -0.016193632 -0.22740324 -0.22606672 -0.004120445 -0.026428552 0.014392596 -0.036600605 0.21113276 -0.16998674 -0.042961627 -0.076317616 0.06962353 -0.070634626 0.017327422 0.013741658 -0.0014261553 -0.16408564 -0.089469716 0.011552057 0.09655321 0.015243383 0.12744091 0.031217914 -0.18037091 -0.014594962 -0.030879874 0.07238521 -0.07482811 0.006928776 0.11579164 -0.11621208 0.053543 0.0644117 0.08859745 0.11940789 -0.073257856 0.081956156 -0.003942609 0.039064273 -0.16128185 0.13144459 0.01867652 -0.04033137 0.017852558 0.06641826 0.121672295 -0.027086811 0.025202192 0.04381653 0.049393743 0.030190043 0.017635826 -0.006685982 0.054893646 -0.04770556
site -0.069036014 0.15675338 -0.09761104 0.07397611 -0.09287329 -0.14140314 0.025358986 -0.016716035 -0.005467497 0.007078985 0.07166342 0.055817455 -0.09279525 -0.04100605 -0.0609287 0.10645634 -0.05293327 -0.18107274 0.1689522 -0.21692686 0.024226736 0.021880707 -0.029219972 -0.24504273 -0.046977807 -0.17261232 -0.12022712 -0.068973064 -0.0077172318 0.13845894 0.26292896 -0.0058474476 -0.12137759 -0.12888165 0.003621476 -0.034081742 0.07012333 -0.10735066 -0.07947899 0.06580987 -0.0702696 0.04923228 0.111180395 -0.11105482 0.146352 0.06934426 -0.11687297 -0.15026945 0.04138088 -0.05649476 0.071395054 -0.04258363 0.023457589 -0.044358943 0.11517948 -0.0976237 0.0685386 0.10154381 0.037403163 -0.057836045 -0.12257394 -0.15495497 -0.07788802 0.14491448 0.011498364 0.08911682 0.17704281 0.039748248 -0.13845928 -0.15514353 -0.05151424 0.06655811 0.05753482 0.07878643 0.09776688 -0.02409062 0.057449747 -0.030793855 0.06063063 0.06775407 0.07352968 0.020773718 0.1126707 -0.19149445 -0.06312384 0.1346067 -0.0026684925 -0.13107139 0.17995663 -0.0026669537 0.07560986 -0.055524353 -0.03827355 -0.035801753 -0.07240269 -0.008681394 -0.0013566399 0.10904037 0.105665885 -0.110764824
best -0.017442254 0.13628553 -0.023946786 0.061067026 0.024856584 -0.20393465 0.043035895 -0.051028937 -0.00087201525 -0.012287782 0.049729966 0.07471334 0.0879627 -0.10166982 0.0011297791 0.17751352 0.046768513 -0.12103521 0.13636826 -0.14164476 0.02220849 0.0899552 -0.05754902 -0.17363067 -0.060398784 -0.1461646 -0.025800368 0.004204727 -0.06904058 0.26848263 0.08118959 -0.031446762 -0.090784006 -0.019156309 -0.05185201 0.10100335 0.08267693 -0.08130911 -0.044133846 0.045006912 -0.02805637 0.03039128 -0.028260168 -0.16314232 0.17439027 -0.0111610275 -0.2973795 -0.083333254 -0.004166353 -0.09500024 0.057838157 0.0940377 0.16130762 -0.065595165 -0.10511261 0.023066016 0.1999063 -0.08548907 -0.10786566 -0.10305675 -0.26201177 -0.24624717 0.102176175 0.020416146 0.031364642 -0.09098577 0.05517789 -0.062484134 -0.15386862 -0.18992308 0.06942393 -0.0070935404 -0.063061036 -0.08627054 0.032503083 -0.0963077 -0.032372165 0.020729601 -0.042805705 0.06297093 -0.09564352 0.018263567 -0.025611306 -0.09996876 -0.039535426 0.13450207 -0.08638904 0.033705413 0.07025942 0.06650083 0.08816003 -0.09902994 0.0073217694 0.04816033 0.0747719 0.004788213 0.013962672 -0.013363785 0.01408342 -0.06478351
school 0.16168143 0.1944274 -0.025733579 0.01148319 -0.012191895 -0.2148062 0.017513938 -0.07849554 0.059245 -0.040668134 0.053626988 0.16339016 0.051249072 -0.12263465 -0.011245054 0.111785114 0.09709933 -0.14577565 0.1091812 -0.23264991 -0.04972781 0.1165087 -0.035086177 -0.14687227 -0.06141469 -0.14401414 -0.108113244 0.019151794 0.23332231 0.08934886 0.23096219 0.074807376 0.0050115073 -0.028916176 -0.050493084 0.1300383 0.089410596 -0.054453027 0.11084864 0.013685737 -0.02035992 0.021383995 -0.032301437 -0.18616796 0.10544512 0.071829796 -0.18973412 -0.12927486 0.06158099 0.00816498 0.0037034154 -0.03361729 0.10409391 -0.14112625 0.02840842 -0.18462567 -0.046947267 0.04181385 -0.058276147 0.04311528 0.027197884 0.021723142 -0.12072073 -0.022960475 -0.049338978 -0.009807214 0.16740966 -0.015597979 0.009687828 -0.117348626 0.09829508 0.069012545 -0.11148462 0.018461145 -0.08283774 -0.10948626 0.18650857 0.06985268 0.04059521 0.014782287 -0.046807673 0.16426791 -0.06653372 -0.018373542 -0.1700701 -0.017400963 -0.058564477 -0.04254324 -0.073085144 0.14160846 -0.10007869 -0.011146879 0.06273555 0.06466782 0.057284765 -0.12760298 -0.067692295 -0.07738728 -0.013104504 0.062337946
course 0.06623691 0.02437206 -0.04957111 0.11144087 -0.039740253 -0.16760072 0.14649442 -0.03362537 0.0128251435 -0.029691597 0.12835263 0.086353526 -0.012707085 -0.07281451 -0.0796932 0.12668584 0.23863164 -0.15385883 0.06640786 -0.1290627 -0.03434188 -0.016709004 -0.030663803 -0.20126702 -0.022113489 -0.13782103 -0.036915842 -0.073756136 0.12400349 0.19295454 0.12534356 -0.14194442 -0.04953844 -0.13624394 -0.06747065 0.111276865 0.03806027 -0.041180957 0.07563571 0.11295761 -0.10630937 -0.08098905 -0.0825153 -0.17234279 0.02274524 0.040911455 -0.085349075 -0.061501697 0.11828066 0.011512004 -0.013005562 -0.08371751 0.2400036 -0.12072814 -0.064887464 -0.13751157 0.03534402 -0.061590508 -0.11462014 0.10837637 -0.07919076 -0.088573985 -0.07005522 0.001417388 0.09302849 0.034990422 0.12233276 0.010381395 -0.052490383 -0.08890262 0.015058709 -0.08030458 0.0002670592 -0.03732855 -0.10666757 -0.15052551 0.040829677 0.12041839 0.10154662 0.15281583 -0.07477074 0.10503198 -0.09778424 -0.051007368 -0.0922632 0.16969119 -0.110775165 -0.076735124 0.03334721 0.1632931 0.11676463 -0.08480206 -0.0058089662 -0.048926666 0.03508727 0.048566874 -0.1049676 -0.038430925 0.10294585 0.18282914
area 0.03184559 0.120176695 -0.0018326922 0.10867115 -0.08386625 -0.113753535 0.060423203 -0.007866281 -0.040346716 0.044947125 0.0063784802 0.09241057 -0.07488157 0.037016913 0.019627295 0.111198425 0.006328385 -0.13676758 0.16228348 -0.30512133 0.13287932 0.17967689 -0.033466876 -0.15190277 0.0015031073 -0.16002186 -0.098519735 0.013743778 0.091175884 0.1269959 0.25654775 -0.06945544 -0.15946229 -0.049344737 0.042049054 0.15656695 0.0664742 0.047805507 -0.107275814 0.0037580058 -0.020939967 -0.048558634 0.05503776 -0.10247933 0.08763916 0.057275347 -0.23566209 -0.02829926 -0.0018959083 -0.07015649 -0.029086154 -0.09582984 0.16050336 -0.15040976 -0.068480484 -0.13873048 0.011460895 -0.084163435 0.060549375 0.050115537 -0.048640355 -0.15230612 -0.022043144 0.14501512 0.15116315 -0.029713403 0.15279469 -0.029395819 -0.11750227 -0.08466288 -0.124949366 0.12330876 -0.1048263 0.074138 -0.028083567 -0.06414232 0.023258928 0.05253406 0.08011641 0.17855774 -0.09142448 0.06370685 -0.00540906 -0.14797063 -0.11334667 0.01374865 0.042644113 -0.045596495 0.0762336 0.12565489 0.024348006 0.0034537225 0.051226918 0.034028877 -0.09605022 -0.08224815 -0.008914338 -0.022924334 0.027636899 -0.11443414
system 0.012552387 0.13678834 0.0071165673 0.1024624 -0.16857834 -0.034277353 -0.0066313865 -0.025022095 0.0030094495 0.108660504 0.09636406 0.19650249 -0.0504455 0.0050291424 0.11420651 -0.08554422 0.20321432 -0.11643395 0.15457536 -0.20143886 0.1497964 0.04236184 0.014370755 -0.08131687 -0.04449465 -0.11123579 0.04563928 0.053075034 0.023008337 0.047692206 0.11826489 -0.13657726 -0.033626735 -0.06946905 0.062326316 0.11885377 0.22623502 -0.052120954 -0.050683897 0.03140807 0.07543521 0.049396265 -0.13168292 -0.09008579 0.16322069 0.07369212 -0.056017116 0.054817446 0.12215468 0.045481842 0.077476025 -0.016188925 0.24460237 -0.013109513 -0.07541689 0.069106065 0.10177262 0.09537027 -0.036395494 0.141913 0.031451117 -0.31981832 0.019324858 0.03368657 0.043466628 -0.086996466 0.09218462 -0.033483677 -0.16156232 -0.063880704 -0.08326286 0.11941759 0.023012524 0.08336554 -0.04860357 -0.12563516 0.056433033 -0.015862433 -0.027117448 0.12478346 -0.05971097 0.045906704 -0.028110078 -0.13927749 -0.09355343 0.09825676 -0.016174307 0.03724171 0.19834496 0.037290603 0.1497033 -0.047402654 -0.047346443 -0.024017993 0.012392001 0.018590724 -0.16994919 0.00047936593 -0.024833195 -0.0035164286
top -0.027619123 0.15654746 0.021912973 0.2262481 -0.050508987 -0.101129726 -0.041339215 0.041841824 0.071851365 -0.118270494 0.07437081 -0.058027036 0.011455706 -0.11917342 0.06595171 0.16978566 0.15243976 -0.20145315 0.071182206 -0.14956728 0.023828112 0.10738918 -0.11433831 -0.11706884 -0.17931819 -0.09766157 -0.0073092245 -0.14938639 -0.026229335 0.08285822 0.19176684 0.0083419075 0.029850146 -0.022580167 0.08796242 0.011313436 0.15196793 -0.029247105 -0.009060553 -0.050178148 -0.050500985 -0.046553984 0.08471563 -0.17313786 0.065320216 0.0763195 -0.23857854 -0.19919994 -0.06613146 -0.014303714 0.13997266 -0.060568813 0.19241436 -0.06080629 0.0225245 -0.12519442 0.1039952 -0.1345437 0.071034566 -0.026775902 -0.12923157 -0.2233059 0.053606857 0.109141484 0.02553338 -0.028048702 0.11667205 0.05121405 -0.023960344 -0.06393938 -0.017958848 -0.04903945 -0.050638884 -0.10138782 0.12036023 -0.08106436 -0.09009119 0.057210494 0.0013582386 0.14145815 -0.053092055 0.12544848 0.03079675 -0.1528867 -0.048403725 0.06524934 -0.051638976 -0.022621157 0.12033461 0.033577953 0.16364709 -0.10360944 0.049286306 0.004070986 0.06170831 -0.042731084 -0.036927704 0.016149236 0.005206576 -0.04046375
company -0.07651212 0.11297694 -0.0128608 0.01838571 0.0144650275 -0.09495195 0.06942027 0.015570339 -0.06652357 -0.19310603 0.17456311 0.14321543 0.010807802 -0.16478777 0.037734177 0.0806302 0.1980414 0.08602189 0.258924 -0.02685404 0.020750687 0.07682865 0.034615163 -0.21729486 -0.08308396 -0.072376385 -0.038485516 -0.10218334 -0.06972331 0.13438947 0.12539853 0.0016702944 0.055947635 -0.0015548142 -0.035472546 0.15676075 0.05228007 -0.04350366 -0.166817 0.1562955 -0.062167533 0.18332377 0.008816495 -0.14318283 0.20481189 0.13146663 -0.056407347 -0.08442691 0.062477157 -0.08292934 0.03639999 0.054261584 0.19349197 -0.070233196 -0.050283115 -0.076052286 0.058364652 0.0027646557 -0.014195537 0.03983046 -0.04270469 -0.04755325 -0.024569364 0.094508894 -0.0065939017 0.13699357 0.13169566 -0.029131342 -0.088174 -0.059461057 -0.02076206 0.04568996 0.019450333 0.0011809339 -0.046835385 -0.0765149 0.02890502 0.069337025 -0.041772015 0.06106414 0.009570847 0.01831598 -0.06391919 -0.11857561 -0.19846033 0.037405126 -0.08878615 0.072407916 0.123206936 -0.07489553 0.18385242 -0.015490442 -0.22672461 0.08564667 0.042504758 -0.055947203 -0.033024948 0.0988177 -0.14069031 -0.12976335
government -0.08039122 0.19532475 0.12542558 0.07102035 -0.11082702 -0.18600112 -0.04443089 -0.09909781 -0.106611334 -0.03212758 -0.0033009741 0.10593792 -0.054295108 -0.0508895 0.06744509 0.04866299 0.10632056 -0.04220073 0.16500796 -0.038141254 0.06851183 0.06376542 -0.021514911 -0.23551886 0.075376764 -0.12915616 0.010036479 0.039970867 0.17454332 0.114038914 0.17149049 0.12101009 -0.02445375 -0.023167739 0.042430434 0.22171631 0.14264308 -0.07016992 -0.08019374 0.07290294 -0.025120968 -0.05324646 -0.0038258566 -0.02933122 0.19998644 0.09032853 -0.09972536 -0.029624555 0.13434254 0.09455969 0.009062729 -0.03290484 0.16028728 -0.17305386 -0.07249301 -0.15707232 0.10038874 0.071522124 0.015981052 0.06640971 -0.055144913 -0.24938989 0.07222255 0.14811163 -0.020912759 0.024272963 0.22910511 -0.059855007 -0.03584971 0.11375778 -0.00343845 0.01669034 -0.008559338 -0.06735344 -0.10957252 -0.10148322 -0.018744146 0.011135675 -0.022571817 -0.15395442 -0.018418925 0.040392913 0.018017711 0.078598574 -0.08369006 -0.04283358 0.05167805 -0.022227416 0.032643363 -0.0694468 0.009042437 -0.09439842 -0.08753784 0.117377244 0.022977352 -0.07425263 -0.054021813 -0.16183129 -0.15254739 0.07053629
project 0.018582353 0.10961604 0.068336904 -0.04179854 -0.013119416 -0.15287688 0.12004581 0.048100244 0.09574851 0.017557627 -0.029748615 0.1434157 -0.08691315 -0.08206928 -0.0905018 0.11780475 0.1921327 -0.20353794 0.1820668 -0.06809224 0.027596762 0.04247992 0.019793449 -0.15262324 -0.0035897903 -0.1372034 0.018911693 0.14126752 0.16663927 0.1278238 0.20712443 -0.08098789 -0.01875231 -0.07789146 -0.05431637 0.13824391 0.111632526 -0.06331696 0.046459466 0.096303485 -0.012886738 0.082648665 0.19023733 -0.03279461 0.118367545 0.083668865 -0.1851106 0.053228896 0.051151086 0.11138989 0.010990928 0.045443628 0.10716336 -0.085313976 -0.014374772 -0.07504573 0.04751292 -0.045023907 0.007088302 0.05340297 -0.13744555 -0.15228985 -0.05092801 0.023061382 0.122618236 0.005397322 0.14019294 0.016985176 -0.17976268 -0.08755847 -0.11382176 0.11146209 0.014445777 0.039808284 0.04960606 -0.14006568 0.08064167 0.022622995 0.06414281 -0.044281878 -0.06909177 0.14614196 -0.059901595 -0.16900073 -0.1761634 0.082748145 0.08270413 -0.07936609 0.14288008 0.09698372 -0.015138966 -0.1239432 -0.08920217 0.081092425 -0.04310789 -0.09299608 -0.118976176 0.096160494 -0.06053368 -0.038168337
members 0.14456183 0.15374945 -0.05578553 0.08675602 0.025221325 -0.06508989 0.015409894 0.06112464 -0.04651267 -0.11826085 0.13216032 -0.014308778 -0.03644006 -0.18476662 -0.032221615 -0.0035191406 0.08822219 -0.01729902 0.16282584 -0.121425025 -0.064860426 0.060236774 -0.21211098 -0.1648318 0.015378543 -0.12481379 0.04904483 0.03553243 -0.032074623 -0.08726344 0.19510294 0.093043566 -0.034594655 0.035166882 0.039996292 0.037384655 0.103068665 -0.055284988 -0.06062729 0.23484975 -0.076267205 0.0762704 0.033597514 -0.07009014 0.047840428 0.19990058 -0.21894056 -0.13444315 -0.013763129 -0.12924878 0.08463996 -0.057465956 0.108348615 0.060280386 -0.028902471 -0.054815035 0.026303254 0.029872298 0.109692045 0.15377292 -0.18858857 -0.111651465 0.03379503 0.0934179 -0.08327701 -0.0020317633 0.13351195 -0.02579869 0.16460545 -0.012870247 -0.026007006 -0.11377663 -0.07131196 -0.01972413 0.077473246 0.0775359 -0.12600277 0.11324959 0.044933744 -0.083588384 -0.21003613 0.11524707 -0.03134276 -0.12602887 -0.08229975 0.00922632 0.009472237 -0.11157134 -0.121530876 -0.044670887 0.15883596 0.023651114 -0.06837247 0.07023 -0.07829015 -0.021808434 -0.09589854 -0.13447519 0.09294609 0.077411674
think 0.056760773 0.1388902 -0.031750593 0.08164054 -0.04254994 -0.18816693 0.015914679 -0.031182978 -0.11091424 0.018785277 0.08410168 0.17907985 0.029455334 -0.002629111 -0.051017594 0.06082178 0.027882593 -0.12788504 0.06775051 -0.11980923 0.038333964 0.064786494 -0.14713316 -0.24163696 -0.09079512 -0.2699049 0.021323003 -0.14516468 0.04493989 0.18835601 -0.011405395 -0.058627866 -0.0724502 -0.010788956 -0.040339332 0.107236475 0.10605876 -0.059108946 -0.018169824 0.09745856 0.0039756675 0.0047023776 -0.015797645 -0.18746565 0.09819565 -0.029030781 -0.21347801 -0.07167113 0.08171259 0.08282527 0.04145113 0.028743409 0.012859611 -0.008315127 -0.14793307 0.015570122 0.09211875 -0.008635945 -0.11706241 -0.12172627 -0.078680106 -0.3262671 -0.07949861 0.0026169491 0.056177855 0.03701919 0.19227041 0.048327666 -0.15507048 -0.08870984 0.10334752 -0.0059748446 -0.09125448 -0.1009435 0.16127363 -0.0698925 -0.078415215 0.053367384 0.07553725 0.048039056 -0.008265458 -0.061290257 0.0802594 -0.01712396 -0.014972467 0.010281756 -0.11082048 0.08580643 -0.09842229 0.065953895 -0.030074563 -0.13469394 -0.019447887 0.09874839 0.1444696 0.06588964 -0.12272689 -0.06631066 0.0158145 0.034637295
end 0.07601296 0.07116008 0.058262404 0.15119268 0.005062723 -0.113353364 -0.018747693 0.033991456 0.062069744 -0.09114178 -0.017812524 -0.0063857283 -0.014171067 0.13689603 -0.012473282 0.13982525 0.18932512 -0.110818215 0.11916132 -0.09568676 0.17530233 0.11867932 -0.10927282 -0.13824378 -0.16982123 -0.11705674 0.0142209 -0.11454985 -0.027652133 0.18878168 -0.064367965 0.04654548 -0.017893812 -0.022450097 -0.032266118 0.10076098 0.12947816 -0.10997502 -0.106378786 0.049289744 -0.16747533 0.008283093 -0.008102823 -0.10711758 0.12763704 -0.0062942076 -0.11182144 -0.16126205 0.067582 0.03629305 0.061619546 0.0069898074 0.18496609 -0.21630423 -0.0700225 -0.13540855 0.009330085 -0.14520092 0.023183571 -0.060752966 0.04369526 -0.17872375 -0.13735504 0.015018784 0.09412898 0.007790382 0.21599077 0.059465308 -0.18904299 -0.05109828 -0.0039146338 0.11478779 0.006998877 -0.08643438 0.11530783 -0.12060915 0.028533049 0.13282657 0.0070135337 0.10632744 -0.052894663 0.11884863 0.12298005 -0.043839816 -0.060728937 0.03375715 0.0044058366 -0.053467758 0.042367976 0.07946568 0.17586283 -0.1297782 0.014586934 0.09458584 0.1226003 -0.021915624 -0.034376156 -0.0825095 -0.0065947054 0.062605806
high 0.09247105 0.17281583 -0.009815931 0.2503762 -0.006636689 0.03137033 -0.046721492 0.04949941 -0.00036872987 0.013065524 0.052274726 0.008886891 -0.09496101 0.034970812 0.17781235 0.091009356 0.08274935 -0.17549023 0.06063945 -0.22829434 0.16922955 0.08682197 0.017689537 -0.087344244 -0.04874781 -0.07632471 -0.089815125 -0.044548023 -0.03408488 0.080192894 0.15566203 -0.02681415 -0.0067959083 -0.023716366 0.026232246 0.22835416 0.01351309 0.06367432 -0.0638953 0.010715016 -0.105006345 0.05269317 -0.08011617 -0.20338482 0.17985426 0.047737848 -0.24883643 -0.094734594 -0.06441604 -0.01936539 0.07039467 -0.012293674 0.12725827 -0.12594652 -0.083922036 -0.022485107 0.08246509 -0.091566496 -0.058855027 0.020127708 -0.038903028 -0.21538395 0.11083508 -0.033814102 0.058697626 -0.0991898 0.061890356 -0.12179492 -0.10376285 -0.18279663 -0.11758503 0.06520234 -0.056292932 -0.04324239 -0.08176831 -0.14862213 0.069492266 0.0016737431 0.0027077694 0.07514071 0.03938796 -0.049937367 0.06937209 -0.16716534 -0.094171084 0.078287944 -0.13190675 0.031007964 0.13307703 0.18652652 0.08348043 -0.0347607 -0.04816264 0.03929573 0.058657985 -0.09512254 0.017924301 0.023155838 -0.053086437 -0.060672313
order -0.0018611895 0.10023514 0.057634328 0.087740086 -0.16468567 -0.1861876 -0.08886305 -0.025314024 -0.032473974 -0.011544898 0.17746492 -0.001151246 -0.05364134 0.013995596 0.012571381 0.09178853 0.19196627 -0.07714249 0.14657868 -0.03553249 0.008333073 0.10286067 -0.040248547 -0.17239463 -0.08085965 -0.02432012 0.014573381 -0.037038427 0.024167772 0.047527377 -0.05534645 0.07602221 -0.042949792 -0.055399824 -0.00670922 0.091960505 0.14851236 0.06929527 -0.06493216 0.046259608 -0.16302352 -0.07084748 -0.064610735 -0.075284824 0.17449239 -0.031080283 -0.08824139 -0.23334996 0.033257984 -0.00950502 0.04467742 0.116539314 0.33193496 -0.1619068 -0.00444955 -0.024192601 0.10167986 0.2277833 -0.06714588 0.02214171 -0.015588374 -0.3110112 0.0071182074 0.13357402 0.09667185 -0.0071011153 0.08027276 -0.05673673 -0.044912912 -0.03823804 -0.0012291028 0.056914844 -0.00043452927 0.02595668 0.0014569483 -0.05738898 0.13450453 0.036304697 0.040805783 0.14228615 -0.13910374 -0.013718728 0.072892524 -0.117285416 -0.11874825 -0.03048076 -0.046144884 -0.06698181 -0.009065216 -0.0009167501 0.18267892 -0.122737475 -0.16373691 -0.01961588 -0.0016859847 0.04874682 -0.06688349 0.02949145 0.021868136 -0.059246767
contact 0.08023003 0.24581009 -0.105928265 0.08026524 -0.09295188 -0.12602377 -0.002742299 -0.09971566 -0.1032019 -0.07930158 0.056886464 0.17048745 -0.035159793 -0.05999798 -0.12561566 0.06851942 0.13384901 -0.13272797 0.0861135 0.022522818 -0.16396385 0.11148826 -0.049248252 -0.17419583 -0.08862019 -0.1344404 -0.086128905 0.03918529 0.103296295 0.08767429 0.17440474 0.025104813 0.15356529 -0.08050864 -0.0531465 -0.07665875 0.086219855 0.02163401 0.04428294 0.15186283 -0.15256949 -0.111264974 -0.012829462 -0.05573929 0.11018349 0.08079756 -0.17183046 -0.10018075 -0.03122187 -0.09236969 -0.04942543 -0.019952629 0.15011987 -0.02436681 0.13249819 -0.08499254 0.027664874 0.05276208 -0.015433342 0.0016100152 -0.03404065 -0.19395636 -0.086100265 -0.0012733099 0.07252122 0.06386189 0.060723733 0.003979815 0.026046103 -0.05926289 -0.17700605 -0.053009108 -0.028735511 -0.016774705 0.2228463 -0.020646118 -0.020964744 0.04691103 0.08772864 0.07559772 -0.06483314 0.048216693 0.0036528101 -0.1851715 -0.25236982 0.065278 -0.035081375 -0.08438056 0.13771977 -0.11313696 0.12967117 -0.11940547 -0.03452679 -0.102291286 0.07018225 -0.07552678 0.026456082 -0.036043018 -0.047612224 -0.048976507
following -0.0022825233 0.09586887 -0.029373333 0.045681383 -0.10195168 -0.114036836 -0.02288113 -0.044263225 0.010922105 -0.09032356 0.046173807 0.015519933 0.06100765 0.048361655 0.020269688 0.08963727 0.15267491 -0.11069153 0.18697089 -0.20581879 -0.0007945797 0.043368697 -0.03195089 -0.20914088 -0.041658405 -0.15359403 0.00027826268 0.023612922 -0.05876653 0.080362216 0.015349073 -0.011196778 -0.037491836 -0.09178737 -0.055906113 0.07753668 0.10049498 -0.14936522 -0.0069747777 0.09685402 -0.16843691 -0.02081639 -0.024176601 -0.14432494 0.08188014 -0.043322008 -0.0895487 -0.13707247 -0.016396143 0.04445749 0.08192949 -0.06265861 0.30980584 -0.11158891 -0.039398324 -0.16894676 0.092508115 0.041680794 0.017581448 0.09948858 -0.0040370296 -0.2420413 -0.0013287582 0.05075167 0.094542615 -0.015080294 0.08634437 -0.034108452 -0.054159634 -0.118441574 -0.070376374 0.05928992 0.028150193 0.11657002 0.12134245 -0.056885887 0.1569165 0.1589134 -0.045120813 0.12005391 -0.18350662 0.07591936 0.050574124 -0.18711236 -0.14097743 0.0098844785 -0.04390817 -0.18601461 0.062346105 0.0075707636 0.18060297 -0.03504041 -0.07647041 0.02450472 0.0075220605 0.009797129 -0.038666744 0.10337659 0.1671125 0.041743033
data -0.030652966 0.112263665 -0.017454134 0.045995295 -0.09818956 -0.07695353 0.0011359873 -0.06728747 0.12626964 -0.057901148 0.08600934 -0.017879806 -0.073047586 -0.10202863 -0.026272573 0.027771223 0.2489797 -0.13568841 0.19843143 -0.17500356 0.13128191 0.06922035 -0.03347426 -0.17866592 0.013049559 0.0037373863 0.022859653 0.109654196 -0.03524603 -0.11532025 0.12339784 -0.024155965 0.11638734 -0.042522095 -0.0751384 0.119877875 0.12643848 -0.024709497 -0.008397078 0.058798004 -0.0067474754 0.023262888 0.088449046 -0.030193241 0.123993166 -0.013599709 -0.00056193327 -0.025785115 -0.055653602 -0.04812076 0.06258277 -0.0978527 0.15803033 -0.084490865 0.059497226 -0.0152815925 0.17338496 0.09286752 -0.0058516627 0.19160394 0.05137694 -0.26454425 -0.03904742 0.14052793 0.09247914 -0.067263715 0.06557871 -0.09436392 -0.01654202 -0.06745988 0.032896128 -0.06611358 0.045900337 0.068887286 0.1930149 -0.10740317 0.010004576 0.052439135 -0.09913545 0.048901547 0.004122825 -0.026429968 0.007823857 -0.12395935 -0.053880304 0.051897604 0.015777819 -0.10070425 0.38908124 0.09103544 0.060037475 0.08841002 -0.14273639 -0.11855052 0.023982722 -0.009190973 -0.04244004 0.030143369 0.07394004 -0.11068372
page 0.022992734 0.09869821 0.015705312 0.11294336 -0.0696204 -0.12287687 0.08177138 0.016007625 0.08356625 -0.041615505 0.015208677 0.056261014 -0.035383668 -0.1142524 -0.025896557 0.12502427 0.14290364 -0.23982123 0.110054314 -0.055085212 -0.045839626 0.050342273 -0.112728626 -0.20017546 -0.092016414 -0.088336185 -0.008849512 -0.08636526 0.036655612 0.08127213 0.23251316 0.084297806 0.07833741 -0.023139521 0.047645323 -0.035496876 0.1058267 -0.09036613 -0.03278826 0.08231244 -0.14600092 -0.026706377 0.01250942 -0.10553181 -0.009293386 -0.0475668 -0.07233245 -0.1689045 -0.049635943 -0.009281661 0.0684051 -0.06997021 0.1730074 -0.083305754 0.17984633 -0.07439481 0.045475326 0.12054271 0.05534002 -0.09980154 -0.022125792 -0.22555523 0.11844893 0.2161926 -0.0008197211 0.07982208 0.1828498 0.11362059 0.067464866 -0.12893327 0.074013084 -0.016446926 0.074213326 0.09923603 0.24766877 0.057227787 0.0019992979 -0.026162272 -0.029275203 0.049812846 -0.07348516 0.09414619 0.16017668 -0.15950711 -0.07876575 0.097968325 0.033445027 -0.09501776 0.102197215 -0.02940637 0.11234794 -0.08941373 -0.074468784 0.032280017 0.023253357 0.09867671 -0.059005223 0.032550763 0.13842098 0.027860207
centre 0.020687016 0.123008676 -0.010132105 0.11070062 -0.018820252 -0.123431675 0.06699713 -0.0565419 -0.0021163996 -0.055864528 -0.028537408 0.038462933 -0.10305298 -0.14507955 0.01017386 0.09097828 0.07360343 -0.23552191 0.07405488 -0.19810134 0.13191101 0.14643471 -0.056509126 -0.05343617 -0.06759386 -0.12405698 -0.09425379 0.11605601 0.1637009 0.17347227 0.24683732 0.011526012 0.021518769 -0.03258712 -0.03056733 0.15422553 0.10526664 0.01943774 0.06371189 0.0843716 -0.04962032 -0.06789203 -0.013511684 -0.06262607 0.09632886 0.109948754 -0.20986934 -0.1466682 0.084263235 -0.0861952 0.01959587 -0.068011746 0.17655163 -0.10559959 0.14178494 -0.08444516 -0.0062481663 -0.062764 -0.05208152 0.06272731 -0.0767107 -0.013422457 -0.08306233 0.0027730318 0.07462017 -0.043688834 0.10477326 0.04183856 -0.0660862 -0.04249656 -0.15722117 0.14271468 -0.04538504 -0.012575955 0.069443025 -0.17937522 0.10476094 0.052524384 0.1492324 0.1115557 0.016877135 0.14693779 -0.09830691 -0.13094819 -0.1752337 0.08826308 0.09851267 -0.039712783 0.11751085 0.04515377 0.08188288 0.003760152 0.011176411 0.06838596 0.014062773 -0.16440842 -0.10200475 0.0056709964 -0.030378236 -0.09665634
management -0.01423613 0.15145254 -0.06791969 0.019944567 0.025416741 -0.12991391 0.102851376 -0.014897962 0.025401501 0.02458907 0.12881182 0.19483508 -0.099247605 -0.057222553 0.0029897364 0.024799192 0.09894353 -0.029791202 0.20796075 -0.098725595 0.12030951 0.13275515 -0.038526416 -0.18355043 0.04893087 0.0044693514 -0.05444668 0.117682725 0.054372672 0.043905135 0.16840757 -0.09708558 -0.010293538 -0.077324286 0.087152675 0.1322637 0.120313235 -0.11646831 -0.045766953 0.172634 0.0028056914 0.0476874 0.043751303 -0.018101376 0.10118127 0.07466244 -0.14442243 -0.00428133 0.15658475 0.011802302 0.04101811 -0.030957395 0.191063 -0.050172087 -0.10831213 -0.11152562 0.16098525 -0.045957323 -0.05745258 0.13077755 -0.08541456 -0.16201453 0.08772104 0.064523116 0.081515655 0.057263564 0.091050796 0.004340284 -0.006734861 -0.13457099 -0.13787447 0.045678437 0.08749199 0.036391344 -0.031128518 -0.15404534 0.02692114 0.018170817 -0.041768566 0.116991 -0.12990692 0.08997306 -0.17002524 -0.19308104 -0.1858014 0.06872113 -0.037521403 0.05652191 0.30746636 0.08246894 0.041728575 -0.057458278 -0.10841221 -0.008160342 0.005052126 -0.028759222 0.03268095 -0.009934312 0.038712773 0.010391781
house 0.026643686 0.23778197 0.11698017 0.22956294 -0.05226397 -0.14869095 -0.028236095 0.045389693 -0.049575433 -0.045391887 0.10143523 0.062256925 -0.15446933 -0.09360493 -0.049104314 0.1985073 0.08940218 -0.084536985 0.14738555 -0.17144637 0.18284035 0.23916212 -0.08431364 -0.120315716 -0.076762594 -0.117865145 -0.09717966 -0.07452096 0.061904233 0.08108672 0.053487156 0.12669253 -0.032394882 0.11759767 -0.09183957 0.08249579 0.02325957 -0.019408377 -0.024129068 0.10771452 -0.10602163 -0.023271305 -0.047194827 -0.14904107 0.15377896 0.020407448 -0.12536964 -0.09958514 -0.037148338 -0.11397138 -0.03886317 -0.056295767 0.21837242 -0.15248072 0.03663208 -0.10296982 -0.07452799 -0.014821385 0.014511559 0.017229278 -0.10543615 -0.101874 -0.10426428 -0.021658221 -0.048940584 0.060882527 0.11842543 0.036024075 -0.06192909 0.037429716 -0.17766891 0.08068197 -0.0778615 -0.023397524 0.062730394 -0.024013883 0.084192015 0.000595788 0.15963614 0.018127669 0.010903031 0.0273716 0.24119298 -0.04244127 -0.019201944 0.064207286 0.049422488 0.055284552 0.08239283 -0.021822875 0.028665606 0.029258413 -0.0005723187 0.19485146 -0.004963366 -0.043274313 0.10429 -0.05559737 0.0028470203 0.020248497
community 0.11419704 0.20711699 -0.06271191 -0.08872659 -0.088588804 -0.26594183 0.0379965 0.003908375 -0.13296741 0.010433767 -0.0310824 0.073035955 -0.044325344 -0.071006775 -0.03599335 0.0087484345 0.09300769 -0.10133415 0.05339314 -0.19500971 0.10563853 0.120194174 -0.09168118 -0.23650336 0.051120047 -0.18786265 -0.06956339 0.20132335 0.14549416 0.08913914 0.22909516 0.02533868 -0.061437532 -0.055993415 0.04431194 0.18543895 0.059784044 0.044540003 -0.05324363 0.0595704 -0.08249032 -0.03349819 0.086036675 -0.028900405 0.11687338 0.0387979 -0.21402265 -0.0920597 0.043063577 0.058205515 -0.069910936 0.025520861 0.0758067 -0.086667456 -0.043658294 -0.10257299 0.09768122 0.0073004207 0.07318197 0.026063096 -0.09938109 -0.117951095 0.012447567 0.12059997 0.061608728 0.012718644 0.13703746 -0.046132255 -0.14390862 -0.06666771 -0.085471 0.10758329 -0.009330016 0.018774563 -0.031178491 -0.05346154 0.12609854 0.1105986 0.113821566 -0.0030036054 -0.07162662 0.20267475 -0.047097176 -0.07884565 -0.20759206 0.020456545 0.07967868 -0.018018212 0.015895322 0.031576034 -0.036700107 -0.02370026 0.018461237 0.08610177 -0.031495363 -0.12984252 -0.06951529 -0.074151814 -0.07077218 -0.09950418
access -0.03285798 0.02456948 0.0077135386 0.11264604 -0.15688531 -0.118024684 0.063632786 -0.0011780526 0.03721528 0.024912441 -0.006515815 0.01763556 0.01894152 -0.045339856 -0.025028437 0.0014931795 0.11452436 -0.20701802 0.18873855 -0.3167386 0.11952956 0.08603771 0.04721486 -0.19177432 -0.022886803 -0.26934814 -0.08031602 -0.013253864 0.077998474 0.03695903 0.2612402 -0.0542356 0.021723714 -0.1375869 0.06946722 0.06439385 0.20265508 -0.047914796 -0.07046372 0.08089083 0.032531433 -0.039499998 -0.03660774 -0.09412846 0.20342758 0.0548297 -0.10501176 -0.073085785 0.06362176 -0.10216049 0.024094548 -0.0033574395 0.27360225 0.0071116993 -0.02091294 -0.051903933 0.1319225 0.0233613 0.0032590032 -0.015575025 0.0029168688 -0.10586766 0.06324671 0.13900787 0.07174807 -0.06913811 0.06240068 0.035844136 0.043728817 1.682373e-05 -0.13828008 0.021394083 0.052649003 0.025314266 0.011970217 -0.028668873 0.1262355 0.12190264 0.026680104 0.06505449 -0.03585172 0.024960544 0.045002006 -0.13632432 -0.15126848 0.15888841 0.08261673 -0.011463122 0.11570862 0.09327622 0.057221785 -0.009120515 0.024423894 -0.07174115 -0.0040809815 -0.029565735 -0.020445883 -0.031800807 0.11203769 -0.15348728
education 0.08560677 0.1477588 0.06995675 0.040481433 -0.049304202 -0.21426564 0.060837436 -0.06975007 0.018226434 -0.047943547 -0.031046413 0.104974315 -0.045105238 -0.15919809 -0.023204124 0.03246656 0.12160539 -0.16609019 0.14922586 -0.10330065 -0.060681846 0.020102056 -0.056020405 -0.28585106 0.03573852 -0.12696218 -0.039609086 0.111766934 0.20412274 0.088967256 0.34237215 0.011012949 0.06882066 -0.02319175 -0.014619537 0.2179838 0.15218599 -0.060172256 0.14811929 0.042920664 -0.0211594 -0.032432806 0.017418584 -0.10511923 0.08597049 0.06510239 -0.18411103 -0.118890926 0.13216789 0.03264989 -0.00332602 -0.027662115 0.14052676 -0.14964584 0.016467687 -0.20061831 0.0748109 0.08367603 -0.07447308 0.022067191 -0.006109388 0.047076806 0.09773412 -0.007516486 -0.03776268 -0.03268186 0.1779077 -0.026790679 0.043324072 -0.03321515 -0.031890806 -0.04561884 -0.02947981 -0.03463779 -0.08356872 -0.09232411 0.17824619 0.07210647 0.03129853 0.016804466 -0.09024826 0.14499515 -0.021535238 0.0071217287 -0.11228013 0.02416795 0.0033652785 -0.059745062 0.013611514 0.10570423 -0.09028787 0.0036145141 0.00048378078 0.009897478 0.044344556 -0.07632432 -0.06432461 -0.09496577 -0.08205719 0.046167914
training -0.07643319 0.078364834 -0.07120038 0.010302314 0.014604203 -0.14054936 0.09733802 -0.03032188 -0.042482696 -0.04827078 0.0934128 0.11352613 -0.050170798 -0.011849646 -0.034289982 0.0880169 0.21108748 -0.21528082 0.033279404 -0.12977673 0.008494894 0.052675273 -0.039698914 -0.192295 -0.0044023558 -0.038752634 -0.093759246 0.08513277 0.11338118 0.07322699 0.29136622 -0.09568575 -0.071635514 -0.04786494 -0.014569104 0.036430713 0.011330653 -0.072886206 0.08952824 0.101246536 -0.08740012 -0.0046406034 -0.0600471 -0.08964832 0.05099627 0.0745694 -0.12631056 -0.044214506 0.116957664 0.09194713 0.035600483 -0.02434206 0.15257442 -0.08605499 -0.12803447 -0.07430285 0.121990606 -0.06081053 -0.15429658 0.039916787 -0.06921711 -0.073143445 -0.02482379 0.019934308 0.052772123 -0.0024642735 0.16301005 -0.023021525 -0.033770423 -0.10709452 0.02846872 -0.12974237 0.024123393 -0.07162795 -0.1277472 -0.18290755 0.08915444 0.10516905 0.058333337 0.058278434 -0.13451654 0.08035366 -0.12560058 -0.15658614 -0.368153 0.12995099 -0.036243033 -0.11096797 0.03992637 0.04212728 0.051055804 -0.07388689 -0.027929021 -0.10201042 0.024021259 -0.092939004 -0.11570166 -0.044190235 -0.069919355 0.029969266
range 0.06860258 0.055042915 0.04022456 0.12613784 -0.09434207 -0.13759889 0.09703785 -0.08714465 -0.055569533 0.045496345 0.051939704 0.08108485 -0.057266213 -0.090014644 0.08911057 0.06070419 0.17916054 -0.21081974 0.14165682 -0.20612748 0.05755417 0.08264416 -0.008154029 0.021522202 -0.07620961 0.010701305 -0.053909827 0.050338693 0.050975516 0.104698665 0.23111333 -0.08322244 0.015942233 -0.06495121 -0.008255393 0.07425405 -0.008402794 0.06794837 -0.20466587 0.029535307 -0.1449078 0.026714902 0.055614043 -0.22402154 0.011533535 0.09263139 -0.1972516 -0.04769146 -0.00884667 -0.07489864 0.031247942 0.021263687 0.20816895 -0.09303504 -0.0769254 0.03151095 0.060353052 -0.12815833 -0.058590095 -0.019634673 -0.14820477 -0.16265702 0.09081184 -0.027949212 0.16162698 -0.072834454 0.035968464 -0.06608564 -0.13768336 -0.1811289 -0.040178042 0.065177724 0.02513799 0.0055223666 -0.08306604 -0.17584346 0.16278343 0.025554981 0.004266866 0.16062409 -0.06913855 -0.040435106 -0.02855513 -0.18086326 -0.08606725 0.046267554 -0.0571118 -0.07470809 0.15804043 0.13568857 0.09912553 0.017826395 -0.012783262 -0.02035713 0.05532367 -0.02481541 -0.14339603 0.06395836 -0.016895987 -0.021223608
book 0.07635825 0.039290883 0.086191595 0.09092615 -0.11239745 -0.20319036 0.17686337 -0.044305243 0.06224137 0.061414283 0.06576679 0.04762925 -0.031668976 -0.14847475 -0.0935483 0.15524411 0.10933737 -0.08674498 0.024391415 0.022220474 -0.028094262 0.09244939 -0.0831306 -0.1855385 -0.01066109 -0.19043772 -0.12919696 -0.0033635125 -0.03981595 0.17949402 0.09345022 0.013233856 0.037237674 -0.006907503 -0.072535105 0.027402172 0.094876535 0.015477018 -0.003748302 0.13316952 -0.050667733 -0.050816838 -0.042692125 -0.25537664 0.045628257 0.00028979097 -0.093515284 -0.2560424 -0.0017554371 -0.11141382 -0.047910903 0.07255196 0.24002105 -0.09694478 0.09670556 -0.00092133676 0.023204416 0.028731065 -0.102807716 -0.20501806 -0.07354146 -0.15326428 -0.0026751284 0.059038345 0.0011101699 -0.10174658 0.08454175 0.117155 -0.092604935 -0.13718966 0.12577365 0.011647704 0.08128199 0.1347443 0.1383804 -0.030411465 -0.0024222662 -0.024639951 0.05471349 -0.03251773 -0.10760617 -0.028210388 0.051816005 0.040474277 -0.20109439 0.024966175 -0.06702189 -0.09844578 -0.0044097556 0.035557255 0.04923265 -0.09857366 -0.11256239 0.1295017 0.11176924 0.14556478 -0.025371965 -0.00014420191 0.06459882 0.09748594
team 0.021791412 0.18332788 -0.08409799 -0.01827031 -0.03315052 -0.16318679 0.104948826 0.0003389235 0.0027071976 -0.0007959056 0.10520759 0.12617332 0.086155154 -0.07784554 0.01678346 0.14212933 0.16453375 -0.15769957 0.05468714 -0.082258366 0.039185062 0.12707116 -0.06105381 -0.11074677 -0.23130575 -0.020685876 -0.09127604 0.06169479 0.050141443 0.16039345 0.107830025 -0.048305534 -0.05763846 0.03369155 -0.03342861 0.16628143 0.09311216 -0.012364225 -0.038652256 0.04801491 -0.13059568 0.027783575 0.05626741 0.04485678 0.100333035 0.07255572 -0.24095513 -0.095405236 0.086756 0.055426456 0.10096874 -0.05545046 0.07466252 -0.10218751 -0.0148551725 -0.12865283 0.12756038 -0.054144785 -0.050725926 0.041669652 -0.15373671 -0.104404956 -0.07903892 0.034290254 0.049047463 0.020707138 0.079840876 0.030106772 -0.11950873 -0.067022786 0.012538116 -0.075503886 -0.053681273 -0.055287898 0.07442595 -0.11087651 -0.03352636 -0.023191364 0.032233957 0.04508151 -0.16723633 -0.0062811924 -0.20969759 -0.26820773 -0.31855312 0.10352542 0.04448825 0.044947267 0.022702176 0.015644172 0.0460142 -0.14765671 -0.01596078 -0.10619534 0.083020344 -0.05772898 -0.029422598 -0.050661135 -0.09119036 -0.012030227
form 0.05875038 0.0722428 -0.037420843 0.1410964 -0.08556968 -0.0756581 0.03921657 0.036802635 -0.044491105 -0.040836677 0.15698828 0.07665792 -0.08637487 0.015041919 -0.00021664053 0.049622733 0.25623754 -0.17707199 0.079415426 -0.104757965 -0.028470786 0.05028901 0.014535368 -0.2139814 -0.026501695 -0.17884189 -0.00974843 -0.059152227 0.03758966 0.17644536 0.06305843 -0.02960288 0.025262248 -0.107596196 0.039482765 0.11314778 0.10033463 -0.04230221 -0.10198228 0.0010107139 -0.09941199 -0.08282216 0.017740566 -0.16797563 0.09202665 -0.07200003 -0.12803796 -0.10981402 0.09683437 0.06495994 0.006070441 0.031081382 0.16378795 -0.21230917 -0.019980034 -0.039572325 0.0027664 0.08708684 0.19195397 0.05140056 0.01287454 -0.19978388 -0.049514797 0.055929244 0.030251125 -0.028932298 0.013402827 -0.06684252 -0.220834 -0.09995173 -0.053484842 0.11644251 -0.0014505157 0.07264454 0.10867737 -0.12824354 0.08474465 0.166733 -0.04848324 0.25087065 -0.15817839 0.042664357 0.05585323 -0.05834924 -0.08263855 0.03847956 -0.037804063 -0.06366636 0.04621125 -0.09712776 0.23686488 -0.03370075 -0.0639832 0.012056957 0.043533213 -0.04272156 -0.015873767 0.104840145 0.058859326 -0.03189365
learning 0.09631616 -0.0017647179 0.036404587 0.10780336 -0.032616157 -0.22382128 0.17174682 -0.02260006 0.046847224 0.043783017 0.047262903 0.19985144 -0.025863675 -0.1269697 -0.15581955 -0.052654043 0.19057114 -0.24602832 0.17159586 -0.10984077 -0.037728667 0.02684116 -0.03630339 -0.20087263 0.029238345 -0.09063849 -0.034863498 0.13100988 0.15909564 0.06102671 0.2047616 -0.04191331 0.056202255 -0.053521283 -0.00048185178 0.21009992 0.15004094 -0.054004412 0.09267358 -0.0028050954 0.06197857 -0.0024809688 0.015225506 -0.056174994 -0.05892781 -0.0050164987 -0.21908905 -0.15330166 0.07045354 0.09492524 -0.047042463 0.07391326 0.114271514 -0.10489011 -0.011878622 -0.1879997 0.16803014 0.027950615 -0.05625469 -0.046295237 -0.00880788 0.014280009 -0.007655327 -0.042849436 -0.00963953 -0.03613334 0.091605075 0.027283337 -0.028181775 0.0024716328 -0.0513872 -0.070907265 0.010484592 -0.055197973 -0.10629684 -0.082568526 0.08849888 0.039009027 0.07498438 0.06624147 -0.120191775 0.167397 0.02479888 0.002825002 -0.19616513 0.12469489 -0.048216436 -0.061977252 0.10856387 0.15550093 -0.058649916 0.074178316 -0.07531892 0.025638266 -0.0030661009 -0.022557976 -0.13985433 -0.071542606 -0.01628724 -0.019806225
case 0.023871254 0.04355551 0.036412507 -0.012859439 -0.2808861 -0.10429332 0.048442222 -0.14266598 0.02793304 0.047472972 0.15250921 0.037935268 -0.08401942 0.11246712 -0.0050782976 0.043685377 0.092431314 -0.08837078 0.17629531 -0.104332626 0.14459836 0.064951785 -0.04313401 -0.14959358 -0.07344796 -0.18221939 -0.033447366 -0.12109741 -0.024179058 0.14266478 -0.05701464 0.002087781 -0.018203795 -0.064610794 0.017539626 0.12715372 0.10428022 0.03777954 -0.07908629 0.058579907 -0.1537402 -0.015270698 -0.00998014 -0.16085422 0.0948084 -0.0037850256 -0.2040215 -0.058174882 -0.020257894 0.028271278 0.13534373 0.04881316 0.21039852 -0.072524145 -0.14773557 -0.052448425 0.07980646 0.0700656 -0.0026047009 0.15162465 0.041119337 -0.31683722 0.006149305 -0.0011487732 0.10727604 -0.0072156256 0.17403483 -0.13788305 -0.041404765 -0.06774369 -0.05137202 0.047556035 -0.07580166 0.016168974 0.02202751 -0.12445769 0.059085 0.106257856 -0.04627998 0.027913516 -0.07871232 -0.06288695 0.1439422 -0.080587484 -0.07694218 -0.1103156 -0.052122306 -0.0063927295 -0.005985915 -0.042086422 0.11296664 0.06658042 -0.13495906 -0.029148486 0.2031935 0.03334436 -0.097371645 0.06200204 0.012851888 0.06919784
details -0.013078949 0.059822995 -0.01447235 0.20240684 -0.04577071 -0.045177177 0.09515794 -0.020376632 0.13199808 -0.06249961 0.040529415 0.02824876 -0.18148105 -0.10026975 -0.017986298 0.13301717 0.053201813 -0.15983415 0.17710358 -0.10607816 -0.011107204 0.14851832 -0.1217465 -0.16026865 0.07400796 -0.10315086 -0.09246071 0.048453614 -0.108065985 0.12086545 -0.014558041 0.092527606 0.13533577 -0.091126025 -0.057586715 -0.025608232 -0.021250999 -0.074956596 -0.07405228 -0.03035608 -0.047480676 -0.15255724 -0.027931813 -0.19053079 -0.03766473 -0.057939544 -0.06684626 -0.060719308 -0.21295153 -0.08284078 0.0731397 -0.08474478 0.28455144 -0.009979637 0.111462995 0.0016282919 -0.007424893 -0.071818486 -0.12607995 0.14152426 -0.14817512 -0.027406849 0.03005948 0.13864495 0.10905677 -0.09464867 0.03990677 0.0069071804 -0.015707826 -0.114098765 -0.07829189 -0.0133993635 0.008699158 0.031751007 0.116055556 0.039399005 0.020791536 0.012651019 0.13247311 0.13201165 -0.091250874 -0.0016198142 0.058084134 -0.1990671 -0.11439952 -0.006800954 -0.123075336 0.07757652 0.20354614 -0.0368107 0.12709591 -0.10795628 -0.007637717 -0.07463836 -0.12686875 -0.103453785 -0.06965211 0.010334621 0.08588913 0.073391326
level 0.003038797 0.025578156 -0.058299653 0.16741844 -0.010510599 -0.028836783 -0.029910011 0.036002673 -0.028361892 0.025783194 0.095917985 0.13722554 -0.0576887 0.06254499 0.080757506 0.018101975 0.16054152 -0.14464141 0.12854876 -0.25597084 0.042340808 0.03032968 -0.012647259 -0.12992404 -0.05797542 -0.14528435 0.056108385 -0.032527007 0.030052328 0.084936455 0.20550364 -0.1135802 -0.059504233 -0.106977694 0.0020654688 0.1715029 0.08470149 -0.026945172 -0.04013021 -0.07758859 -0.060612034 0.07332605 -0.07557116 -0.12052967 0.12894326 0.0060900706 -0.17339003 -0.060881298 0.07741526 0.029636635 -0.0054575778 -0.026807457 0.14461753 -0.20291741 -0.06877418 -0.12840676 0.13667704 -0.11712259 -0.006357887 0.1390339 -0.042427853 -0.22118919 0.11272507 0.04190139 0.11662134 -0.066937126 0.07358675 -0.033729456 -0.041772842 -0.09747823 -0.0704204 0.011624649 0.03113805 0.03986319 -0.05093612 -0.16651192 0.11380111 0.0819791 0.036861442 0.1463754 -0.069574885 -0.03881692 -0.05315043 -0.15855496 -0.089586586 0.018504664 -0.11708572 -0.032280564 0.079861015 0.27932295 0.07119492 -0.034321822 0.045305084 0.036788277 -0.0142557025 0.027088929 -0.046636723 -0.14918412 -0.012561701 0.19977236
social -0.030767977 0.16363782 -0.056590732 -0.10791675 -0.09782518 -0.2434095 0.048737552 -0.07096032 -0.08620202 -0.025780343 0.013810753 0.045723442 -0.027384894 -0.13609715 -0.028379474 -0.070371576 0.13994299 -0.13287248 0.0398561 -0.11093342 0.09314125 0.1653664 -0.11231755 -0.3404095 -0.0008247579 -0.072521195 -0.019916296 0.11249919 0.21627572 0.05445246 0.1992782 -0.05932349 0.07505721 0.01770575 -0.029373476 0.2838059 0.14531532 0.024409913 -0.027906684 0.120341256 -0.026094792 -0.060691666 0.06903207 -0.15438311 0.017607013 -0.055115502 -0.1854714 -0.048753336 0.14192086 0.052423436 -0.072237656 0.012431898 0.18549922 -0.10327643 0.07328066 -0.17379512 0.04446029 0.06533656 0.03693228 0.053044796 -0.051573146 -0.0819711 0.11824121 0.10285977 0.13203962 -0.043896947 0.076070674 -0.067184575 -0.020199293 0.06746214 -0.016616652 0.11173736 -0.05062552 0.011773003 -0.0100676315 -0.056298018 0.12113496 0.054716483 0.09245031 0.0026487599 -0.072630905 0.103752196 0.016109267 -0.041675523 -0.039698135 -0.0070331483 0.034663506 0.08939761 0.068013735 0.065633886 -0.028127724 -0.0049778596 0.008819854 0.04641834 0.009781331 -0.06281281 -0.10979671 -0.103825144 -0.088362664 0.11431297
programme 0.04824595 0.05738869 0.0008899971 0.014213432 0.0303952 -0.16716115 0.07443233 -0.07039449 0.012049296 -0.06764719 -0.019461889 0.10509642 -0.13125981 -0.10159081 -0.089604646 0.098903835 0.21224515 -0.20532782 0.06696464 -0.09632886 -0.009554126 -0.029265326 -0.00737622 -0.09229629 -0.046306793 -0.15626165 -0.037128538 0.12521473 0.1570398 0.10738677 0.18674679 -0.086415455 0.003410907 -0.14718676 -0.047698263 0.16152163 0.15321153 -0.0686041 0.05394189 0.13440762 -0.14278196 0.02134312 0.028633574 -0.044619393 0.08458784 0.087645955 -0.045857918 -0.030507091 0.14043725 0.031214977 0.007954847 -0.0060770307 0.20092374 -0.1129422 -0.09732686 -0.18493229 0.034795202 -0.08176799 -0.054975603 0.08139248 -0.12392299 -0.11468749 -0.009591058 0.07348262 0.12923774 0.042702686 0.17065068 -0.06257961 -0.110284075 -0.023683393 0.06640266 -0.026287079 -0.04477527 -0.04027921 -0.027774345 -0.1941771 0.105111666 0.0640541 0.016128907 -0.02448343 -0.09814966 0.11010675 -0.14850388 -0.17980823 -0.13745788 0.026523314 0.016651316 -0.08754881 0.16736503 0.15789619 0.08377373 -0.082242854 0.06608138 0.04500875 0.0049843616 -0.13396217 -0.04037727 -0.050864667 -0.12953012 0.08679987
old 0.037281908 0.25636888 -0.0046186238 0.08964631 -0.120822586 -0.14960833 -0.08656221 0.025510492 0.082482494 -0.017452752 0.0033279525 0.053680155 -0.022665923 -0.035900485 -0.056005772 0.16358295 0.13005441 -0.15490848 0.0060068397 -0.26227656 0.2173118 0.066393696 -0.11974323 -0.16213349 -0.15719035 -0.11968422 0.009026833 -0.1394665 0.021480316 0.12279563 0.08865596 0.018848624 -0.038694017 0.06679907 -0.060850527 0.08796681 -0.038418025 -0.09739746 -0.051263206 0.080495685 -0.0893081 0.07003274 -0.011675927 -0.20942459 -0.021179825 -0.058296647 -0.08315439 -0.19474243 -0.04496879 0.0010500413 -0.018503267 0.036227714 0.10172495 -0.09339079 -0.038260758 0.012199619 -0.12228202 -0.07630461 -0.04981041 -0.027344342 -0.06658871 -0.1485575 -0.11742052 0.014344612 0.019497534 0.000544811 0.21843044 0.18671982 -0.13697936 -0.10256021 -0.07247852 0.10923692 -0.064854294 0.01872218 0.06321567 -0.097759314 0.12386133 0.11048007 0.035663653 0.14844066 -0.015988197 -0.003159425 0.08288152 0.082231745 -0.04286012 0.05123677 -0.06090506 0.20025635 -0.081608005 0.09431167 0.0003894155 -0.06373239 0.02310238 0.17392063 0.053725123 -0.036689986 0.033186316 -0.027143218 0.051803213 0.045641825
road 0.09154222 0.22095264 0.014338289 0.14137723 -0.13514037 -0.09305907 -0.1271929 0.021604711 0.007210148 -0.106163405 0.016747672 -0.047345866 -0.016192144 0.025755985 -0.033122748 0.09823091 0.003195018 -0.15089126 0.054606117 -0.10956012 0.15835132 0.20718427 -0.061584484 -0.043341994 -0.04343234 -0.14899932 -0.105343886 -0.11290606 0.05193036 0.2240723 0.13024373 0.0636136 0.045475934 0.101161346 0.04528962 0.069619484 0.14240603 -0.059475906 0.025110705 0.12618673 -0.12092452 -0.022916839 0.024688639 0.022742394 0.045610376 0.04073181 -0.17770772 -0.11815392 0.034602772 -0.1570404 -0.12213122 -0.12932532 0.022445545 -0.17100576 -0.040224303 -0.10729878 -0.10244001 -0.027653882 -0.10103843 0.02994117 0.06034706 -0.018001173 -0.16664867 0.12491553 -0.054590523 -0.058886737 0.16880438 -0.10175687 0.0097141275 -0.040840656 -0.11160365 0.18961054 -0.08530199 -0.09636043 0.022675758 0.02956985 0.078280576 0.018094596 0.13689636 0.13938664 0.035136316 -0.04155237 0.053981427 -0.034728616 -0.17044261 0.118605845 0.07342155 0.017507838 0.12346159 0.035874393 0.043915406 -0.12039568 -0.071548045 0.10633437 -0.13798411 -0.10795683 0.042563733 -0.07596246 0.11924068 -0.09601548
name -0.061062697 0.15634145 -0.007765468 0.069390446 -0.093390346 -0.13740884 -0.0011683598 0.06628297 -0.0027108127 -0.08865078 0.03505628 -0.0037812204 0.05508825 -0.08522633 0.085454404 0.089453 0.16246368 -0.096711755 0.16766195 -0.121482514 0.018124597 0.0010462819 0.050961096 -0.24874856 -0.14261091 -0.2009508 0.020310985 0.01684295 -0.14004157 0.057624757 -0.025185222 0.13794088 -0.02912704 -0.021693313 -0.06110322 -0.060015954 -0.016885834 -0.06688803 -0.030146668 -0.03733851 -0.122838445 -0.0065894597 -0.030006869 -0.19444653 0.098275736 -0.089230075 -0.14613628 -0.20078772 0.008892227 0.02729595 0.0011751379 -0.05535469 0.13731867 -0.092997976 -0.027748773 -0.05074384 0.020810837 0.12019343 0.05875445 -0.0036118538 -0.08070665 -0.2002366 -0.20369369 -0.011835564 0.024011843 0.0010282479 0.11099638 0.019609515 -0.12901531 -0.042221565 -0.09280146 0.071544945 0.0023554487 0.030805537 0.261485 0.07049317 0.07413928 0.2656471 -0.14135595 0.04614298 -0.12200273 0.023571698 -0.021981455 -0.037337426 -0.079544045 -0.11979276 -0.09767712 0.051866353 0.13425517 -0.10473116 0.09398829 -0.026379887 -0.010347341 -0.014306934 0.053949904 0.086047 -1.5287201e-06 0.14092185 0.14680149 -0.06277884
open -0.0049791927 0.08114882 -0.070921935 0.20576467 -0.111612424 -0.13223751 -0.016656471 0.034022257 -0.02989764 -0.08750938 -0.055067305 0.043991473 -0.020375831 -0.053595133 -0.027119104 0.118361086 0.13685904 -0.16147235 0.07485316 -0.24469218 0.14809918 0.040426243 -0.06583938 -0.090555355 -0.1403968 -0.11725708 0.012906751 -0.089483365 0.06167776 0.14365768 0.04093466 -0.03738649 -0.06779888 -0.03808837 -0.0019926263 0.16261023 0.15240803 -0.02761285 0.020954201 0.0884811 -0.004526819 -0.06932805 -0.13162218 -0.20791909 0.16128269 0.016470259 -0.16368718 -0.20616701 -0.025730504 -0.047977455 0.028031789 -0.039211784 0.30287233 -0.06035213 -0.05325654 -0.11232074 0.005926758 -0.1636167 0.035934184 -0.018063761 0.020686757 -0.09282686 -0.08266828 0.0879379 0.06552186 0.018219499 0.054924954 0.11872665 -0.16586478 0.031119743 -0.10659616 0.04675193 0.06910488 0.00023008103 0.09242876 -0.15352537 0.08209769 0.08011085 0.055048697 0.10059246 -0.0303673 0.12327401 0.064934805 -0.080875516 -0.09261382 0.13780017 0.11445363 -0.055164166 0.044444896 -0.051080875 0.16246945 -0.035048895 0.099351496 0.03373818 -0.02098818 -0.120563924 -0.053770643 -0.070238784 0.097107954 0.026411334
view 0.027196053 0.042338 -0.10408089 0.20840777 -0.019264678 -0.16685054 0.17765206 0.13444208 0.0042535095 -0.069925405 -0.06238788 0.058911417 -0.09246875 -0.059410214 0.09626735 0.040777523 -0.008601857 -0.19934405 0.11420354 -0.14219567 0.012465599 0.11422945 -0.13864268 -0.22617224 -0.01867379 -0.19907254 0.020757968 -0.055632472 0.0595697 0.1256658 0.07688994 0.004111513 -0.02854722 -0.010102242 0.08077339 0.12293934 0.04207195 0.027913125 -0.031027436 0.11342505 -0.022396915 -0.1941682 -0.019491388 -0.10840278 0.10375559 0.016749585 -0.23000425 -0.11507502 -0.0671628 -0.062473606 0.04777101 -0.04989295 0.16812028 0.033335373 -0.0015722491 -0.1792227 0.024402557 0.08564991 0.10028375 -0.027571836 -0.11356408 -0.15290909 0.0012248666 0.14382106 0.026185121 -0.112856895 0.2176654 0.021190269 -0.10566315 -0.0053348984 -0.07697434 0.049113467 0.012855363 -0.06380075 0.06514797 0.06611404 -0.07136133 -0.029167216 0.028794495 0.13718198 -0.113268964 -0.04617732 0.25913706 -0.18090974 0.0021436238 0.12948589 -0.0061667473 -0.017731575 0.055187996 0.07367327 0.08656291 0.015058227 0.032997027 0.03889003 -0.023346609 0.012579715 -0.109510005 0.05348767 0.046505142 0.00961319
issues 0.1096346 0.15808563 0.017054757 -0.12053941 -0.11410547 -0.054974403 0.034074917 -0.1105039 0.052336633 -0.050975677 0.051756248 -0.0051721637 -0.040566273 -0.18117471 -0.072031684 -0.018195914 0.02262115 -0.13227779 0.14656363 -0.09339846 -0.019610528 0.120754324 -0.22325365 -0.3197343 0.11292181 -0.052458975 -0.00984292 0.06729235 0.07827973 0.05909826 0.19450283 -0.06786414 0.039307125 -0.10565453 -0.057031795 0.069215536 0.12458667 -0.09260558 0.06797246 0.14301012 -0.016268782 -0.070596434 0.0851344 -0.06727855 0.03633623 0.06148731 -0.06282173 -0.055488113 0.027386013 -0.009278927 0.10973176 -0.07679653 0.17399034 -0.050849285 -0.02626289 -0.08751676 0.1449264 -0.109503984 0.07583905 0.17650695 -0.018801533 -0.1755011 0.16977185 0.10828013 0.03714669 0.023996439 0.026409049 0.08663016 0.07465522 -0.10236788 -0.0597065 0.045904554 0.1260576 0.026817366 0.1237885 -0.06958399 -0.010162629 -0.06252402 0.002856327 0.044371773 -0.099526376 0.1291721 0.16596496 -0.14011633 -0.10643818 -0.04616619 0.011586864 -0.074033976 0.205764 0.07787946 0.030758997 -0.0018118649 -0.08976506 0.11428411 0.08666889 -0.040833402 -0.12580581 -0.08547274 0.035353888 0.105379865
news 0.014135351 0.14926524 -0.015337973 0.030908665 -0.10663166 -0.06286062 0.12562545 -0.0063718883 0.104413785 -0.07311046 -0.121447496 0.06772423 0.06772375 -0.19806582 0.036400147 0.051219985 0.04749471 -0.2063846 0.10294952 -0.1118233 0.045052085 0.020701788 -0.09817043 -0.17506701 -0.049351066 -0.14873892 -0.12733345 -0.005725501 0.027193654 0.09030009 0.17419481 0.07459504 -0.010415027 -0.039317906 -0.059946787 0.12036592 0.06314832 -0.12531167 -0.055294678 0.107520394 -0.13256958 -0.0029963169 0.013363775 -0.102108136 0.050954334 0.098702 -0.056262918 -0.24061634 0.05985753 -0.09618554 0.15868157 -0.104039766 0.08242726 0.05250396 0.028028233 -0.10085357 0.20271493 0.024111595 -0.044083074 0.030079095 -0.082928084 -0.18907425 0.08258762 0.12898982 0.024795437 0.06908985 0.1866209 0.1491576 -0.06819153 -0.09636032 0.077296324 -0.028308893 0.11160983 -0.082865804 0.124579646 -0.035281945 -0.048001368 -0.021720426 0.019711556 -0.03483254 0.0666229 0.009611895 0.101879574 -0.1283249 -0.033430018 0.024260199 0.08819306 -0.14053603 0.09642074 -0.19942635 0.13849553 -0.14942949 -0.024887213 0.10195894 0.10761592 -0.08921246 0.06527807 -0.08738979 -0.10473493 -0.041108944
change -0.0120597705 0.13694322 -0.06476425 0.081397146 -0.06303259 -0.081545316 0.01088545 -0.005403883 -0.09528053 -0.050050177 -0.023420965 0.13117126 0.00093949906 0.1213804 0.023898095 -0.08413556 0.1356882 -0.21475916 0.11659777 -0.14498311 0.053839084 0.14708373 -0.10091534 -0.2517364 -0.032059543 -0.14796004 -0.01061675 -0.03754795 0.085408665 0.08688468 0.062237624 -0.10037757 -0.020130146 -0.06306416 0.024420394 0.1190911 0.19532923 -0.08117502 -0.11709475 0.016361183 -0.063961014 0.07750858 0.007999685 -0.11776353 0.1647122 -0.09405686 -0.12210677 -0.112297505 0.033395324 0.09091644 0.15581954 -0.0014524867 0.2027353 -0.09967606 -0.07591196 -0.07138907 0.07782952 0.09065933 0.010940204 -0.030071232 0.07646688 -0.29259053 0.09213788 0.01975132 0.15684673 0.022371192 0.13133946 -0.018639151 -0.20502937 -0.023102328 -0.033204112 0.09027768 0.0039876546 -0.008012282 0.066605516 -0.0016311866 0.02957943 0.00090433203 -0.14776835 0.16445318 -0.1327944 0.14569902 -0.005950476 -0.10946809 -0.034755718 0.00022725954 -0.049260072 -0.016211964 0.10083294 0.10217688 0.12106378 -0.08901313 -0.026533345 0.05595647 0.079847515 0.04752266 -0.07741304 -0.066815645 -0.001394318 0.104977004
quality 0.0139145665 0.13959566 -0.029930705 0.1423434 0.03940382 -0.22194313 0.009343817 -0.004983394 0.016224861 0.08781117 0.04988196 0.14261693 -0.18686578 -0.0354157 0.12279162 0.04790183 0.09165357 -0.14354493 0.17156406 -0.18888122 0.016758686 0.03249885 -0.12737422 -0.11973844 -0.0040747216 -0.045614496 0.018909357 0.07859733 0.03430317 0.11485595 0.119655736 -0.03465396 -0.14190078 -0.09997466 0.030529613 0.22345155 0.09286967 -0.021190088 -0.09732383 0.029963244 -0.05827761 0.11474313 -0.014176262 -0.09282441 0.10880458 -0.019315723 -0.25323334 -0.018031735 -0.0460246 -0.094365545 0.0045225574 0.122646086 0.1646312 -0.058731496 -0.11087726 0.008315598 0.08710871 -0.031276975 -0.14113708 -0.037156116 -0.13494444 -0.1552774 0.17501143 -0.017014 0.032890297 -0.13087727 0.06288072 -0.14968826 -0.035552405 -0.17464216 -0.005488075 -0.004268363 -0.04982106 0.010689098 -0.025155304 -0.0962252 0.10665273 -0.08206466 -0.08685014 0.1108512 -0.07213204 -0.06899789 -0.09010672 -0.11843792 -0.05140339 0.12988491 -0.0926974 -0.03180533 0.18848968 0.16888312 0.012737466 0.04072245 0.03831547 -0.0053943433 0.094324626 -0.07341279 -0.04479761 0.07683137 -0.060572017 -0.05913599
family 0.028502999 0.16864176 0.005181886 -0.122991346 -0.21660598 -0.0991232 0.06409181 0.04769926 -0.00886015 0.077417836 0.034840792 0.06020387 -0.029448992 -0.07027888 -0.03990288 0.03876341 0.11416374 -0.12282404 0.012714897 -0.24132048 0.13880025 0.31714585 0.036524475 -0.21408428 0.0457487 -0.10444511 -0.058589358 0.035364024 -0.00524698 0.15396161 0.14651214 0.06425467 -0.0017388148 0.08658361 -0.18438819 0.02618382 0.026852967 -0.014357008 -0.052235097 0.035201672 -0.14878704 -0.021837102 -0.040933203 -0.17443262 0.02018523 -0.052663304 -0.23412563 -0.12717997 -0.001006328 -0.028097326 0.0005107075 0.11729509 0.2532293 -0.04498076 0.005104204 -0.05786969 -0.047289535 0.05185176 -0.016089192 -0.041132685 -0.21553808 -0.14324754 -0.034718707 -0.044210166 0.03173935 0.029552521 0.14893171 0.004717143 -0.118307814 0.0376015 -0.044511113 0.019448088 -0.085726984 0.05236783 0.004773653 -0.0071324958 0.04291308 0.10984548 0.11065748 0.024935171 -0.03318888 0.070214026 0.14642459 0.0041059637 -0.11673104 -0.073769204 -0.05120957 0.027108973 -0.0481129 0.12402629 -0.0074666413 0.005696111 -0.032385666 0.07112599 0.16747189 -0.1462056 0.043111715 -0.08942726 -0.054044086 -0.016260745
put 0.019307114 0.14566901 0.012870133 0.099657536 -0.10119881 -0.1425179 -0.051557854 -0.07667979 -0.052675717 0.05314217 0.06974997 0.065476954 0.064220086 0.017891463 -0.001612487 0.13080055 0.17564698 -0.11536773 0.17093876 -0.14383532 0.09523647 0.07622084 -0.12594604 -0.16323195 -0.15390198 -0.17326419 -0.023417829 -0.17964798 0.092961974 0.17247012 -0.09009346 0.048450857 -0.039132304 -0.01594094 0.050710227 0.124830164 0.1197714 -0.057043776 -0.12103859 0.05415882 -0.08450112 -0.0462149 -0.0057385135 -0.1545869 0.17270592 -0.015940126 -0.19959947 -0.06078356 0.0505357 0.15664233 0.05371192 0.046723485 0.17443249 -0.039513893 -0.17097473 0.026735086 0.14028451 -0.06965541 -0.052899327 -0.07179777 -0.092217594 -0.30173045 -0.05331531 -0.03304429 0.07835577 0.0040832665 0.19078113 0.0943001 -0.122042775 -0.081445284 0.01664758 0.03166761 0.01338876 -0.038106542 0.15018986 -0.13094586 -0.04533366 0.078987494 0.0047550253 0.09380184 -0.07138097 0.023805397 -0.015590079 -0.016242443 -0.08970042 0.052762497 0.003794461 -0.042413317 -0.04218227 0.012080464 0.023560766 -0.10137539 0.017907413 0.1180915 0.1417305 0.024550818 -0.07503835 -0.07940672 -0.044892125 -0.029839737
policy -0.06811758 0.22385235 -0.08580411 0.039984953 -0.09496668 -0.14379244 -0.02625969 -0.18270025 -0.106296904 0.0056239623 0.03985025 0.0008785054 -0.051453587 -0.06587562 -0.0102654295 -0.07280235 0.05460885 -0.10899556 0.15625247 -0.0111041805 0.018442204 0.1485015 -0.15708649 -0.26772162 0.040117193 -0.094970025 -0.028357742 0.059254248 0.18004541 0.14347817 0.15836215 0.03343301 0.050737366 -0.1301542 0.0028977604 0.13062061 0.19382301 -0.14646095 -0.005830818 0.081283465 -0.067733765 -0.033368126 0.092111275 -0.081781365 0.18551148 0.015386281 -0.0924527 -0.06127277 0.10427766 0.022207653 -0.0633683 -0.07749113 0.2597675 -0.10256752 -0.035755567 -0.21925232 0.08217706 0.07209653 0.04398223 0.060649548 -0.0379445 -0.23751882 0.09991348 0.14577894 0.064816885 0.020911032 0.11677836 -0.119201 -0.027808389 0.04179381 -0.0591562 0.082112305 0.015004955 -0.040673826 -0.033607733 -0.028004 0.064135924 -0.06868559 -0.12484795 -0.037704308 -0.09750716 0.029598555 0.008984154 -0.0339658 -0.12336716 0.04521033 0.009469831 -0.0011083782 0.1141123 0.029959619 -0.002815778 -0.015163254 -0.06806074 -0.008189783 0.05803793 -0.10660531 -0.053180724 -0.122594066 -0.10438822 0.05718415
history 0.04186798 0.18852767 0.019902488 -0.027174244 -0.0435901 -0.0772817 0.18859506 -0.136113 0.038478278 0.016507419 -0.03519978 0.01914564 -0.02295158 -0.111072056 -0.029906387 0.14111364 0.09747627 -0.22142749 0.00018311416 -0.10108064 0.11676984 0.03384015 -0.17267479 -0.18233253 0.007083548 -0.14312004 -0.100062184 0.07647 0.062783524 0.1846615 0.1685317 -0.08373902 -0.064528726 -0.06044744 -0.11447006 0.103300855 0.10251008 0.037121788 -0.01614979 0.15223712 -0.15690812 0.019558698 0.008348446 -0.17752764 -0.04176786 -0.034479465 -0.09170619 -0.15036069 0.09669178 0.0064984728 -0.024462143 -0.07833648 0.20499066 -0.18879773 0.15655167 -0.0796478 0.014884141 0.096509874 0.038837377 0.00034722398 -0.08780672 -0.11906064 0.016684746 0.08237771 0.09599849 -0.15942337 0.14584945 0.09035088 -0.14727461 -0.030743888 0.048259553 0.1326149 0.07009257 0.050461628 0.003507328 -0.077080116 0.036276553 0.04963988 0.10550862 0.04319956 0.031038368 0.039366324 -0.0051214504 0.044376336 -0.00407987 -0.06000868 -0.165144 0.037799962 0.06588541 -0.0054507717 -0.014816417 -0.0564948 -0.1156134 0.10011422 0.08622495 0.011789592 0.041509822 0.09840571 0.18363053 0.16287492
process 0.04981369 0.13623555 -0.026446303 0.02107976 -0.0444273 -0.06633029 0.07900169 -0.0010979356 -0.015335329 0.0068491274 0.12963948 0.24533997 -0.13610795 0.057758946 -0.007797438 -0.074405216 0.24234933 -0.15163526 0.13425384 -0.07393486 0.035946675 0.043351706 -0.01557335 -0.23979138 0.0011361702 -0.033302438 0.06615027 0.013956179 0.074286416 0.12189061 -0.041185327 -0.06085296 -0.089654945 -0.1342276 0.0075999605 0.14231886 0.15561736 0.058364186 -0.06325195 0.073641345 0.0029472862 0.024231374 -0.04729591 -0.0042885994 0.19881241 -0.010653656 -0.11457987 0.04442178 0.1006923 0.11089195 0.10537791 0.07225202 0.2021107 -0.1461866 -0.12579913 -0.050380554 0.19771022 0.0345376 0.041426193 0.028200667 0.026644811 -0.23112032 0.085200995 0.0107082585 0.12815964 0.06019732 0.09514162 -0.060463566 -0.17899773 -0.04573004 -0.061841223 0.1493784 0.025400488 0.04421679 0.06349792 -0.13811256 0.08616371 -0.005142986 -0.027512832 0.15964642 -0.11776595 0.049732015 -0.0932927 -0.09719536 -0.08783728 0.08039211 -0.055523627 -0.11306472 0.12229167 0.06438624 0.12683323 -0.10171387 -0.14327899 0.013771947 0.010457832 0.056660876 -0.08211203 0.05512411 -0.04024761 0.017041344
water 0.018687792 0.23096986 0.07971189 0.15375622 -0.06655128 -0.13860162 -0.07309246 0.08374793 -0.09189904 -0.006215172 -0.13495971 0.038818944 -0.01710593 0.029267002 0.046847958 0.10583442 0.024965683 0.018034339 0.15312254 -0.16080506 0.020955494 0.048570365 -0.010303852 -0.05668499 -0.014156765 0.08206484 -0.10988175 -0.1646706 0.0016151094 0.19092175 -0.014978406 -0.041122366 -0.019893179 -0.022610838 0.038586587 0.14721432 0.0001160743 0.08556331 -0.17394307 -0.046268776 -0.010977439 0.1188909 -0.08355647 -0.15158015 0.28266424 -0.049952697 -0.20017289 -0.11505505 0.117960565 0.101427004 0.0006805403 0.053878654 0.08753624 -0.03365334 0.0020786405 0.056020334 -0.018311817 -0.026699547 0.065142505 0.00013625681 -0.023288978 -0.14439966 0.04589349 0.17463972 0.013305249 0.01590322 0.16779351 -0.005131402 0.042379126 -0.21076009 -0.10582223 0.11036471 -0.059883505 0.03139187 0.092024475 -0.24742264 -0.064063005 -0.0043240045 0.07052885 0.14009532 0.03259451 0.10392472 -0.02937354 -0.09347925 -0.091259934 -0.002678945 0.01744769 -0.17255285 0.13658972 0.20547886 0.050546717 -0.043108188 0.056857433 0.07856614 -0.118396014 0.017684422 0.04819629 -0.024843736 -0.004401541 0.040128723
design 0.05356648 0.18426068 0.019840023 0.15901497 -0.084739566 -0.110969506 0.021549424 -0.012608927 -0.022589402 -0.036471315 0.13034968 0.1369844 -0.15956724 -0.13198465 0.056757014 0.064159594 0.18891355 -0.1747823 0.17854746 -0.12391092 0.049297415 0.03234942 -0.024497913 -0.056006633 -0.0821749 -0.0075912764 0.03168085 0.017790971 0.14251035 0.13740791 0.111677825 -0.1626239 -0.054766197 0.0016596421 -0.02375676 0.05454785 0.23350285 -0.044273652 0.038498003 0.084423535 -0.058644943 0.024175068 0.06106926 -0.2156744 0.09838292 0.020747354 -0.19527492 0.0032081483 -0.011029351 0.010431484 0.13079642 -0.024603354 0.116066806 0.0037616554 -0.063656986 -0.015821353 0.033746224 -0.056002166 -0.0038996346 -0.040135812 -0.15308562 -0.10771819 0.01761703 0.018655889 0.04794941 -0.025771689 0.08364125 0.02587341 -0.080004744 -0.14401573 0.022875223 0.10016732 -0.029764783 0.122731775 -0.11670954 -0.017086908 0.11749246 -0.065270305 0.003963014 0.0694581 -0.047207735 0.028039414 0.052826755 -0.13809058 -0.1692135 0.20692489 -0.105498016 0.00525809 0.27167767 0.089747034 0.06794312 -0.021969872 -0.043307986 0.029996617 -0.002260637 0.052214492 -0.12457764 0.2126852 -0.096719444 -0.0012845
care 0.050514556 0.24671404 -0.07263507 -0.08762454 -0.19549847 -0.29997802 0.008870479 0.023643045 -0.11533538 0.015802778 0.032874636 0.0052188616 -0.086078085 0.027393194 -0.08615811 0.06274341 0.05719497 -0.11764126 0.10569159 -0.15192284 0.15205613 0.21633838 -0.08152761 -0.14813527 0.05219275 -0.10388703 -0.1217481 0.045626022 0.0914064 0.058515128 0.09967761 -0.06440112 0.056887016 -0.040708702 -0.018019205 0.16967589 0.03687574 -0.041296013 -0.058237795 0.1053908 0.013144444 -0.031862117 -0.023784133 -0.019815255 0.025232863 -0.081757724 -0.29407927 -0.02512055 0.008857087 -0.0019035673 0.048577316 0.115814745 0.17870335 -0.09548589 -0.07627702 -0.101298355 0.046481844 0.078414306 -0.08666763 -0.025053382 -0.016214158 -0.07417522 0.10400784 -0.049647454 -0.10251248 0.021148587 0.19228756 -0.1341818 0.030987028 -0.004821833 0.05458657 -0.11935022 -0.014270485 0.08587197 0.06024687 -0.13700096 0.05594744 0.14342424 0.015961008 0.046470124 -0.13655363 0.096506156 -0.06112092 -0.15331174 -0.1334524 0.03412201 0.040528968 0.0981157 0.102014184 0.15218167 0.030105708 -0.022376005 0.046068944 0.028935531 0.08839363 -0.107029736 -0.01229192 -0.0785282 -0.07638069 -0.052690428
god 0.09293676 0.14766306 -0.027174123 0.051887326 -0.018374875 -0.17258948 0.10489853 -0.01786527 -0.13109738 0.07833302 -0.026062712 -0.11773168 -0.07649211 -0.07517042 -0.0044369977 0.12693036 0.1780941 -0.087888815 0.051255617 -0.14297433 -0.022883961 -0.0023602284 -0.11290209 -0.17409246 -0.044962067 -0.08650657 -0.021750629 -0.039722037 -0.004955547 -0.00270379 -0.012706877 0.04341949 -0.06887606 0.095409244 -0.106113106 0.2142796 0.049063805 -0.007879484 0.02135383 0.0037048694 -0.03142047 -0.099539176 -0.029666016 -0.076842114 0.21000789 -0.2508743 -0.058555286 -0.21436997 0.15479091 0.05346558 -0.019902706 0.24330662 -0.018506672 0.10779977 -0.17902896 -0.0016435218 -0.0063091614 0.11773276 -0.15785824 0.00584463 0.036241762 -0.21633276 -0.10468941 0.028907796 -0.15159628 -0.07475154 0.13447966 -0.02744768 -0.10298106 0.014815092 -0.0018448089 0.033290926 0.095538735 -0.11537985 0.16290009 -0.046892915 -0.036236487 0.0619551 0.09279753 0.031173997 0.044139512 0.008461602 0.06811396 0.095029384 -0.08540316 -0.084139146 -0.12824506 0.133042 0.0009973064 0.07760975 -0.075174496 -0.09545023 -0.068359464 0.09953851 -0.036276884 0.1288373 -0.095572524 -0.05281875 -0.04133125 0.076269984
office -0.033421386 0.18433851 0.046009406 0.18225145 -0.102169864 -0.14996609 0.072578035 -0.08422778 -0.04402178 -0.11809541 0.08629291 0.16865164 -0.08298005 -0.06721057 0.034238007 0.13884799 0.22912358 0.008908611 0.14482461 -0.104145885 0.09283379 0.24547544 -0.039456643 -0.15660802 -0.04430357 -0.1891957 -0.059510592 0.029548988 0.14311698 0.022250425 0.15494412 0.13508324 0.021910073 0.082953766 -0.007714045 0.14568652 0.091720834 -0.032781754 0.047954768 0.12466892 -0.08698266 0.007046955 -0.051474337 -0.09896761 0.19234304 0.102305226 -0.0020020118 -0.092918485 -0.096691266 -0.027644007 0.0031458328 -0.041715354 0.22039777 -0.11593717 0.056938704 -0.13985294 0.0032679942 0.0075897654 -0.00953147 0.12425472 0.07866413 -0.21918356 -0.073438235 0.106533796 0.060344465 0.025141522 0.038423553 0.004067866 0.046881825 0.09609355 -0.10968086 -0.054397915 -0.07431552 -0.030595114 0.07099583 -0.07890778 0.025854439 0.019807065 0.06862208 -0.0060426225 -0.051354833 -0.015696779 -0.018007902 -0.050087757 -0.24661772 0.064951 -0.021435546 -0.036189947 0.12765938 -0.13153124 0.09376978 -0.048301697 -0.022365661 -0.0014823056 -0.006479457 -0.12530033 0.05894077 -0.020086031 -0.04646672 -0.07248833
music 0.17153996 0.069318816 0.018534947 0.20668863 -0.016266089 0.008597276 0.0663998 -0.0602749 -0.0655604 -0.108168736 -0.0074370834 0.04712699 0.08061384 -0.16920274 -0.034836017 0.119480476 0.17305066 -0.2281991 0.10595262 -0.08147382 -0.088602975 -0.011813611 -0.15328354 -0.1907546 -0.04500038 -0.20229295 -0.08033032 0.046861608 0.0073122904 0.008849823 0.025859153 -0.15760139 -0.13552682 0.07576083 -0.06530176 0.056344263 0.042620365 0.06168248 -0.014074499 0.05305594 -0.17119427 0.11639794 0.07177777 -0.28658637 0.04845222 0.12906185 -0.12098304 -0.13917358 0.0042143837 -0.11671948 -0.042806223 0.21372108 0.13481435 -0.09584402 0.013564181 -0.02871941 0.1038821 -0.016721366 -0.21245769 -0.0069806986 -0.011983686 -0.049270075 -0.027631594 0.08941968 -0.058997978 -0.06003589 -0.01719521 0.08865562 -0.1677763 -0.09900689 0.17292921 0.07715271 -0.05996966 0.029139662 0.044632856 -0.03944881 0.1241244 0.11622809 0.09255144 -0.054167703 0.006485358 0.14311026 0.05002114 0.012984531 0.053942166 0.03850025 -0.009204652 0.052056823 0.101601824 0.021930689 -0.09687067 0.014229 0.063036725 -0.016714122 0.007904065 -0.15888166 0.006306103 -0.0373843 0.025810624 0.010401495
